2088 64
</s> 0.006254 0.006905 -0.005985 -0.005122 0.002135 0.004720 0.001470 0.000330 -0.005630 0.003466 -0.006807 0.001952 -0.001174 -0.001496 -0.005181 -0.002941 0.004030 0.004727 0.004639 0.002496 0.002414 -0.005942 -0.006400 0.007765 0.005939 0.004828 -0.000944 0.006274 -0.000773 0.001148 -0.000233 -0.004661 0.002050 -0.002090 -0.005977 0.007428 0.006843 -0.001711 -0.000353 0.000796 -0.005684 -0.006261 0.007117 0.000098 -0.004035 -0.004753 -0.004807 0.002651 0.000315 0.002080 -0.006584 -0.005950 -0.000203 0.001787 0.003984 -0.004953 0.006374 0.001448 0.001750 -0.000951 0.004666 -0.003575 -0.003277 0.003372 
aQ15717 1.318041 0.318350 -0.415580 -1.062657 0.224989 0.778794 0.468104 0.148303 1.780642 -0.136815 -0.494660 0.363804 -0.264710 0.438882 -1.470572 -0.459848 0.078930 -0.260651 0.170199 0.088648 -0.003517 -0.230225 0.113625 -0.451065 0.438222 0.200963 0.151626 0.223823 0.015985 0.248529 0.165104 -0.245108 0.013831 0.192313 -0.072374 0.011336 0.021063 0.082382 0.122254 0.213011 -0.306174 0.117579 0.038847 0.073113 0.069403 0.124148 0.069055 -0.022657 0.038764 -0.113380 -0.038792 0.041048 -0.046530 0.046064 -0.063594 -0.197709 0.024328 0.101832 0.006906 0.228891 -0.111271 -0.082984 -0.240488 0.229394 
aQ13148 0.998361 0.339741 0.035034 -0.773144 0.263286 1.012066 0.527970 0.149955 1.549165 -0.529928 -0.756209 -0.038266 -0.465384 0.564480 -1.421790 -0.811362 0.281624 -0.258202 0.172206 0.189581 -0.207643 -0.000457 0.081146 -0.386158 0.392561 0.106072 0.151172 0.002771 -0.125529 -0.012078 0.122873 -0.449933 0.281842 0.079075 0.078828 -0.004797 -0.093403 0.177290 0.393389 0.177024 -0.288310 0.028809 -0.028857 -0.028732 0.140073 0.088945 -0.122462 -0.090765 -0.188409 -0.062317 0.101415 0.166227 0.083585 0.176579 0.144464 -0.089342 -0.156289 0.177486 -0.180415 0.095983 -0.096836 -0.159770 -0.214605 0.039490 
aO00425 1.351512 0.313302 -0.403102 -1.082879 0.270790 0.714419 0.425004 0.143158 1.837764 -0.238567 -0.487606 0.303982 -0.107222 0.461498 -1.402164 -0.451677 -0.009850 -0.266124 0.202720 0.080983 -0.073763 -0.212681 0.090798 -0.397952 0.456002 0.123588 0.293276 0.206128 0.016190 0.157360 0.192669 -0.288781 0.016975 0.221399 -0.044856 0.064493 -0.053327 0.049644 0.124098 0.210142 -0.353381 0.101637 -0.014951 0.108115 0.109399 0.111531 0.100511 -0.019717 0.036750 -0.049857 -0.077774 0.050788 -0.043608 0.054173 0.015581 -0.245898 0.043474 0.124641 0.012130 0.198374 -0.078729 -0.050909 -0.219964 0.139184 
aQ9Y6M1 1.355503 0.349738 -0.385387 -1.069997 0.271115 0.768280 0.466848 0.155517 1.822050 -0.119827 -0.455655 0.288961 -0.181729 0.481353 -1.396699 -0.438218 -0.039810 -0.271987 0.223476 0.093249 -0.034520 -0.220282 0.162555 -0.430673 0.430865 0.138534 0.214381 0.270782 0.078282 0.127523 0.190619 -0.277015 0.030510 0.225248 -0.041352 0.089941 -0.037318 0.110674 0.161511 0.219904 -0.307293 0.092285 -0.061059 0.105095 0.037859 0.085427 0.149821 -0.010615 -0.002162 -0.023932 -0.089548 0.049947 -0.037042 0.032924 0.002524 -0.203020 -0.016048 0.122258 0.066768 0.211763 -0.137093 -0.149104 -0.208523 0.174209 
aP35637 1.320857 0.476404 -0.335071 -1.250955 0.253213 0.709627 0.299937 0.071022 1.936565 -0.080044 -0.565721 0.313513 -0.386803 0.430279 -1.225334 -0.498257 0.071795 -0.250954 0.222327 -0.109660 -0.080422 -0.176814 0.279626 -0.418367 0.324723 -0.019527 0.000836 0.041006 0.222132 0.180496 0.024450 -0.321032 -0.100430 0.387186 -0.066498 -0.036296 -0.222911 0.025440 0.172338 0.067277 -0.330236 0.089145 0.094296 -0.076731 0.186941 -0.015975 -0.002428 -0.032381 0.077224 -0.139918 -0.312164 -0.076685 -0.052301 -0.101087 0.130424 -0.335779 -0.053146 0.118501 -0.136004 0.233072 -0.035529 0.052739 -0.299673 0.156437 
aQ9NZI8 1.410761 0.484243 -0.417267 -1.062162 0.175500 0.923608 0.340536 0.171358 1.759448 -0.337655 -0.384582 0.136986 -0.067890 0.469708 -1.391670 -0.408232 -0.054146 -0.298146 0.215884 0.122050 0.077947 -0.087462 0.073730 -0.391500 0.387046 0.051522 0.201519 0.124583 0.059817 0.176210 0.178067 -0.331715 -0.032664 0.267711 0.002357 0.085705 0.013637 0.054271 0.138759 0.335942 -0.313843 0.193033 -0.217587 0.096091 0.148932 0.035140 0.150332 -0.027070 0.075548 -0.017503 -0.119548 0.015738 -0.019429 -0.111753 0.045204 -0.172908 -0.049711 0.123627 -0.086444 0.283303 -0.119670 -0.164737 -0.154195 0.089126 
aQ07955 1.189828 0.516846 -0.453459 -1.118617 0.232964 1.128256 0.410760 0.478988 1.737463 -0.242146 -0.658230 0.189631 0.107216 0.325203 -1.426558 -0.302199 -0.039311 -0.257774 0.124977 -0.067069 0.045397 0.079398 0.214970 -0.562103 0.557936 -0.018238 -0.143602 0.121390 -0.018199 0.284158 0.307779 -0.420838 0.016034 0.234983 -0.161945 -0.052093 -0.045360 0.015324 0.051249 0.298226 -0.172137 0.206577 -0.123028 0.152981 0.200221 0.044320 0.031215 0.023117 0.139095 0.004896 -0.099669 0.052458 0.004566 0.104272 -0.115718 -0.272474 0.017604 0.091014 -0.062847 0.316057 -0.010402 -0.158657 -0.279497 0.144495 
aP31483 0.982638 0.100054 -0.150914 -1.155384 0.142624 0.931713 0.528082 0.526104 1.608755 -0.550323 -0.372414 -0.020181 -0.449134 0.536779 -1.383797 -0.408943 0.051169 -0.181838 0.247624 0.160020 -0.030583 -0.172263 0.111141 -0.628409 0.341866 0.091089 0.231826 0.322186 0.068052 0.107628 0.176187 -0.132331 0.127847 0.089788 0.055835 0.167667 -0.016486 0.174856 0.249280 0.102071 -0.467829 0.190517 -0.060528 -0.043868 0.167272 0.172098 0.068789 0.014132 -0.012738 -0.133122 -0.007286 0.344663 -0.258363 -0.172960 0.006001 -0.379336 -0.115127 0.176623 0.018124 0.052242 -0.193019 0.191286 -0.251466 0.072799 
aQ01844 1.041367 0.338354 -0.331858 -1.184731 0.238102 0.839930 0.464006 0.382148 1.723017 -0.418857 -0.274823 0.039011 -0.485186 0.436060 -1.358433 -0.682098 0.152015 -0.331290 0.084334 0.004435 -0.063779 -0.119592 0.278211 -0.304396 0.434517 0.111746 0.080536 0.040474 0.221006 0.079979 0.220895 -0.321062 -0.058432 0.098404 0.019651 0.153840 -0.136096 0.038542 0.271715 0.019487 -0.293549 -0.011194 0.025766 -0.216209 0.040582 0.134675 0.017810 -0.101040 -0.082931 -0.063764 -0.300965 0.074900 0.146954 -0.045995 0.118027 -0.311578 -0.254900 0.169706 -0.155856 0.124339 -0.081795 0.056252 -0.255966 -0.031433 
aP26599 1.025887 0.423605 -0.493368 -1.048353 0.206827 0.906124 0.463518 0.190908 1.897208 -0.202423 -0.567463 0.243659 -0.211097 0.636239 -1.323118 -0.277061 0.012412 -0.385271 0.141096 0.186529 -0.037079 -0.276761 0.157045 -0.499681 0.358619 -0.064023 0.318362 0.367475 0.085154 0.164010 0.151350 -0.116242 0.277538 0.273315 0.023916 -0.207194 0.021001 0.053461 0.065591 0.158707 -0.402738 0.305232 -0.083742 -0.044791 0.282416 0.178660 0.177274 0.060182 0.013419 -0.302504 -0.045890 0.117511 -0.040273 -0.053740 0.243260 -0.461324 0.065834 -0.077457 0.043880 0.176763 -0.444675 -0.023880 -0.200353 0.435169 
vNONHSAT113149.2 -0.070872 0.008817 0.041570 0.296439 0.244411 0.244088 0.363112 -0.475977 -0.274964 -0.271620 0.035316 0.144824 -0.266497 -0.043692 0.122281 0.004049 0.123072 0.237500 -0.216704 0.105263 0.233440 0.162460 -0.119879 0.000571 -0.514550 -0.480777 -0.035493 -0.103131 0.100638 0.308136 0.390198 0.596488 -0.201731 0.096929 -0.095106 0.051119 0.052693 -0.351216 -0.495091 -0.427711 -0.074855 -0.108581 0.172570 0.083184 -0.629589 0.107197 0.068335 0.054461 -0.287545 0.009455 0.383104 0.152084 -0.229245 0.159512 0.200725 0.236573 -0.378734 0.723337 -0.192109 -0.523556 0.028317 0.025387 -0.460876 0.042050 
vNONHSAT130962.2 0.269350 -0.034293 0.191101 0.190606 0.131069 0.027200 0.046821 0.127166 -0.170984 -0.056213 -0.148887 -0.061639 -0.149230 0.202546 0.088118 0.185054 0.111120 -0.125903 -0.054326 0.047640 0.078534 0.065359 0.027767 0.058553 -0.304487 0.060497 0.041409 -0.025101 -0.042664 -0.142433 0.093578 0.420421 -0.190537 -0.187041 -0.050720 -0.289070 -0.031607 -0.378022 -0.258720 -0.444205 0.076595 -0.099411 0.051528 0.113565 -0.308519 0.201877 0.115793 0.116319 -0.438306 0.028506 0.145946 0.047988 -0.276160 0.068173 0.398859 -0.201124 -0.273733 0.360981 -0.260586 -0.304993 0.026516 -0.137598 -0.572602 -0.021910 
aQ92804 1.106017 0.220048 -0.278514 -1.217951 0.133514 1.019874 0.445245 0.380706 1.555024 -0.590541 -0.289344 -0.201705 -0.324352 0.451173 -1.406989 -0.614885 0.010639 -0.283290 0.008521 0.044556 0.076110 -0.008493 0.011637 -0.345305 0.401433 0.135024 0.136622 0.111005 0.093552 0.037082 0.275420 -0.291963 -0.084423 0.036206 -0.084940 0.128207 0.083463 0.198394 0.200004 0.185484 -0.313039 0.169244 -0.076060 -0.305696 0.147292 -0.021788 0.012248 -0.190791 0.038063 -0.001131 -0.002839 0.044520 0.095863 -0.009320 -0.039896 -0.166601 -0.290465 0.175847 -0.131281 0.178834 -0.148588 -0.164943 -0.365946 0.019912 
aQ9HCE1 1.341447 0.750119 -0.029872 -0.687590 0.213725 1.074204 0.129922 0.153982 1.782490 -0.390814 -0.613003 0.216504 -0.354300 0.466199 -1.257493 -0.549903 0.070437 -0.171645 0.227629 0.234148 0.034474 -0.055455 -0.053557 -0.594294 0.394695 -0.041393 0.173441 -0.094010 -0.121159 -0.026191 0.003015 -0.414800 0.333349 0.284453 0.026880 0.116004 -0.126826 0.029625 0.206550 0.376400 -0.297658 0.337908 -0.187691 0.169313 0.060008 -0.233392 -0.053681 -0.036214 -0.224424 -0.180612 0.004125 -0.011868 0.191924 0.124208 0.062800 -0.144495 0.036433 0.281928 -0.231829 0.327881 -0.046509 -0.096662 -0.141031 0.115546 
aQ9UL18 1.406016 0.469091 -0.424734 -1.017246 0.126526 1.069610 0.394961 0.166601 1.744078 -0.399440 -0.452191 0.303334 -0.185164 0.504457 -1.332081 -0.336484 0.085717 -0.174099 0.186718 0.049518 -0.135478 0.004355 0.006153 -0.264309 0.439685 0.045202 0.221583 0.152838 -0.002489 0.179583 0.186901 -0.352927 -0.194681 0.150686 -0.120905 0.089937 -0.073921 0.071094 0.194675 0.392470 -0.293048 0.165421 -0.236084 0.096362 0.134193 -0.078137 0.224334 0.057612 0.058139 -0.004497 -0.048977 0.045837 0.143465 -0.159832 -0.023655 -0.315113 0.022610 0.111523 0.003396 0.370896 -0.201518 0.085900 -0.259368 0.080847 
aQ9UKV8 1.420762 0.396454 -0.391916 -1.039587 -0.077980 1.028074 0.285958 0.183509 1.896377 -0.333705 -0.432291 0.294541 -0.143545 0.321799 -1.227737 -0.517049 -0.060259 -0.286449 0.115950 0.038794 0.099300 -0.078683 0.062001 -0.458647 0.279028 0.198721 0.078697 0.133129 -0.069668 0.375456 0.210543 -0.357344 -0.033849 0.248224 -0.115775 0.072983 0.040063 0.099093 0.168757 0.301671 -0.392958 0.107875 -0.210225 0.033515 0.131489 0.059643 0.185264 -0.097202 0.153063 -0.152005 -0.184496 0.082367 -0.083280 -0.144236 0.031376 -0.182715 0.195808 -0.036563 -0.285997 0.074799 -0.139503 -0.225041 -0.242294 0.040998 
aQ96PU8 1.416247 0.411539 -0.358818 -0.963933 0.194160 0.850007 0.378098 0.209090 1.612068 -0.539003 -0.654140 0.353936 -0.077007 0.589600 -1.556562 -0.331558 -0.136286 -0.184627 0.131786 0.002894 0.043105 0.016599 0.259974 -0.537161 0.367960 0.074134 0.228705 0.129593 0.086039 0.192429 0.185907 -0.284508 0.067421 0.349574 -0.092598 0.115484 0.062633 0.062288 -0.002191 0.164786 -0.389728 0.186503 -0.176884 -0.090671 0.148299 0.023037 0.064296 -0.103012 0.150088 -0.089279 -0.300428 -0.094285 0.161430 -0.183842 0.153525 -0.048555 0.186415 0.274336 0.168616 0.270642 -0.329446 -0.132688 -0.178880 -0.114462 
aQ8NDV7 1.352347 0.480380 -0.405940 -1.116976 0.229581 1.044761 0.301446 0.104564 1.726425 -0.615058 -0.430216 0.293279 -0.131975 0.602590 -1.262999 -0.337908 -0.148705 -0.299416 0.419598 -0.044067 0.230213 -0.140176 0.293433 -0.488089 0.377395 -0.009817 0.215200 0.122216 0.043737 0.348875 0.062226 -0.310964 -0.074702 0.154520 -0.098884 -0.081081 0.044126 0.195458 0.232952 0.313090 -0.262581 0.070168 -0.079050 0.188213 0.088085 0.001458 -0.059871 -0.166742 0.138297 0.138276 -0.080798 0.072058 0.163760 -0.110470 0.160383 -0.178938 0.032049 0.190656 -0.067967 0.280363 -0.066124 -0.027940 -0.178610 0.242418 
vNONHSAT036719.2 -0.175316 0.190413 -0.030856 0.447471 0.190150 -0.314988 -0.271993 0.031252 -0.002400 -0.308960 -0.072647 0.317984 -0.091539 0.040881 0.286764 -0.497203 0.103632 -0.000434 0.159200 0.441417 0.120295 0.233322 -0.406456 -0.089881 -0.575540 -0.249170 0.060930 -0.152725 0.056025 0.403571 0.004325 0.446769 -0.178547 0.013024 -0.201866 -0.192770 -0.296696 -0.094975 0.078140 -0.496961 0.912954 0.524193 0.089617 0.060828 -0.735907 0.250997 -0.126309 0.017163 -0.696561 -0.316952 0.400420 0.239544 -0.027655 0.056903 0.235558 0.252736 -0.287616 0.346607 -0.185271 -0.400691 0.079621 -0.261179 -0.570363 -0.370712 
aO43251 1.242035 0.658733 -0.652290 -0.980970 0.360413 0.894773 0.485263 0.390415 1.682318 -0.275019 -0.365266 -0.025561 -0.100799 0.450593 -1.544658 -0.336236 0.306757 -0.360679 0.208652 0.221055 -0.025411 -0.072483 -0.061517 -0.245603 0.613078 -0.074462 0.105806 0.070331 0.111191 0.002958 0.254413 -0.318218 0.036730 0.226844 0.103521 0.109419 -0.020396 -0.216143 0.130927 0.459268 -0.228662 0.234114 -0.249254 0.205656 0.216183 0.053067 0.178503 0.226936 -0.178656 -0.140509 0.039174 0.029922 -0.127342 -0.104717 -0.218758 -0.249382 -0.292028 -0.043238 0.039053 0.306370 -0.091051 -0.188839 -0.183680 0.292390 
aQ99575 1.174128 0.172713 -0.257020 -1.216563 0.444226 0.632362 0.460594 0.244255 1.942527 -0.087239 -0.666243 0.321902 -0.534846 0.482224 -1.240044 -0.538714 0.062121 -0.265955 0.240627 -0.017592 -0.171017 -0.337283 0.147984 -0.357945 0.353551 0.007874 0.349538 0.405982 -0.021577 0.024581 0.209198 -0.339177 0.163390 0.116746 0.062542 0.030477 -0.149995 -0.045368 0.162618 0.021114 -0.333904 0.058291 0.081238 0.099162 0.025224 0.159017 0.035475 -0.110208 -0.007793 -0.113137 -0.092632 0.088901 -0.045996 0.014632 0.125173 -0.229798 -0.016235 -0.005613 0.036993 0.121431 -0.167061 -0.159202 -0.191947 0.222448 
aQ9H633 1.187391 0.116894 -0.261746 -1.142431 0.466010 0.635249 0.486716 0.202727 2.013252 -0.086659 -0.664158 0.242680 -0.469723 0.515342 -1.222243 -0.517223 0.124853 -0.231783 0.245181 -0.002745 -0.144362 -0.261028 0.232206 -0.309076 0.371981 0.063638 0.383084 0.418365 0.054451 0.043945 0.121761 -0.248727 0.239925 0.120186 -0.020476 0.076690 -0.169935 0.090549 0.095029 0.091953 -0.361217 0.039952 0.084200 0.069232 0.083623 0.145956 0.077318 0.080672 -0.020933 -0.143755 -0.149770 0.091540 0.000506 0.047544 0.136871 -0.174035 -0.013817 0.012192 -0.023407 0.096129 -0.067551 -0.112840 -0.210959 0.236147 
aO75817 1.197226 0.174573 -0.291387 -1.177617 0.424926 0.625681 0.529022 0.229582 1.900781 -0.055476 -0.637019 0.330951 -0.476441 0.530450 -1.289641 -0.558567 0.096659 -0.222312 0.306426 -0.107344 -0.184010 -0.305453 0.106245 -0.350540 0.356156 0.010969 0.396690 0.338089 0.091343 -0.012113 0.222483 -0.321759 0.206990 0.148976 0.027026 -0.045300 -0.060020 0.112349 0.065937 0.097597 -0.340103 0.089623 0.152248 0.073570 0.042392 0.111805 0.058946 0.030337 -0.087690 -0.096808 -0.154114 0.179353 -0.040044 0.046730 0.112375 -0.244527 0.026425 -0.017620 -0.088767 0.120249 -0.159458 -0.134873 -0.141053 0.171839 
aQ9BUL9 1.243632 0.108787 -0.231984 -1.182229 0.426192 0.688697 0.509526 0.184175 1.920878 -0.086697 -0.600305 0.307608 -0.479756 0.472427 -1.242368 -0.499583 0.077310 -0.180813 0.282095 -0.013871 -0.161885 -0.212301 0.156109 -0.288403 0.513726 0.069880 0.418799 0.362502 0.080843 0.053015 0.095471 -0.315950 0.235863 0.169668 0.003322 -0.056882 -0.178111 0.066331 0.105083 0.063616 -0.322486 0.086779 0.056046 0.017642 0.016180 0.192668 0.029211 -0.022394 -0.089749 -0.138816 -0.119812 0.058266 -0.050252 0.053165 0.120584 -0.309503 -0.008468 0.009818 0.019500 -0.001601 -0.130730 -0.154242 -0.129172 0.244585 
aO95707 1.216349 0.239843 -0.211312 -1.207793 0.471900 0.583839 0.505777 0.212470 1.935662 -0.132475 -0.645723 0.320873 -0.471380 0.420434 -1.281990 -0.507739 0.065567 -0.194598 0.231430 -0.041449 -0.140447 -0.235081 0.222669 -0.272066 0.397670 0.061880 0.397821 0.361434 -0.019949 -0.031560 0.165260 -0.299693 0.192846 0.207342 0.058884 -0.063347 -0.043017 0.042607 0.201512 0.062506 -0.301391 0.070002 0.112413 0.060314 0.034025 0.143575 0.145742 0.024298 -0.004393 -0.162643 -0.177376 0.165304 -0.011516 0.069673 0.077457 -0.221595 -0.039381 -0.005738 -0.005822 0.007372 -0.129639 -0.065652 -0.213659 0.257356 
aP78345 1.263732 0.102739 -0.233376 -1.149707 0.454467 0.586785 0.549495 0.236067 1.943767 -0.137313 -0.668144 0.316449 -0.494110 0.484389 -1.226177 -0.542672 0.048082 -0.245806 0.294200 -0.056269 -0.114008 -0.268190 0.120269 -0.274932 0.399527 0.012144 0.325386 0.349287 -0.005989 0.058439 0.229480 -0.239343 0.228797 0.230215 -0.016315 0.076569 -0.054202 0.092672 0.143235 0.025022 -0.228248 0.039056 0.042239 0.023935 0.074256 0.155004 0.071252 -0.016851 -0.087973 -0.167965 -0.128304 0.128595 -0.062212 0.079015 0.148739 -0.312861 0.000301 0.007088 -0.015173 0.138455 -0.103739 -0.102194 -0.090195 0.309915 
vNONHSAT017465.2 -0.135662 -0.560926 0.071122 0.392354 -0.570819 -0.330146 0.179588 -0.022719 -1.033482 -0.281542 -0.050474 0.570810 0.525926 0.389625 0.637469 0.700404 -0.013444 -0.232932 0.182822 -0.218330 0.695195 0.156913 0.104032 0.020136 -0.547663 0.058016 -0.043949 0.985467 0.323252 -0.019092 0.037182 0.786972 0.260365 -0.302466 0.176076 -0.732809 0.205284 -0.946856 -0.168125 -0.716282 -0.404801 -0.285272 -0.064895 -0.115199 -0.517979 0.471646 0.345286 -0.009812 -0.677544 -0.947079 0.474735 0.563929 -0.510511 0.158768 0.463476 -0.325734 -0.599516 0.980660 -0.980596 -0.167961 -0.657669 0.749398 -0.611233 0.568854 
aP17735 0.543337 0.145889 0.034270 -1.295514 -0.027451 0.868139 0.673586 0.469414 1.460294 -0.905498 -0.228367 -0.593316 -0.794416 0.486718 -1.388571 -0.791708 0.231417 -0.076292 0.220614 0.061914 -0.170255 -0.059129 0.134791 -0.419316 0.389527 0.297178 0.121367 -0.045258 0.052669 -0.102066 0.261842 -0.232528 -0.002953 0.106135 -0.016447 0.031484 -0.033715 0.063442 0.186763 0.050685 -0.188315 0.030819 -0.046575 -0.084141 0.018326 0.054164 0.013882 -0.026072 0.053519 0.036675 -0.052383 -0.000437 -0.081449 0.050174 0.141787 -0.196536 -0.125173 0.246031 -0.096746 0.029510 -0.077096 -0.122547 -0.295858 0.011333 
aQ9BXP5 0.565677 0.099862 0.109557 -1.267360 -0.033607 0.849453 0.612580 0.509542 1.444716 -0.923263 -0.256190 -0.542944 -0.754180 0.538207 -1.357919 -0.852224 0.252746 -0.050573 0.218440 0.205501 -0.171314 -0.097484 0.137552 -0.401796 0.429621 0.198647 0.059379 0.042392 0.168323 -0.030856 0.273406 -0.340875 -0.062214 0.104746 -0.011930 -0.016780 0.110234 0.112457 0.171398 0.015812 -0.240769 0.059976 -0.032153 -0.136424 0.043571 0.017615 0.114022 -0.036901 -0.038121 -0.016672 0.014675 -0.021710 -0.008618 0.040140 0.124277 -0.124107 -0.151654 0.216358 -0.124903 0.031344 -0.010078 -0.032281 -0.334101 0.040347 
aP05455 0.581560 0.159052 0.105316 -1.325011 -0.089666 0.847392 0.697791 0.532169 1.444976 -0.918652 -0.220651 -0.492954 -0.745554 0.463327 -1.382301 -0.861658 0.226061 -0.018296 0.228370 0.190222 -0.158330 0.007909 0.110055 -0.330085 0.406092 0.106968 0.045448 0.037354 0.130827 -0.085582 0.212669 -0.221885 -0.072245 0.034204 0.022256 0.028573 0.027455 0.098221 0.223959 0.094706 -0.297169 -0.016072 0.085430 -0.082476 0.029398 0.061863 0.024180 -0.046074 -0.057202 -0.039978 -0.050149 -0.017295 -0.050188 0.053563 0.111429 -0.143978 -0.081220 0.271984 -0.110101 0.063007 -0.070667 -0.160280 -0.297902 0.025520 
aO94992 0.647539 0.146378 0.122905 -1.273656 -0.066357 0.822171 0.650814 0.591140 1.396545 -0.919460 -0.216053 -0.525256 -0.793163 0.501753 -1.417958 -0.787161 0.320030 -0.090561 0.197081 0.198159 -0.120044 -0.085137 0.180257 -0.343110 0.397625 0.180992 0.059160 0.038025 0.070139 -0.052903 0.294199 -0.174002 -0.018188 0.185436 -0.081315 -0.020760 -0.014019 0.144273 0.228093 0.041241 -0.319571 0.004043 0.067670 -0.056013 -0.004402 0.003747 0.057325 -0.039339 0.017287 0.005439 0.069008 0.002179 0.009657 0.073266 0.155319 -0.170030 -0.148609 0.113220 -0.126319 0.051913 -0.057572 -0.090801 -0.269208 -0.051393 
aP62140 0.601462 0.082691 0.102233 -1.178401 -0.029323 0.879636 0.730110 0.583250 1.421356 -0.950441 -0.172641 -0.467085 -0.735885 0.422099 -1.460664 -0.862144 0.219458 -0.081326 0.328135 0.105226 -0.128011 -0.120187 0.047539 -0.356242 0.351956 0.210861 0.000963 -0.018779 0.132078 -0.150316 0.191424 -0.198275 -0.033703 0.117883 0.024814 -0.012348 -0.040158 0.102636 0.187188 0.043008 -0.300076 0.004850 0.006065 -0.144400 0.115574 0.039481 0.103570 -0.071589 0.003659 0.049519 0.001784 -0.008020 0.040468 0.045487 0.143509 -0.127646 -0.100162 0.184705 -0.126752 0.022475 -0.059433 -0.092721 -0.329249 0.064492 
aQ7L2J0 0.572443 0.092700 0.039094 -1.260163 -0.081729 0.874941 0.697435 0.530652 1.401797 -0.869012 -0.230020 -0.539626 -0.788383 0.574089 -1.396277 -0.832466 0.240525 -0.026996 0.293938 0.123703 -0.036682 -0.100300 0.161031 -0.310698 0.402929 0.184626 0.062764 -0.027129 0.010530 -0.020178 0.197349 -0.288004 -0.040282 0.128701 0.021317 0.036390 -0.002384 0.066384 0.147081 -0.020683 -0.323274 -0.004406 -0.004418 -0.111345 0.052661 -0.040228 0.098768 -0.068944 -0.015463 -0.071464 -0.019563 0.072407 -0.028880 0.102015 0.034833 -0.222199 -0.161006 0.203953 -0.126436 0.066605 -0.080282 -0.104863 -0.288612 -0.030410 
aP62136 0.663767 0.134430 0.076155 -1.268849 -0.111515 0.850116 0.651840 0.502478 1.369168 -0.891347 -0.206560 -0.540821 -0.784666 0.492596 -1.430659 -0.874232 0.300516 -0.069759 0.203301 0.152168 -0.062079 -0.117283 0.206867 -0.334642 0.436894 0.160481 0.028945 0.040140 0.115802 -0.081409 0.283669 -0.246836 -0.013167 0.066918 0.090036 0.032351 -0.082400 0.071427 0.144599 0.101978 -0.219676 0.033882 0.025631 -0.159736 0.078647 -0.047984 0.076678 -0.065839 -0.020011 0.069729 0.005164 0.074072 -0.043852 0.051978 0.149981 -0.220877 -0.025066 0.230956 -0.064899 -0.065239 0.002138 -0.108690 -0.361642 0.015902 
aQ92994 0.608029 0.066103 0.050910 -1.279442 -0.064980 0.912858 0.697804 0.603876 1.413236 -0.912611 -0.273571 -0.490820 -0.762558 0.507645 -1.319034 -0.819032 0.280904 -0.101611 0.216190 0.223934 -0.091554 -0.180156 0.103961 -0.360633 0.366737 0.196462 0.102933 -0.084290 0.174525 -0.095098 0.281115 -0.237308 0.005210 0.141522 0.041137 -0.062938 -0.014464 0.158968 0.172500 0.126452 -0.217697 -0.092383 0.019364 -0.112207 0.023769 0.025993 0.072486 -0.066157 0.047995 -0.051582 -0.031996 0.011333 -0.042604 0.100448 0.072309 -0.158156 -0.130737 0.262790 -0.028264 0.034926 -0.042707 -0.077880 -0.340861 -0.049417 
aP50750 0.597069 0.021258 0.090865 -1.243721 -0.084461 0.840084 0.629000 0.577754 1.428534 -0.936575 -0.264879 -0.516303 -0.777225 0.551677 -1.435041 -0.827087 0.262677 -0.111838 0.240049 0.123030 -0.073771 -0.114963 0.134757 -0.347182 0.332127 0.152672 0.051426 -0.038085 0.108340 -0.031988 0.286935 -0.257487 -0.017012 0.082946 -0.068421 -0.055350 -0.028798 0.047486 0.262071 0.105489 -0.315147 0.054846 -0.010248 -0.189695 -0.006460 0.010235 0.070423 0.044446 -0.052234 0.044585 -0.071188 0.037464 -0.055327 0.114571 0.055890 -0.109958 -0.123662 0.240067 -0.083461 0.070687 -0.049636 -0.093899 -0.258714 0.061948 
aQ4G0J3 0.543427 0.073234 0.026428 -1.348366 -0.033513 0.868140 0.638711 0.502065 1.339095 -0.946223 -0.260390 -0.437691 -0.760805 0.549095 -1.442355 -0.865134 0.240884 -0.127445 0.247223 0.221295 -0.150411 -0.070005 0.115117 -0.408943 0.330871 0.136440 0.016130 0.026923 0.122745 -0.167241 0.194441 -0.234164 -0.026961 0.133773 -0.041628 0.024854 0.004244 0.102002 0.198134 0.085895 -0.295936 0.023871 -0.069913 -0.121816 -0.045221 -0.010748 0.112062 -0.066462 0.025160 -0.031004 -0.049336 0.051126 -0.028879 0.123759 0.135475 -0.240443 -0.126251 0.159336 -0.108202 -0.015299 0.014528 -0.101646 -0.291185 0.005123 
aQ7RTS3 0.662244 0.171342 0.053708 -1.280031 -0.031254 0.815312 0.645192 0.552348 1.414039 -0.969117 -0.262696 -0.555941 -0.812610 0.502974 -1.369159 -0.767010 0.282758 -0.047217 0.291822 0.198726 -0.177722 -0.104090 0.126626 -0.317455 0.314958 0.216134 -0.032142 -0.037166 0.147447 -0.058439 0.226107 -0.243618 0.020510 0.038295 -0.039807 -0.026152 -0.017888 0.131507 0.124591 0.034199 -0.310710 0.053772 -0.029330 -0.138665 0.056873 0.088327 0.097374 -0.137992 -0.036634 0.042237 -0.064331 0.087940 -0.071127 0.154294 0.073019 -0.206238 -0.097042 0.160222 -0.069863 0.065305 -0.047291 -0.106970 -0.289269 -0.015331 
aP14859 0.669852 0.173513 0.084566 -1.249258 -0.042045 0.816387 0.701570 0.583418 1.380621 -0.943572 -0.278404 -0.546837 -0.796005 0.549213 -1.343494 -0.893752 0.161661 -0.104262 0.189634 0.146956 -0.154192 -0.098712 0.158599 -0.391543 0.410988 0.163766 0.052306 -0.024097 0.050823 -0.073689 0.226109 -0.213346 -0.027292 0.090575 0.006750 -0.016711 -0.094648 0.173459 0.098345 0.090835 -0.317101 -0.034062 -0.042872 -0.223463 -0.054607 0.082337 0.063978 -0.017817 -0.029431 -0.010169 0.023668 0.013745 -0.014114 0.014233 0.027818 -0.189083 -0.101620 0.168243 -0.126761 0.051855 0.002853 -0.097826 -0.304989 0.075659 
aP04637 0.753797 0.129762 -0.384502 -1.278029 0.125787 1.042480 0.428567 0.598963 1.288793 -0.633579 -0.369104 -0.162456 -0.654575 0.411236 -0.975499 0.074324 0.384497 -0.153265 0.283705 0.079250 0.069395 -0.319210 0.044820 -0.807524 0.373870 -0.249289 0.401886 0.618086 -0.031454 0.060235 -0.061498 0.096141 0.618355 0.039219 0.235236 -0.258588 0.029478 0.046918 0.134347 -0.006076 -0.606109 0.364698 -0.162682 -0.190389 0.395851 0.292283 0.307127 0.228834 0.186426 -0.897758 -0.254950 0.405771 -0.483827 -0.530261 0.526826 -0.448786 0.251267 -0.179688 0.113188 0.324172 -0.546506 0.177745 0.112223 0.754322 
aP61011 0.849391 0.755847 0.485855 -0.461209 0.091513 1.247144 0.117950 -0.050579 1.432222 -0.437717 -0.972560 0.005769 -0.492614 0.741700 -1.231863 -1.045562 0.287638 -0.403678 0.242386 0.293178 0.023151 -0.126295 -0.284238 -0.185665 0.628706 0.068806 0.082020 -0.229563 -0.256010 -0.241180 -0.084969 -0.305947 0.680269 0.308633 -0.042868 0.176101 -0.135189 0.180475 0.323435 0.084842 -0.294571 0.382797 0.239461 0.437517 0.074544 -0.005977 0.040511 -0.151204 -0.169534 0.117566 -0.090022 0.172440 0.171329 -0.128218 -0.089899 -0.088982 -0.012911 0.231857 -0.049798 0.235277 0.109864 -0.231250 -0.086793 0.142561 
aP37108 0.798716 0.735275 0.495290 -0.446520 0.086591 1.212988 -0.013878 -0.034043 1.491870 -0.402077 -0.813672 0.030088 -0.517433 0.824350 -1.366076 -1.010713 0.363128 -0.258515 0.199022 0.227837 -0.029633 -0.091712 -0.251248 -0.254609 0.596952 -0.055466 0.132311 -0.287388 -0.361473 -0.231578 -0.109283 -0.320245 0.707733 0.228387 -0.123629 0.108236 -0.149538 0.227482 0.317039 0.197599 -0.267208 0.287919 0.127529 0.456762 0.138179 0.132299 0.103013 -0.272526 -0.145945 0.075856 -0.082465 0.080623 0.129975 -0.117142 -0.113472 -0.073356 -0.043287 0.303453 -0.089967 0.195181 0.115288 -0.243109 -0.107875 0.160513 
aP09132 0.878193 0.760696 0.490326 -0.584333 0.084220 1.176239 0.065230 -0.035097 1.460956 -0.365360 -0.855438 -0.002623 -0.443028 0.823217 -1.194481 -1.074264 0.480181 -0.304131 0.217183 0.234299 0.016332 0.035681 -0.279447 -0.294989 0.615309 0.034211 0.114929 -0.365983 -0.266294 -0.147903 -0.151499 -0.254871 0.759663 0.338936 0.024049 0.168617 -0.164307 0.152821 0.312408 0.068281 -0.277649 0.248820 0.110340 0.405825 0.088316 0.092832 0.089095 -0.176241 -0.167612 0.163415 0.019884 0.229522 0.257830 -0.052074 -0.118680 -0.029835 0.017533 0.281384 -0.055106 0.261703 0.058416 -0.249465 -0.133371 0.204919 
aQ9UHB9 0.866645 0.754399 0.443940 -0.341091 0.085232 1.220536 0.163762 0.014021 1.529493 -0.389196 -0.842957 -0.026565 -0.486768 0.732403 -1.199972 -1.135753 0.443390 -0.322666 0.161921 0.254033 0.015134 -0.035390 -0.236053 -0.349630 0.603609 -0.039527 0.194251 -0.268191 -0.258167 -0.240007 -0.196674 -0.311125 0.718754 0.202484 -0.132642 0.082361 -0.063542 0.118567 0.304874 0.085977 -0.360445 0.308967 0.150239 0.413947 0.122979 0.054530 0.077895 -0.243462 -0.117017 0.195031 -0.056812 0.145140 0.177036 -0.062644 -0.105049 -0.084298 -0.054866 0.238221 -0.007318 0.270145 0.122570 -0.211368 -0.115994 0.146367 
aO76094 0.848537 0.714313 0.599228 -0.478964 0.095261 1.162203 0.099860 -0.065218 1.519975 -0.424981 -0.816740 0.058988 -0.491659 0.788430 -1.192980 -1.020012 0.397387 -0.495321 0.226812 0.212759 0.031672 -0.002519 -0.233470 -0.293465 0.662170 -0.015480 0.072278 -0.376801 -0.302903 -0.198177 -0.098566 -0.313988 0.723242 0.133735 -0.023342 0.114221 -0.172747 0.225416 0.272929 0.117045 -0.307841 0.345713 0.153497 0.422790 0.095891 -0.018050 0.148912 -0.164347 -0.137250 0.086869 -0.009635 0.113838 0.132814 -0.025889 -0.117028 -0.033690 -0.058492 0.260190 0.007950 0.205637 0.021755 -0.249539 -0.110289 0.123641 
aP49458 0.843966 0.770316 0.469200 -0.459771 0.176722 1.214444 0.064673 0.040508 1.475591 -0.389652 -0.930294 0.009706 -0.400926 0.787349 -1.198915 -1.129499 0.351110 -0.259565 0.294729 0.195947 -0.013889 -0.110345 -0.269243 -0.263022 0.619385 0.094497 0.069829 -0.398568 -0.296912 -0.166297 -0.107276 -0.246239 0.751647 0.113697 -0.060889 0.200840 -0.084314 0.173256 0.382163 0.120171 -0.343568 0.316822 0.194570 0.392562 0.072165 0.015768 0.182153 -0.167283 -0.082637 0.119315 0.016748 0.043348 0.154392 -0.082048 -0.032333 -0.108457 -0.042260 0.302375 -0.042015 0.178466 0.057016 -0.233025 -0.046591 0.188926 
aQ8IUX4 0.809254 0.750802 0.473659 -0.468191 0.089164 1.200420 0.008605 -0.039048 1.496175 -0.432751 -0.944491 -0.060439 -0.493572 0.762887 -1.269094 -1.008010 0.378867 -0.383084 0.203786 0.203558 0.019312 -0.000454 -0.354214 -0.353401 0.596083 0.013213 0.141806 -0.219140 -0.211543 -0.122117 -0.213419 -0.405765 0.676855 0.198192 -0.038170 0.193275 -0.136235 0.158076 0.344109 0.120644 -0.262321 0.214446 0.288816 0.434526 0.067531 0.032607 0.222244 -0.216779 -0.212726 0.160217 -0.061225 0.059129 0.167337 -0.035579 -0.100986 -0.109450 -0.018231 0.262010 -0.007671 0.198584 0.021065 -0.247889 -0.093830 0.185087 
vNONHSAT026096.2 0.303787 -0.196473 0.015530 0.127614 0.489379 0.000494 0.087263 -0.008572 -0.136961 0.110076 -0.087026 -0.170079 -0.208911 0.128713 0.108066 0.405512 0.289109 0.106133 -0.285627 0.264649 0.064974 0.094320 -0.177920 0.050227 -0.217110 -0.153598 -0.509879 -0.469931 -0.133288 -0.164112 0.337297 0.708519 -0.410312 -0.198970 0.086220 -0.218321 0.172583 0.029691 0.020459 -0.424876 -0.165686 0.024864 0.236926 0.060896 -0.547028 0.075126 0.121523 0.089740 -0.205635 0.420847 -0.017189 -0.381784 -0.284453 0.189849 0.753532 -0.302297 -0.343069 0.263553 -0.306411 -0.459767 0.098920 -0.074705 -0.530334 -0.293773 
vNONHSAT021830.2 0.293745 -0.153047 -0.094567 0.282130 0.162589 0.036536 -0.179584 -0.051873 0.127351 -0.038593 -0.030947 0.293070 -0.370205 0.273241 0.107741 0.037314 0.037064 0.013794 -0.008955 0.226636 0.201822 0.116122 -0.023176 0.102822 -0.235469 -0.328300 -0.083274 0.022463 -0.191546 0.075153 -0.066872 0.115074 -0.330222 -0.107239 -0.192231 -0.267764 -0.242121 -0.173437 -0.246786 -0.628491 -0.039442 -0.143527 0.048344 0.275877 -0.274679 0.177095 0.321632 0.215326 -0.185719 0.022415 0.209336 0.214002 -0.163183 -0.036777 0.574851 -0.203700 -0.384290 0.431020 -0.133499 -0.032079 -0.152266 -0.208368 -0.787961 -0.061932 
vNONHSAT041921.2 0.302908 -0.105314 -0.097613 0.169903 0.039724 -0.009558 -0.188902 0.193965 0.069611 -0.124500 -0.084737 0.362943 -0.334915 0.212099 0.109576 0.086297 0.154267 -0.109002 -0.123597 0.288041 0.064649 0.117407 -0.184265 0.100587 -0.229246 -0.520795 -0.141256 0.000132 -0.104730 0.006571 -0.043756 0.161372 -0.429617 0.038576 -0.250105 -0.268266 -0.317087 -0.208027 -0.352931 -0.494447 -0.072495 -0.195933 0.113819 0.309841 -0.272248 0.298561 0.269127 0.256219 -0.186848 0.031048 0.231386 0.174204 -0.272174 -0.024529 0.505854 -0.203938 -0.401776 0.313164 -0.149183 -0.016527 -0.168548 -0.290708 -0.737596 -0.072333 
vNONHSAT104991.2 0.188457 -0.142664 -0.037357 0.213265 0.127432 0.080191 -0.169633 0.001212 0.084977 -0.017821 -0.031750 0.243953 -0.393829 0.275417 0.080749 0.071107 0.104819 0.040874 0.019635 0.260155 0.144238 0.115178 -0.019957 0.146820 -0.238374 -0.354896 -0.115155 -0.033861 -0.115089 0.090572 -0.113694 0.154807 -0.407109 -0.057850 -0.157209 -0.266039 -0.232214 -0.229388 -0.273055 -0.547253 0.014156 -0.156523 -0.030110 0.262686 -0.273502 0.081196 0.255039 0.245767 -0.229725 0.019405 0.208572 0.202997 -0.146051 0.019841 0.575850 -0.193495 -0.335809 0.473662 -0.156872 -0.033046 -0.170078 -0.255806 -0.720087 -0.049625 
vNONHSAT138142.2 0.109402 -0.065923 -0.105401 0.179008 0.197558 0.099432 -0.225159 0.195748 0.091826 0.026184 -0.183691 0.020578 -0.397216 0.198332 0.102110 0.083460 -0.182966 -0.100516 -0.051810 0.177473 0.028195 0.148995 -0.236435 0.088780 -0.317576 -0.232396 -0.120896 -0.066460 -0.196336 0.003171 -0.118254 0.018977 -0.373214 -0.033561 -0.152006 -0.308043 0.038305 -0.062176 -0.268952 -0.583204 0.015205 -0.128493 -0.058757 0.253251 -0.372584 0.305527 0.183657 0.169599 -0.094020 0.062343 0.261557 0.207639 -0.347058 0.087768 0.380146 -0.151471 -0.477987 0.403367 -0.007858 -0.145129 -0.107415 -0.211238 -0.714115 -0.038105 
vNONHSAT056046.2 0.118481 -0.244956 -0.014039 0.282009 0.124835 0.087164 -0.197362 0.065717 0.031056 0.022705 0.014268 0.161118 -0.338004 0.259785 -0.031381 0.020932 0.080907 0.086166 0.040868 0.113941 0.213158 0.207528 -0.067813 0.064335 -0.133097 -0.320490 -0.118694 -0.165889 -0.050316 0.076373 -0.111908 0.207569 -0.384794 -0.095530 -0.123507 -0.309922 -0.185020 -0.229185 -0.299904 -0.540604 -0.035261 -0.037363 0.061443 0.257591 -0.224512 0.070848 0.357309 0.288746 -0.190718 -0.003205 0.257211 0.142067 -0.193797 -0.005647 0.456184 -0.196790 -0.250346 0.464783 -0.158905 -0.062989 -0.183459 -0.288855 -0.667005 -0.142144 
vNONHSAT001511.2 0.151459 -0.216231 0.021998 0.183042 0.181934 0.124440 -0.210263 0.179970 -0.019523 -0.000025 -0.092560 0.184520 -0.332922 0.211431 0.068835 -0.057682 -0.057273 -0.064477 -0.039812 0.040097 0.118120 0.136880 -0.220505 0.088496 -0.150848 -0.339994 -0.108734 -0.197145 -0.148537 0.079122 -0.166877 0.252908 -0.358739 -0.032605 -0.242603 -0.363526 0.010687 -0.228926 -0.273196 -0.438912 0.007413 -0.101431 0.051435 0.146400 -0.345018 0.227395 0.243020 0.184552 -0.165216 0.088238 0.221104 0.129857 -0.301675 0.016757 0.316687 -0.217271 -0.366077 0.460086 -0.121809 -0.107975 -0.194889 -0.273994 -0.613987 -0.072150 
vNONHSAT137541.2 0.521977 -0.315121 0.189886 0.165759 0.151891 -0.067435 -0.030555 0.014740 -0.072140 0.000058 0.012879 0.364334 -0.254250 0.334623 0.006492 0.079363 0.147734 0.087188 -0.017652 0.095785 0.273404 0.297847 0.062223 0.040077 -0.114413 -0.526003 0.057968 -0.158368 -0.163274 0.097040 0.020834 0.414797 -0.220552 0.025906 -0.195565 -0.425141 -0.327652 -0.136037 -0.248704 -0.346354 -0.205177 -0.061903 0.063659 0.112808 -0.278425 0.178851 0.288343 0.529973 -0.220403 0.025214 0.257799 0.413278 -0.180610 -0.177570 0.393749 -0.200220 -0.365312 0.286794 -0.337100 -0.219917 -0.138004 -0.455031 -0.765994 -0.158656 
vNONHSAT009703.2 0.093904 -0.178880 -0.031287 0.208089 0.224867 0.124005 -0.191896 0.155112 0.012950 0.056793 -0.143408 0.034404 -0.317679 0.126124 0.048745 0.034085 -0.056807 -0.043297 -0.014446 -0.052764 0.127520 0.212600 -0.230975 0.011952 -0.094739 -0.244122 -0.101368 -0.264988 -0.070818 0.056066 -0.221522 0.190655 -0.321306 -0.019910 -0.139643 -0.307672 0.091563 -0.208659 -0.272953 -0.490242 -0.013115 -0.033417 -0.036281 0.172357 -0.366803 0.155410 0.187640 0.212520 -0.219284 0.005898 0.265381 0.175280 -0.313375 0.030380 0.302296 -0.239852 -0.385152 0.522362 -0.117302 -0.228238 -0.191683 -0.278785 -0.606518 -0.068878 
vNONHSAT131038.2 0.313541 -0.207530 0.139615 0.175844 0.149773 0.381758 -0.145750 0.115848 0.017190 0.060463 -0.078040 0.439070 -0.205624 0.147136 0.178439 -0.008634 -0.061633 -0.023324 -0.109492 0.130022 0.228144 0.173334 -0.250108 0.128057 -0.039412 -0.201145 -0.010173 -0.331798 0.032448 0.228866 0.035632 0.469625 -0.153968 0.105031 -0.171843 -0.244489 0.068958 -0.347590 -0.411731 -0.542432 0.057714 0.064926 -0.013615 0.012395 -0.438691 0.173018 0.196162 0.127877 -0.337145 0.042770 -0.044545 0.308968 -0.235197 0.048407 0.514959 -0.299746 -0.376482 0.195268 -0.141628 -0.036275 -0.177731 -0.431717 -0.630680 -0.003451 
vNONHSAT027070.2 0.218363 -0.155542 0.104770 0.195734 0.208206 0.094504 -0.148844 0.098020 -0.097574 0.015625 -0.081582 0.269323 -0.310388 0.160923 -0.054853 0.032317 0.067206 0.016889 -0.014583 0.005493 0.182841 0.124600 -0.115573 -0.014704 -0.133823 -0.366452 -0.076292 -0.306573 -0.161586 0.108170 -0.132182 0.251220 -0.251081 -0.050041 -0.179409 -0.319298 -0.129737 -0.316697 -0.335156 -0.441377 -0.098349 -0.229627 -0.020261 0.117445 -0.404107 0.132816 0.219054 0.191294 -0.153132 0.022229 0.174778 0.213849 -0.235057 0.019520 0.483716 -0.221077 -0.381008 0.422506 -0.198434 -0.116030 -0.108056 -0.351683 -0.675984 -0.076131 
vNONHSAT084827.2 0.303384 -0.154503 0.106297 0.162522 0.107636 -0.081713 -0.192033 0.211046 -0.053913 -0.109700 -0.078764 0.214873 -0.312152 0.388445 0.090832 -0.116972 -0.002890 -0.081193 -0.016207 0.147817 0.034591 0.087313 -0.312090 -0.017700 -0.275328 -0.409766 -0.134885 -0.219613 -0.209934 -0.019336 -0.119621 0.314903 -0.288049 0.035201 -0.191387 -0.365396 -0.129132 -0.242654 -0.349582 -0.375750 -0.032457 -0.061087 0.277767 0.209780 -0.287873 0.435525 0.429987 0.275509 -0.112827 0.060308 0.161335 0.262705 -0.342607 0.015390 0.343146 -0.149755 -0.402769 0.310948 -0.174636 0.011710 -0.201976 -0.331057 -0.744380 -0.189844 
vNONHSAT078782.2 0.224291 -0.469075 0.589896 0.080067 0.114685 0.188877 -0.369281 0.291470 -0.270233 -0.260836 0.081110 -0.093499 -0.335195 0.497272 0.109718 0.114352 -0.228064 0.125655 0.077029 -0.209241 0.284507 0.272125 -0.385758 -0.526836 -0.056052 -0.167734 0.047425 -0.527461 0.047436 0.106620 0.098838 0.382533 -0.159304 -0.340372 0.086137 -0.445450 0.118445 0.015689 -0.416842 -0.280782 -0.213218 0.407456 0.322843 0.121411 -0.137077 0.158116 0.243995 0.440149 -0.355715 -0.258972 0.175420 0.461166 -0.402493 -0.154481 0.120321 0.012938 -0.600765 0.406523 -0.205439 -0.403700 -0.044147 -0.388119 -0.796306 -0.189584 
vNONHSAT042032.2 0.232909 -0.148870 -0.053025 0.161916 0.135098 0.052047 -0.190525 0.127832 0.025136 -0.190777 -0.218820 0.081896 -0.464096 0.399141 0.064896 0.027346 -0.092229 0.011614 0.009197 0.379750 0.226684 0.111497 -0.243021 0.193586 -0.313071 -0.148527 -0.066962 -0.006532 -0.121104 0.043243 -0.083988 0.194112 -0.434842 -0.038454 -0.236885 -0.253443 -0.171333 -0.252902 -0.250500 -0.496606 -0.055925 -0.163526 -0.220695 0.078007 -0.357572 0.335790 0.221482 0.152213 -0.266202 0.087010 0.135405 0.217976 -0.140631 0.126850 0.647383 -0.248136 -0.529411 0.478330 -0.237890 -0.056443 0.049007 -0.344185 -0.545313 -0.119441 
vNONHSAT134595.2 0.196725 -0.203064 -0.113337 0.371102 0.183226 0.060634 -0.169315 0.240346 -0.016061 -0.070051 -0.170554 0.109495 -0.310541 0.144847 -0.041711 0.046909 -0.089291 -0.099390 -0.023014 -0.083853 0.175081 0.217284 -0.230422 -0.001041 -0.101042 -0.192546 -0.049383 -0.302333 -0.122037 0.097316 -0.199766 0.196339 -0.297670 -0.071249 -0.118874 -0.382416 0.029569 -0.216261 -0.244522 -0.381900 -0.021904 0.007679 0.009890 0.128151 -0.276770 0.357051 0.231221 0.144423 -0.397968 0.043401 0.205543 0.091958 -0.391806 0.096090 0.411195 -0.256181 -0.344367 0.608513 -0.114455 -0.083978 -0.078891 -0.265373 -0.561217 -0.144000 
aQ01094 0.267898 0.150176 0.013524 -1.051543 -0.083597 0.782054 0.439333 0.508855 0.851189 -0.434316 -0.150249 -0.548070 0.068881 0.328882 -0.548599 0.023447 0.243443 -0.109149 0.038873 -0.156309 -0.043841 -0.390922 -0.024884 -0.457939 0.121152 -0.307683 0.234952 0.806528 0.230925 -0.081446 0.000691 0.000335 0.896811 -0.024887 0.268574 -0.092799 -0.170335 0.147071 0.221588 -0.063397 -0.557328 0.233947 -0.346971 -0.085263 0.168204 0.157028 0.095279 -0.086770 0.316848 -1.041272 -0.202486 0.500587 -0.635647 -0.385221 0.279872 -0.386083 0.373055 -0.322268 0.103580 0.241033 -0.718529 0.745011 0.340297 0.772195 
vNONHSAT122291.2 0.219354 -0.159769 -0.024929 0.295808 0.241846 0.213162 -0.257105 0.178889 0.188576 -0.004971 -0.097081 0.068228 -0.304115 0.150686 0.040877 0.140541 -0.117276 0.043179 -0.059964 0.329169 0.178658 0.117311 -0.132784 0.147713 -0.139104 -0.169931 -0.133731 0.002007 -0.102854 -0.015495 0.099450 0.088989 -0.378242 -0.006451 -0.286774 -0.207456 -0.011797 -0.136580 -0.301376 -0.645184 0.183469 -0.100935 0.072485 0.238276 -0.313468 0.198485 0.270985 0.259336 -0.243817 0.019246 0.284937 0.111441 -0.300396 0.103072 0.548917 -0.136152 -0.324474 0.323465 -0.110968 -0.073474 0.002842 -0.059074 -0.695792 0.048716 
vNONHSAT018688.2 0.275746 -0.267397 0.061520 0.138113 0.134314 0.270042 -0.129156 0.132893 0.028942 0.020441 -0.060018 0.321349 -0.207421 0.271300 0.129047 -0.004195 -0.037912 0.072299 -0.054307 0.239125 0.199780 0.230064 -0.158221 0.239533 -0.116984 -0.179957 -0.001496 -0.320918 0.105087 0.153918 -0.032293 0.550405 -0.177888 0.092711 -0.116257 -0.308948 -0.067578 -0.270522 -0.422620 -0.406675 0.032425 0.106158 -0.076078 -0.010502 -0.299247 0.294428 0.240859 0.245687 -0.435166 0.064245 0.040705 0.250204 -0.169983 0.171790 0.608211 -0.267324 -0.283395 0.352786 -0.217665 0.026675 -0.139726 -0.555483 -0.489746 -0.069587 
vNONHSAT001953.2 0.222459 -0.284071 0.131460 0.269228 0.236391 0.183487 -0.120067 0.157585 -0.022188 0.055412 -0.125687 0.222564 -0.335719 0.141954 -0.018789 0.086808 -0.017588 0.051662 -0.014431 -0.030917 0.277274 0.240182 -0.051625 -0.019749 -0.051783 -0.287773 -0.055783 -0.322293 -0.048537 0.008977 -0.027266 0.301147 -0.362965 -0.073859 -0.187938 -0.343201 -0.108920 -0.325744 -0.227806 -0.354625 -0.116013 -0.248484 -0.015741 0.091832 -0.396120 0.109737 0.186665 0.279074 -0.329253 -0.033792 0.212922 0.154410 -0.260982 0.034855 0.338500 -0.232319 -0.399129 0.563834 -0.233951 -0.102453 -0.195411 -0.385900 -0.493748 -0.028995 
aQ9NY12 1.167778 0.379784 -0.130064 -1.424685 0.510864 0.870147 0.169630 0.373966 1.733421 0.232388 -0.302087 0.091602 -0.932351 0.223721 -1.232918 -0.823084 -0.151752 -0.432779 0.100968 0.169227 -0.153714 0.106477 0.654070 -0.270469 0.169480 -0.093038 0.205523 -0.269466 0.525336 0.264806 0.032025 -0.202955 -0.242818 0.323984 0.210290 0.016019 -0.326369 -0.151082 -0.001246 0.036367 -0.229339 0.278614 0.108075 -0.154837 0.302708 0.002102 0.121493 -0.061803 0.193183 -0.051327 -0.515583 -0.363908 0.266897 0.016626 0.236532 -0.484564 -0.112953 0.116165 -0.523750 0.324450 -0.128753 0.551801 -0.021409 0.001245 
aQ9UKC9 1.098919 0.359981 -0.053603 -1.441637 0.622222 0.854506 0.129759 0.174618 1.832754 0.206552 -0.350940 -0.036480 -0.824169 0.190907 -1.304384 -0.742727 -0.293205 -0.290654 0.072633 0.124082 -0.169431 0.009640 0.623977 -0.336530 0.293081 -0.116874 0.135447 -0.301310 0.591542 0.323397 0.029975 -0.040137 -0.203257 0.241180 0.205894 -0.099799 -0.266433 -0.287714 0.083751 0.127385 -0.257598 0.137169 0.151183 -0.233779 0.170528 -0.058465 0.204128 -0.084505 0.084986 -0.133219 -0.544000 -0.202094 0.302602 -0.099781 0.232892 -0.570976 -0.055506 -0.070528 -0.433622 0.467611 0.022752 0.433103 -0.111113 -0.167954 
vNONHSAT034878.2 0.317513 -0.061891 0.030720 0.346101 0.251470 -0.376600 -0.053906 0.198274 -0.372221 -0.858202 -0.538303 -0.009583 -0.246366 -0.030883 0.001341 0.092171 -0.003545 -0.110705 0.104561 -0.026484 0.075843 -0.028755 -0.087278 -0.643134 -0.123428 -0.026551 0.022324 -0.139483 -0.053057 -0.417341 0.165500 -0.361007 -0.428128 -0.427482 -0.155022 -0.671713 -0.271145 -0.139735 -0.206782 -0.098709 -0.106986 -0.343576 0.048150 -0.007005 -0.534010 0.329056 0.227319 0.555673 -0.275659 0.139103 0.576984 0.324108 -0.457038 0.177606 0.379529 -0.088882 -0.334147 0.517217 -0.392275 -0.294524 0.185287 0.155858 -0.774605 -0.230435 
vNONHSAT007429.2 0.249077 -0.345760 0.018694 0.244987 0.200734 0.350819 -0.193606 0.089177 0.001915 0.031071 -0.054040 0.237481 -0.189744 0.341958 0.074073 0.008953 0.041387 0.110926 -0.025121 0.181329 0.240468 0.241008 -0.024876 0.264827 -0.060667 -0.160047 0.006623 -0.269232 0.029100 0.191535 0.031786 0.395685 -0.155306 0.007012 -0.134408 -0.299573 -0.017721 -0.237425 -0.405096 -0.443299 0.151163 0.237528 -0.041308 0.024370 -0.233412 0.181242 0.284302 0.261206 -0.498746 0.026991 0.063542 0.210061 -0.166120 0.137014 0.682808 -0.254343 -0.279448 0.454413 -0.146048 -0.035702 -0.118408 -0.314801 -0.538163 -0.047017 
vNONHSAT015736.2 0.258837 -0.313180 0.072986 0.324935 0.297707 0.245801 -0.130898 0.190935 0.029133 0.013722 -0.089182 0.132352 -0.232455 0.122827 -0.047551 0.097763 -0.068151 0.049091 -0.019947 0.073925 0.249389 0.216480 -0.124044 0.045634 0.006718 -0.194255 -0.047229 -0.172914 -0.061831 0.027726 0.067673 0.251683 -0.321620 -0.040170 -0.220913 -0.241823 0.010324 -0.194491 -0.251313 -0.475413 0.182525 -0.044465 0.170310 0.143037 -0.321200 0.147220 0.247645 0.313722 -0.365610 -0.010038 0.310003 0.111113 -0.276379 0.082518 0.493220 -0.164143 -0.264627 0.480273 -0.161592 -0.160975 -0.109965 -0.141353 -0.615419 0.027719 
vNONHSAT039675.2 0.179004 -0.276108 0.010347 0.393222 0.191388 0.160872 -0.185531 0.230112 0.000565 -0.087997 -0.094339 -0.054457 -0.371744 0.382086 -0.000944 -0.084645 -0.159239 0.033587 0.017427 0.198284 0.331064 0.164847 -0.239590 0.089922 -0.179833 -0.069171 0.005841 -0.113534 -0.179975 0.003734 -0.009362 0.172413 -0.256270 -0.202359 -0.279927 -0.263975 -0.079435 -0.255842 -0.240135 -0.544064 0.061700 0.056617 -0.087446 0.055876 -0.265686 0.278628 0.287958 0.207887 -0.218679 0.046625 0.128623 -0.020200 -0.198869 0.101081 0.599725 -0.314818 -0.510409 0.589207 -0.214008 -0.100275 0.028148 -0.205853 -0.467897 -0.072265 
vNONHSAT101022.2 0.261977 -0.321375 -0.008408 0.300735 0.247974 0.201875 -0.182702 0.179279 0.031766 0.015572 -0.051913 0.143478 -0.233584 0.197050 0.005819 0.039375 -0.033809 0.001780 -0.039677 0.123142 0.222472 0.147732 -0.046965 0.120501 -0.096534 -0.134262 -0.044034 -0.226921 -0.086602 0.141219 -0.010408 0.207636 -0.252957 -0.137289 -0.211843 -0.357864 0.051199 -0.147462 -0.350357 -0.449699 0.138140 0.074458 0.079650 0.150898 -0.230523 0.201840 0.310854 0.272203 -0.350687 0.035849 0.288001 0.066683 -0.322453 0.082408 0.507779 -0.211849 -0.292847 0.505013 -0.098820 -0.028678 -0.093464 -0.183358 -0.573127 -0.080626 
vNONHSAT079548.2 0.190003 -0.242749 0.039729 0.178603 0.061461 -0.016859 -0.242017 0.175088 -0.098582 -0.203020 0.143835 0.290946 -0.414049 0.401694 -0.008039 -0.035389 0.211937 0.089282 0.088229 0.050418 0.111133 0.108353 -0.253633 0.075500 -0.249098 -0.316902 -0.105096 -0.244262 -0.015794 0.164795 -0.260525 0.367613 -0.380830 0.017997 -0.124277 -0.333190 -0.239950 -0.370617 -0.352337 -0.399340 -0.022494 -0.083813 0.139544 0.198862 -0.241164 0.190183 0.435829 0.199105 -0.339920 -0.030855 0.065160 0.266939 -0.088470 0.049709 0.434518 -0.293794 -0.168016 0.405586 -0.222472 0.066318 -0.063758 -0.367859 -0.703723 -0.258863 
vNONHSAT022115.2 0.155133 -0.239366 0.075962 0.099357 0.085553 0.086687 -0.128774 0.115325 -0.110887 0.000162 -0.023049 0.296433 -0.309332 0.269646 -0.030894 -0.015760 0.200804 0.025721 0.041226 0.037401 0.216736 0.187612 -0.102420 0.050308 -0.125347 -0.509569 -0.107658 -0.215289 -0.050265 0.069598 -0.146775 0.359022 -0.405220 -0.017039 -0.194811 -0.317290 -0.287594 -0.365304 -0.311648 -0.401990 -0.124812 -0.232822 0.081790 0.186126 -0.347140 0.070269 0.204925 0.357786 -0.103821 0.032397 0.219988 0.210180 -0.106506 -0.070175 0.360204 -0.245717 -0.295720 0.393111 -0.287544 -0.211248 -0.194606 -0.428487 -0.661594 -0.059764 
vNONHSAT142612.2 0.364298 -0.293425 0.169005 0.314225 0.258133 0.284464 -0.084000 0.215254 0.086293 0.184725 0.089418 0.162327 -0.211541 0.101300 -0.018195 0.036116 -0.102846 0.133640 0.038452 0.185366 0.365947 0.069403 -0.036511 0.032605 -0.231896 -0.099978 -0.017029 -0.334943 -0.083500 -0.050704 0.110588 0.189910 -0.176015 -0.160910 -0.168374 -0.136315 -0.104717 -0.195705 -0.409404 -0.699573 0.009868 -0.112397 0.151442 0.138002 -0.320913 0.230516 0.243879 0.316151 -0.176046 0.079172 0.201687 0.154740 -0.221112 0.033448 0.465247 -0.255943 -0.390826 0.258526 -0.220522 -0.057492 -0.019227 -0.125348 -0.624995 0.004892 
vNONHSAT104512.2 0.224165 -0.274879 0.008687 0.444557 0.208069 0.363410 -0.124970 0.190069 0.091833 0.036919 -0.038573 0.137803 -0.253005 0.044918 0.008209 0.127375 0.031380 0.106218 0.060291 0.118124 0.281186 0.264759 -0.003916 0.090146 -0.229993 -0.165967 -0.047682 -0.216232 -0.178892 -0.031245 0.166774 0.060638 -0.248598 -0.252093 -0.163704 -0.190710 -0.213601 -0.170302 -0.303769 -0.612064 -0.203841 -0.150825 -0.011343 0.278608 -0.302543 0.100996 0.273085 0.388291 -0.090733 -0.110873 0.234881 0.098613 -0.138537 -0.055138 0.426388 -0.245801 -0.320971 0.321720 -0.228782 -0.209745 0.030296 -0.233829 -0.683120 -0.157528 
vNONHSAT145923.2 0.201730 -0.213279 -0.088512 0.300747 0.106287 0.093778 -0.143314 0.148135 -0.121114 -0.057628 -0.062821 0.165895 -0.283224 0.305598 -0.024907 -0.038337 0.243546 0.055006 -0.072789 0.139266 0.155600 0.155908 -0.123121 0.074948 -0.092782 -0.449142 -0.011868 -0.228841 -0.120248 0.102550 -0.146529 0.273803 -0.299410 -0.072522 -0.111230 -0.353180 -0.276268 -0.249364 -0.322289 -0.460012 0.069832 0.080318 0.045998 0.128504 -0.105497 0.182196 0.325449 0.351435 -0.265113 0.041198 0.220229 0.094647 -0.175841 0.010949 0.583131 -0.231918 -0.314581 0.533557 -0.204709 -0.074199 -0.136742 -0.178588 -0.595442 -0.077646 
vNONHSAT022112.2 0.083547 -0.161589 0.094786 -0.047915 -0.094112 0.343942 -0.117271 0.548186 -0.370022 -0.229152 0.094254 0.279161 -0.094700 0.266233 0.289392 -0.192768 0.442754 -0.010832 -0.034713 0.157986 0.270754 0.064364 -0.007098 -0.079766 0.104161 -0.494019 -0.231954 -0.223077 -0.014417 -0.108813 0.043021 0.229542 -0.415590 0.234242 -0.386436 -0.108985 -0.065280 -0.670808 -0.258660 -0.450265 -0.455590 -0.043086 0.225613 0.112501 -0.720742 0.110596 -0.123958 0.192134 -0.417593 0.197877 0.147268 0.495563 -0.012551 -0.159716 0.569870 -0.215117 -0.530058 0.150437 -0.488345 -0.480464 -0.112465 -0.109251 -0.517115 -0.350776 
vNONHSAT101154.2 0.198899 -0.330689 -0.086240 0.397598 0.217397 0.216306 -0.114726 0.256967 0.042381 -0.184448 0.011082 0.090705 -0.276754 0.282310 0.031121 -0.017761 0.000546 0.039825 0.148301 0.197049 0.227505 0.387458 -0.153808 0.185203 -0.273406 -0.065118 -0.022298 -0.129385 -0.085108 0.017009 -0.003057 0.151849 -0.278849 -0.188578 -0.249902 -0.250302 -0.168011 -0.106643 -0.280912 -0.499244 0.022529 -0.142117 0.123858 0.257885 -0.324878 0.234157 0.384729 0.336984 -0.181490 -0.037361 0.236143 0.108224 -0.151804 0.010317 0.433248 -0.231523 -0.229427 0.336169 -0.206507 -0.100657 -0.172233 -0.257008 -0.589701 -0.292223 
vNONHSAT016441.2 0.351437 -0.266069 0.039545 0.055770 0.207159 0.137065 -0.129866 0.208115 -0.073830 -0.316235 -0.144270 0.123382 -0.169817 0.454597 0.203432 -0.149135 -0.407929 -0.240114 -0.077430 0.288841 -0.006618 0.418598 -0.227127 0.374703 -0.393290 0.041124 -0.034185 -0.065952 -0.223059 0.068978 -0.017658 0.264363 -0.308966 -0.069284 -0.238473 -0.364845 0.431019 0.026398 -0.215466 -0.316074 0.127503 -0.048147 0.026710 -0.007912 -0.222343 0.495196 0.393248 0.189483 -0.094041 0.130357 0.327370 0.377583 -0.210142 0.044865 0.376216 -0.135571 -0.291385 0.103382 -0.210276 -0.249026 -0.073170 -0.211642 -0.692767 -0.414156 
vNONHSAT002344.2 0.250572 -0.328420 -0.068722 0.091089 0.020560 0.214503 -0.263752 0.120006 -0.090856 -0.098648 0.031036 0.424632 -0.164552 0.425730 0.088500 -0.052586 0.342778 0.031120 -0.107727 0.189235 0.230231 0.183029 -0.046526 0.072678 -0.086856 -0.562495 -0.072259 -0.097446 -0.026738 0.040161 -0.120224 0.228783 -0.455241 0.038732 -0.099826 -0.371260 -0.333707 -0.247826 -0.450755 -0.525950 -0.206336 0.013175 0.220090 0.167663 -0.151443 0.174762 0.215127 0.307395 -0.274599 0.022435 0.342277 0.290157 -0.037950 -0.094860 0.476213 -0.015342 -0.253776 0.295507 -0.219156 -0.208520 -0.101179 -0.366885 -0.776479 -0.139407 
vNONHSAT079374.2 0.145543 -0.207717 -0.030036 0.224261 0.229053 0.077629 -0.180094 0.262181 -0.054369 -0.134381 -0.193499 0.072640 -0.340562 0.208535 0.104287 -0.122634 -0.113725 -0.127467 -0.034909 0.059840 -0.022148 0.154333 -0.321621 0.085959 -0.247288 -0.201206 -0.113878 -0.247270 -0.160989 -0.019666 -0.191995 0.113823 -0.327628 -0.034181 -0.182101 -0.391075 0.163217 -0.148165 -0.329054 -0.461057 0.087380 -0.011850 -0.011050 0.096607 -0.241602 0.342241 0.304989 0.208087 -0.216954 0.121868 0.184361 0.207754 -0.332235 0.098160 0.376883 -0.246053 -0.372854 0.417816 -0.078331 -0.107400 -0.087626 -0.114948 -0.648025 -0.135755 
vNONHSAT031708.2 0.351475 -0.034183 -0.041620 0.124524 0.294957 -0.003208 -0.308088 0.100145 -0.034934 -0.181871 -0.177164 0.174898 -0.296819 -0.122048 0.032595 0.185438 0.128753 -0.060176 -0.192066 -0.120892 -0.021009 0.254155 -0.095897 -0.134872 -0.077845 -0.140109 -0.037985 -0.328237 0.030497 -0.051549 -0.089160 0.293003 -0.257552 0.340464 0.031748 -0.100070 0.078347 -0.290296 -0.502766 -0.484157 -0.110748 -0.236427 -0.133865 0.009885 -0.511613 0.124752 0.040123 0.058479 -0.488981 -0.000943 0.225392 0.572234 -0.271948 0.002905 0.384891 -0.284340 -0.454988 0.458792 -0.213115 -0.264947 -0.117889 -0.414006 -0.684919 0.098637 
vNONHSAT011652.2 0.221875 -0.218998 -0.080604 0.214953 0.096976 -0.040479 -0.222750 0.257017 -0.111238 -0.173369 -0.078219 0.153477 -0.343528 0.239152 0.051357 -0.118834 0.024922 -0.116477 -0.104748 -0.055745 -0.040120 0.187217 -0.353980 0.013926 -0.129254 -0.452835 -0.050883 -0.265619 -0.198581 0.047360 -0.211186 0.245443 -0.399469 -0.028277 -0.195219 -0.518254 0.056144 -0.143668 -0.326405 -0.362194 -0.004041 0.055101 0.084919 0.112621 -0.148472 0.381361 0.283751 0.234486 -0.206128 0.084705 0.251392 0.180650 -0.420900 -0.016321 0.291636 -0.278159 -0.403733 0.490938 -0.059912 -0.159672 -0.122140 -0.214632 -0.656526 -0.023933 
aP01189 0.291493 0.167600 -0.110310 -1.024005 -0.118593 0.863883 0.474613 0.498814 0.741491 -0.423995 -0.151676 -0.535228 0.006584 0.322996 -0.551519 -0.089708 0.190824 -0.040228 0.130018 -0.189842 -0.051587 -0.401898 -0.037977 -0.475483 0.177085 -0.337208 0.290549 0.885454 0.286218 -0.076200 -0.090347 -0.023734 0.902209 -0.038408 0.321504 -0.153324 -0.245411 0.162450 0.172753 -0.053055 -0.552919 0.325167 -0.279212 -0.204482 0.170950 0.224272 0.065548 -0.000969 0.242474 -0.979722 -0.273184 0.516173 -0.681901 -0.315783 0.216357 -0.307786 0.389770 -0.355787 0.142005 0.211382 -0.711910 0.728372 0.242920 0.773130 
aP49711 0.263108 0.125629 -0.033387 -1.029669 -0.096829 0.796569 0.425004 0.596621 0.886955 -0.477680 -0.117772 -0.504265 0.067125 0.291066 -0.543085 -0.110881 0.285193 -0.149033 0.026751 -0.216039 0.023849 -0.360071 0.038323 -0.465504 0.154548 -0.317051 0.257238 0.890132 0.145224 -0.071006 -0.027313 0.084936 0.922034 -0.002150 0.352234 -0.177774 -0.209563 0.204016 0.144657 -0.063751 -0.562875 0.248863 -0.384733 -0.101895 0.234699 0.108205 0.081690 -0.057936 0.168772 -0.972671 -0.189775 0.415419 -0.679613 -0.434671 0.265806 -0.304963 0.351069 -0.374292 0.126722 0.375179 -0.735965 0.732078 0.238815 0.754892 
aP01344 0.245780 0.121567 -0.085980 -1.046567 -0.077783 0.860877 0.451552 0.539966 0.823009 -0.411265 -0.122886 -0.529348 0.024449 0.302526 -0.563665 -0.019188 0.233175 -0.077512 0.031066 -0.237527 -0.055764 -0.449796 0.026849 -0.436415 0.212056 -0.243216 0.249569 0.890665 0.270772 -0.106093 -0.146873 0.046960 0.887744 -0.034664 0.273142 -0.248503 -0.109591 0.076032 0.302593 -0.201230 -0.645994 0.240698 -0.363518 -0.047350 0.217797 0.142891 0.073518 -0.106286 0.212661 -1.025985 -0.191749 0.494215 -0.620244 -0.338579 0.210444 -0.367972 0.395962 -0.300399 0.118488 0.312980 -0.723060 0.647826 0.329280 0.695546 
vNONHSAT114444.2 0.174915 -0.195745 0.052554 0.131306 0.134225 0.041797 -0.174418 0.255187 -0.075951 0.023425 -0.076424 0.188194 -0.296849 0.315144 0.060991 -0.116399 -0.016406 -0.090466 -0.057336 -0.025140 0.101424 0.149465 -0.286443 -0.015948 -0.156124 -0.496093 -0.119418 -0.190477 -0.290309 0.045404 -0.143382 0.269949 -0.377740 0.004426 -0.329332 -0.343515 0.058057 -0.255245 -0.193917 -0.397301 0.021211 -0.044620 0.161060 0.214671 -0.356606 0.338458 0.215031 0.171004 -0.039032 0.131239 0.242699 0.186168 -0.471500 -0.077936 0.212654 -0.235798 -0.531895 0.475248 -0.138060 -0.212252 -0.260575 -0.292504 -0.645828 -0.068728 
aP14210 0.251682 0.153078 -0.053480 -1.151199 -0.126313 0.777090 0.350317 0.457638 0.801444 -0.491073 -0.203582 -0.521655 0.038753 0.331817 -0.559654 -0.020158 0.259300 -0.150812 0.040661 -0.172844 -0.088203 -0.417746 0.058925 -0.450258 0.113791 -0.282493 0.181548 0.930089 0.226926 -0.077711 -0.079414 0.093333 0.962191 -0.054385 0.266407 -0.126378 -0.197876 0.073739 0.170021 0.051318 -0.547838 0.154000 -0.285082 -0.062335 0.213758 0.067588 0.041388 -0.044221 0.219135 -1.050528 -0.271869 0.569346 -0.635645 -0.341937 0.223435 -0.439172 0.312007 -0.350402 0.129364 0.290930 -0.761488 0.647267 0.313169 0.679306 
aQ15465 0.294766 0.063343 -0.034760 -0.998501 -0.022352 0.748425 0.393855 0.426794 0.830239 -0.503472 -0.118633 -0.587298 0.015443 0.282856 -0.668618 0.027570 0.227839 -0.141267 0.032068 -0.186422 0.004888 -0.383168 -0.032981 -0.465487 0.193416 -0.193179 0.166918 0.898804 0.217826 -0.148304 -0.070007 0.005133 0.950066 -0.094944 0.290634 -0.281635 -0.229463 0.150787 0.264124 -0.060450 -0.515568 0.254715 -0.369998 -0.124241 0.261191 0.190559 0.142936 -0.049703 0.217294 -0.962297 -0.260268 0.505274 -0.615047 -0.358560 0.245799 -0.395352 0.364856 -0.361608 0.115662 0.253257 -0.707533 0.755094 0.310154 0.759274 
aP08151 0.266194 0.120665 -0.041200 -1.098903 -0.057310 0.783044 0.366882 0.538015 0.809555 -0.461694 -0.172371 -0.574794 0.110540 0.270758 -0.595694 -0.046136 0.358506 -0.067257 0.134783 -0.128958 0.055580 -0.388273 0.000982 -0.423381 0.151151 -0.297225 0.230569 0.975198 0.213183 0.020782 -0.166143 -0.024278 0.914456 0.029041 0.289333 -0.156702 -0.138656 0.193451 0.268456 -0.103941 -0.440582 0.278688 -0.323861 -0.124016 0.198525 0.154811 0.104489 -0.059087 0.184451 -1.012105 -0.231160 0.396627 -0.632956 -0.348707 0.274268 -0.486042 0.369071 -0.326774 0.125580 0.230479 -0.723639 0.722828 0.301994 0.701634 
aP01236 0.268584 0.109392 -0.019259 -0.963790 -0.074850 0.784236 0.410866 0.478321 0.910888 -0.444289 -0.098844 -0.615365 -0.014675 0.342572 -0.578429 -0.017355 0.240500 -0.141045 0.026443 -0.257353 0.036041 -0.446563 0.077214 -0.467610 0.198719 -0.371843 0.224477 0.940287 0.183823 -0.069396 -0.050307 0.019961 0.859788 -0.020949 0.235086 -0.161851 -0.160068 0.173800 0.284287 -0.042357 -0.575116 0.297313 -0.258122 -0.044883 0.198219 0.242435 0.061802 0.069678 0.314319 -1.090555 -0.172849 0.450984 -0.609363 -0.275993 0.247205 -0.354444 0.324991 -0.324265 0.116467 0.305069 -0.761005 0.735373 0.350823 0.648446 
vNONHSAT140501.2 0.170744 -0.000456 0.073977 0.424311 0.141817 -0.001213 -0.066029 0.318276 0.173107 -0.258654 0.265014 0.174806 -0.028170 0.223800 -0.333417 0.133085 -0.287999 -0.045537 -0.359676 0.099970 0.208965 0.189425 0.010888 0.037944 -0.225087 -0.415675 0.304963 0.348827 0.041962 -0.179661 0.030514 0.186169 -0.215322 -0.253175 -0.099076 -0.494194 0.370777 -0.448935 -0.445136 -0.062172 0.038526 -0.107477 -0.385919 0.294400 -0.506688 0.355966 0.244861 0.490599 -0.384152 -0.064951 -0.096759 0.260841 0.085222 0.490769 0.411859 -0.100938 -0.583079 0.109052 -0.155734 -0.499485 -0.388811 0.210372 -0.667011 0.106667 
vNONHSAT114788.2 0.276360 -0.207170 -0.033030 0.375885 0.301541 0.179547 -0.134022 0.202583 0.045487 -0.027277 -0.142236 0.186942 -0.186760 0.089439 0.005595 0.016634 -0.122570 -0.031447 -0.030765 0.020167 0.209553 0.171996 -0.109082 -0.013626 -0.090772 -0.029523 -0.062809 -0.282045 -0.138992 0.092197 0.031828 0.205771 -0.273434 -0.071274 -0.183457 -0.292897 0.100842 -0.200080 -0.267005 -0.423405 0.058853 -0.016919 0.048247 0.136164 -0.340766 0.247151 0.278726 0.198284 -0.398539 0.040919 0.300792 0.135098 -0.400526 0.114650 0.461776 -0.246017 -0.309861 0.527340 -0.110436 -0.064660 -0.108520 -0.196628 -0.559859 -0.162931 
vNONHSAT135822.2 0.138557 -0.113894 -0.005615 0.274529 0.259381 0.109570 -0.128023 0.240307 -0.019691 0.126098 -0.232541 -0.067318 -0.272956 0.031347 -0.059128 0.096818 -0.107502 -0.014958 -0.029199 0.034519 0.106275 0.194956 -0.165072 0.021080 -0.119786 -0.054543 -0.072961 -0.341504 -0.111431 -0.037165 -0.072185 0.085714 -0.179487 -0.066011 -0.057549 -0.261850 0.116535 -0.211071 -0.347408 -0.508770 0.027096 -0.044608 -0.126779 0.142619 -0.347084 0.309591 0.175192 0.251976 -0.176708 0.079234 0.250831 0.183949 -0.396420 0.128312 0.465034 -0.308824 -0.413779 0.470698 -0.096394 -0.227861 0.005815 -0.187121 -0.531379 -0.075120 
vNONHSAT100798.2 0.501580 -0.287266 0.034476 0.191259 0.141661 0.005032 -0.169612 0.289757 -0.061559 -0.299544 -0.465308 0.757026 -0.070133 0.088537 -0.125964 0.093478 -0.096964 -0.094229 -0.264092 0.166060 0.544690 -0.092714 0.045105 -0.240349 -0.171718 0.124781 -0.172177 -0.179882 0.276894 0.100208 0.192977 0.380965 -0.384487 -0.115515 -0.384995 -0.015665 -0.027357 -0.574136 -0.287526 -0.489658 -0.305809 -0.413784 0.155542 -0.073640 -0.462005 0.262739 0.045480 0.106444 -0.355232 -0.038906 0.105006 0.345968 -0.380228 -0.146752 0.442279 -0.204091 -0.237107 0.335440 -0.317896 -0.218510 0.198563 -0.636239 -0.530167 -0.227496 
vNONHSAT121718.2 0.364498 -0.110730 0.169699 0.166963 0.366184 0.130391 -0.135791 0.201830 -0.072435 -0.012111 -0.213742 0.111135 -0.204726 0.001847 0.004876 0.140407 -0.109404 -0.019458 -0.032413 0.064998 0.189467 0.153352 -0.160507 -0.138539 -0.045136 -0.073468 -0.010195 -0.293259 -0.114955 0.011120 0.095418 0.182339 -0.128535 0.035571 -0.101729 -0.253263 0.110203 -0.229650 -0.401828 -0.530878 -0.012299 -0.107538 -0.055774 0.027539 -0.601098 0.185292 0.193799 0.274660 -0.208335 0.021593 0.296182 0.405318 -0.404377 0.141209 0.497933 -0.208702 -0.429700 0.281677 -0.170856 -0.251523 0.071032 -0.272074 -0.688990 -0.047750 
vNONHSAT066071.2 0.253063 -0.203281 -0.002477 0.135078 0.247127 -0.042988 -0.161629 0.255336 -0.135541 -0.282484 -0.196276 0.162539 -0.308546 0.292854 0.048906 -0.107347 -0.065559 -0.099161 0.046529 0.132755 0.029806 0.179060 -0.320816 0.021516 -0.264994 -0.090747 -0.003127 -0.270525 -0.106308 0.033253 -0.132416 0.153670 -0.303313 -0.060165 -0.123258 -0.378311 0.052844 -0.194035 -0.314848 -0.335027 0.143239 -0.063341 0.018231 0.020228 -0.346414 0.473070 0.363291 0.211269 -0.280652 0.114850 0.257809 0.301059 -0.308666 0.164326 0.545312 -0.211459 -0.254405 0.369726 -0.195540 -0.015660 -0.057340 -0.279247 -0.653491 -0.301254 
vNONHSAT123138.2 0.306686 -0.120959 0.048946 0.260289 0.274726 0.178121 -0.197387 0.216887 -0.063544 -0.188602 -0.212207 0.221527 -0.175333 0.097410 0.037791 0.011252 -0.120010 -0.054649 -0.028291 0.103712 0.144417 0.116910 -0.166154 -0.126030 -0.113254 0.014631 -0.011372 -0.288060 -0.124468 0.091122 0.052378 0.155166 -0.185850 -0.067580 -0.141083 -0.298718 0.069386 -0.233400 -0.369563 -0.528994 0.106220 0.001895 -0.033966 0.050360 -0.519177 0.266284 0.283547 0.180669 -0.304870 0.081571 0.229043 0.273760 -0.385191 0.210110 0.590432 -0.258619 -0.281421 0.336025 -0.149267 -0.089038 0.071858 -0.239936 -0.643623 -0.198321 
vNONHSAT054716.2 0.226339 -0.227078 -0.002863 0.288559 0.146086 0.062620 -0.063497 0.354179 -0.054437 0.004230 -0.177990 0.123747 -0.292742 0.128978 -0.019955 -0.037121 -0.102596 -0.121627 -0.085099 -0.046311 0.011372 0.194042 -0.299201 0.045263 -0.160314 -0.360485 -0.021696 -0.262421 -0.285139 -0.039377 -0.100527 0.153550 -0.322072 -0.081956 -0.285754 -0.401551 0.127281 -0.233068 -0.278496 -0.348695 -0.072096 -0.121722 0.034767 0.100871 -0.262805 0.380158 0.254598 0.189173 -0.142990 0.103892 0.287557 0.149945 -0.499467 0.053928 0.321495 -0.264594 -0.475704 0.524140 -0.061326 -0.220156 -0.092532 -0.191974 -0.572714 -0.079885 
vNONHSAT139226.2 0.268917 -0.127007 0.088157 0.326886 0.284061 0.482352 -0.209101 0.221561 0.047816 -0.086850 -0.136446 0.218636 -0.197461 -0.136612 0.136585 0.190411 -0.225389 -0.105480 0.024970 0.022915 0.159490 0.267266 -0.253011 -0.119054 -0.242582 0.000579 -0.041163 -0.202480 -0.187940 0.136396 0.205112 0.048400 -0.121423 -0.184092 -0.078968 -0.230677 0.057773 -0.017911 -0.299644 -0.667955 -0.186275 -0.033723 -0.024779 0.294162 -0.576142 0.207019 0.195339 0.161015 -0.157511 -0.113921 0.185193 0.265384 -0.274756 0.020846 0.325433 -0.192260 -0.356616 0.156159 -0.171878 -0.275709 -0.000080 -0.280326 -0.931431 -0.290320 
vNONHSAT138966.2 0.515739 0.038455 0.384441 0.468101 0.413538 -0.092499 -0.048481 -0.167150 0.019095 -0.153080 0.197580 0.352898 -0.314319 0.337554 -0.099832 0.257319 -0.104539 0.171587 0.081825 0.097125 0.010896 0.423275 0.118917 -0.101711 -0.117714 -0.252239 0.405479 0.174884 -0.275900 0.092215 0.104600 0.198989 0.045174 -0.167105 -0.110070 -0.296368 0.260368 -0.363765 -0.152449 -0.045206 0.259874 -0.106308 -0.231935 0.274801 -0.566352 0.211677 0.236379 0.518480 -0.503962 -0.150494 -0.197304 0.344796 0.266309 0.278985 0.657673 -0.321526 -0.510715 0.439461 -0.049017 -0.501173 -0.575061 0.090249 -0.776442 0.091459 
vNONHSAT145960.2 0.307611 0.235001 -0.337518 0.124673 -0.031840 -0.045928 -0.078920 0.052078 0.324597 -0.330847 -0.301113 0.307272 -0.383796 0.095804 0.309402 0.295560 -0.062782 -0.135143 -0.237909 0.744517 0.026266 -0.060465 -0.002705 0.286358 -0.516854 -0.039300 -0.242718 0.519043 -0.106088 -0.213683 0.192801 -0.138045 -0.735905 0.142996 -0.295328 0.085151 -0.039565 -0.381504 -0.194653 -0.553273 0.053127 -0.544303 -0.156119 0.240666 -0.506609 0.319809 -0.118234 0.145676 -0.354395 -0.039415 0.193089 0.214545 -0.039696 0.081499 0.675589 -0.347029 -0.599973 0.359619 -0.165542 0.002560 -0.085024 -0.169983 -0.690258 0.099401 
vNONHSAT060973.2 0.126770 -0.082381 -0.062732 0.108036 0.087132 -0.040023 -0.035608 -0.022388 -0.200052 0.048050 -0.212506 0.022445 -0.174802 0.265726 -0.123827 -0.095097 0.009662 -0.056299 -0.224276 0.151518 0.167956 0.253583 -0.134256 -0.117825 -0.007130 -0.531735 -0.205634 -0.045275 -0.001371 -0.048086 0.153302 0.628529 -0.308580 0.240346 0.010536 -0.165793 -0.304480 -0.198091 -0.163747 -0.422246 0.234493 -0.064342 0.371125 -0.108712 0.037049 0.210974 0.008462 0.374957 -0.304502 0.091760 0.172763 0.480884 -0.084628 0.137908 0.624710 0.019772 -0.170177 0.382476 -0.735496 -0.575657 -0.052425 -0.199715 -0.777996 -0.047169 
vNONHSAT033797.2 0.146403 -0.113839 0.183142 0.149225 0.322012 0.185292 -0.090195 0.261787 -0.004088 0.129895 -0.027166 0.001610 -0.204729 -0.118266 -0.108880 0.155395 -0.202021 0.058148 -0.050904 0.134515 0.116328 0.219671 -0.025202 -0.134796 -0.084397 0.003602 -0.015193 -0.313638 -0.030491 -0.121321 0.165575 0.238668 -0.223008 0.001894 -0.062994 -0.238389 0.078611 -0.224101 -0.415870 -0.467268 -0.028097 -0.207734 -0.001645 0.102042 -0.508972 0.154933 0.094505 0.222669 -0.213718 0.009116 0.337305 0.287462 -0.382939 0.180879 0.441569 -0.178786 -0.450376 0.364872 -0.268538 -0.207917 -0.093198 -0.398734 -0.605780 -0.108364 
vNONHSAT001050.2 0.294406 -0.142637 -0.122541 0.370277 0.218738 -0.010971 -0.220752 0.147557 0.007786 -0.352321 -0.349105 0.208029 -0.282784 0.095894 0.060969 -0.030589 -0.150618 -0.238758 -0.176324 -0.059994 0.218250 0.229632 -0.082879 -0.052160 -0.005574 -0.035898 -0.182029 -0.210828 -0.051836 -0.043337 -0.012131 0.198008 -0.424928 -0.008118 -0.126628 -0.330833 0.119426 -0.291145 -0.370715 -0.393464 0.047586 0.069858 -0.049154 -0.000792 -0.365952 0.238763 0.202177 0.172655 -0.431159 -0.015882 0.264400 0.163045 -0.374044 0.105504 0.418751 -0.341919 -0.279216 0.634938 -0.123690 -0.107452 -0.024496 -0.195150 -0.537522 -0.046676 
vNONHSAT092772.2 0.227168 -0.180211 -0.175663 0.185022 0.214811 -0.076182 -0.059549 0.205256 -0.222148 -0.473666 -0.371195 0.133921 -0.223266 0.266746 0.017479 0.070097 0.087008 -0.116867 0.008816 0.105392 -0.052764 0.399844 -0.274434 0.086871 -0.177484 0.079449 -0.008461 -0.314014 0.078519 -0.026404 -0.332404 0.052912 -0.304512 0.115263 0.001019 -0.352334 0.129152 -0.066904 -0.390842 -0.410193 0.084263 0.019400 -0.125507 0.044541 -0.176127 0.337883 0.306784 0.379901 -0.371820 -0.043168 0.283168 0.464109 -0.142511 0.054267 0.487854 -0.268513 -0.150589 0.414323 -0.162689 -0.292741 -0.018321 -0.208138 -0.639624 -0.358178 
vNONHSAT060501.2 0.252240 -0.331610 -0.078863 0.356457 0.302483 0.160620 0.097526 0.313980 -0.122433 -0.197210 -0.176430 0.248799 -0.257613 0.134439 0.015158 -0.004881 0.002250 -0.006107 0.159987 -0.053133 0.179755 0.312707 -0.095136 0.201146 -0.160184 -0.140166 -0.025090 -0.374296 -0.224930 -0.104764 -0.196985 0.262803 -0.318478 -0.030643 -0.376124 -0.296824 -0.092263 -0.351236 -0.179370 -0.162279 -0.137693 -0.286641 0.093316 0.090883 -0.394596 0.307040 0.154018 0.238240 -0.315669 -0.001347 0.203233 0.080688 -0.117766 0.001816 0.287045 -0.343280 -0.282687 0.490445 -0.311827 -0.164596 -0.197461 -0.251062 -0.595172 -0.307086 
vNONHSAT031489.2 0.111042 -0.111177 0.294084 0.096462 0.232708 0.122057 -0.118122 0.378010 -0.041803 0.040164 -0.008621 -0.116733 -0.205500 -0.064704 -0.164546 0.098109 -0.232821 -0.037009 -0.001343 0.298565 0.172700 0.133142 0.064328 0.026659 -0.184860 -0.052286 -0.082976 -0.282659 -0.083158 -0.043161 0.147996 0.224933 -0.267156 -0.099395 -0.151296 -0.454467 0.075273 -0.232623 -0.399076 -0.333341 0.051651 -0.172101 -0.076692 0.140014 -0.350495 0.306096 0.210813 0.279114 -0.229337 0.110189 0.364047 0.118380 -0.337224 0.218103 0.544402 -0.187702 -0.432411 0.321406 -0.333466 -0.079257 0.036706 -0.244077 -0.527142 -0.187748 
vNONHSAT145225.2 0.313393 -0.297576 0.376347 -0.226308 0.192773 -0.036666 -0.191222 0.219359 -0.120875 -0.314312 -0.044339 0.069027 -0.189284 0.292327 0.055254 -0.022408 -0.248328 -0.165378 -0.044476 0.553228 0.158398 0.192607 0.080577 0.309335 -0.335326 0.052945 -0.051292 -0.155563 -0.045909 -0.006154 0.153659 0.262964 -0.343993 -0.075012 -0.179543 -0.438679 0.334004 -0.079831 -0.377930 -0.124921 0.146029 -0.232026 -0.118581 -0.141581 -0.296621 0.390661 0.336296 0.246095 -0.186051 0.142582 0.498992 0.466550 -0.143715 0.229112 0.540364 -0.066119 -0.328036 0.074183 -0.502804 -0.192128 0.150562 -0.360445 -0.637777 -0.367321 
vNONHSAT000825.2 0.198040 -0.022167 0.012822 0.169600 0.149850 -0.038615 -0.012093 0.371212 -0.154398 -0.330412 0.037341 -0.195651 -0.231320 0.155819 -0.019203 0.139245 -0.217178 0.029154 0.135561 0.244361 -0.037883 0.466949 -0.178194 0.112051 -0.165478 0.203496 -0.026382 -0.209978 -0.016201 0.092545 -0.016195 0.273605 -0.190999 0.015846 -0.174736 -0.200156 0.091388 -0.036643 -0.280049 -0.462721 0.308584 -0.085741 0.031884 0.278485 -0.239632 0.386085 0.280842 0.205461 -0.353073 0.015898 0.282669 0.181007 -0.241785 -0.006036 0.658582 -0.347934 -0.188491 0.415517 -0.234829 -0.061990 -0.245457 -0.166565 -0.488543 -0.514513 
vNONHSAT044002.2 0.317885 -0.120993 0.003535 0.298157 0.229506 0.028093 -0.217764 0.279428 -0.018642 -0.086806 -0.309385 0.058855 -0.226021 0.097358 0.069923 -0.043302 -0.257790 -0.144353 -0.123704 -0.059934 0.118205 0.175446 -0.213449 -0.104603 -0.079798 -0.183574 -0.101810 -0.290585 -0.208188 0.029815 0.028448 0.159725 -0.233246 -0.054284 -0.116502 -0.367598 0.093772 -0.211745 -0.273566 -0.376186 0.017262 0.075357 -0.025594 0.031103 -0.453864 0.431951 0.290461 0.149654 -0.296351 0.055028 0.231442 0.178894 -0.531025 0.141691 0.441387 -0.246286 -0.441047 0.508009 -0.140586 -0.126661 -0.046262 -0.253667 -0.619814 -0.131726 
vNONHSAT097093.2 0.183521 -0.253391 0.058392 0.294009 0.191954 0.121831 0.050596 0.343634 -0.118209 0.098537 -0.211032 0.235211 -0.303422 0.050703 -0.191707 0.188292 -0.055105 0.034717 -0.027924 0.049532 0.166616 0.110148 0.013873 0.211028 -0.101219 -0.307002 -0.058352 -0.262114 -0.123336 0.027641 0.121457 0.339390 -0.410449 -0.056487 -0.295140 -0.306017 -0.178678 -0.422386 -0.033399 -0.221473 -0.105381 -0.317938 -0.119838 0.131492 -0.276201 0.305320 0.124130 0.326718 -0.309293 0.070138 0.235030 -0.016596 -0.189150 0.100833 0.280010 -0.352222 -0.293959 0.729278 -0.291898 -0.245808 -0.012302 -0.279268 -0.376846 -0.203937 
vNONHSAT115059.2 0.038331 -0.057337 -0.099517 0.100535 0.096241 0.062310 -0.461728 0.300220 0.039228 -0.324127 -0.418596 0.450335 -0.461518 0.225871 0.196336 0.163497 -0.060018 0.416439 -0.129601 0.311274 -0.042311 0.273939 0.038565 0.201074 -0.459228 0.255177 0.268350 -0.369377 -0.042249 -0.368679 0.456897 0.449171 -0.031044 -0.277963 -0.219557 -0.299648 -0.201601 -0.061584 0.107923 -0.199759 0.127666 0.066203 0.193275 0.043377 -0.561087 0.465588 -0.201368 0.737476 -0.296646 0.151889 -0.069753 0.218862 -0.165187 -0.242917 0.117565 0.045295 -0.513107 0.494869 0.023832 -0.023306 -0.023688 -0.010108 -0.997888 0.191906 
vNONHSAT007667.2 0.130451 0.012462 -0.145798 0.198434 0.258079 -0.002494 -0.329843 0.115743 0.137817 -0.190678 -0.020887 0.102240 -0.320422 -0.282110 0.054163 0.173846 0.001983 -0.085688 -0.250255 -0.193314 -0.122414 0.298028 -0.031190 -0.121688 -0.046510 -0.195144 -0.109930 -0.331310 0.200639 -0.121673 0.003478 0.261925 -0.410995 0.119064 0.060660 -0.167044 0.044660 -0.138826 -0.446780 -0.462617 0.118316 -0.163595 0.002732 0.062558 -0.342177 0.048553 -0.030542 0.012984 -0.570534 -0.120712 0.252754 0.352432 -0.353791 0.056521 0.421054 -0.286981 -0.418816 0.649108 -0.201802 -0.056324 -0.382471 -0.382674 -0.700845 0.167725 
vNONHSAT006360.2 0.122020 -0.163917 0.109714 0.283209 0.215510 0.344267 -0.086660 0.424954 -0.150426 -0.027972 -0.089092 -0.049509 -0.243522 0.107127 -0.119066 0.164153 0.029992 0.139394 0.044965 0.042815 0.201476 0.281360 -0.220479 -0.019138 -0.089225 -0.290107 0.052506 -0.422761 -0.218134 -0.036052 0.070498 0.307149 -0.333653 -0.067774 -0.238812 -0.380565 -0.200588 -0.250697 -0.270275 -0.355855 -0.058182 -0.273136 0.165458 0.208257 -0.380554 0.224907 0.172549 0.488431 -0.113959 0.029174 0.257406 0.040966 -0.327964 0.031006 0.296110 -0.184331 -0.487014 0.390341 -0.138553 -0.124621 -0.104127 -0.192811 -0.498385 0.010864 
vNONHSAT112849.2 0.089398 -0.172626 0.143918 0.207238 0.251014 0.155130 -0.076573 0.262353 0.003421 0.042990 -0.083983 -0.121400 -0.319932 0.014532 -0.039242 0.079189 -0.075523 0.015375 0.016980 0.045568 0.047961 0.285223 -0.189979 0.017712 -0.159057 -0.068866 -0.078405 -0.318057 0.014056 -0.200063 -0.061429 0.217224 -0.362022 0.063258 -0.057486 -0.235613 0.038790 -0.191478 -0.470635 -0.470793 -0.156911 -0.174500 -0.195790 0.174681 -0.343189 0.081146 0.160694 0.426247 -0.146741 -0.058084 0.343238 0.307437 -0.260071 0.056761 0.193580 -0.224867 -0.475567 0.423681 -0.232076 -0.390189 -0.083873 -0.342453 -0.524689 -0.075929 
vNONHSAT123136.2 0.101533 -0.158237 -0.008293 0.022543 0.148642 -0.108166 -0.046605 0.165606 0.034294 0.001553 -0.168616 -0.046813 -0.333986 -0.023417 -0.065360 0.220159 -0.107520 -0.016057 -0.010776 0.052964 -0.046048 0.287958 -0.029167 0.083510 -0.063192 0.083514 -0.089934 -0.325166 0.111654 -0.104381 -0.119567 0.309859 -0.416443 0.121855 -0.079277 -0.163636 0.276414 -0.209977 -0.424642 -0.436711 0.039131 -0.099043 -0.256739 0.180916 -0.239098 0.173168 0.003255 0.379005 -0.368761 -0.018233 0.291881 0.279088 -0.332807 0.157528 0.170757 -0.451901 -0.473515 0.673614 -0.129297 -0.418300 -0.088972 -0.389742 -0.422030 -0.012039 
vNONHSAT102816.2 0.356651 -0.387776 -0.132242 0.216582 0.246889 -0.039138 0.056898 0.275099 -0.103770 -0.209654 0.010808 0.370002 -0.537691 -0.082479 -0.033089 0.204427 -0.049315 -0.068328 -0.025544 0.197448 0.100017 0.118127 -0.164650 0.143608 -0.222097 -0.029506 0.220973 -0.013283 -0.119868 0.062234 -0.184759 0.459222 -0.356591 -0.206096 -0.195222 -0.283000 -0.173968 -0.222929 0.028979 -0.056062 0.081474 -0.076446 -0.049905 0.103503 -0.331468 0.470108 0.108687 0.293155 -0.311619 0.048333 0.297596 0.038898 -0.214123 0.105742 0.182174 -0.316718 -0.195443 0.596290 -0.393171 -0.041349 -0.236176 -0.332751 -0.708229 -0.487125 
vNONHSAT124481.2 0.301493 -0.105004 -0.180376 0.487018 0.246380 -0.008889 -0.274917 0.451105 -0.120113 -0.350241 -0.374699 0.235153 -0.029209 0.086368 -0.279346 -0.067111 -0.215351 0.383907 -0.208910 0.098038 0.372663 -0.214505 0.086350 -0.312827 -0.504402 0.181928 0.013653 0.124533 0.546005 -0.047796 0.081275 0.579915 -0.207308 -0.169146 -0.359326 -0.001484 -0.077237 -0.368727 -0.493744 -0.488023 -0.292762 -0.062122 -0.001593 0.278546 0.036596 0.434547 0.032889 0.132025 -0.219482 -0.059343 0.019666 0.180901 -0.449560 -0.333984 0.511295 0.049285 -0.292784 0.303653 -0.281970 -0.255865 -0.255520 -0.476627 -0.401078 -0.211745 
vNONHSAT137571.2 0.328149 -0.025533 0.177015 0.248798 0.259553 0.095351 0.073153 0.263850 -0.041636 0.086107 -0.022747 -0.054929 -0.171171 -0.151904 -0.104743 0.090470 -0.197122 0.001981 0.040720 0.251805 0.202711 0.058620 -0.079124 -0.063761 -0.189526 0.025120 0.009795 -0.381820 -0.033589 -0.079118 0.136662 0.263817 -0.160978 -0.090116 -0.064504 -0.317613 -0.071825 -0.279050 -0.380794 -0.505867 0.068407 -0.165210 -0.073050 0.128404 -0.364724 0.437466 0.149865 0.387233 -0.158563 0.131856 0.247114 0.063359 -0.221323 0.253469 0.501252 -0.379137 -0.429190 0.358264 -0.317520 -0.071582 -0.046851 -0.248607 -0.490264 -0.095294 
vNONHSAT021854.2 0.807571 0.138242 -0.019501 0.193160 0.229136 -0.570356 0.080324 -0.178772 0.261936 0.259717 -0.141433 0.274969 0.224796 -0.127488 0.004095 0.000798 -0.033352 -0.196491 -0.266038 0.109463 0.130676 -0.295414 0.083773 -0.339303 -0.215206 -0.196772 -0.240038 -0.100223 0.067888 0.114965 0.314850 0.374949 -0.021116 0.262087 0.156576 -0.205926 -0.083354 -0.295445 -0.637868 -0.288361 0.290012 -0.066075 0.191230 0.212188 -0.444067 0.598664 0.507358 0.323690 -0.332984 0.330246 0.449727 0.499889 -0.583048 0.342040 0.633869 -0.448408 -0.243845 0.288636 -0.425836 0.316561 -0.226174 -0.459205 -0.817930 -0.148045 
vNONHSAT052808.2 0.138393 -0.380690 0.197914 0.128667 0.156759 0.268943 -0.188368 -0.216391 0.120903 -0.173597 -0.166435 0.461011 -0.120615 0.267033 0.102495 0.001531 -0.198825 0.068582 -0.294494 0.151316 0.194495 0.288603 0.354365 -0.111253 0.116223 0.191306 -0.128375 -0.261275 0.288989 -0.406825 0.150524 0.261810 -0.749947 -0.448072 -0.004499 -0.179294 0.378695 -0.564820 -0.389000 -0.254265 0.401128 -0.002744 0.186322 -0.166340 0.043524 -0.262313 0.101187 0.438918 -0.322742 -0.158865 0.491709 0.270377 -0.202002 0.135561 0.328177 0.098892 -0.255145 0.655180 -0.045770 -0.109306 -0.466192 -0.380025 -0.565231 0.244896 
vNONHSAT057058.2 0.414561 -0.207718 0.216144 0.156950 0.239400 0.136825 0.262755 0.344542 -0.084434 0.005099 0.059571 0.336577 -0.261917 -0.174694 -0.135671 0.228294 -0.080987 -0.015450 0.026228 0.275205 0.051475 0.036314 -0.150941 0.055247 -0.227037 0.065473 0.032577 -0.411383 0.083992 -0.055306 0.031884 0.368973 -0.401460 -0.147717 -0.044948 -0.118162 0.168605 -0.544162 -0.350098 -0.322586 0.196620 -0.285618 0.007579 0.053833 -0.132906 0.416740 0.103513 0.315557 -0.297320 -0.035067 0.229362 0.135554 -0.083091 0.110957 0.373938 -0.328283 -0.323176 0.441625 -0.373918 0.094788 -0.186698 -0.381799 -0.509811 -0.105791 
vNONHSAT033428.2 0.187017 -0.221133 -0.067063 0.090518 0.162091 0.011736 -0.032570 0.386503 -0.143041 -0.196210 -0.059922 -0.030491 -0.469920 0.389804 0.159998 -0.097037 -0.203678 0.043970 0.119151 0.416576 0.065544 0.183715 -0.335146 0.056912 -0.351889 -0.114459 0.219893 -0.189822 -0.196868 -0.085189 -0.034717 0.556673 -0.457232 -0.178242 -0.209886 -0.518898 -0.089953 -0.140218 -0.182119 -0.166865 0.158739 -0.005314 0.294343 0.042891 -0.227698 0.639651 0.210589 0.616042 -0.061496 0.210085 0.219917 0.051438 -0.229519 0.132342 0.231679 -0.213351 -0.466852 0.241866 -0.246815 0.207269 -0.335837 -0.256774 -0.473899 -0.164510 
vNONHSAT000091.2 0.578640 -0.094672 0.110191 0.444850 0.223562 0.331427 0.202861 0.195796 -0.027367 -0.148465 -0.304079 0.271599 -0.081035 0.231709 0.372394 -0.068092 -0.598558 -0.142178 0.120391 0.175547 0.259435 0.183793 -0.300682 -0.289524 -0.082186 0.319571 -0.004680 -0.235553 -0.375327 -0.199079 0.358900 0.138147 -0.206476 -0.166566 -0.335611 -0.229560 0.133477 -0.302224 -0.080130 -0.508586 -0.247762 -0.170187 -0.008867 -0.016699 -0.735656 0.406487 0.297796 0.241618 -0.198821 0.136863 0.169557 0.389428 -0.265935 0.095525 0.475090 -0.256752 -0.480435 0.153826 -0.209180 -0.404732 0.066921 -0.186488 -0.526019 -0.359417 
vNONHSAT034665.2 -0.003016 -0.389319 0.283454 0.200784 -0.005344 0.367875 -0.178856 0.506415 -0.030939 -0.418396 -0.114248 -0.037793 -0.150844 0.140111 0.088399 0.088288 0.198508 -0.050237 0.137846 0.074955 0.272399 0.319735 -0.498826 -0.034681 0.011104 -0.292799 -0.314091 0.017842 0.350435 -0.027996 0.440506 0.280762 -0.391809 0.126263 -0.400117 -0.002259 -0.023548 -0.103296 -0.090536 -0.287320 0.392153 -0.369799 0.436249 0.105452 -0.479953 0.237871 0.030805 0.709336 -0.683644 0.136394 0.125080 0.189985 0.018392 0.108664 0.683226 0.011804 -0.048215 0.048447 -0.541127 -0.560137 0.107680 0.047979 -0.639721 0.186095 
vNONHSAT126086.2 0.257052 -0.049195 -0.037020 0.417881 0.120409 0.009209 -0.174251 0.326589 0.034788 -0.148797 -0.110391 -0.171054 -0.187733 0.202741 -0.094808 0.101976 -0.164147 0.139955 -0.030388 0.178389 0.151118 0.238935 -0.234043 -0.004480 -0.056776 -0.092858 -0.068207 -0.152462 -0.172359 0.152723 0.217097 0.240989 -0.248025 -0.034756 -0.324529 -0.151620 -0.060381 -0.096351 -0.266712 -0.604813 0.442880 -0.012438 0.284427 0.218046 -0.200439 0.273639 0.375514 0.356969 -0.291758 0.016440 0.235636 -0.082672 -0.367125 0.128065 0.687998 -0.305270 -0.206783 0.445978 -0.136969 0.015125 -0.051520 0.053955 -0.539611 -0.106111 
vNONHSAT033970.2 0.019076 -0.367969 0.022441 0.464987 0.203553 0.204291 -0.139534 0.216282 0.038810 -0.009100 -0.102651 -0.219685 -0.400302 0.322382 -0.025333 -0.169368 0.021063 0.099688 0.017014 0.175375 0.240802 0.134253 -0.133045 0.178792 -0.188042 0.044372 -0.061917 -0.218518 -0.076708 -0.175600 -0.018119 0.059560 -0.343516 -0.177274 -0.307054 -0.121823 -0.010940 -0.424226 -0.372523 -0.471337 -0.005829 -0.049105 -0.283120 0.059180 -0.114027 0.189516 0.192625 0.297115 -0.283480 -0.037726 0.148442 0.018924 -0.068360 0.076658 0.570833 -0.423279 -0.517421 0.731730 -0.252645 -0.343157 0.057530 -0.160251 -0.296341 0.040103 
vNONHSAT125847.2 0.041982 -0.377675 0.022048 0.462624 0.205187 0.202928 -0.136724 0.238707 0.048024 -0.013921 -0.161884 -0.207722 -0.421480 0.319316 -0.010737 -0.132751 0.016017 0.120849 0.019460 0.188795 0.249770 0.129207 -0.117818 0.157996 -0.216614 0.010967 -0.060868 -0.233752 -0.055936 -0.181282 -0.013798 0.086592 -0.349444 -0.184420 -0.289203 -0.099184 -0.010158 -0.399788 -0.378865 -0.466745 -0.007701 -0.068402 -0.275743 0.054756 -0.143697 0.161991 0.240180 0.289266 -0.264256 -0.048392 0.129704 0.012137 -0.032608 0.085899 0.553962 -0.402711 -0.513630 0.737657 -0.253983 -0.344590 0.020275 -0.139201 -0.305923 0.050975 
vNONHSAT028415.2 0.072481 -0.085429 0.072413 0.324352 0.182380 0.282688 -0.038209 0.155336 -0.374768 -0.430496 -0.191168 0.145667 -0.092394 0.268553 0.036732 0.373975 -0.174395 0.192869 0.126437 -0.160333 0.198625 -0.155371 0.214833 -0.356588 -0.342854 0.055700 -0.027390 0.590434 0.324318 0.046744 0.072529 0.616164 -0.036438 -0.138185 -0.054785 -0.419036 -0.119894 -0.442217 -0.326914 -0.552591 -0.188473 -0.082913 -0.084025 0.176827 -0.106165 0.387416 0.183867 0.219288 -0.240351 -0.414678 0.222616 0.281835 -0.479304 -0.397970 0.778708 -0.176236 -0.487013 0.421360 -0.575869 -0.230674 -0.873855 0.313409 -0.366770 0.054961 
vNONHSAT072984.2 0.107049 -0.056139 0.236921 0.202964 0.234587 0.360475 -0.036442 0.198772 -0.097822 0.263384 -0.129813 0.150937 -0.347611 -0.146684 -0.253329 0.198301 -0.263865 -0.033468 0.019265 0.079818 0.252812 0.152490 -0.142439 0.008867 -0.282085 -0.139511 -0.083274 -0.135401 -0.217000 0.017052 -0.019786 0.558283 -0.119177 0.130373 -0.155622 -0.061779 -0.287709 -0.336387 -0.161219 -0.617104 -0.087629 -0.365733 -0.150922 0.228148 -0.432024 0.316410 -0.058806 0.186643 0.066260 0.088159 0.015952 0.113810 -0.109316 0.222671 0.402808 -0.244755 -0.329882 0.347374 -0.292847 -0.335709 0.053865 -0.501174 -0.760096 -0.075807 
vNONHSAT070107.2 0.289833 -0.078302 0.056588 0.073220 0.309266 -0.060618 -0.220490 -0.033470 0.067350 -0.220885 -0.038136 0.194353 -0.305024 -0.045974 0.070560 0.187376 -0.066761 0.053454 -0.109101 0.037966 0.161127 0.452629 0.341774 0.056263 -0.087883 -0.078790 -0.008531 -0.329488 0.060297 -0.286041 0.227306 0.337172 -0.407764 0.054006 -0.250681 -0.055956 0.104995 -0.241450 -0.189105 -0.113899 0.077560 -0.637123 0.143904 -0.182877 -0.561318 0.085677 -0.271464 -0.025347 -0.721460 0.045483 0.189206 0.400300 -0.272219 -0.137553 0.540014 -0.133730 -0.576350 0.691739 -0.444632 -0.018488 -0.549051 -0.570975 -0.450984 0.297071 
vNONHSAT068119.2 0.216495 -0.107167 0.263963 0.203837 0.277030 0.085404 0.174349 0.382580 -0.122838 0.007955 0.053327 -0.041617 -0.325610 0.015783 -0.026657 -0.002879 -0.108405 0.042737 0.162771 0.306143 0.000353 0.125208 -0.184326 0.050483 -0.278955 0.003946 0.084526 -0.398094 -0.031848 -0.224706 0.020841 0.269228 -0.302453 -0.131657 -0.056676 -0.310537 -0.098085 -0.413552 -0.374525 -0.305731 0.059026 -0.277526 0.007257 0.103617 -0.241180 0.464044 0.249767 0.436243 -0.141577 0.043327 0.242859 0.150205 -0.060579 0.159090 0.480874 -0.337064 -0.388195 0.272350 -0.406816 -0.001748 -0.170899 -0.249977 -0.466916 -0.216766 
vNONHSAT037119.2 0.185414 -0.265631 0.079693 0.349578 0.338225 0.264889 -0.163703 0.149706 0.153442 0.032750 -0.086104 -0.064164 -0.241317 -0.094490 0.000502 0.131015 -0.051638 0.017783 -0.029575 0.037992 0.183577 0.257829 -0.030405 0.017308 -0.190223 0.051369 -0.068334 -0.212793 -0.021043 -0.156136 0.233322 -0.026950 -0.251450 -0.149188 -0.042429 -0.042393 0.129532 -0.100920 -0.531493 -0.683796 -0.079498 -0.045202 -0.187751 0.234024 -0.281113 0.018446 0.115019 0.461146 -0.173897 -0.174978 0.359078 0.221017 -0.240362 -0.016923 0.262754 -0.341702 -0.387477 0.378176 -0.224294 -0.487479 -0.010995 -0.151075 -0.638015 -0.054684 
vNONHSAT122815.2 0.217407 -0.139053 0.256070 0.185740 0.284610 0.069728 0.158412 0.369876 -0.116847 -0.010699 0.037909 -0.046130 -0.337231 -0.004208 -0.024408 0.007813 -0.113649 0.047227 0.146437 0.317483 0.015019 0.124626 -0.180841 0.023777 -0.300155 -0.006139 0.077331 -0.388360 -0.054823 -0.233922 0.019353 0.247426 -0.319509 -0.125146 -0.031083 -0.316505 -0.118876 -0.394770 -0.365813 -0.324460 0.062624 -0.288429 -0.050431 0.094075 -0.264525 0.429255 0.220802 0.441692 -0.152387 0.023142 0.230414 0.179066 -0.039944 0.147520 0.500551 -0.345174 -0.387318 0.308281 -0.417665 -0.004427 -0.181893 -0.256612 -0.459283 -0.238059 
vNONHSAT027013.2 0.450000 -0.427917 0.548960 0.181477 0.322441 0.184919 -0.273163 -0.040100 -0.362009 -0.435074 -0.191541 -0.022323 -0.330262 0.569050 0.055083 0.151046 -0.185249 0.078837 0.092746 -0.129607 0.518624 0.267412 0.102318 -0.484608 -0.102448 0.143407 0.024637 -0.513278 0.071984 -0.042484 0.114710 0.393497 -0.223668 -0.267453 0.260889 -0.375734 0.133179 -0.269019 -0.369230 -0.066292 0.072005 0.240338 0.181230 -0.247318 -0.092784 0.034000 0.006575 0.652396 -0.538412 -0.397461 0.185424 0.417738 -0.152866 0.014128 0.261272 0.103753 -0.511001 0.799008 -0.341908 -0.234501 -0.141164 -0.415968 -0.633176 0.039439 
vNONHSAT054162.2 0.046030 -0.082966 -0.142099 0.295801 0.253525 0.261635 -0.258028 -0.008166 0.301679 0.017238 -0.206525 -0.073750 -0.355315 -0.135165 0.207503 0.369987 0.119266 -0.038716 -0.094796 0.376516 0.011436 0.164920 0.044115 0.108946 -0.296857 0.091198 -0.227163 0.090895 0.108801 -0.208693 0.267947 -0.412572 -0.323679 -0.172017 -0.084126 0.034511 0.004932 -0.002775 -0.422111 -0.788512 -0.153273 -0.217752 -0.285473 0.517538 -0.360155 -0.053150 0.034614 0.370032 -0.112468 -0.231724 0.324506 0.226311 -0.131534 -0.054768 0.428523 -0.173507 -0.583450 0.472626 -0.120878 -0.497053 -0.060376 -0.085137 -0.788070 -0.074012 
vNONHSAT084887.2 0.262174 -0.092094 0.009774 0.268926 0.228669 -0.089986 -0.104710 0.319086 -0.047727 -0.214305 0.061986 -0.069840 -0.225335 0.162664 -0.077426 0.052955 -0.202108 0.053149 0.138811 0.180561 0.107232 0.232496 -0.088952 0.013912 -0.148407 0.182520 -0.033653 -0.184887 -0.089341 0.115723 0.133779 0.210136 -0.191746 -0.157306 -0.214726 -0.118321 0.049137 -0.166467 -0.313248 -0.547567 0.443271 0.024112 0.132864 0.223695 -0.247210 0.290261 0.368083 0.261772 -0.337081 0.034402 0.243924 0.049060 -0.275943 0.063101 0.705908 -0.432975 -0.154740 0.459228 -0.258610 0.051617 -0.147183 -0.065703 -0.522634 -0.330572 
vNONHSAT091524.2 0.281071 -0.285420 0.024657 0.275859 0.184229 -0.041926 -0.059331 -0.079285 0.111206 -0.244212 0.066150 0.367452 -0.283339 -0.021699 0.016429 -0.036705 -0.003017 -0.121437 -0.045260 0.206517 0.169505 -0.002039 0.086739 0.153842 -0.068015 0.305568 -0.223243 -0.066632 0.032381 -0.049413 -0.327463 0.303402 -0.389909 -0.102001 -0.067021 -0.164847 0.080468 -0.360581 -0.246878 -0.421355 0.346825 0.194550 0.022162 0.216807 -0.057513 0.201497 0.245552 0.309442 -0.282600 -0.146001 0.256011 0.188870 -0.218445 0.199057 0.320648 -0.238654 -0.147861 0.763323 -0.271725 -0.152895 -0.298202 -0.143565 -0.785011 -0.383786 
vNONHSAT088370.2 0.262288 -0.198044 0.103302 0.354561 0.292454 0.105661 -0.023314 0.185378 0.045668 0.076125 -0.055195 -0.022586 -0.203255 0.029268 -0.120867 0.063424 -0.102778 -0.047991 0.050435 0.128975 0.272481 0.094736 0.039653 -0.007882 -0.163715 0.036211 -0.062331 -0.274499 -0.109592 0.013958 0.158131 0.142553 -0.175997 -0.157346 -0.153266 -0.229553 -0.037900 -0.232005 -0.363546 -0.524256 0.098486 -0.124809 -0.047491 0.176873 -0.342035 0.307400 0.239899 0.348621 -0.232346 0.117414 0.291567 0.043699 -0.285849 0.166619 0.559174 -0.352278 -0.354193 0.547957 -0.225407 -0.124042 -0.003218 -0.133736 -0.573471 -0.066393 
vNONHSAT047105.2 0.269274 -0.186586 0.070000 0.348133 0.316693 0.122873 -0.016027 0.203716 0.042774 0.087367 -0.089264 -0.016214 -0.210041 0.037263 -0.116496 0.085022 -0.123512 -0.046275 0.064666 0.138815 0.278327 0.088341 0.057209 -0.020232 -0.161525 0.054833 -0.060093 -0.259835 -0.103292 -0.003251 0.151010 0.135639 -0.198003 -0.183089 -0.158895 -0.215004 -0.040895 -0.217154 -0.369551 -0.520946 0.099308 -0.124388 -0.035851 0.211652 -0.334002 0.300933 0.253619 0.345857 -0.252620 0.123060 0.266695 0.051474 -0.293753 0.179403 0.566079 -0.326427 -0.363186 0.538101 -0.227026 -0.148218 -0.029653 -0.125001 -0.568021 -0.058655 
vNONHSAT131106.2 0.243859 -0.217935 0.095819 0.333276 0.306557 0.110538 -0.041602 0.206903 0.023530 0.069419 -0.068957 -0.048945 -0.214004 0.004233 -0.151043 0.059772 -0.083940 -0.027519 0.063987 0.138706 0.274616 0.112554 0.010365 -0.008826 -0.154901 0.051082 -0.070634 -0.249525 -0.116312 -0.017809 0.172064 0.134310 -0.192256 -0.162522 -0.161811 -0.225473 -0.064002 -0.226473 -0.359301 -0.540698 0.129913 -0.129854 -0.022049 0.198700 -0.346898 0.282335 0.215115 0.329389 -0.218253 0.119068 0.281206 0.054726 -0.296141 0.161646 0.554330 -0.341951 -0.367967 0.506375 -0.225185 -0.149535 -0.009375 -0.151300 -0.576955 -0.052423 
vNONHSAT049673.2 0.246872 -0.271856 0.041450 0.101063 0.177785 -0.191785 0.014976 0.162391 -0.106278 -0.326568 -0.171119 0.175734 -0.383363 0.198873 -0.133882 0.116469 0.242182 0.057915 0.106055 0.247725 0.138332 0.106375 -0.088473 0.142585 -0.226146 0.012356 -0.096658 -0.247930 0.176983 -0.166139 -0.274824 0.311562 -0.487794 0.114896 0.042650 -0.244363 -0.041411 -0.404250 -0.406958 -0.264195 0.009259 -0.277082 -0.166046 0.062789 -0.256781 0.190511 0.261905 0.486201 -0.432989 -0.048776 0.304493 0.419155 -0.090940 0.170737 0.349324 -0.247698 -0.239973 0.586359 -0.358873 -0.131693 0.059690 -0.387882 -0.543774 -0.156869 
vNONHSAT072962.2 0.196166 -0.064319 0.138923 -0.019557 0.223396 -0.093462 -0.137925 0.128572 -0.227589 -0.340209 -0.172123 -0.027450 -0.288564 0.148755 -0.163385 0.285040 0.114556 0.022604 0.203935 0.419295 0.150764 0.090519 0.019652 0.003969 -0.185758 0.323429 -0.061677 -0.414325 0.053691 0.043519 -0.052833 0.204613 -0.188220 0.101825 -0.106842 -0.281254 0.042306 -0.249977 -0.503511 -0.320409 0.229582 -0.330487 -0.188022 0.199613 -0.331445 0.369468 0.145633 0.274494 -0.356484 0.009834 0.249019 0.358757 -0.162297 0.223191 0.704835 -0.241169 -0.248723 0.404060 -0.403191 -0.165146 0.024293 -0.343613 -0.458413 -0.264030 
vNONHSAT137607.2 0.364391 0.087784 -0.005488 0.184538 0.025516 0.030254 0.016376 0.132030 -0.017755 0.007999 -0.224271 0.540061 -0.179771 0.235788 0.034661 0.163059 -0.039058 -0.357463 -0.320932 0.136326 0.299973 -0.041399 0.153791 -0.278942 -0.103159 -0.300040 -0.345939 -0.334293 -0.071327 0.062192 0.421509 0.414226 -0.370750 -0.119400 0.014482 -0.161332 -0.327124 -0.632659 -0.045936 -0.326368 -0.110789 -0.459135 0.233001 0.046992 -0.409496 0.196333 0.033638 0.215472 -0.751191 -0.117737 -0.153303 0.422532 -0.082190 0.353867 0.585180 -0.219202 -0.620440 0.657769 -0.477777 -0.011712 0.015553 -0.274573 -0.455713 -0.301675 
vNONHSAT034472.2 0.250506 -0.271981 0.051554 0.121442 0.182388 -0.152263 -0.015172 0.170546 -0.069560 -0.305435 -0.172026 0.201261 -0.348491 0.173486 -0.112408 0.111009 0.218095 0.039003 0.087262 0.212799 0.126761 0.115846 -0.101033 0.152268 -0.256157 0.011370 -0.074167 -0.279592 0.179676 -0.154736 -0.268721 0.288362 -0.469616 0.131516 0.022679 -0.243579 -0.052969 -0.414368 -0.388201 -0.237280 0.024824 -0.274089 -0.138904 0.101502 -0.216646 0.173924 0.292617 0.495178 -0.444599 -0.052023 0.301277 0.438954 -0.097893 0.175820 0.341394 -0.257499 -0.215431 0.575856 -0.358583 -0.117640 0.075788 -0.359328 -0.519128 -0.149127 
vNONHSAT028579.2 0.273610 0.021334 0.140239 0.292913 0.250917 0.141350 0.181452 0.261194 -0.033701 -0.019872 0.060944 0.024062 -0.230495 0.104191 0.094293 -0.018853 -0.362581 -0.006670 0.290635 0.386313 0.061159 0.176834 -0.073088 0.038425 -0.336972 0.191797 0.031466 -0.326692 -0.047679 -0.222570 0.172779 0.312356 -0.235946 -0.124004 -0.112448 -0.280628 -0.113525 -0.293949 -0.347547 -0.532182 -0.047176 -0.202002 0.168814 0.213060 -0.372229 0.500992 0.244405 0.412014 -0.226208 0.035513 0.146590 0.134066 0.114429 0.093364 0.457384 -0.332895 -0.255822 0.210108 -0.439861 -0.007754 -0.245153 -0.225443 -0.500425 -0.256443 
vNONHSAT125784.2 0.290240 -0.163588 0.108832 0.374794 0.216004 0.040456 -0.131298 0.368317 0.010805 -0.056908 -0.122131 -0.115840 -0.207580 0.033576 -0.138832 0.207234 -0.215566 0.128623 0.032579 0.078755 0.185742 0.207817 -0.136130 -0.047165 -0.002393 -0.022346 -0.063518 -0.104846 -0.122612 0.237375 0.315381 0.247670 -0.181179 -0.032695 -0.340716 -0.055470 0.016746 -0.090594 -0.152967 -0.520565 0.470340 -0.045833 0.142334 0.242700 -0.297187 0.238025 0.344905 0.341925 -0.437700 0.044243 0.294493 -0.025858 -0.393410 0.079323 0.691756 -0.342513 -0.151592 0.504077 -0.167095 -0.115636 0.000813 0.056159 -0.573843 -0.177857 
vNONHSAT093004.2 0.132169 -0.189947 -0.047046 0.309067 0.266087 0.060414 -0.208405 0.164826 0.093341 -0.112757 -0.082054 -0.027620 -0.239109 0.093586 -0.000376 -0.104598 -0.104561 -0.106795 -0.025673 0.142415 0.160660 0.105947 -0.022471 -0.008333 -0.099353 0.104497 -0.148102 -0.210604 0.009097 -0.031586 0.054695 0.100174 -0.272376 -0.165003 -0.108140 -0.245536 0.076504 -0.196969 -0.490917 -0.638843 0.294622 0.196437 -0.058620 0.188291 -0.210834 0.210907 0.255835 0.327946 -0.304242 -0.020952 0.261489 0.108686 -0.260877 0.164416 0.550182 -0.360472 -0.306750 0.558910 -0.158021 -0.140204 -0.036864 -0.062245 -0.590366 -0.093571 
vNONHSAT095521.2 0.275415 0.032055 0.061912 0.381197 0.222823 0.132900 0.188631 0.175662 0.101862 0.081262 -0.007292 -0.057356 -0.215035 -0.074509 0.131183 -0.009698 -0.253155 -0.051459 0.242223 0.254208 0.056405 0.069254 -0.019993 -0.041391 -0.298273 0.087723 -0.009859 -0.391338 0.080978 -0.315041 0.123413 0.262871 -0.288452 -0.002360 -0.039936 -0.276821 -0.115975 -0.242300 -0.511117 -0.637632 -0.191298 -0.129504 0.041581 0.243754 -0.267040 0.496814 0.130410 0.579876 -0.281924 -0.018320 0.172678 0.129799 0.111056 0.153341 0.226683 -0.419949 -0.392495 0.305997 -0.398924 -0.204183 -0.208710 -0.220404 -0.492993 -0.023755 
vNONHSAT080206.2 0.148090 -0.262781 -0.137084 0.388249 0.262599 0.196467 0.061613 0.184004 -0.001052 -0.196648 -0.050106 -0.074481 -0.298628 0.064094 0.055552 -0.105950 0.051890 -0.105228 0.129465 0.257137 0.103245 0.372818 -0.094159 0.202102 -0.278843 0.041075 -0.134198 -0.162875 0.027403 -0.313868 -0.051910 0.334673 -0.421195 0.108419 -0.130620 -0.300003 -0.232716 -0.319405 -0.422755 -0.251181 -0.171325 -0.391547 -0.198216 0.156365 -0.364989 0.293932 0.279519 0.628852 -0.080498 -0.060553 0.238436 0.295501 0.042632 0.027554 0.038326 -0.350774 -0.296023 0.236584 -0.391559 -0.356522 -0.238202 -0.394918 -0.503056 -0.217985 
vNONHSAT098243.2 0.183867 -0.378002 -0.050649 0.392142 0.342261 0.059162 -0.043274 0.090094 0.094844 0.109679 -0.143045 0.063440 -0.226455 0.106304 -0.010935 -0.066911 0.016772 0.011017 0.005501 0.012150 0.115717 -0.004298 0.145509 0.072906 -0.039402 -0.066037 -0.180108 -0.222641 -0.001507 -0.138942 0.159485 0.125799 -0.464871 -0.140037 -0.195272 -0.194919 0.169378 -0.417638 -0.438819 -0.375391 0.093577 -0.031580 -0.158864 0.073207 -0.104158 0.240202 0.155244 0.281018 -0.434168 -0.035628 0.365290 0.043996 -0.191289 0.148970 0.417969 -0.377465 -0.254969 0.821314 -0.258054 -0.244538 -0.100241 -0.103310 -0.345958 0.037736 
vNONHSAT004374.2 0.358389 -0.026831 0.327275 0.352764 0.164481 0.115316 -0.399636 0.130495 0.122683 0.376186 0.127173 -0.198697 -0.343870 0.174181 0.174644 0.161843 -0.251790 -0.259920 -0.071454 0.457002 0.136375 0.593440 0.178814 -0.289904 -0.430010 -0.014569 -0.163413 -0.066320 0.312115 0.342450 -0.337638 -0.025445 -0.553948 0.168383 -0.403602 -0.040596 0.096672 -0.503401 -0.354280 0.010113 -0.145365 0.032994 0.380573 0.216323 -0.187215 0.516721 -0.056564 0.367159 -0.186213 0.149203 0.126089 0.305967 -0.176260 -0.088413 0.333543 -0.363869 -0.197417 0.545479 -0.372547 0.091942 0.144590 0.047683 -0.603332 0.012961 
vNONHSAT126295.2 0.128991 -0.218760 -0.081054 0.436111 0.148270 0.299726 -0.107959 0.364191 -0.004394 0.009530 -0.147184 -0.031623 -0.227955 0.182596 -0.110906 0.115664 0.053309 0.194832 -0.047325 0.208486 0.160778 0.265529 -0.089872 0.110234 -0.116764 -0.226311 0.069828 -0.335727 -0.234578 -0.080998 0.130774 0.153299 -0.363569 -0.238469 -0.261013 -0.350620 -0.229590 -0.208889 -0.296361 -0.408595 0.047178 -0.155055 0.095920 0.195309 -0.153805 0.254248 0.283396 0.470939 -0.194615 0.022651 0.274777 -0.124334 -0.277360 0.123309 0.567894 -0.228644 -0.414367 0.490403 -0.105423 -0.040685 -0.021517 -0.045283 -0.414249 0.013776 
vNONHSAT068218.2 -0.133814 -0.072851 -0.009575 0.096653 0.095560 0.592262 -0.070409 0.264290 -0.560729 -0.148594 0.044126 0.329611 -0.106502 -0.166064 0.148137 -0.117041 0.551200 -0.050485 -0.033223 0.295622 -0.065361 -0.107581 -0.035909 -0.403328 0.063044 -0.299681 0.065782 -0.137550 0.064148 -0.187610 0.038868 0.197415 -0.165976 0.023197 -0.011471 -0.109888 -0.141304 -0.740045 -0.422478 -0.566806 -0.533846 0.262738 0.115162 0.117373 -0.565843 0.242726 -0.357888 0.107670 -0.416876 0.277896 -0.015409 0.352897 0.177032 0.216357 0.961992 -0.055818 -0.517582 0.367475 -0.332865 -0.470778 -0.013736 -0.018544 -0.805912 -0.294719 
vNONHSAT097386.2 0.024655 -0.211004 -0.093521 0.487149 0.032252 0.345867 -0.262192 0.328916 0.005123 -0.275668 0.162615 0.041117 -0.343689 0.388635 0.043719 0.097821 0.180593 0.148250 -0.013648 0.315001 0.025207 0.206120 -0.333970 0.023111 -0.307684 -0.236860 0.034882 -0.310561 -0.267821 -0.008037 -0.045446 -0.021486 -0.406937 -0.423551 -0.207653 -0.452301 -0.239957 -0.124696 -0.344271 -0.400336 0.150234 -0.108331 0.434780 0.401480 0.141888 0.218829 0.482851 0.293533 -0.364952 -0.247296 0.212258 -0.191325 -0.086291 0.017030 0.716494 -0.074971 -0.329521 0.456037 -0.025268 0.324554 -0.228187 0.046199 -0.638404 -0.060356 
vNONHSAT129051.2 -0.068722 -0.455807 -0.173426 0.113073 -0.143151 0.100590 0.081960 0.319500 -0.004753 -0.235939 0.093390 0.317672 0.181180 0.373317 -0.161581 0.387752 -0.060693 -0.232565 -0.249341 0.037845 0.490604 0.130140 -0.022234 0.080946 -0.300321 -0.137660 0.125294 0.661339 0.184459 -0.173356 -0.037728 0.479399 -0.045364 -0.276526 0.091920 -0.652551 0.414515 -0.640713 -0.428169 -0.402130 -0.338072 -0.082116 -0.166802 -0.094941 -0.331283 0.553090 0.185418 0.221672 -0.413746 -0.242366 0.393828 0.418653 -0.302381 0.275520 0.357050 -0.224197 -0.733626 0.335912 -0.598674 -0.429429 -0.266314 0.379506 -0.503498 0.338226 
