Q15717 1.318041 0.318350 -0.415580 -1.062657 0.224989 0.778794 0.468104 0.148303 1.780642 -0.136815 -0.494660 0.363804 -0.264710 0.438882 -1.470572 -0.459848 0.078930 -0.260651 0.170199 0.088648 -0.003517 -0.230225 0.113625 -0.451065 0.438222 0.200963 0.151626 0.223823 0.015985 0.248529 0.165104 -0.245108 0.013831 0.192313 -0.072374 0.011336 0.021063 0.082382 0.122254 0.213011 -0.306174 0.117579 0.038847 0.073113 0.069403 0.124148 0.069055 -0.022657 0.038764 -0.113380 -0.038792 0.041048 -0.046530 0.046064 -0.063594 -0.197709 0.024328 0.101832 0.006906 0.228891 -0.111271 -0.082984 -0.240488 0.229394 -1.211981 -0.197817 1.315843 -0.997490 0.570513 0.114527 0.845017 1.418833 0.845452 0.378051 -0.011826 0.058339 0.287568 1.474595 -0.234006 0.404886 -0.232263 -0.315148 -0.084449 -0.323148 -0.025927 -0.252040 -0.227101 0.376017 0.158252 0.182026 0.034878 0.686440 0.324417 0.075725 -0.290100 0.202731 0.071774 0.141814 0.149096 0.148756 -0.447549 0.043453 0.007436 -0.057736 0.028338 0.159096 -0.312256 -0.054155 -0.022214 0.344435 -0.295220 0.418323 0.030960 -0.055544 -0.078535 -0.192731 0.125931 -0.221989 -0.297622 0.254210 0.123508 0.212457 -0.054419 0.274342 0.112866 0.041142 0.049400 -0.009043
Q13148 0.998361 0.339741 0.035034 -0.773144 0.263286 1.012066 0.527970 0.149955 1.549165 -0.529928 -0.756209 -0.038266 -0.465384 0.564480 -1.421790 -0.811362 0.281624 -0.258202 0.172206 0.189581 -0.207643 -0.000457 0.081146 -0.386158 0.392561 0.106072 0.151172 0.002771 -0.125529 -0.012078 0.122873 -0.449933 0.281842 0.079075 0.078828 -0.004797 -0.093403 0.177290 0.393389 0.177024 -0.288310 0.028809 -0.028857 -0.028732 0.140073 0.088945 -0.122462 -0.090765 -0.188409 -0.062317 0.101415 0.166227 0.083585 0.176579 0.144464 -0.089342 -0.156289 0.177486 -0.180415 0.095983 -0.096836 -0.159770 -0.214605 0.039490 -1.192543 -0.243829 1.147883 -1.147620 0.719629 -0.148947 0.496866 1.482940 0.661865 0.202577 -0.117751 -0.099359 0.159874 1.809210 -0.074058 0.519008 0.063534 -0.181287 -0.070463 -0.384069 -0.088714 -0.059415 -0.415082 0.390913 0.189236 -0.260686 -0.133665 1.004121 0.463865 -0.002786 -0.330700 0.321258 0.186706 0.277201 0.089449 0.069554 -0.185213 -0.000437 -0.053688 -0.354539 0.060685 0.099004 -0.281988 0.031730 -0.182256 0.279251 -0.304127 0.391827 0.005553 0.169625 0.119033 -0.043275 0.053208 -0.177834 -0.228751 0.084657 0.231764 0.004560 0.050612 0.389212 0.233550 -0.034529 0.024964 -0.073691
O00425 1.351512 0.313302 -0.403102 -1.082879 0.270790 0.714419 0.425004 0.143158 1.837764 -0.238567 -0.487606 0.303982 -0.107222 0.461498 -1.402164 -0.451677 -0.009850 -0.266124 0.202720 0.080983 -0.073763 -0.212681 0.090798 -0.397952 0.456002 0.123588 0.293276 0.206128 0.016190 0.157360 0.192669 -0.288781 0.016975 0.221399 -0.044856 0.064493 -0.053327 0.049644 0.124098 0.210142 -0.353381 0.101637 -0.014951 0.108115 0.109399 0.111531 0.100511 -0.019717 0.036750 -0.049857 -0.077774 0.050788 -0.043608 0.054173 0.015581 -0.245898 0.043474 0.124641 0.012130 0.198374 -0.078729 -0.050909 -0.219964 0.139184 -1.229753 -0.333391 1.449042 -1.017285 0.505068 0.089604 0.849187 1.467323 0.831478 0.515868 -0.220781 -0.097460 0.533096 1.481374 -0.146992 0.491165 -0.231974 -0.095839 -0.006983 -0.647672 -0.046702 -0.221796 0.042017 0.354530 0.275472 0.166191 0.114054 0.657313 0.134625 0.017383 -0.347637 0.216842 0.129417 -0.133017 -0.074305 0.104441 -0.318213 -0.262496 0.148626 0.112321 -0.042093 0.016410 -0.442143 -0.110217 0.062448 0.316357 -0.339966 0.343519 -0.073659 0.045089 -0.097138 -0.246425 0.171761 -0.260478 -0.187486 0.105532 0.202573 0.137301 -0.237642 0.238709 0.020064 -0.142492 -0.072361 0.190959
Q9Y6M1 1.355503 0.349738 -0.385387 -1.069997 0.271115 0.768280 0.466848 0.155517 1.822050 -0.119827 -0.455655 0.288961 -0.181729 0.481353 -1.396699 -0.438218 -0.039810 -0.271987 0.223476 0.093249 -0.034520 -0.220282 0.162555 -0.430673 0.430865 0.138534 0.214381 0.270782 0.078282 0.127523 0.190619 -0.277015 0.030510 0.225248 -0.041352 0.089941 -0.037318 0.110674 0.161511 0.219904 -0.307293 0.092285 -0.061059 0.105095 0.037859 0.085427 0.149821 -0.010615 -0.002162 -0.023932 -0.089548 0.049947 -0.037042 0.032924 0.002524 -0.203020 -0.016048 0.122258 0.066768 0.211763 -0.137093 -0.149104 -0.208523 0.174209 -1.348558 -0.314722 1.264667 -1.073468 0.469685 0.191686 0.853302 1.542992 0.755823 0.222046 -0.105171 -0.050337 0.416871 1.355868 -0.232199 0.531638 -0.320437 -0.256157 0.072928 -0.585340 -0.119290 -0.201086 -0.015755 0.351801 0.284903 0.284895 0.040012 0.572717 0.216504 -0.005412 -0.296465 0.245060 0.147443 -0.068602 -0.066695 0.139062 -0.352625 -0.158963 0.031573 0.057996 0.040298 -0.080960 -0.331239 -0.070109 0.012335 0.499138 -0.289284 0.386964 0.014026 0.095936 -0.052794 -0.141540 0.294720 -0.201529 -0.212178 0.176822 0.094760 0.226323 -0.116958 0.249734 -0.077616 -0.072665 -0.140034 0.215824
P35637 1.320857 0.476404 -0.335071 -1.250955 0.253213 0.709627 0.299937 0.071022 1.936565 -0.080044 -0.565721 0.313513 -0.386803 0.430279 -1.225334 -0.498257 0.071795 -0.250954 0.222327 -0.109660 -0.080422 -0.176814 0.279626 -0.418367 0.324723 -0.019527 0.000836 0.041006 0.222132 0.180496 0.024450 -0.321032 -0.100430 0.387186 -0.066498 -0.036296 -0.222911 0.025440 0.172338 0.067277 -0.330236 0.089145 0.094296 -0.076731 0.186941 -0.015975 -0.002428 -0.032381 0.077224 -0.139918 -0.312164 -0.076685 -0.052301 -0.101087 0.130424 -0.335779 -0.053146 0.118501 -0.136004 0.233072 -0.035529 0.052739 -0.299673 0.156437 -1.261041 -0.193834 1.443017 -1.220844 0.490832 0.215071 0.761058 1.306376 1.029089 0.350165 0.003397 -0.051982 0.312238 1.464013 -0.270765 0.380090 -0.219182 -0.248901 0.008367 -0.447011 -0.005991 -0.050600 0.058451 0.590898 0.139879 0.217940 -0.180613 0.616658 0.146897 0.199012 -0.435895 0.300842 0.012800 0.084079 0.022479 0.254208 -0.406534 0.107982 -0.005551 0.097472 0.129297 0.226096 -0.240715 -0.115237 0.112687 0.211163 -0.348025 0.380731 0.015381 -0.250576 0.037077 -0.059216 0.350056 -0.131672 -0.214118 -0.011147 0.394257 0.318755 -0.130841 0.374156 0.230253 -0.103398 0.127096 -0.127525
Q9NZI8 1.410761 0.484243 -0.417267 -1.062162 0.175500 0.923608 0.340536 0.171358 1.759448 -0.337655 -0.384582 0.136986 -0.067890 0.469708 -1.391670 -0.408232 -0.054146 -0.298146 0.215884 0.122050 0.077947 -0.087462 0.073730 -0.391500 0.387046 0.051522 0.201519 0.124583 0.059817 0.176210 0.178067 -0.331715 -0.032664 0.267711 0.002357 0.085705 0.013637 0.054271 0.138759 0.335942 -0.313843 0.193033 -0.217587 0.096091 0.148932 0.035140 0.150332 -0.027070 0.075548 -0.017503 -0.119548 0.015738 -0.019429 -0.111753 0.045204 -0.172908 -0.049711 0.123627 -0.086444 0.283303 -0.119670 -0.164737 -0.154195 0.089126 -1.403903 -0.120705 1.294975 -1.048187 0.485097 0.048128 0.865889 1.504493 0.706471 0.494457 -0.241543 -0.053363 0.489208 1.474115 -0.128609 0.377689 -0.246383 -0.154027 0.075062 -0.591755 -0.012895 -0.334027 0.030974 0.354808 0.261503 0.242908 0.074350 0.702961 0.089938 0.063964 -0.371350 0.278413 0.105671 -0.045815 -0.039563 0.103437 -0.316246 -0.235568 0.202867 0.083518 -0.103113 0.040012 -0.403097 0.024200 0.048616 0.308032 -0.323024 0.278159 0.061186 0.025382 -0.123764 -0.093986 0.160183 -0.140052 -0.116598 0.100817 0.185982 0.138785 -0.190487 0.426566 0.062809 -0.229314 -0.040709 0.239897
Q07955 1.189828 0.516846 -0.453459 -1.118617 0.232964 1.128256 0.410760 0.478988 1.737463 -0.242146 -0.658230 0.189631 0.107216 0.325203 -1.426558 -0.302199 -0.039311 -0.257774 0.124977 -0.067069 0.045397 0.079398 0.214970 -0.562103 0.557936 -0.018238 -0.143602 0.121390 -0.018199 0.284158 0.307779 -0.420838 0.016034 0.234983 -0.161945 -0.052093 -0.045360 0.015324 0.051249 0.298226 -0.172137 0.206577 -0.123028 0.152981 0.200221 0.044320 0.031215 0.023117 0.139095 0.004896 -0.099669 0.052458 0.004566 0.104272 -0.115718 -0.272474 0.017604 0.091014 -0.062847 0.316057 -0.010402 -0.158657 -0.279497 0.144495 -0.910935 -0.326693 1.309593 -0.598929 0.590639 0.124333 0.971218 1.593526 0.714677 0.337631 -0.306121 0.207727 0.668336 1.675321 -0.150554 0.500260 -0.170628 -0.434764 -0.009562 -0.467304 0.000906 0.098214 -0.259759 0.314054 0.527725 0.346397 0.094368 0.684671 0.263035 0.208112 -0.526351 0.111821 0.258730 0.118968 0.208938 -0.032867 -0.177464 -0.183104 -0.079784 -0.014298 0.075522 -0.095056 -0.351231 0.201393 0.203142 0.219343 -0.131948 0.236201 0.028682 0.170371 -0.019209 -0.171675 0.071595 -0.257442 -0.303399 0.046900 0.224722 0.179770 -0.039413 0.338207 0.146534 -0.153566 0.006330 0.191504
P31483 0.982638 0.100054 -0.150914 -1.155384 0.142624 0.931713 0.528082 0.526104 1.608755 -0.550323 -0.372414 -0.020181 -0.449134 0.536779 -1.383797 -0.408943 0.051169 -0.181838 0.247624 0.160020 -0.030583 -0.172263 0.111141 -0.628409 0.341866 0.091089 0.231826 0.322186 0.068052 0.107628 0.176187 -0.132331 0.127847 0.089788 0.055835 0.167667 -0.016486 0.174856 0.249280 0.102071 -0.467829 0.190517 -0.060528 -0.043868 0.167272 0.172098 0.068789 0.014132 -0.012738 -0.133122 -0.007286 0.344663 -0.258363 -0.172960 0.006001 -0.379336 -0.115127 0.176623 0.018124 0.052242 -0.193019 0.191286 -0.251466 0.072799 -1.165140 -0.061680 1.200790 -1.095131 0.605315 0.051132 0.674632 1.234569 0.794204 0.417627 -0.006205 0.111167 0.325410 1.735949 -0.420202 0.349391 -0.075704 -0.199824 0.013364 -0.426047 -0.075538 -0.024587 -0.194263 0.535540 0.196888 0.214924 -0.017147 0.712210 0.181103 -0.024040 -0.301254 0.207705 0.071168 0.063985 0.088759 0.055402 -0.260328 0.083758 0.015174 -0.056460 0.035283 0.016548 -0.311860 0.009937 0.013715 0.257427 -0.225704 0.399886 0.075098 0.061087 0.024785 -0.141075 0.116827 -0.228714 -0.111476 0.231894 0.178580 0.280237 0.221297 0.445791 0.190895 -0.085608 -0.025149 0.087485
Q01844 1.041367 0.338354 -0.331858 -1.184731 0.238102 0.839930 0.464006 0.382148 1.723017 -0.418857 -0.274823 0.039011 -0.485186 0.436060 -1.358433 -0.682098 0.152015 -0.331290 0.084334 0.004435 -0.063779 -0.119592 0.278211 -0.304396 0.434517 0.111746 0.080536 0.040474 0.221006 0.079979 0.220895 -0.321062 -0.058432 0.098404 0.019651 0.153840 -0.136096 0.038542 0.271715 0.019487 -0.293549 -0.011194 0.025766 -0.216209 0.040582 0.134675 0.017810 -0.101040 -0.082931 -0.063764 -0.300965 0.074900 0.146954 -0.045995 0.118027 -0.311578 -0.254900 0.169706 -0.155856 0.124339 -0.081795 0.056252 -0.255966 -0.031433 -1.158052 -0.032998 1.294957 -1.057359 0.582912 0.111370 0.737433 1.457235 0.988455 0.277078 -0.150745 0.114475 0.439694 1.493059 -0.388376 0.396707 -0.192507 -0.301126 -0.135497 -0.515674 0.042775 -0.029372 -0.048289 0.428317 0.157759 0.084633 -0.054092 0.697530 0.177850 0.072864 -0.456393 0.319574 -0.034706 0.021081 0.086201 0.276166 -0.250075 0.072004 0.115081 0.058922 0.100386 0.071483 -0.182032 -0.167814 0.036537 0.259988 -0.371389 0.407115 -0.051367 -0.147179 -0.030367 -0.165426 0.298132 -0.081695 0.003891 0.002466 0.312623 0.336094 -0.044482 0.365093 0.203530 -0.084231 0.054640 -0.099223
P26599 1.025887 0.423605 -0.493368 -1.048353 0.206827 0.906124 0.463518 0.190908 1.897208 -0.202423 -0.567463 0.243659 -0.211097 0.636239 -1.323118 -0.277061 0.012412 -0.385271 0.141096 0.186529 -0.037079 -0.276761 0.157045 -0.499681 0.358619 -0.064023 0.318362 0.367475 0.085154 0.164010 0.151350 -0.116242 0.277538 0.273315 0.023916 -0.207194 0.021001 0.053461 0.065591 0.158707 -0.402738 0.305232 -0.083742 -0.044791 0.282416 0.178660 0.177274 0.060182 0.013419 -0.302504 -0.045890 0.117511 -0.040273 -0.053740 0.243260 -0.461324 0.065834 -0.077457 0.043880 0.176763 -0.444675 -0.023880 -0.200353 0.435169 -1.336355 -0.536761 1.061011 -1.047424 0.639378 0.215047 0.996318 1.543604 0.706635 0.030414 0.046646 0.043603 0.203475 1.315535 -0.234719 0.677882 -0.337362 -0.324883 -0.105094 -0.251407 -0.007057 -0.407181 -0.090360 0.605698 0.150285 0.517379 0.032796 0.760619 0.395950 0.021717 -0.202819 0.237780 0.165877 0.083537 0.110056 0.095064 -0.303550 0.085673 -0.043026 0.000522 0.327956 -0.006951 -0.351109 -0.114755 -0.172081 0.470151 -0.067710 0.481533 -0.039105 -0.044604 -0.090186 -0.192256 0.426313 -0.071264 -0.262900 0.253150 0.042872 0.007239 -0.270898 0.294883 -0.017952 -0.174117 -0.124632 0.035525
Q92804 1.106017 0.220048 -0.278514 -1.217951 0.133514 1.019874 0.445245 0.380706 1.555024 -0.590541 -0.289344 -0.201705 -0.324352 0.451173 -1.406989 -0.614885 0.010639 -0.283290 0.008521 0.044556 0.076110 -0.008493 0.011637 -0.345305 0.401433 0.135024 0.136622 0.111005 0.093552 0.037082 0.275420 -0.291963 -0.084423 0.036206 -0.084940 0.128207 0.083463 0.198394 0.200004 0.185484 -0.313039 0.169244 -0.076060 -0.305696 0.147292 -0.021788 0.012248 -0.190791 0.038063 -0.001131 -0.002839 0.044520 0.095863 -0.009320 -0.039896 -0.166601 -0.290465 0.175847 -0.131281 0.178834 -0.148588 -0.164943 -0.365946 0.019912 -1.256054 -0.075662 1.342491 -1.168693 0.536486 0.093210 0.854794 1.277958 1.044797 0.342889 -0.033956 -0.014299 0.339595 1.496510 -0.311814 0.317691 -0.258295 -0.233011 -0.173936 -0.502932 0.023253 0.072856 0.084554 0.520046 0.143357 0.257307 -0.114956 0.642870 0.173804 0.240967 -0.321320 0.162676 -0.029215 0.107181 0.066015 0.245403 -0.372692 0.038810 -0.008461 0.125337 -0.032585 0.180685 -0.101724 -0.094240 0.159869 0.079429 -0.307548 0.307686 -0.034600 -0.132937 -0.029121 -0.184761 0.417449 -0.119349 -0.111668 -0.083481 0.399021 0.267994 -0.202210 0.351558 0.256346 -0.186461 0.033373 -0.074533
Q9HCE1 1.341447 0.750119 -0.029872 -0.687590 0.213725 1.074204 0.129922 0.153982 1.782490 -0.390814 -0.613003 0.216504 -0.354300 0.466199 -1.257493 -0.549903 0.070437 -0.171645 0.227629 0.234148 0.034474 -0.055455 -0.053557 -0.594294 0.394695 -0.041393 0.173441 -0.094010 -0.121159 -0.026191 0.003015 -0.414800 0.333349 0.284453 0.026880 0.116004 -0.126826 0.029625 0.206550 0.376400 -0.297658 0.337908 -0.187691 0.169313 0.060008 -0.233392 -0.053681 -0.036214 -0.224424 -0.180612 0.004125 -0.011868 0.191924 0.124208 0.062800 -0.144495 0.036433 0.281928 -0.231829 0.327881 -0.046509 -0.096662 -0.141031 0.115546 -1.523176 -0.291123 1.248694 -0.954852 0.600788 0.161524 0.574987 1.437147 0.955355 0.164950 -0.385445 -0.047457 0.241414 1.585379 -0.129162 0.348309 -0.125881 0.015743 0.066802 -0.461525 0.047800 -0.009797 0.033608 0.593688 0.064969 0.176535 0.075168 0.802302 0.065400 0.102024 -0.542723 0.141496 0.252569 -0.086828 -0.087241 0.198039 -0.172332 -0.024344 -0.011389 0.280797 -0.334366 -0.089076 -0.237481 -0.077364 0.394523 0.270372 -0.711078 0.414748 -0.091699 -0.264143 -0.310410 -0.332993 0.280347 -0.129050 -0.358841 -0.085082 -0.038819 0.194706 -0.063167 0.156561 0.112601 -0.038638 -0.024098 0.070839
Q9UL18 1.406016 0.469091 -0.424734 -1.017246 0.126526 1.069610 0.394961 0.166601 1.744078 -0.399440 -0.452191 0.303334 -0.185164 0.504457 -1.332081 -0.336484 0.085717 -0.174099 0.186718 0.049518 -0.135478 0.004355 0.006153 -0.264309 0.439685 0.045202 0.221583 0.152838 -0.002489 0.179583 0.186901 -0.352927 -0.194681 0.150686 -0.120905 0.089937 -0.073921 0.071094 0.194675 0.392470 -0.293048 0.165421 -0.236084 0.096362 0.134193 -0.078137 0.224334 0.057612 0.058139 -0.004497 -0.048977 0.045837 0.143465 -0.159832 -0.023655 -0.315113 0.022610 0.111523 0.003396 0.370896 -0.201518 0.085900 -0.259368 0.080847 -1.249065 0.207569 1.277539 -1.127801 0.439449 0.106451 0.822531 1.545426 0.956343 0.458187 -0.301244 -0.120861 0.447113 1.378408 -0.289262 0.387928 -0.246352 -0.209910 -0.131504 -0.620841 -0.124469 -0.277186 0.041923 0.560905 0.171738 0.338489 -0.081540 0.930600 0.007403 0.207115 -0.190640 0.447458 0.147197 -0.000852 -0.016285 -0.114013 -0.593449 0.026666 0.209052 0.183397 0.089385 0.033095 -0.522402 -0.055714 0.126022 0.225642 -0.162444 0.321408 -0.195785 0.168996 -0.183339 -0.121798 -0.084867 -0.313012 -0.527492 -0.197110 -0.081790 0.050252 -0.036928 -0.165664 0.109278 -0.184603 -0.141872 -0.142121
Q9UKV8 1.420762 0.396454 -0.391916 -1.039587 -0.077980 1.028074 0.285958 0.183509 1.896377 -0.333705 -0.432291 0.294541 -0.143545 0.321799 -1.227737 -0.517049 -0.060259 -0.286449 0.115950 0.038794 0.099300 -0.078683 0.062001 -0.458647 0.279028 0.198721 0.078697 0.133129 -0.069668 0.375456 0.210543 -0.357344 -0.033849 0.248224 -0.115775 0.072983 0.040063 0.099093 0.168757 0.301671 -0.392958 0.107875 -0.210225 0.033515 0.131489 0.059643 0.185264 -0.097202 0.153063 -0.152005 -0.184496 0.082367 -0.083280 -0.144236 0.031376 -0.182715 0.195808 -0.036563 -0.285997 0.074799 -0.139503 -0.225041 -0.242294 0.040998 -1.299131 -0.222544 1.201711 -1.098509 0.684955 0.210665 0.850691 1.494914 0.754549 0.508368 -0.112929 -0.118953 0.294570 1.350075 -0.198216 0.183887 -0.407696 -0.138218 -0.070422 -0.494111 -0.073324 -0.227953 -0.016735 0.773900 0.290929 0.099126 -0.147026 0.730892 0.216451 0.023947 -0.377631 0.457395 0.008605 -0.021678 -0.036996 0.016533 -0.485672 -0.234538 0.298462 0.392014 0.115082 0.049713 -0.503427 0.148821 0.103680 0.305234 -0.165796 0.444761 -0.155901 0.136392 -0.192299 -0.266721 -0.307735 -0.248521 -0.386241 -0.306675 0.297881 0.358478 -0.075091 -0.134286 0.126481 -0.344153 -0.079840 -0.130236
Q96PU8 1.416247 0.411539 -0.358818 -0.963933 0.194160 0.850007 0.378098 0.209090 1.612068 -0.539003 -0.654140 0.353936 -0.077007 0.589600 -1.556562 -0.331558 -0.136286 -0.184627 0.131786 0.002894 0.043105 0.016599 0.259974 -0.537161 0.367960 0.074134 0.228705 0.129593 0.086039 0.192429 0.185907 -0.284508 0.067421 0.349574 -0.092598 0.115484 0.062633 0.062288 -0.002191 0.164786 -0.389728 0.186503 -0.176884 -0.090671 0.148299 0.023037 0.064296 -0.103012 0.150088 -0.089279 -0.300428 -0.094285 0.161430 -0.183842 0.153525 -0.048555 0.186415 0.274336 0.168616 0.270642 -0.329446 -0.132688 -0.178880 -0.114462 -1.215761 -0.217484 1.471190 -1.054943 0.465101 0.145311 0.841780 1.410365 0.788154 0.548862 -0.291460 -0.198535 0.438030 1.479102 -0.178980 0.386536 -0.270619 0.011746 -0.023506 -0.549050 -0.033175 -0.311315 0.132415 0.350385 0.392317 0.174231 0.105776 0.625094 0.073940 -0.112849 -0.261087 0.224745 0.180030 -0.137206 -0.231018 0.053159 -0.392380 -0.262668 0.271572 0.068825 -0.101389 0.126389 -0.298565 -0.147240 -0.119293 0.467430 -0.350289 0.265979 -0.092596 0.181411 0.058532 -0.295114 0.116339 -0.203786 -0.035659 0.134114 0.188166 0.162049 -0.287459 0.427581 -0.231444 -0.014453 -0.090424 0.260225
Q8NDV7 1.352347 0.480380 -0.405940 -1.116976 0.229581 1.044761 0.301446 0.104564 1.726425 -0.615058 -0.430216 0.293279 -0.131975 0.602590 -1.262999 -0.337908 -0.148705 -0.299416 0.419598 -0.044067 0.230213 -0.140176 0.293433 -0.488089 0.377395 -0.009817 0.215200 0.122216 0.043737 0.348875 0.062226 -0.310964 -0.074702 0.154520 -0.098884 -0.081081 0.044126 0.195458 0.232952 0.313090 -0.262581 0.070168 -0.079050 0.188213 0.088085 0.001458 -0.059871 -0.166742 0.138297 0.138276 -0.080798 0.072058 0.163760 -0.110470 0.160383 -0.178938 0.032049 0.190656 -0.067967 0.280363 -0.066124 -0.027940 -0.178610 0.242418 -1.112069 -0.036960 1.397022 -1.077914 0.492490 0.058175 0.998374 1.267107 0.999592 0.192783 -0.069174 -0.217766 0.164625 1.625699 -0.127823 0.916089 -0.029704 0.169172 0.022889 -0.461693 0.014363 -0.214237 0.270121 0.549433 0.601604 0.078040 -0.129655 0.852845 0.011306 0.141573 -0.321064 -0.020399 0.248906 0.094599 -0.178105 0.250576 -0.327824 -0.053465 0.472529 0.374570 -0.107948 -0.089717 -0.378883 0.105285 -0.026532 0.119987 -0.319494 0.509120 0.041793 -0.191382 -0.046256 0.131277 -0.078658 -0.087342 -0.324237 -0.090908 -0.181718 0.734597 -0.259051 0.226467 0.041035 0.058496 -0.253733 0.136949
O43251 1.242035 0.658733 -0.652290 -0.980970 0.360413 0.894773 0.485263 0.390415 1.682318 -0.275019 -0.365266 -0.025561 -0.100799 0.450593 -1.544658 -0.336236 0.306757 -0.360679 0.208652 0.221055 -0.025411 -0.072483 -0.061517 -0.245603 0.613078 -0.074462 0.105806 0.070331 0.111191 0.002958 0.254413 -0.318218 0.036730 0.226844 0.103521 0.109419 -0.020396 -0.216143 0.130927 0.459268 -0.228662 0.234114 -0.249254 0.205656 0.216183 0.053067 0.178503 0.226936 -0.178656 -0.140509 0.039174 0.029922 -0.127342 -0.104717 -0.218758 -0.249382 -0.292028 -0.043238 0.039053 0.306370 -0.091051 -0.188839 -0.183680 0.292390 -1.260388 -0.224424 1.083060 -1.006472 0.679319 0.060035 0.866133 1.616686 0.629133 0.218813 0.039760 0.043954 0.255126 1.444968 -0.338887 0.432156 -0.187637 -0.310798 -0.071331 -0.219430 -0.073421 -0.238080 -0.350729 0.318200 0.193565 0.258365 0.059220 0.758288 0.342277 -0.028182 -0.372157 0.271880 0.062940 0.178823 0.106414 0.004581 -0.275703 -0.106322 0.022642 -0.177319 0.188523 0.007386 -0.152890 0.133695 -0.130081 0.409105 -0.266072 0.278641 0.065165 0.111120 -0.106364 -0.075944 0.119297 -0.159962 -0.210331 0.132043 0.183425 0.127049 0.034758 0.474630 0.003559 -0.121341 -0.141023 0.145394
Q99575 1.174128 0.172713 -0.257020 -1.216563 0.444226 0.632362 0.460594 0.244255 1.942527 -0.087239 -0.666243 0.321902 -0.534846 0.482224 -1.240044 -0.538714 0.062121 -0.265955 0.240627 -0.017592 -0.171017 -0.337283 0.147984 -0.357945 0.353551 0.007874 0.349538 0.405982 -0.021577 0.024581 0.209198 -0.339177 0.163390 0.116746 0.062542 0.030477 -0.149995 -0.045368 0.162618 0.021114 -0.333904 0.058291 0.081238 0.099162 0.025224 0.159017 0.035475 -0.110208 -0.007793 -0.113137 -0.092632 0.088901 -0.045996 0.014632 0.125173 -0.229798 -0.016235 -0.005613 0.036993 0.121431 -0.167061 -0.159202 -0.191947 0.222448 -0.327356 0.299558 1.439074 -1.204206 0.600904 0.123914 0.466413 1.212390 0.955282 -0.437705 0.459698 -0.768577 0.168244 1.255259 -0.461655 0.366289 -0.056103 -0.512178 -0.347874 -0.718424 -0.158500 -0.213795 -0.579812 1.000316 0.277800 -0.133825 0.097037 0.077357 0.160061 0.055679 -0.418436 0.615209 0.272944 -0.529922 0.018005 0.794763 0.075297 -0.167337 -0.301635 0.060710 0.332621 -0.422275 -0.882082 -0.349478 0.163333 0.656022 -0.078127 0.269245 0.393495 -0.531267 -0.234546 -0.072322 -0.026098 -0.152140 0.161770 0.390315 0.645933 -0.109791 0.170715 0.662046 0.004554 0.081493 0.163759 0.164488
Q9H633 1.187391 0.116894 -0.261746 -1.142431 0.466010 0.635249 0.486716 0.202727 2.013252 -0.086659 -0.664158 0.242680 -0.469723 0.515342 -1.222243 -0.517223 0.124853 -0.231783 0.245181 -0.002745 -0.144362 -0.261028 0.232206 -0.309076 0.371981 0.063638 0.383084 0.418365 0.054451 0.043945 0.121761 -0.248727 0.239925 0.120186 -0.020476 0.076690 -0.169935 0.090549 0.095029 0.091953 -0.361217 0.039952 0.084200 0.069232 0.083623 0.145956 0.077318 0.080672 -0.020933 -0.143755 -0.149770 0.091540 0.000506 0.047544 0.136871 -0.174035 -0.013817 0.012192 -0.023407 0.096129 -0.067551 -0.112840 -0.210959 0.236147 -0.229083 0.285280 1.337486 -1.185670 0.576459 0.044488 0.478132 1.177905 0.942063 -0.484761 0.536186 -0.745575 0.238423 1.378294 -0.368121 0.370164 -0.146096 -0.473160 -0.337685 -0.787793 -0.180618 -0.206030 -0.599607 1.023378 0.317477 -0.069212 0.034168 0.104096 0.114379 -0.040917 -0.308317 0.623261 0.234972 -0.428359 0.065797 0.833377 0.072766 -0.103172 -0.182928 0.098279 0.323324 -0.333494 -0.926251 -0.362799 0.198428 0.705058 -0.039047 0.228659 0.321889 -0.604447 -0.197958 -0.138089 0.029447 -0.099816 0.196975 0.438244 0.630041 -0.113967 0.168003 0.589598 -0.020762 0.050945 0.159904 0.267148
O75817 1.197226 0.174573 -0.291387 -1.177617 0.424926 0.625681 0.529022 0.229582 1.900781 -0.055476 -0.637019 0.330951 -0.476441 0.530450 -1.289641 -0.558567 0.096659 -0.222312 0.306426 -0.107344 -0.184010 -0.305453 0.106245 -0.350540 0.356156 0.010969 0.396690 0.338089 0.091343 -0.012113 0.222483 -0.321759 0.206990 0.148976 0.027026 -0.045300 -0.060020 0.112349 0.065937 0.097597 -0.340103 0.089623 0.152248 0.073570 0.042392 0.111805 0.058946 0.030337 -0.087690 -0.096808 -0.154114 0.179353 -0.040044 0.046730 0.112375 -0.244527 0.026425 -0.017620 -0.088767 0.120249 -0.159458 -0.134873 -0.141053 0.171839 -0.266626 0.354368 1.380340 -1.249463 0.551691 0.084893 0.554874 1.210814 0.932140 -0.455682 0.476816 -0.757371 0.191197 1.265955 -0.406037 0.276028 -0.121472 -0.519316 -0.265091 -0.670312 -0.174196 -0.141008 -0.668284 1.023360 0.321101 -0.091429 0.104677 0.202502 0.158569 -0.004980 -0.385311 0.660325 0.265199 -0.552321 0.112094 0.867309 0.126612 -0.160253 -0.170420 0.070287 0.311149 -0.441792 -0.903634 -0.374012 0.173506 0.748252 -0.045549 0.250308 0.407883 -0.590797 -0.244998 -0.099626 -0.014599 -0.093647 0.211368 0.444440 0.712968 -0.158609 0.137191 0.615519 -0.055271 0.065631 0.116003 0.318670
Q9BUL9 1.243632 0.108787 -0.231984 -1.182229 0.426192 0.688697 0.509526 0.184175 1.920878 -0.086697 -0.600305 0.307608 -0.479756 0.472427 -1.242368 -0.499583 0.077310 -0.180813 0.282095 -0.013871 -0.161885 -0.212301 0.156109 -0.288403 0.513726 0.069880 0.418799 0.362502 0.080843 0.053015 0.095471 -0.315950 0.235863 0.169668 0.003322 -0.056882 -0.178111 0.066331 0.105083 0.063616 -0.322486 0.086779 0.056046 0.017642 0.016180 0.192668 0.029211 -0.022394 -0.089749 -0.138816 -0.119812 0.058266 -0.050252 0.053165 0.120584 -0.309503 -0.008468 0.009818 0.019500 -0.001601 -0.130730 -0.154242 -0.129172 0.244585 -0.200502 0.315156 1.420558 -1.185882 0.527369 0.116779 0.586224 1.155599 0.931836 -0.513656 0.464415 -0.801882 0.230950 1.381130 -0.407946 0.424646 -0.128476 -0.520240 -0.323098 -0.734705 -0.115165 -0.256357 -0.643700 1.037996 0.199618 -0.047584 0.094612 0.126461 0.115907 0.013429 -0.368620 0.624385 0.187002 -0.569853 0.100956 0.894404 -0.036752 -0.177304 -0.194600 0.013394 0.235885 -0.338349 -0.905386 -0.323562 0.182054 0.729654 -0.096929 0.242349 0.454352 -0.527176 -0.181592 -0.125497 -0.026216 -0.078231 0.154580 0.420127 0.627689 -0.152203 0.185700 0.611038 -0.042603 0.071223 0.142033 0.255040
O95707 1.216349 0.239843 -0.211312 -1.207793 0.471900 0.583839 0.505777 0.212470 1.935662 -0.132475 -0.645723 0.320873 -0.471380 0.420434 -1.281990 -0.507739 0.065567 -0.194598 0.231430 -0.041449 -0.140447 -0.235081 0.222669 -0.272066 0.397670 0.061880 0.397821 0.361434 -0.019949 -0.031560 0.165260 -0.299693 0.192846 0.207342 0.058884 -0.063347 -0.043017 0.042607 0.201512 0.062506 -0.301391 0.070002 0.112413 0.060314 0.034025 0.143575 0.145742 0.024298 -0.004393 -0.162643 -0.177376 0.165304 -0.011516 0.069673 0.077457 -0.221595 -0.039381 -0.005738 -0.005822 0.007372 -0.129639 -0.065652 -0.213659 0.257356 -0.258042 0.302351 1.374444 -1.242276 0.608308 0.087809 0.537757 1.167632 0.947682 -0.469116 0.499347 -0.775148 0.206833 1.322015 -0.334549 0.344143 -0.068659 -0.505801 -0.347569 -0.693546 -0.167087 -0.184536 -0.639638 1.069122 0.221718 -0.061483 0.038554 0.093360 0.116655 0.011319 -0.459149 0.618400 0.250989 -0.569227 0.133131 0.895518 0.056054 -0.182041 -0.237114 0.169510 0.362853 -0.363754 -0.927812 -0.356345 0.127775 0.721468 -0.089436 0.268496 0.328056 -0.532422 -0.247863 -0.000991 0.092740 -0.168224 0.109134 0.452746 0.654418 -0.111009 0.129008 0.543630 -0.128740 0.076705 0.053974 0.178834
P78345 1.263732 0.102739 -0.233376 -1.149707 0.454467 0.586785 0.549495 0.236067 1.943767 -0.137313 -0.668144 0.316449 -0.494110 0.484389 -1.226177 -0.542672 0.048082 -0.245806 0.294200 -0.056269 -0.114008 -0.268190 0.120269 -0.274932 0.399527 0.012144 0.325386 0.349287 -0.005989 0.058439 0.229480 -0.239343 0.228797 0.230215 -0.016315 0.076569 -0.054202 0.092672 0.143235 0.025022 -0.228248 0.039056 0.042239 0.023935 0.074256 0.155004 0.071252 -0.016851 -0.087973 -0.167965 -0.128304 0.128595 -0.062212 0.079015 0.148739 -0.312861 0.000301 0.007088 -0.015173 0.138455 -0.103739 -0.102194 -0.090195 0.309915 -0.237264 0.275892 1.407743 -1.260918 0.506536 0.014576 0.418270 1.188228 0.945644 -0.475800 0.496925 -0.715194 0.229849 1.336434 -0.375425 0.359139 -0.101930 -0.423022 -0.400502 -0.679564 -0.225262 -0.188697 -0.565200 1.028651 0.246379 -0.058893 0.114967 0.143647 0.145407 0.028865 -0.475983 0.573664 0.291607 -0.573050 0.104281 0.820704 0.014113 -0.134670 -0.248821 0.026557 0.402310 -0.428003 -0.955176 -0.371083 0.189721 0.720016 -0.076590 0.237763 0.350811 -0.573613 -0.176811 -0.014476 0.022364 -0.124540 0.115649 0.421580 0.635100 -0.062435 0.194829 0.594361 -0.123518 0.135927 0.130706 0.278540
P17735 0.543337 0.145889 0.034270 -1.295514 -0.027451 0.868139 0.673586 0.469414 1.460294 -0.905498 -0.228367 -0.593316 -0.794416 0.486718 -1.388571 -0.791708 0.231417 -0.076292 0.220614 0.061914 -0.170255 -0.059129 0.134791 -0.419316 0.389527 0.297178 0.121367 -0.045258 0.052669 -0.102066 0.261842 -0.232528 -0.002953 0.106135 -0.016447 0.031484 -0.033715 0.063442 0.186763 0.050685 -0.188315 0.030819 -0.046575 -0.084141 0.018326 0.054164 0.013882 -0.026072 0.053519 0.036675 -0.052383 -0.000437 -0.081449 0.050174 0.141787 -0.196536 -0.125173 0.246031 -0.096746 0.029510 -0.077096 -0.122547 -0.295858 0.011333 -0.502222 0.412123 0.202652 -1.595706 1.105217 -0.049805 0.366397 1.659544 -0.028653 0.084342 -0.305950 -0.700828 0.067725 2.045815 0.683382 -0.581184 -0.034134 -0.637648 -0.722785 -0.031078 0.115142 0.449191 -0.650751 1.247354 0.883409 -0.931911 -0.468866 0.705044 0.042294 0.600512 0.015705 0.007616 0.144595 -0.354098 0.146456 1.488671 0.115214 -0.054854 -0.036724 -0.160528 0.510075 -0.664868 -0.081090 -0.682148 -0.375230 -0.364906 -1.018508 0.335371 0.496459 0.209129 0.062125 -0.925337 0.474258 -0.155015 0.578733 0.447856 0.657481 1.074577 0.035484 -0.259132 0.108437 0.094594 -0.034979 0.273729
Q9BXP5 0.565677 0.099862 0.109557 -1.267360 -0.033607 0.849453 0.612580 0.509542 1.444716 -0.923263 -0.256190 -0.542944 -0.754180 0.538207 -1.357919 -0.852224 0.252746 -0.050573 0.218440 0.205501 -0.171314 -0.097484 0.137552 -0.401796 0.429621 0.198647 0.059379 0.042392 0.168323 -0.030856 0.273406 -0.340875 -0.062214 0.104746 -0.011930 -0.016780 0.110234 0.112457 0.171398 0.015812 -0.240769 0.059976 -0.032153 -0.136424 0.043571 0.017615 0.114022 -0.036901 -0.038121 -0.016672 0.014675 -0.021710 -0.008618 0.040140 0.124277 -0.124107 -0.151654 0.216358 -0.124903 0.031344 -0.010078 -0.032281 -0.334101 0.040347 -0.427072 0.463643 0.328502 -1.531075 1.126309 0.016891 0.405221 1.590013 -0.060868 0.029753 -0.253390 -0.603298 0.128099 2.060338 0.617747 -0.531401 0.020112 -0.615543 -0.780329 0.011404 0.111249 0.403022 -0.712856 1.292609 0.869122 -1.010191 -0.512236 0.752839 0.049661 0.487857 -0.041803 0.160700 0.101622 -0.305974 0.209217 1.501744 0.149956 0.003457 0.050748 -0.085921 0.490539 -0.670673 -0.108122 -0.672676 -0.443297 -0.303288 -0.952158 0.321290 0.488074 0.228310 -0.001996 -0.945496 0.512071 -0.147313 0.580749 0.481692 0.718316 1.068666 0.032016 -0.314571 0.176589 0.094480 0.006524 0.410765
P05455 0.581560 0.159052 0.105316 -1.325011 -0.089666 0.847392 0.697791 0.532169 1.444976 -0.918652 -0.220651 -0.492954 -0.745554 0.463327 -1.382301 -0.861658 0.226061 -0.018296 0.228370 0.190222 -0.158330 0.007909 0.110055 -0.330085 0.406092 0.106968 0.045448 0.037354 0.130827 -0.085582 0.212669 -0.221885 -0.072245 0.034204 0.022256 0.028573 0.027455 0.098221 0.223959 0.094706 -0.297169 -0.016072 0.085430 -0.082476 0.029398 0.061863 0.024180 -0.046074 -0.057202 -0.039978 -0.050149 -0.017295 -0.050188 0.053563 0.111429 -0.143978 -0.081220 0.271984 -0.110101 0.063007 -0.070667 -0.160280 -0.297902 0.025520 -0.958845 0.063104 1.113868 -1.175432 0.919595 -0.149525 0.644490 1.557878 0.540387 0.286283 -0.089470 -0.133571 0.014509 1.894409 -0.242497 0.418028 0.178265 -0.318716 -0.400558 -0.140731 -0.267086 0.129872 -0.435402 0.272592 0.075796 -0.274828 -0.004339 0.957341 0.453553 -0.050926 -0.422592 0.338585 0.115128 0.455059 0.171312 -0.178737 -0.084217 -0.206273 0.016587 -0.402760 0.203539 0.025136 -0.141986 0.032620 -0.367251 0.332496 -0.188482 0.270770 0.030065 0.318328 0.090348 -0.053133 0.047833 -0.095175 -0.178890 0.188902 0.115925 0.033244 0.271530 0.485915 0.240803 -0.072661 0.028337 0.073661
O94992 0.647539 0.146378 0.122905 -1.273656 -0.066357 0.822171 0.650814 0.591140 1.396545 -0.919460 -0.216053 -0.525256 -0.793163 0.501753 -1.417958 -0.787161 0.320030 -0.090561 0.197081 0.198159 -0.120044 -0.085137 0.180257 -0.343110 0.397625 0.180992 0.059160 0.038025 0.070139 -0.052903 0.294199 -0.174002 -0.018188 0.185436 -0.081315 -0.020760 -0.014019 0.144273 0.228093 0.041241 -0.319571 0.004043 0.067670 -0.056013 -0.004402 0.003747 0.057325 -0.039339 0.017287 0.005439 0.069008 0.002179 0.009657 0.073266 0.155319 -0.170030 -0.148609 0.113220 -0.126319 0.051913 -0.057572 -0.090801 -0.269208 -0.051393 -0.540031 0.526111 0.237841 -1.548041 1.094471 -0.023762 0.375745 1.633485 -0.069516 -0.066493 -0.346342 -0.643841 0.133456 2.044043 0.686396 -0.588115 0.053140 -0.603530 -0.720600 -0.029852 0.108600 0.439302 -0.704310 1.237892 0.869292 -0.906735 -0.519776 0.804005 0.011785 0.548300 0.041867 0.118345 0.134913 -0.376891 0.269343 1.454692 0.128137 -0.031986 0.069908 -0.173218 0.489476 -0.573367 -0.108037 -0.636260 -0.362541 -0.393936 -1.037387 0.245029 0.497863 0.142510 0.057791 -0.919673 0.471184 -0.161374 0.597298 0.468131 0.705392 1.036799 0.098836 -0.283610 0.100635 0.009639 0.016934 0.366643
P62140 0.601462 0.082691 0.102233 -1.178401 -0.029323 0.879636 0.730110 0.583250 1.421356 -0.950441 -0.172641 -0.467085 -0.735885 0.422099 -1.460664 -0.862144 0.219458 -0.081326 0.328135 0.105226 -0.128011 -0.120187 0.047539 -0.356242 0.351956 0.210861 0.000963 -0.018779 0.132078 -0.150316 0.191424 -0.198275 -0.033703 0.117883 0.024814 -0.012348 -0.040158 0.102636 0.187188 0.043008 -0.300076 0.004850 0.006065 -0.144400 0.115574 0.039481 0.103570 -0.071589 0.003659 0.049519 0.001784 -0.008020 0.040468 0.045487 0.143509 -0.127646 -0.100162 0.184705 -0.126752 0.022475 -0.059433 -0.092721 -0.329249 0.064492 -0.474247 0.479498 0.221394 -1.567356 1.361763 -0.254507 0.451762 1.452621 0.108947 -0.048794 -0.360251 -0.589968 0.263573 1.903386 0.587967 -0.471109 -0.077348 -0.715442 -0.626955 0.033679 -0.069376 0.278948 -0.848340 1.133255 0.824112 -0.824199 -0.664310 0.775821 0.117536 0.370357 0.007245 0.018264 0.101968 -0.091438 0.157282 1.290071 0.214845 -0.130955 0.010826 -0.351532 0.415365 -0.690049 -0.199056 -0.784956 -0.274682 -0.431908 -1.071679 0.178315 0.531034 0.204477 -0.047608 -0.830405 0.523265 -0.160806 0.451684 0.361018 0.675875 0.990132 -0.039199 -0.213946 0.008637 -0.015749 -0.029431 0.389236
Q7L2J0 0.572443 0.092700 0.039094 -1.260163 -0.081729 0.874941 0.697435 0.530652 1.401797 -0.869012 -0.230020 -0.539626 -0.788383 0.574089 -1.396277 -0.832466 0.240525 -0.026996 0.293938 0.123703 -0.036682 -0.100300 0.161031 -0.310698 0.402929 0.184626 0.062764 -0.027129 0.010530 -0.020178 0.197349 -0.288004 -0.040282 0.128701 0.021317 0.036390 -0.002384 0.066384 0.147081 -0.020683 -0.323274 -0.004406 -0.004418 -0.111345 0.052661 -0.040228 0.098768 -0.068944 -0.015463 -0.071464 -0.019563 0.072407 -0.028880 0.102015 0.034833 -0.222199 -0.161006 0.203953 -0.126436 0.066605 -0.080282 -0.104863 -0.288612 -0.030410 -0.426900 0.430153 0.281979 -1.568855 1.100876 -0.057077 0.332805 1.552117 -0.062810 -0.010772 -0.297111 -0.719353 0.202525 2.071583 0.727788 -0.658072 -0.062673 -0.520192 -0.762475 -0.034106 0.214026 0.360954 -0.739411 1.272122 0.813755 -0.941153 -0.608799 0.738886 0.030916 0.493321 0.055333 0.016454 0.147905 -0.219876 0.184954 1.414442 0.064605 0.012803 -0.022260 -0.075703 0.503001 -0.652386 -0.229035 -0.647454 -0.394507 -0.374831 -0.972388 0.317571 0.509948 0.137908 0.045163 -0.943564 0.511500 -0.094871 0.609167 0.518547 0.714230 1.041838 0.081622 -0.279691 0.197681 0.045668 0.035968 0.390624
P62136 0.663767 0.134430 0.076155 -1.268849 -0.111515 0.850116 0.651840 0.502478 1.369168 -0.891347 -0.206560 -0.540821 -0.784666 0.492596 -1.430659 -0.874232 0.300516 -0.069759 0.203301 0.152168 -0.062079 -0.117283 0.206867 -0.334642 0.436894 0.160481 0.028945 0.040140 0.115802 -0.081409 0.283669 -0.246836 -0.013167 0.066918 0.090036 0.032351 -0.082400 0.071427 0.144599 0.101978 -0.219676 0.033882 0.025631 -0.159736 0.078647 -0.047984 0.076678 -0.065839 -0.020011 0.069729 0.005164 0.074072 -0.043852 0.051978 0.149981 -0.220877 -0.025066 0.230956 -0.064899 -0.065239 0.002138 -0.108690 -0.361642 0.015902 -0.735524 0.404348 0.279512 -1.523889 1.365809 0.068037 0.168595 1.479396 -0.008533 0.027075 -0.296887 -0.704470 0.096337 1.926984 0.549594 -0.567534 0.167324 -0.545677 -0.825667 -0.168214 -0.054566 0.269482 -0.711284 1.171740 0.871686 -0.877235 -0.408338 0.565182 0.246660 0.508533 -0.087516 -0.054785 0.250744 -0.219475 0.520651 1.299158 -0.053401 -0.015396 0.164170 -0.120612 0.468953 -0.638122 -0.261156 -0.500002 -0.321627 -0.397444 -0.881664 0.138742 0.427674 0.121231 0.104963 -0.757833 0.560170 -0.189608 0.558917 0.481463 0.650282 0.968092 0.082613 -0.225808 0.092204 -0.102167 0.000681 0.434152
Q92994 0.608029 0.066103 0.050910 -1.279442 -0.064980 0.912858 0.697804 0.603876 1.413236 -0.912611 -0.273571 -0.490820 -0.762558 0.507645 -1.319034 -0.819032 0.280904 -0.101611 0.216190 0.223934 -0.091554 -0.180156 0.103961 -0.360633 0.366737 0.196462 0.102933 -0.084290 0.174525 -0.095098 0.281115 -0.237308 0.005210 0.141522 0.041137 -0.062938 -0.014464 0.158968 0.172500 0.126452 -0.217697 -0.092383 0.019364 -0.112207 0.023769 0.025993 0.072486 -0.066157 0.047995 -0.051582 -0.031996 0.011333 -0.042604 0.100448 0.072309 -0.158156 -0.130737 0.262790 -0.028264 0.034926 -0.042707 -0.077880 -0.340861 -0.049417 -0.430094 0.455264 0.235532 -1.559266 1.095415 -0.002459 0.382732 1.546177 -0.017048 -0.048135 -0.327826 -0.704952 0.067445 2.036372 0.702408 -0.675537 0.011421 -0.616474 -0.751647 -0.020821 0.116941 0.374185 -0.756954 1.219635 0.825267 -0.961841 -0.444156 0.745425 0.051024 0.505303 0.066059 0.114005 0.134723 -0.338392 0.198255 1.450022 0.117440 -0.053487 -0.005206 -0.149615 0.489058 -0.723403 -0.154577 -0.672339 -0.470672 -0.309349 -0.983692 0.354964 0.479091 0.086968 0.051878 -0.947673 0.520293 -0.129873 0.648782 0.495649 0.763074 1.000023 0.036275 -0.355007 0.154684 0.087036 -0.054636 0.369536
P50750 0.597069 0.021258 0.090865 -1.243721 -0.084461 0.840084 0.629000 0.577754 1.428534 -0.936575 -0.264879 -0.516303 -0.777225 0.551677 -1.435041 -0.827087 0.262677 -0.111838 0.240049 0.123030 -0.073771 -0.114963 0.134757 -0.347182 0.332127 0.152672 0.051426 -0.038085 0.108340 -0.031988 0.286935 -0.257487 -0.017012 0.082946 -0.068421 -0.055350 -0.028798 0.047486 0.262071 0.105489 -0.315147 0.054846 -0.010248 -0.189695 -0.006460 0.010235 0.070423 0.044446 -0.052234 0.044585 -0.071188 0.037464 -0.055327 0.114571 0.055890 -0.109958 -0.123662 0.240067 -0.083461 0.070687 -0.049636 -0.093899 -0.258714 0.061948 -0.762574 0.702210 0.779321 -1.438150 1.416130 -0.255886 0.470851 1.252806 -0.286312 0.044833 -0.875909 -1.081206 -0.034464 1.735762 0.417895 -0.492721 -0.102534 -0.216244 -0.809547 0.104875 0.168661 0.161329 -1.271770 0.926923 0.953690 -1.110465 -0.500471 0.714269 0.009222 0.904723 -0.255439 0.012004 0.490694 -0.479993 0.381926 1.357016 0.281940 0.141321 -0.145253 0.014961 1.477959 -0.290315 0.108398 -0.578553 -0.119182 -0.101635 -0.877842 0.042673 1.071080 0.191072 -0.198141 -0.825666 0.612930 -0.098666 0.538591 0.362599 0.783625 1.082397 0.034787 -0.352184 0.176619 0.321102 -0.370694 0.413023
Q4G0J3 0.543427 0.073234 0.026428 -1.348366 -0.033513 0.868140 0.638711 0.502065 1.339095 -0.946223 -0.260390 -0.437691 -0.760805 0.549095 -1.442355 -0.865134 0.240884 -0.127445 0.247223 0.221295 -0.150411 -0.070005 0.115117 -0.408943 0.330871 0.136440 0.016130 0.026923 0.122745 -0.167241 0.194441 -0.234164 -0.026961 0.133773 -0.041628 0.024854 0.004244 0.102002 0.198134 0.085895 -0.295936 0.023871 -0.069913 -0.121816 -0.045221 -0.010748 0.112062 -0.066462 0.025160 -0.031004 -0.049336 0.051126 -0.028879 0.123759 0.135475 -0.240443 -0.126251 0.159336 -0.108202 -0.015299 0.014528 -0.101646 -0.291185 0.005123 -1.029159 -0.180345 1.247509 -0.880993 0.685731 0.121493 0.867448 1.345439 0.532860 0.537649 -0.066907 -0.007364 -0.079585 1.856073 -0.327134 0.285523 0.071964 -0.246985 -0.287810 -0.476653 -0.226784 -0.118610 -0.437300 0.243770 0.148785 -0.010845 -0.125781 0.966618 0.159965 -0.031142 -0.270965 0.229916 0.054155 0.397361 0.224298 0.065447 -0.137540 -0.053428 -0.218855 -0.314211 -0.080820 -0.195680 -0.394988 -0.076831 0.096703 0.155952 -0.003534 0.181416 -0.057189 0.096049 0.064533 0.090768 0.163081 -0.115128 -0.300650 -0.136014 0.311617 0.229977 0.166129 0.460787 0.064626 -0.329180 0.133514 0.203087
Q7RTS3 0.662244 0.171342 0.053708 -1.280031 -0.031254 0.815312 0.645192 0.552348 1.414039 -0.969117 -0.262696 -0.555941 -0.812610 0.502974 -1.369159 -0.767010 0.282758 -0.047217 0.291822 0.198726 -0.177722 -0.104090 0.126626 -0.317455 0.314958 0.216134 -0.032142 -0.037166 0.147447 -0.058439 0.226107 -0.243618 0.020510 0.038295 -0.039807 -0.026152 -0.017888 0.131507 0.124591 0.034199 -0.310710 0.053772 -0.029330 -0.138665 0.056873 0.088327 0.097374 -0.137992 -0.036634 0.042237 -0.064331 0.087940 -0.071127 0.154294 0.073019 -0.206238 -0.097042 0.160222 -0.069863 0.065305 -0.047291 -0.106970 -0.289269 -0.015331 -1.022762 -0.037398 0.535816 -1.337924 0.628172 0.152869 0.705744 1.671429 0.560918 -0.083788 -0.326233 -0.327431 0.206509 1.774649 -0.067141 -0.353381 0.209766 -0.191792 -0.640085 -0.345845 -0.304541 0.545210 -1.029914 0.508024 0.305728 0.054974 -0.670428 0.676473 0.440380 0.514306 -0.050835 0.095176 -0.026933 0.218864 0.157755 0.229332 0.038825 -0.724848 0.200578 -0.195136 0.234349 0.345926 -0.654198 -0.461380 -0.261577 -0.735960 -0.421899 0.788320 -0.124032 -0.030972 -0.269909 0.232734 0.360957 -0.547385 0.364798 0.343661 0.365424 0.059347 -0.150619 0.443134 0.103482 0.056455 -0.397853 0.621483
P14859 0.669852 0.173513 0.084566 -1.249258 -0.042045 0.816387 0.701570 0.583418 1.380621 -0.943572 -0.278404 -0.546837 -0.796005 0.549213 -1.343494 -0.893752 0.161661 -0.104262 0.189634 0.146956 -0.154192 -0.098712 0.158599 -0.391543 0.410988 0.163766 0.052306 -0.024097 0.050823 -0.073689 0.226109 -0.213346 -0.027292 0.090575 0.006750 -0.016711 -0.094648 0.173459 0.098345 0.090835 -0.317101 -0.034062 -0.042872 -0.223463 -0.054607 0.082337 0.063978 -0.017817 -0.029431 -0.010169 0.023668 0.013745 -0.014114 0.014233 0.027818 -0.189083 -0.101620 0.168243 -0.126761 0.051855 0.002853 -0.097826 -0.304989 0.075659 0.092833 0.158901 0.277709 -1.839594 1.366201 0.636703 0.327546 1.336373 0.270499 0.238758 0.191074 -0.557046 0.239005 2.109947 0.831817 -0.713390 0.249425 -0.712096 -0.759644 0.085249 0.806479 0.057642 -0.594945 0.825214 0.686474 -0.640247 -0.179284 0.934190 0.115311 0.535021 0.080827 -0.169706 0.371844 -0.638762 -0.193308 1.394562 0.043695 -0.216340 -0.117229 -0.371288 0.533065 -0.557858 -0.443307 -0.167093 -0.109337 -0.147051 -1.226123 0.307805 0.532647 0.564914 -0.221578 -0.514673 0.475167 -0.226320 0.550297 0.562672 0.528565 1.193535 0.086534 -0.329350 0.168063 -0.022899 0.238867 0.403075
P04637 0.753797 0.129762 -0.384502 -1.278029 0.125787 1.042480 0.428567 0.598963 1.288793 -0.633579 -0.369104 -0.162456 -0.654575 0.411236 -0.975499 0.074324 0.384497 -0.153265 0.283705 0.079250 0.069395 -0.319210 0.044820 -0.807524 0.373870 -0.249289 0.401886 0.618086 -0.031454 0.060235 -0.061498 0.096141 0.618355 0.039219 0.235236 -0.258588 0.029478 0.046918 0.134347 -0.006076 -0.606109 0.364698 -0.162682 -0.190389 0.395851 0.292283 0.307127 0.228834 0.186426 -0.897758 -0.254950 0.405771 -0.483827 -0.530261 0.526826 -0.448786 0.251267 -0.179688 0.113188 0.324172 -0.546506 0.177745 0.112223 0.754322 -1.082361 0.428860 0.640873 -1.638291 -0.274358 0.078483 1.684197 1.827303 0.847567 -0.249823 0.780087 -1.269072 -0.698101 1.000319 0.685839 -0.796500 0.729293 0.857945 0.713914 -0.161230 0.081965 -0.261854 -0.013109 1.250813 0.151527 -0.078600 0.163736 1.109291 0.049833 0.166560 -0.680103 -0.090009 -0.209622 -0.690570 0.394864 0.297448 0.748640 -0.672798 -1.255602 0.370780 1.280774 -0.232159 -0.383153 -0.545777 0.608920 -0.244931 0.829533 1.083790 0.252077 -0.820387 -0.210662 -0.902273 0.491887 0.026995 -0.508957 0.378088 -0.465483 0.399127 0.629884 1.016904 -0.906267 -0.837472 -0.661815 -0.488960
P61011 0.849391 0.755847 0.485855 -0.461209 0.091513 1.247144 0.117950 -0.050579 1.432222 -0.437717 -0.972560 0.005769 -0.492614 0.741700 -1.231863 -1.045562 0.287638 -0.403678 0.242386 0.293178 0.023151 -0.126295 -0.284238 -0.185665 0.628706 0.068806 0.082020 -0.229563 -0.256010 -0.241180 -0.084969 -0.305947 0.680269 0.308633 -0.042868 0.176101 -0.135189 0.180475 0.323435 0.084842 -0.294571 0.382797 0.239461 0.437517 0.074544 -0.005977 0.040511 -0.151204 -0.169534 0.117566 -0.090022 0.172440 0.171329 -0.128218 -0.089899 -0.088982 -0.012911 0.231857 -0.049798 0.235277 0.109864 -0.231250 -0.086793 0.142561 -0.815508 0.007759 0.697190 -0.852666 1.455459 -0.040864 0.361749 0.952913 -0.068466 -0.766332 -0.007550 -0.911727 0.299887 2.018973 0.423394 0.139024 0.797636 0.143982 -0.366036 0.509075 -0.518893 0.537981 -0.608686 1.642205 -0.719217 0.130819 0.564178 0.689819 -0.562729 0.519380 -0.482820 1.150836 0.840499 0.347904 -0.542905 0.893880 -0.012734 -0.215575 0.498670 0.363795 -0.628034 -0.029572 -0.573636 -0.493484 0.304981 0.575020 -1.023322 -0.683875 -0.494088 -0.169453 -0.616117 -0.447669 0.246191 0.698691 -0.268069 -0.103039 0.245886 0.137485 0.378665 0.172017 0.062925 0.313979 -0.225749 0.199199
P37108 0.798716 0.735275 0.495290 -0.446520 0.086591 1.212988 -0.013878 -0.034043 1.491870 -0.402077 -0.813672 0.030088 -0.517433 0.824350 -1.366076 -1.010713 0.363128 -0.258515 0.199022 0.227837 -0.029633 -0.091712 -0.251248 -0.254609 0.596952 -0.055466 0.132311 -0.287388 -0.361473 -0.231578 -0.109283 -0.320245 0.707733 0.228387 -0.123629 0.108236 -0.149538 0.227482 0.317039 0.197599 -0.267208 0.287919 0.127529 0.456762 0.138179 0.132299 0.103013 -0.272526 -0.145945 0.075856 -0.082465 0.080623 0.129975 -0.117142 -0.113472 -0.073356 -0.043287 0.303453 -0.089967 0.195181 0.115288 -0.243109 -0.107875 0.160513 -0.752618 0.088158 0.654785 -0.897935 1.291198 -0.037705 0.364639 0.936246 -0.026396 -0.798361 -0.051496 -0.984453 0.260205 2.090634 0.294591 0.171325 0.712157 0.110447 -0.387466 0.586506 -0.385711 0.588896 -0.618662 1.612636 -0.635025 0.107503 0.696239 0.664895 -0.487834 0.563129 -0.572902 1.179964 0.895272 0.401941 -0.552590 0.941990 -0.033559 -0.259322 0.459760 0.281421 -0.751932 -0.047501 -0.562386 -0.442391 0.419924 0.538223 -1.027667 -0.560320 -0.492571 -0.251146 -0.643313 -0.430329 0.222689 0.719327 -0.219795 -0.006440 0.210092 0.137073 0.209106 0.164409 0.053727 0.309424 -0.135445 0.101756
P09132 0.878193 0.760696 0.490326 -0.584333 0.084220 1.176239 0.065230 -0.035097 1.460956 -0.365360 -0.855438 -0.002623 -0.443028 0.823217 -1.194481 -1.074264 0.480181 -0.304131 0.217183 0.234299 0.016332 0.035681 -0.279447 -0.294989 0.615309 0.034211 0.114929 -0.365983 -0.266294 -0.147903 -0.151499 -0.254871 0.759663 0.338936 0.024049 0.168617 -0.164307 0.152821 0.312408 0.068281 -0.277649 0.248820 0.110340 0.405825 0.088316 0.092832 0.089095 -0.176241 -0.167612 0.163415 0.019884 0.229522 0.257830 -0.052074 -0.118680 -0.029835 0.017533 0.281384 -0.055106 0.261703 0.058416 -0.249465 -0.133371 0.204919 -0.789954 0.057657 0.593528 -0.910454 1.353380 -0.094669 0.387296 0.986438 -0.111511 -0.749511 0.006392 -0.942720 0.352784 2.105504 0.381819 0.135339 0.749389 0.170530 -0.370831 0.617944 -0.424815 0.547901 -0.702229 1.626887 -0.617986 0.137272 0.496399 0.637361 -0.631395 0.512110 -0.525210 1.251174 0.823711 0.297216 -0.554512 0.922087 -0.058068 -0.281329 0.499016 0.251865 -0.716908 -0.001765 -0.547804 -0.468741 0.389684 0.587852 -1.014210 -0.585653 -0.421225 -0.355942 -0.690883 -0.404691 0.264208 0.671948 -0.261289 -0.080150 0.237569 0.089923 0.197416 0.242832 0.127261 0.359844 -0.132045 0.113604
Q9UHB9 0.866645 0.754399 0.443940 -0.341091 0.085232 1.220536 0.163762 0.014021 1.529493 -0.389196 -0.842957 -0.026565 -0.486768 0.732403 -1.199972 -1.135753 0.443390 -0.322666 0.161921 0.254033 0.015134 -0.035390 -0.236053 -0.349630 0.603609 -0.039527 0.194251 -0.268191 -0.258167 -0.240007 -0.196674 -0.311125 0.718754 0.202484 -0.132642 0.082361 -0.063542 0.118567 0.304874 0.085977 -0.360445 0.308967 0.150239 0.413947 0.122979 0.054530 0.077895 -0.243462 -0.117017 0.195031 -0.056812 0.145140 0.177036 -0.062644 -0.105049 -0.084298 -0.054866 0.238221 -0.007318 0.270145 0.122570 -0.211368 -0.115994 0.146367 -0.771730 0.081493 0.739688 -0.883348 1.299296 -0.068279 0.459241 0.953421 -0.063253 -0.829513 -0.044464 -0.942154 0.275873 2.021150 0.385072 0.147124 0.747784 0.205424 -0.429258 0.499611 -0.399904 0.612244 -0.655496 1.623655 -0.674238 0.147045 0.574496 0.727104 -0.525459 0.434657 -0.484621 1.208977 0.874944 0.389360 -0.536699 1.037355 0.020171 -0.292601 0.438570 0.278038 -0.582239 -0.104564 -0.565718 -0.461768 0.338596 0.493201 -1.005225 -0.556673 -0.498957 -0.340654 -0.717888 -0.496141 0.293857 0.670858 -0.152522 -0.109945 0.267866 0.066712 0.264896 0.193993 0.057727 0.361317 -0.156656 0.105499
O76094 0.848537 0.714313 0.599228 -0.478964 0.095261 1.162203 0.099860 -0.065218 1.519975 -0.424981 -0.816740 0.058988 -0.491659 0.788430 -1.192980 -1.020012 0.397387 -0.495321 0.226812 0.212759 0.031672 -0.002519 -0.233470 -0.293465 0.662170 -0.015480 0.072278 -0.376801 -0.302903 -0.198177 -0.098566 -0.313988 0.723242 0.133735 -0.023342 0.114221 -0.172747 0.225416 0.272929 0.117045 -0.307841 0.345713 0.153497 0.422790 0.095891 -0.018050 0.148912 -0.164347 -0.137250 0.086869 -0.009635 0.113838 0.132814 -0.025889 -0.117028 -0.033690 -0.058492 0.260190 0.007950 0.205637 0.021755 -0.249539 -0.110289 0.123641 -0.731217 0.016773 0.695472 -0.939657 1.372948 -0.073127 0.404089 0.988566 -0.094295 -0.770010 0.010504 -0.930343 0.238185 2.025767 0.401111 0.095749 0.735560 0.161374 -0.343668 0.537394 -0.356123 0.582008 -0.635117 1.656275 -0.690989 0.152587 0.620447 0.590450 -0.516521 0.464726 -0.515563 1.217316 0.868430 0.400367 -0.552124 0.975524 -0.022276 -0.324147 0.493463 0.221258 -0.747935 -0.033018 -0.600132 -0.440676 0.474147 0.545023 -0.989213 -0.600515 -0.566024 -0.353791 -0.678005 -0.434540 0.194624 0.688530 -0.273852 -0.086288 0.343818 0.133371 0.251022 0.224427 0.133008 0.412670 -0.207029 0.070037
P49458 0.843966 0.770316 0.469200 -0.459771 0.176722 1.214444 0.064673 0.040508 1.475591 -0.389652 -0.930294 0.009706 -0.400926 0.787349 -1.198915 -1.129499 0.351110 -0.259565 0.294729 0.195947 -0.013889 -0.110345 -0.269243 -0.263022 0.619385 0.094497 0.069829 -0.398568 -0.296912 -0.166297 -0.107276 -0.246239 0.751647 0.113697 -0.060889 0.200840 -0.084314 0.173256 0.382163 0.120171 -0.343568 0.316822 0.194570 0.392562 0.072165 0.015768 0.182153 -0.167283 -0.082637 0.119315 0.016748 0.043348 0.154392 -0.082048 -0.032333 -0.108457 -0.042260 0.302375 -0.042015 0.178466 0.057016 -0.233025 -0.046591 0.188926 -0.771265 0.006083 0.721753 -0.896154 1.332740 -0.178869 0.451514 0.946300 -0.069488 -0.810215 -0.036114 -0.944771 0.191610 2.051003 0.324900 0.062500 0.721121 0.087195 -0.414300 0.463751 -0.443259 0.483915 -0.648011 1.645669 -0.612653 0.166983 0.576652 0.741065 -0.544398 0.439545 -0.481881 1.191338 0.842804 0.391148 -0.574856 0.971325 -0.024992 -0.385277 0.507700 0.291046 -0.786716 0.101230 -0.608187 -0.492919 0.358814 0.492646 -1.005572 -0.642014 -0.497918 -0.325870 -0.804559 -0.393421 0.165496 0.628555 -0.190757 -0.075806 0.219174 0.011389 0.248021 0.196761 0.038996 0.356984 -0.172417 0.154924
Q8IUX4 0.809254 0.750802 0.473659 -0.468191 0.089164 1.200420 0.008605 -0.039048 1.496175 -0.432751 -0.944491 -0.060439 -0.493572 0.762887 -1.269094 -1.008010 0.378867 -0.383084 0.203786 0.203558 0.019312 -0.000454 -0.354214 -0.353401 0.596083 0.013213 0.141806 -0.219140 -0.211543 -0.122117 -0.213419 -0.405765 0.676855 0.198192 -0.038170 0.193275 -0.136235 0.158076 0.344109 0.120644 -0.262321 0.214446 0.288816 0.434526 0.067531 0.032607 0.222244 -0.216779 -0.212726 0.160217 -0.061225 0.059129 0.167337 -0.035579 -0.100986 -0.109450 -0.018231 0.262010 -0.007671 0.198584 0.021065 -0.247889 -0.093830 0.185087 -0.845644 0.063324 0.624869 -0.868952 1.402554 -0.007006 0.390663 0.951373 -0.047464 -0.789242 0.004539 -0.954650 0.282878 2.046388 0.429291 0.195756 0.680444 0.262661 -0.477875 0.566804 -0.343326 0.613278 -0.786264 1.643039 -0.671568 0.141633 0.636852 0.636057 -0.621946 0.511072 -0.503469 1.288052 0.874604 0.368163 -0.501764 0.917065 -0.137022 -0.335270 0.509115 0.377419 -0.626281 0.000936 -0.544864 -0.503537 0.367942 0.434466 -1.045759 -0.452857 -0.486785 -0.286363 -0.656202 -0.478027 0.241174 0.701198 -0.111217 -0.051073 0.187010 0.096604 0.272190 0.181234 0.065268 0.245041 -0.069130 0.111954
Q01094 0.267898 0.150176 0.013524 -1.051543 -0.083597 0.782054 0.439333 0.508855 0.851189 -0.434316 -0.150249 -0.548070 0.068881 0.328882 -0.548599 0.023447 0.243443 -0.109149 0.038873 -0.156309 -0.043841 -0.390922 -0.024884 -0.457939 0.121152 -0.307683 0.234952 0.806528 0.230925 -0.081446 0.000691 0.000335 0.896811 -0.024887 0.268574 -0.092799 -0.170335 0.147071 0.221588 -0.063397 -0.557328 0.233947 -0.346971 -0.085263 0.168204 0.157028 0.095279 -0.086770 0.316848 -1.041272 -0.202486 0.500587 -0.635647 -0.385221 0.279872 -0.386083 0.373055 -0.322268 0.103580 0.241033 -0.718529 0.745011 0.340297 0.772195 -1.388234 0.250504 0.314316 -1.061795 0.552763 0.618169 1.134341 1.893817 1.187792 0.118625 -0.213647 -0.765690 0.452291 0.832929 0.125152 -0.481050 0.350295 -0.132183 0.399582 -0.365087 -0.426574 -0.147245 -0.192995 1.099471 0.458610 -0.444623 -0.055872 0.707338 -0.136910 -0.196858 -0.816850 -0.221554 -0.037549 0.066893 0.500831 0.401876 0.147477 -0.267554 -0.816542 -0.305997 0.353126 0.446869 -0.139963 -0.082332 -0.003222 0.027951 0.695671 0.527553 -0.324209 0.052477 0.125500 -0.612166 0.465676 -0.673989 -0.426272 0.340474 -0.136300 0.107572 0.260848 0.607919 -0.257992 -0.608286 -0.152032 -0.920311
Q9NY12 1.167778 0.379784 -0.130064 -1.424685 0.510864 0.870147 0.169630 0.373966 1.733421 0.232388 -0.302087 0.091602 -0.932351 0.223721 -1.232918 -0.823084 -0.151752 -0.432779 0.100968 0.169227 -0.153714 0.106477 0.654070 -0.270469 0.169480 -0.093038 0.205523 -0.269466 0.525336 0.264806 0.032025 -0.202955 -0.242818 0.323984 0.210290 0.016019 -0.326369 -0.151082 -0.001246 0.036367 -0.229339 0.278614 0.108075 -0.154837 0.302708 0.002102 0.121493 -0.061803 0.193183 -0.051327 -0.515583 -0.363908 0.266897 0.016626 0.236532 -0.484564 -0.112953 0.116165 -0.523750 0.324450 -0.128753 0.551801 -0.021409 0.001245 -0.358007 0.395640 1.134654 -0.953801 0.444970 0.674963 0.172545 1.631357 1.089739 0.601562 -0.161277 0.039961 0.721754 0.911123 -0.002603 0.073567 0.014585 -0.187574 -0.624401 0.043130 0.302901 0.107682 -0.720667 0.835870 0.080507 0.233967 -0.772452 0.730946 -0.735109 0.000163 -0.817150 1.093451 0.065674 -0.044805 0.116572 1.389049 -0.327718 0.130911 0.188539 0.099433 0.456645 0.134050 -0.207802 -0.368700 -0.070313 0.122563 -0.182351 0.006573 -0.186214 -0.668178 0.041451 0.153331 0.490721 0.272791 0.343193 0.170296 0.762498 1.148340 0.034935 0.538109 -0.222395 0.185819 0.535967 -0.011958
Q9UKC9 1.098919 0.359981 -0.053603 -1.441637 0.622222 0.854506 0.129759 0.174618 1.832754 0.206552 -0.350940 -0.036480 -0.824169 0.190907 -1.304384 -0.742727 -0.293205 -0.290654 0.072633 0.124082 -0.169431 0.009640 0.623977 -0.336530 0.293081 -0.116874 0.135447 -0.301310 0.591542 0.323397 0.029975 -0.040137 -0.203257 0.241180 0.205894 -0.099799 -0.266433 -0.287714 0.083751 0.127385 -0.257598 0.137169 0.151183 -0.233779 0.170528 -0.058465 0.204128 -0.084505 0.084986 -0.133219 -0.544000 -0.202094 0.302602 -0.099781 0.232892 -0.570976 -0.055506 -0.070528 -0.433622 0.467611 0.022752 0.433103 -0.111113 -0.167954 -0.362739 0.352427 1.053843 -0.883695 0.436029 0.738891 0.226452 1.603491 1.137984 0.709357 -0.155407 0.057347 0.734613 0.937220 0.053201 0.138813 0.107712 -0.167448 -0.599877 0.056538 0.364988 0.099348 -0.775123 0.873980 0.158757 0.279614 -0.771348 0.665805 -0.754343 -0.070460 -0.692793 1.034169 0.037884 -0.011033 0.095482 1.394182 -0.351989 0.187747 0.369469 0.155757 0.432440 0.251637 -0.238928 -0.398355 0.004680 0.054203 -0.205764 0.072654 -0.141919 -0.693304 0.022494 0.170944 0.548782 0.242207 0.390778 0.178473 0.722900 1.133044 0.122685 0.518171 -0.170193 0.193472 0.566427 -0.068353
P01189 0.291493 0.167600 -0.110310 -1.024005 -0.118593 0.863883 0.474613 0.498814 0.741491 -0.423995 -0.151676 -0.535228 0.006584 0.322996 -0.551519 -0.089708 0.190824 -0.040228 0.130018 -0.189842 -0.051587 -0.401898 -0.037977 -0.475483 0.177085 -0.337208 0.290549 0.885454 0.286218 -0.076200 -0.090347 -0.023734 0.902209 -0.038408 0.321504 -0.153324 -0.245411 0.162450 0.172753 -0.053055 -0.552919 0.325167 -0.279212 -0.204482 0.170950 0.224272 0.065548 -0.000969 0.242474 -0.979722 -0.273184 0.516173 -0.681901 -0.315783 0.216357 -0.307786 0.389770 -0.355787 0.142005 0.211382 -0.711910 0.728372 0.242920 0.773130 -1.329573 0.899113 0.035210 -1.294567 0.443268 0.284790 1.846353 2.125737 0.774345 -0.106163 0.564671 -0.971325 0.190726 0.592385 1.141883 -1.417073 0.364469 0.684399 0.595034 -0.168944 -0.252969 -0.795070 0.025677 1.187079 0.364898 -0.475787 0.673937 0.133316 -0.119456 -0.238366 -1.243728 -0.463077 -0.070306 0.005740 1.071345 0.295588 0.781202 -0.636450 -1.176314 -0.107307 0.514302 0.239252 -0.402454 -0.701902 -0.027937 -0.369686 1.977194 1.026057 -0.321019 -0.658576 -0.076537 -0.741551 0.789421 -0.606941 -0.509587 0.524047 -0.520335 0.236022 0.152869 1.263062 -0.922901 -1.115847 -0.507784 -1.003030
P49711 0.263108 0.125629 -0.033387 -1.029669 -0.096829 0.796569 0.425004 0.596621 0.886955 -0.477680 -0.117772 -0.504265 0.067125 0.291066 -0.543085 -0.110881 0.285193 -0.149033 0.026751 -0.216039 0.023849 -0.360071 0.038323 -0.465504 0.154548 -0.317051 0.257238 0.890132 0.145224 -0.071006 -0.027313 0.084936 0.922034 -0.002150 0.352234 -0.177774 -0.209563 0.204016 0.144657 -0.063751 -0.562875 0.248863 -0.384733 -0.101895 0.234699 0.108205 0.081690 -0.057936 0.168772 -0.972671 -0.189775 0.415419 -0.679613 -0.434671 0.265806 -0.304963 0.351069 -0.374292 0.126722 0.375179 -0.735965 0.732078 0.238815 0.754892 -1.526601 -0.533580 0.826141 -0.754650 0.810741 0.367210 0.805170 1.125821 0.540862 0.667464 0.278346 0.335517 0.112055 1.175773 -0.766490 0.755252 -0.685773 -0.358444 0.088970 -0.401860 0.085314 -0.318991 -0.511942 0.819254 0.585942 0.819179 0.064066 0.823955 0.344131 -0.030081 0.007854 -0.268757 0.479561 0.138635 0.203756 -0.311183 -0.402639 0.280781 -0.734431 -0.457733 0.110616 -0.000840 -0.368682 -0.375878 0.071705 0.316884 -0.429763 0.250303 -0.083480 -0.373600 -0.208376 0.000949 -0.149089 -0.655719 -0.002813 0.307567 -0.186451 0.145607 -0.330391 0.252559 -0.078481 -0.181648 0.148405 0.367507
P01344 0.245780 0.121567 -0.085980 -1.046567 -0.077783 0.860877 0.451552 0.539966 0.823009 -0.411265 -0.122886 -0.529348 0.024449 0.302526 -0.563665 -0.019188 0.233175 -0.077512 0.031066 -0.237527 -0.055764 -0.449796 0.026849 -0.436415 0.212056 -0.243216 0.249569 0.890665 0.270772 -0.106093 -0.146873 0.046960 0.887744 -0.034664 0.273142 -0.248503 -0.109591 0.076032 0.302593 -0.201230 -0.645994 0.240698 -0.363518 -0.047350 0.217797 0.142891 0.073518 -0.106286 0.212661 -1.025985 -0.191749 0.494215 -0.620244 -0.338579 0.210444 -0.367972 0.395962 -0.300399 0.118488 0.312980 -0.723060 0.647826 0.329280 0.695546 -1.278432 0.948774 -0.041153 -1.262048 0.425313 0.282008 1.873538 2.141855 0.743256 -0.020405 0.573745 -1.041704 0.262718 0.578004 1.091479 -1.409311 0.407906 0.671479 0.492603 -0.238881 -0.310531 -0.706295 -0.084939 1.123348 0.332237 -0.360648 0.690421 0.186428 -0.189324 -0.218000 -1.157559 -0.514592 -0.063522 -0.050203 1.069624 0.222832 0.759315 -0.611909 -1.209861 -0.119025 0.492533 0.196706 -0.379351 -0.665404 0.037924 -0.492197 1.958102 1.036282 -0.214379 -0.572773 -0.081522 -0.713056 0.880822 -0.556527 -0.519721 0.545614 -0.547397 0.216126 0.200771 1.288828 -1.004473 -1.092488 -0.544201 -0.993044
P14210 0.251682 0.153078 -0.053480 -1.151199 -0.126313 0.777090 0.350317 0.457638 0.801444 -0.491073 -0.203582 -0.521655 0.038753 0.331817 -0.559654 -0.020158 0.259300 -0.150812 0.040661 -0.172844 -0.088203 -0.417746 0.058925 -0.450258 0.113791 -0.282493 0.181548 0.930089 0.226926 -0.077711 -0.079414 0.093333 0.962191 -0.054385 0.266407 -0.126378 -0.197876 0.073739 0.170021 0.051318 -0.547838 0.154000 -0.285082 -0.062335 0.213758 0.067588 0.041388 -0.044221 0.219135 -1.050528 -0.271869 0.569346 -0.635645 -0.341937 0.223435 -0.439172 0.312007 -0.350402 0.129364 0.290930 -0.761488 0.647267 0.313169 0.679306 -1.250797 0.940531 0.020112 -1.236414 0.484831 0.406681 1.875331 2.157825 0.732669 -0.089723 0.604452 -1.013982 0.273336 0.510533 1.119972 -1.387572 0.405010 0.681749 0.606590 -0.192695 -0.322916 -0.745650 -0.004739 1.132563 0.376124 -0.430297 0.760513 0.157904 -0.143474 -0.195554 -1.158551 -0.458045 -0.028194 -0.037648 1.088313 0.339573 0.753571 -0.616199 -1.169637 -0.140789 0.509510 0.242154 -0.307146 -0.730266 -0.094487 -0.321859 1.966270 1.019471 -0.335924 -0.618161 -0.101398 -0.759031 0.764820 -0.558458 -0.510148 0.547630 -0.598808 0.235079 0.115332 1.241540 -0.901181 -1.086385 -0.472367 -1.057050
Q15465 0.294766 0.063343 -0.034760 -0.998501 -0.022352 0.748425 0.393855 0.426794 0.830239 -0.503472 -0.118633 -0.587298 0.015443 0.282856 -0.668618 0.027570 0.227839 -0.141267 0.032068 -0.186422 0.004888 -0.383168 -0.032981 -0.465487 0.193416 -0.193179 0.166918 0.898804 0.217826 -0.148304 -0.070007 0.005133 0.950066 -0.094944 0.290634 -0.281635 -0.229463 0.150787 0.264124 -0.060450 -0.515568 0.254715 -0.369998 -0.124241 0.261191 0.190559 0.142936 -0.049703 0.217294 -0.962297 -0.260268 0.505274 -0.615047 -0.358560 0.245799 -0.395352 0.364856 -0.361608 0.115662 0.253257 -0.707533 0.755094 0.310154 0.759274 -1.235179 0.916311 -0.030310 -1.301898 0.460875 0.306591 1.818566 2.097125 0.814807 -0.088721 0.567341 -0.972869 0.301295 0.674903 1.163810 -1.345700 0.417310 0.651837 0.542784 -0.182644 -0.304238 -0.687111 -0.019011 1.126469 0.330590 -0.437811 0.701689 0.224275 -0.166289 -0.192770 -1.137995 -0.580835 -0.128933 -0.054134 1.029497 0.247286 0.717900 -0.603698 -1.134274 -0.135119 0.531931 0.225642 -0.344023 -0.723633 -0.125558 -0.435828 1.963044 1.041163 -0.314431 -0.599169 -0.136779 -0.706456 0.865345 -0.606203 -0.518606 0.591831 -0.483659 0.216516 0.231827 1.305329 -0.970201 -1.040861 -0.485519 -1.013494
P08151 0.266194 0.120665 -0.041200 -1.098903 -0.057310 0.783044 0.366882 0.538015 0.809555 -0.461694 -0.172371 -0.574794 0.110540 0.270758 -0.595694 -0.046136 0.358506 -0.067257 0.134783 -0.128958 0.055580 -0.388273 0.000982 -0.423381 0.151151 -0.297225 0.230569 0.975198 0.213183 0.020782 -0.166143 -0.024278 0.914456 0.029041 0.289333 -0.156702 -0.138656 0.193451 0.268456 -0.103941 -0.440582 0.278688 -0.323861 -0.124016 0.198525 0.154811 0.104489 -0.059087 0.184451 -1.012105 -0.231160 0.396627 -0.632956 -0.348707 0.274268 -0.486042 0.369071 -0.326774 0.125580 0.230479 -0.723639 0.722828 0.301994 0.701634 -1.433050 -0.517753 0.867300 -0.767974 0.824419 0.389044 0.806293 1.138014 0.557545 0.733232 0.207944 0.315212 0.092622 1.182938 -0.788220 0.747760 -0.734769 -0.337027 0.083582 -0.416334 0.100266 -0.290894 -0.486363 0.822209 0.576788 0.853448 0.053692 0.820222 0.402297 -0.010436 -0.012151 -0.282900 0.468764 0.206164 0.203247 -0.249992 -0.398245 0.263713 -0.743510 -0.435281 0.115119 -0.002012 -0.370879 -0.381714 0.055575 0.344679 -0.426622 0.264358 -0.053149 -0.420810 -0.254023 0.015886 -0.178444 -0.612022 0.013222 0.330841 -0.204008 0.158602 -0.300190 0.249600 -0.083239 -0.157724 0.124555 0.416820
P01236 0.268584 0.109392 -0.019259 -0.963790 -0.074850 0.784236 0.410866 0.478321 0.910888 -0.444289 -0.098844 -0.615365 -0.014675 0.342572 -0.578429 -0.017355 0.240500 -0.141045 0.026443 -0.257353 0.036041 -0.446563 0.077214 -0.467610 0.198719 -0.371843 0.224477 0.940287 0.183823 -0.069396 -0.050307 0.019961 0.859788 -0.020949 0.235086 -0.161851 -0.160068 0.173800 0.284287 -0.042357 -0.575116 0.297313 -0.258122 -0.044883 0.198219 0.242435 0.061802 0.069678 0.314319 -1.090555 -0.172849 0.450984 -0.609363 -0.275993 0.247205 -0.354444 0.324991 -0.324265 0.116467 0.305069 -0.761005 0.735373 0.350823 0.648446 -1.244427 0.870050 -0.034933 -1.287335 0.451499 0.311415 1.852929 2.158468 0.764967 -0.104598 0.533886 -0.992005 0.324403 0.599316 1.094498 -1.426657 0.406013 0.695416 0.583536 -0.211947 -0.319273 -0.769542 -0.089079 1.092753 0.355472 -0.405283 0.714502 0.099997 -0.107357 -0.291418 -1.151898 -0.524765 -0.066234 0.014497 1.039747 0.325653 0.750263 -0.540509 -1.160489 -0.138097 0.542083 0.196862 -0.362671 -0.639241 -0.021669 -0.387120 1.978072 0.987168 -0.307571 -0.741762 -0.081777 -0.675313 0.828280 -0.580541 -0.511570 0.474201 -0.476665 0.234033 0.153584 1.279108 -0.928112 -1.082039 -0.507549 -1.067004
P15514 -0.184157 0.177666 0.013807 -0.764512 0.316740 -0.563046 -0.469789 -0.698208 0.520508 0.060021 0.152085 -0.276014 -0.293997 -1.128143 -0.046418 0.213014 -0.134828 -0.661168 0.280354 -0.101927 0.136116 0.563306 -0.092904 0.234341 0.633864 -0.204386 -0.490580 -0.360684 -0.719398 0.222575 0.002010 -0.760050 0.829053 -0.336322 -0.066234 0.589849 0.086718 0.362054 0.778469 0.520436 -0.006920 -0.350966 -0.087925 0.027393 0.078713 -0.501044 -0.212291 -0.252806 0.259764 -0.333518 -0.452733 -0.169634 -0.269419 0.015315 -0.467277 0.043958 0.883056 -0.328607 0.212160 0.508497 0.385936 0.027161 0.194102 0.027070 -0.559829 -0.098166 1.407921 -0.964568 1.162550 0.156083 0.908607 1.617488 0.360005 0.202618 -0.587914 0.271512 0.538445 1.317037 -0.238247 0.244692 -0.100623 -0.369509 0.211872 -0.877713 0.278165 -0.626270 -0.290250 0.678568 -0.306715 -0.120756 -0.093746 0.470738 0.465423 0.056029 0.144092 0.402433 0.024706 0.371928 -0.211508 -0.099227 -0.257968 -0.275315 0.024584 0.352777 -0.048448 1.001860 0.395324 -0.351317 0.263941 0.198311 -0.266730 0.509613 0.105039 -0.173165 0.406939 0.007425 0.242918 -0.236559 -0.343357 0.207071 0.362570 0.298988 0.460097 0.254385 -0.208377 -0.449631 -0.074926 0.321634
P49913 0.910995 -0.057970 -0.312358 -1.248054 0.452045 0.736274 0.619986 0.667664 0.765015 -0.442808 0.025914 -0.497977 -0.460324 0.340781 -1.154391 -0.187087 0.438811 -0.275913 0.064018 -0.052956 -0.043164 -0.442636 0.052361 -0.409366 0.252989 0.115834 0.311961 0.605251 -0.020193 0.164344 -0.293596 -0.203218 0.482052 -0.068023 0.036257 -0.320433 -0.000131 0.180582 0.116799 0.165570 -0.710689 0.123861 -0.135824 0.199296 0.058134 0.007271 -0.093830 0.132472 0.048211 -1.263124 -0.342651 0.429637 -0.620377 -0.264075 0.625524 -0.200509 0.601209 -0.218833 0.445765 0.387183 -0.812446 0.266688 -0.226389 1.068043 -0.889983 0.741377 0.000634 -1.802326 0.141507 0.183918 2.252340 1.778209 -0.215404 -0.297215 0.380228 -1.369512 -0.242528 1.137014 0.417449 -1.400155 0.785051 0.990616 0.045331 -0.294677 0.034611 -0.399737 -0.300395 1.475043 0.349628 0.149182 0.368250 0.124708 -0.057918 0.134721 -0.272224 0.111537 0.132065 -0.537807 0.900452 0.180851 0.977738 -0.472781 -1.154644 0.171106 1.247441 -0.387538 -0.660474 -0.534338 0.009825 0.067248 0.959951 1.053635 0.373008 -0.881992 -0.246496 -0.878988 0.626255 -0.296841 -0.096562 0.612589 -0.634069 0.274896 0.450356 1.336449 -0.577556 -1.017695 -0.258768 -0.713727
P01106 -0.187216 0.144383 0.663343 -0.386457 0.093499 0.615476 0.376335 0.204058 -0.324053 0.555433 -0.428758 -0.909682 -0.261056 0.544582 0.495920 -0.109194 -0.301415 0.211279 -0.257622 -0.157837 -0.201228 0.375342 0.994091 -0.017827 0.561241 0.467917 0.198867 -0.570856 0.633465 0.463809 -0.464433 -0.469181 -0.024198 0.728422 0.701568 0.406362 -0.195399 0.214750 -0.236606 0.585040 -0.161730 0.869073 0.549675 0.722807 0.249354 -0.760597 -0.322960 -0.257376 0.530610 0.674682 0.299767 -0.113028 0.192838 -0.034190 -0.407220 -0.048014 1.107394 -0.303426 0.451240 1.211814 0.027161 0.293162 1.026292 0.146568 -0.766606 -0.376281 1.204158 -1.314678 0.961598 0.644550 0.563203 1.754814 0.175020 0.149274 0.425208 -0.327846 -0.003362 1.502748 0.016152 -0.528412 0.031324 -0.426948 0.282008 -0.493652 -0.454404 -0.319914 -0.397145 0.488210 0.699985 -0.078515 -0.098458 0.869608 -0.315687 0.302382 -0.595983 0.036597 -0.041944 1.080717 0.176253 0.111273 0.422826 -0.287415 0.573776 -0.514473 0.526077 0.381532 -0.238618 -0.166739 -0.158364 0.334735 -0.765354 -0.069937 0.105551 -0.330176 0.261679 0.064876 0.228985 -0.497022 -0.526245 0.266811 0.975754 -0.177913 -0.039258 0.136494 0.233515 -0.245069 -0.651354 0.252982
P05067 0.146116 0.197947 -0.293573 -0.053973 -0.224020 0.233145 0.637010 -0.277640 -0.741402 -0.129215 -0.183729 -0.108400 -0.401316 -0.197971 -0.299206 -0.692614 -0.181218 1.034321 -0.199841 -0.407450 -1.316214 0.271483 0.633029 -0.100689 1.226497 -0.144583 0.985360 0.234251 0.019741 0.067532 0.156167 -0.988819 0.615398 0.325820 0.565211 0.297133 -0.027299 0.241830 0.169316 0.669596 0.648267 -0.824700 -0.468335 -0.414568 0.239516 -0.986899 0.252495 -0.471558 0.631931 -0.609329 -0.434412 -0.708883 0.557105 0.592114 -0.164829 -0.327729 0.304675 -0.598767 -0.664102 -0.069328 0.460545 0.612095 0.366519 0.761815 -0.738101 -0.073546 0.630103 -1.385402 0.992681 0.015466 1.257362 1.341812 0.546727 0.284925 -0.298612 -0.280294 0.932605 0.951464 -0.114340 -0.259407 -0.195653 -0.130817 -0.211352 -0.267406 -0.371572 -0.623623 -0.619692 0.757623 0.069588 -0.167649 -0.319439 0.649986 0.201759 0.246250 -0.520482 0.336222 0.411684 0.230666 0.321086 0.291652 -0.281363 -0.518750 0.110401 -0.084808 0.366049 -0.055594 -0.121067 -0.172119 0.296939 0.508738 -0.297460 0.108918 0.227928 -0.274716 0.367240 0.084279 0.104401 -0.468150 -0.248180 0.292575 0.483618 0.383978 -0.118027 0.690325 -0.170404 -0.201489 0.449338 0.342163
P78509 0.404423 -0.375233 -0.748808 -0.326036 -0.083067 -0.482740 0.439573 0.003446 -0.635266 0.095986 0.043999 -0.211514 0.074241 0.337707 -0.314764 -0.429666 -0.532103 -0.261868 -0.151286 0.022001 -0.047926 -0.096640 0.967804 0.618689 -0.039535 0.134037 -0.327008 0.217755 0.204879 0.225969 0.143676 -0.184947 0.840922 0.696970 -0.090209 0.305417 -0.307660 0.897478 1.407372 0.488168 1.013970 1.368028 0.018384 0.597495 -0.570504 -0.852013 0.099073 -0.413144 -0.696782 -0.179138 -0.375939 -0.597767 0.229599 0.337465 -0.869040 0.782998 -0.129487 -0.813335 -0.213746 -0.439303 -0.140294 0.768785 0.644347 0.311835 -1.418025 -0.964735 0.217527 -0.513157 0.654735 0.538044 0.893233 0.513460 0.332957 -0.056433 0.367932 -0.076292 0.662417 0.639917 -0.867854 0.918896 -0.265499 -0.864623 0.097434 -0.259934 -0.383468 -0.450736 -0.790590 0.273445 0.017128 1.054553 0.434322 0.379726 0.478284 -0.046420 -0.118164 -0.079730 -0.185441 0.833781 0.182967 0.159311 -0.594098 0.487405 -0.462686 -0.292377 0.288356 -0.172559 -0.405197 0.039125 -0.024486 0.438293 -0.209258 0.254117 -0.057560 -0.138279 -0.115509 -0.544199 0.339123 0.048828 0.089685 0.378175 -0.612728 0.373069 -0.043345 -0.007474 -0.348369 0.371987 -0.657646 0.343729
Q5S007 0.371481 0.134570 -0.514086 0.267236 0.200721 -0.158851 0.077953 -0.230154 -0.177514 0.145341 0.314635 0.197601 0.436182 0.286695 -0.341762 -0.225716 0.539693 0.981904 -0.530761 0.323252 -0.144269 0.068455 0.489028 0.978053 0.861863 1.088225 -1.313981 0.081770 0.320937 0.009198 0.341677 -0.835142 0.755432 -0.476790 0.483426 -0.557923 -0.505148 -0.553487 0.709761 0.413530 0.039867 -0.046526 0.095587 -0.128629 -0.160954 -0.381378 -0.803746 -0.583794 0.536548 -0.028268 0.127791 0.486751 1.116668 -0.306109 -0.233963 0.392920 0.442995 -1.034531 0.207831 0.544682 0.832262 0.305800 0.621494 0.472133 -0.828606 0.331539 -0.500513 -1.844872 2.001278 0.035736 1.721555 0.296354 -2.028700 -0.470543 -1.854964 -2.774414 1.143476 1.632825 -0.211122 -1.307734 0.682322 -0.067412 -0.671968 -0.412500 0.051243 -0.187563 -1.599541 1.411666 0.432744 0.220720 0.271756 0.275112 -0.144521 -0.069644 0.009864 0.144631 0.228513 0.431199 0.769305 1.401417 0.678827 -1.056036 0.382877 -1.239301 1.269010 -0.014232 -0.712551 0.116005 0.164522 0.620820 0.050305 -0.560698 0.754739 -0.314767 -0.215446 0.600801 0.607220 -1.202561 -0.099417 -0.189444 0.920844 0.508664 -0.161860 0.382614 0.142435 0.942987 0.039886 0.531346
Q12968 0.418431 0.190358 -0.502241 0.239085 0.268943 -0.111761 0.070035 -0.300218 -0.123012 0.076931 0.380724 0.309020 0.518765 0.249942 -0.376409 -0.311766 0.514910 0.971056 -0.446504 0.388993 -0.192617 0.075431 0.486103 0.930943 0.836262 1.034927 -1.252639 0.236399 0.221742 0.125560 0.329148 -0.806561 0.675219 -0.566708 0.496489 -0.602686 -0.585292 -0.441154 0.585204 0.478883 0.063488 -0.078314 0.134448 -0.133257 -0.240711 -0.342119 -0.838902 -0.516132 0.631725 -0.035018 0.069895 0.450721 1.207130 -0.332949 -0.216528 0.472650 0.479040 -1.027498 0.182723 0.679822 0.748529 0.333466 0.704884 0.426777 -0.684332 0.229191 -1.098872 -2.023273 1.746320 -0.118598 1.701225 0.190835 -2.570320 -0.551773 -1.649051 -2.966398 0.924616 1.725260 -0.018183 -1.337438 0.696727 0.066641 -0.619742 -0.430173 -0.246412 -0.050429 -1.468216 1.027068 0.439787 0.285912 0.481054 0.242256 -0.131058 -0.019679 -0.117315 -0.214047 -0.035614 0.238703 0.698125 1.046314 0.895536 -0.964816 0.084088 -0.989151 0.987534 0.043390 -0.285997 0.252801 0.110344 0.312931 0.053012 -0.380177 0.727995 -0.436098 -0.215650 0.556741 0.605019 -1.177848 -0.079297 -0.399643 0.517512 0.068056 0.013178 0.187868 0.276518 0.894487 -0.006363 0.355772
Q13127 0.438621 -0.380184 -0.750652 -0.336570 -0.137774 -0.416349 0.368470 0.038721 -0.618470 0.179641 0.077859 -0.309687 0.098120 0.348909 -0.370790 -0.361328 -0.478248 -0.278144 -0.135290 -0.045596 -0.126946 -0.069784 0.944353 0.504823 -0.128072 0.050837 -0.322508 0.180392 0.206258 0.082109 0.112746 -0.197156 0.748673 0.649954 -0.167312 0.226114 -0.392245 0.907567 1.388817 0.583272 0.992983 1.278170 -0.039826 0.566280 -0.556155 -0.882129 0.148320 -0.205303 -0.783182 -0.019690 -0.348184 -0.598204 0.282400 0.496839 -0.939584 0.855194 -0.080176 -0.983664 -0.266373 -0.507777 -0.148938 0.778550 0.718783 0.323815 -1.277652 -0.860861 0.277222 -0.772903 0.668192 0.421860 1.123377 0.914761 0.278657 0.028769 0.271507 0.180892 0.343064 1.017173 -0.753368 0.739184 -0.572039 -0.556273 0.124375 -0.514500 -0.041397 -0.396906 -0.839302 0.325547 0.087514 0.822793 0.118596 0.627012 0.418172 0.101780 -0.406438 -0.116477 0.074236 0.406288 0.128593 0.084814 -0.669900 0.411896 -0.469500 -0.224180 0.220707 -0.175893 -0.339331 -0.011517 -0.245197 0.317948 -0.123214 0.199218 -0.179479 -0.104180 -0.030306 -0.436108 0.401124 -0.135621 0.062971 0.272845 -0.222775 0.261255 -0.011557 0.170166 -0.522435 0.149149 -0.551529 0.384943
Q7Z3B3 0.311326 -0.910478 -0.623292 -0.054736 0.659792 0.533062 0.068020 -0.041429 -0.578779 -0.112730 0.059104 0.042186 0.263761 -0.217698 -0.684709 -0.500567 0.552546 -0.266795 -0.814069 0.468685 0.362865 -0.815124 0.365548 0.288853 0.994094 -1.030893 -0.183607 -0.557956 0.533845 -0.011541 -0.377578 -1.109750 0.118678 0.796583 0.571982 0.717825 0.444934 0.775287 0.296992 -0.560813 0.088085 -0.517205 -0.438714 0.817581 0.490032 0.161191 -0.264546 -0.638440 0.046724 -0.267841 0.270884 -0.484060 0.890599 0.161235 -0.705932 0.516208 1.402434 -0.757713 -0.269912 -0.395378 0.174632 0.110394 0.590294 -0.504170 0.481072 -0.276459 -1.048014 -1.758407 1.529956 0.906192 0.902517 0.112045 -1.653715 0.202888 -0.507175 -1.971920 2.193661 1.950673 -0.304450 -1.338818 0.636512 0.219979 -0.340755 1.270512 -0.405501 -0.560497 -0.479858 0.025409 0.942604 -0.060723 0.212947 0.644513 0.479737 0.823921 0.647932 0.559707 0.506318 -0.757966 -0.505399 0.698693 0.349666 0.051431 -0.268157 -0.098851 -0.161465 -0.566683 -0.514894 -0.281650 -0.060085 0.110872 -0.316236 -0.136671 0.472577 -0.323087 0.182860 0.566482 0.385068 -0.751080 0.516776 0.557372 -0.072743 0.236068 0.457508 0.438307 0.246174 -0.718079 0.059068 0.284222
Q9H9S0 0.332153 -0.313542 0.176418 -1.075656 0.352546 0.577863 -0.394428 -0.210412 -1.019409 0.203227 0.858149 -0.329976 -0.022437 0.031395 -0.259198 -0.807744 -0.499175 -0.222778 0.248382 0.427422 0.176579 -0.547490 -0.612116 -0.298474 1.469454 0.489784 0.132207 0.051704 -0.679577 0.357296 -0.632309 -0.032473 -0.091861 0.991778 -0.020018 -1.020592 -0.133140 0.506580 1.560560 1.232298 0.105557 0.351269 0.449161 -0.008017 0.342773 0.230411 -0.752497 -0.095025 0.222323 0.004583 0.229665 -0.454063 0.837600 0.078262 -0.801545 -0.370143 0.469833 -0.206322 -0.116148 -0.146017 0.188472 0.684572 1.038843 0.106870 -0.023163 -0.303135 0.164846 -1.502144 1.719010 1.039464 1.205830 0.478614 -0.536370 0.169688 -0.458126 -1.163728 1.865105 1.121683 -0.183597 -1.184517 0.319316 -0.208396 -0.213891 1.349360 -0.627050 -0.571544 -0.654472 0.428430 1.015846 -0.115797 0.096473 0.910653 0.860950 0.699872 -0.232046 0.975611 0.602491 -0.626309 -0.318761 1.236887 0.028867 -0.239252 -0.044752 -0.295299 0.396412 -0.712768 -1.371264 -0.172936 -0.126336 0.051255 -0.161488 0.079701 0.551475 -0.160261 0.185030 0.595425 0.530858 -1.047533 0.170216 0.817157 0.322325 0.755653 0.582177 0.552695 -0.137568 -0.295347 0.388916 0.231653
P48431 0.312644 -0.285320 0.083965 -0.996070 0.303205 0.600431 -0.402412 -0.223821 -1.065043 0.205036 0.891812 -0.335712 -0.003117 0.111782 -0.203860 -0.815494 -0.436411 -0.230963 0.250464 0.551639 0.229907 -0.565632 -0.673653 -0.286529 1.559784 0.444561 0.084774 0.061959 -0.669977 0.358594 -0.701445 0.028363 -0.012354 1.018224 -0.055778 -0.981931 -0.215888 0.576928 1.487761 1.298921 0.049270 0.326669 0.306668 0.053995 0.343497 0.164843 -0.749977 0.030042 0.288909 -0.000584 0.044166 -0.470960 0.802335 -0.031560 -0.786875 -0.373495 0.514966 -0.274059 -0.061201 -0.224995 0.317855 0.660241 0.988937 0.057088 -0.265063 -0.137470 -0.217976 -1.197927 1.822333 0.758186 1.428625 0.267863 -0.446111 -0.068509 -0.136447 -0.874540 1.720057 1.410153 0.323763 -1.112683 0.253308 -0.256564 -0.124593 0.686834 -0.431029 -0.518164 -0.937283 1.112297 1.176241 0.148736 0.165856 0.182518 0.139242 -0.151453 -0.019897 0.720999 0.539697 -0.362391 0.266199 1.284112 0.020605 -0.401878 0.663362 -0.607242 0.389492 -0.579454 -1.123462 0.098905 0.115024 0.238241 -0.251936 0.326808 0.322954 0.062179 0.277068 0.568738 0.508016 -1.123587 0.301484 0.454932 0.492213 0.881534 0.101152 0.634884 -0.405744 -0.117371 0.501037 0.142288
P31269 0.298729 -0.983003 -0.471942 -0.056723 0.622352 0.549066 0.156748 -0.029996 -0.577895 -0.080782 0.040343 0.160206 0.318973 -0.174455 -0.749854 -0.527068 0.550101 -0.221072 -0.715954 0.435282 0.245519 -0.723972 0.310634 0.285774 0.946452 -1.060526 -0.178849 -0.583133 0.477302 -0.086342 -0.350799 -1.065938 0.079818 0.777176 0.449267 0.777280 0.453561 0.815294 0.257698 -0.586566 0.031860 -0.689782 -0.410834 0.776805 0.566712 0.086206 -0.248236 -0.437782 -0.032129 -0.353117 0.258884 -0.508188 0.974578 0.028860 -0.702381 0.567896 1.413282 -0.777778 -0.285304 -0.391515 0.182868 0.165565 0.678001 -0.357298 0.301316 -0.559952 -0.479574 -1.660762 1.735994 1.246874 1.194367 0.542741 -1.124192 0.028796 -0.462301 -1.470723 2.327245 1.633271 -0.282131 -1.438077 0.529849 0.124437 -0.291446 1.380662 -0.520052 -0.638524 -0.794047 0.475589 1.113780 -0.126172 0.072907 0.832945 0.781516 0.869213 0.218849 1.105805 0.724685 -0.747993 -0.394207 1.388297 0.343728 -0.200577 -0.097324 -0.311209 0.188685 -0.616963 -1.381436 -0.223052 -0.238703 0.043989 -0.371082 -0.103594 0.490292 -0.171926 0.047940 0.556448 0.556483 -1.042927 0.401484 0.562128 0.184415 0.633702 0.494109 0.573970 0.104022 -0.663779 0.423891 0.228416
P61964 0.291295 -0.972741 -0.637680 -0.133638 0.602104 0.535298 0.142822 -0.079395 -0.575544 -0.111093 -0.065155 0.237215 0.356270 -0.191939 -0.834719 -0.603651 0.532994 -0.265847 -0.795553 0.376566 0.279639 -0.783958 0.359684 0.199847 0.902036 -0.948002 -0.216836 -0.758356 0.459657 0.056969 -0.349010 -1.206493 0.148040 0.747723 0.533843 0.735683 0.531500 0.722760 0.217969 -0.539774 0.010254 -0.583192 -0.308594 0.735929 0.586659 0.068684 -0.355593 -0.482723 -0.035476 -0.425885 0.309099 -0.475725 0.962400 0.032037 -0.666299 0.384444 1.352320 -0.769292 -0.359581 -0.392823 0.111966 0.286805 0.681852 -0.428609 0.485929 -0.280348 -1.085749 -1.778271 1.540965 0.830317 0.962651 0.095631 -1.684752 0.043144 -0.522927 -1.962310 2.305894 1.884396 -0.247033 -1.312927 0.639344 0.259072 -0.368100 1.255997 -0.410120 -0.490427 -0.492691 0.098456 1.029746 -0.060653 0.179369 0.648950 0.523888 0.856175 0.713125 0.614209 0.550557 -0.716102 -0.487444 0.681358 0.380295 0.018959 -0.306745 0.003471 -0.176770 -0.610178 -0.686949 -0.235566 -0.055427 0.098781 -0.339388 -0.154919 0.476793 -0.198595 0.158636 0.589195 0.348806 -0.804483 0.585260 0.504012 -0.121637 0.156840 0.459677 0.385334 0.273818 -0.710762 0.051806 0.230414
Q01860 0.322650 -0.252275 0.115693 -1.088009 0.385045 0.602002 -0.484160 -0.200168 -1.052776 0.236916 0.810386 -0.354418 -0.063503 0.145265 -0.210130 -0.808171 -0.473531 -0.203491 0.150941 0.547813 0.242992 -0.535144 -0.654681 -0.251718 1.533263 0.452949 0.095341 0.071493 -0.664188 0.303712 -0.746425 -0.001787 -0.079201 0.959067 -0.127934 -0.959236 -0.130395 0.597258 1.539608 1.234016 0.157050 0.286942 0.375225 -0.037372 0.396785 0.140054 -0.671471 0.028290 0.294475 -0.079319 0.118735 -0.418709 0.885015 0.023413 -0.826176 -0.352889 0.503769 -0.221952 -0.058451 -0.219738 0.266933 0.719663 1.021500 0.087173 0.097579 -0.231270 -0.041123 -1.538684 1.656684 1.005458 1.409333 0.600535 -0.403999 0.132161 -0.344237 -0.947965 1.844192 1.110735 -0.144562 -0.905330 0.423426 -0.125916 -0.175218 1.328510 -0.619452 -0.540556 -0.635144 0.500116 1.098820 -0.136719 0.287920 0.949158 0.730390 0.817723 -0.277116 0.965509 0.498063 -0.501873 -0.546351 1.255518 0.114527 -0.390707 0.009677 -0.351437 0.409866 -0.646988 -1.367745 -0.365878 -0.160919 0.083457 -0.290523 0.064581 0.652893 -0.067453 0.225661 0.564445 0.560354 -1.076427 0.321706 0.702548 0.421499 0.712882 0.608610 0.582606 -0.112092 -0.484603 0.319913 0.171972
O95793 0.512073 -0.713516 -0.200164 -0.189535 -0.628211 0.734843 -0.076419 -0.643431 -0.958081 0.940273 0.852948 -0.062991 0.030225 -0.604904 -0.140648 -0.702841 0.094317 -0.204879 -1.292121 0.195787 -0.664524 0.660398 -0.216855 0.288314 0.064986 -0.598598 0.019846 -0.460942 -0.065688 -0.052759 -0.295440 -0.051590 -0.404221 -0.190403 0.217243 0.370526 0.819717 -0.278687 0.870582 1.160530 0.329754 -0.391729 0.246343 -0.122712 0.160267 -0.314342 0.112224 -0.891516 0.107183 -0.277240 -0.785113 -1.427161 -0.479629 -0.278344 -0.087940 0.671294 0.399935 -1.170895 1.345360 0.253126 -1.001779 0.753503 0.702153 0.181213 -1.039462 -0.589087 0.696780 -0.632091 0.692359 0.166744 1.121863 0.598375 0.431014 0.479601 -0.028103 0.437047 0.224037 1.483913 -0.560943 0.320495 -0.059271 -0.597586 0.242944 -0.597526 -0.052418 -0.328004 -0.777325 0.400079 0.063425 0.335922 0.153132 0.708139 0.220364 0.281139 -0.509413 -0.013098 0.194138 0.466781 0.190883 -0.020950 -0.540671 0.422793 -0.506512 -0.245413 0.105095 -0.056755 -0.544671 0.119842 -0.190378 0.045901 -0.136304 -0.001587 -0.250754 -0.073452 -0.022215 -0.520554 -0.209914 -0.354792 -0.022993 0.364031 -0.040129 0.389879 0.074247 0.511063 -0.118249 0.155332 -0.148268 0.229349
P25208 0.553696 -0.686955 -0.126151 -0.170492 -0.533052 0.729121 -0.060506 -0.640957 -0.992397 0.891404 0.927374 -0.059775 0.087842 -0.503013 -0.135323 -0.671301 0.051313 -0.229525 -1.294074 0.186801 -0.601104 0.621291 -0.251163 0.286643 0.042314 -0.562636 0.028780 -0.390705 -0.071929 -0.039876 -0.309882 -0.088863 -0.391809 -0.161290 0.219703 0.325964 0.825744 -0.246271 0.895068 1.079824 0.288301 -0.316060 0.311034 -0.087677 0.205355 -0.325764 0.149718 -0.884930 0.098458 -0.242287 -0.777691 -1.432184 -0.494749 -0.198572 -0.125989 0.687785 0.375932 -1.080872 1.314388 0.221410 -0.971642 0.744274 0.687025 0.088674 -1.115492 -0.455406 0.464014 -0.448519 0.696963 0.346034 1.190855 0.575224 0.411909 0.654153 0.048746 0.498651 0.236671 1.651008 -0.509417 0.381196 0.022477 -0.571207 0.104107 -0.661088 -0.038229 -0.326903 -0.691561 0.468947 0.037573 0.223730 0.126560 0.576625 0.319955 0.361547 -0.649607 0.053351 0.120460 0.307377 0.003112 -0.026021 -0.549981 0.506236 -0.578918 -0.442325 0.212762 -0.014130 -0.484605 0.115212 -0.066715 0.054227 -0.150832 0.149480 -0.256515 -0.122222 0.041490 -0.479414 -0.336455 -0.238407 -0.138486 0.326705 0.039981 0.260749 -0.050963 0.531964 -0.151932 0.236596 -0.287116 0.331114
O60832 0.562524 -0.698507 -0.133974 -0.179953 -0.597427 0.710343 -0.078460 -0.635218 -1.008937 0.912706 0.929449 -0.037702 0.064892 -0.501560 -0.180662 -0.695314 0.124795 -0.227463 -1.263967 0.169268 -0.656601 0.646982 -0.226734 0.257601 0.048617 -0.637155 0.020182 -0.436300 -0.052628 0.003144 -0.258985 -0.065379 -0.392464 -0.145680 0.220807 0.361646 0.857747 -0.237238 0.867805 1.067311 0.307479 -0.381282 0.314359 -0.108702 0.193822 -0.364804 0.170249 -0.874577 0.110947 -0.251765 -0.821618 -1.459053 -0.509418 -0.187819 -0.094522 0.667394 0.381118 -1.126841 1.332580 0.270906 -1.019963 0.803202 0.695961 0.140952 -1.007973 -0.563168 0.676975 -0.660881 0.760465 0.163438 1.135023 0.589534 0.450384 0.504799 -0.019960 0.480595 0.239533 1.491389 -0.551865 0.267126 -0.073367 -0.579232 0.245197 -0.636675 -0.012588 -0.282058 -0.765098 0.340132 0.079792 0.357577 0.130486 0.698797 0.248610 0.220405 -0.517355 -0.012234 0.221044 0.443459 0.184406 0.001799 -0.522292 0.422688 -0.526869 -0.262180 0.113507 -0.051720 -0.555099 0.125134 -0.170473 0.058359 -0.103459 0.040725 -0.241312 -0.098318 -0.036212 -0.548126 -0.195575 -0.343492 -0.012662 0.319774 -0.026554 0.370684 0.071211 0.503326 -0.175312 0.170643 -0.156746 0.212552
P60484 0.543568 -0.734251 -0.185567 -0.174061 -0.603973 0.785525 -0.061811 -0.710829 -0.968663 0.967375 0.909936 -0.079770 0.034275 -0.575909 -0.076791 -0.742047 0.054043 -0.275874 -1.325561 0.137889 -0.636086 0.701383 -0.228928 0.307978 -0.020908 -0.632878 -0.021471 -0.457282 -0.099357 -0.118967 -0.276329 -0.086604 -0.435198 -0.218813 0.270243 0.374894 0.891542 -0.307702 0.920895 1.143502 0.306972 -0.392744 0.259687 -0.162040 0.152034 -0.320506 0.174311 -0.878122 0.041295 -0.259389 -0.858484 -1.483315 -0.542957 -0.290955 -0.111132 0.711422 0.381505 -1.154019 1.352409 0.206103 -1.091175 0.762023 0.714119 0.199161 -1.022527 -0.590940 0.646431 -0.643552 0.725458 0.142893 1.103803 0.643235 0.466059 0.516850 -0.038711 0.455845 0.185057 1.510356 -0.600146 0.279236 -0.108677 -0.593476 0.212174 -0.620650 -0.047821 -0.316085 -0.794852 0.355794 0.104606 0.309368 0.099587 0.658868 0.207444 0.270409 -0.512878 0.006757 0.172689 0.469865 0.143072 -0.035842 -0.549183 0.397986 -0.518025 -0.220728 0.088527 -0.066369 -0.561600 0.113326 -0.186278 0.075728 -0.121073 0.000852 -0.246675 -0.135410 -0.035859 -0.580876 -0.238780 -0.332283 -0.009903 0.317551 -0.059117 0.392336 0.054498 0.494571 -0.140415 0.184622 -0.208228 0.211322
P35268 0.520154 -0.714302 -0.161825 -0.158461 -0.565531 0.750100 -0.067800 -0.657757 -0.977518 0.915035 0.890445 -0.091290 0.068126 -0.544790 -0.108119 -0.683353 0.081338 -0.205776 -1.283504 0.185314 -0.658644 0.651328 -0.213173 0.292654 0.071752 -0.595666 -0.008287 -0.444290 -0.076928 -0.061519 -0.257235 -0.082532 -0.393891 -0.174090 0.209430 0.360322 0.813879 -0.271444 0.906936 1.119655 0.304649 -0.389026 0.281464 -0.103340 0.172974 -0.309129 0.141450 -0.899804 0.115379 -0.235356 -0.792425 -1.426979 -0.508603 -0.222846 -0.082863 0.681381 0.413213 -1.128775 1.334831 0.247545 -1.029256 0.718874 0.697880 0.152516 -1.037838 -0.567452 0.692333 -0.648638 0.697710 0.156023 1.136529 0.612266 0.433045 0.523189 -0.042755 0.450788 0.209893 1.471358 -0.630451 0.320341 -0.073227 -0.601998 0.222975 -0.608785 -0.011132 -0.306905 -0.744671 0.397902 0.066257 0.356069 0.089315 0.668830 0.235700 0.302608 -0.536106 0.008811 0.234682 0.493612 0.176016 0.004134 -0.499478 0.410322 -0.511392 -0.247726 0.070683 -0.048663 -0.570360 0.132424 -0.190029 0.049734 -0.098911 0.023479 -0.182268 -0.072569 -0.008374 -0.596969 -0.250752 -0.359458 -0.063083 0.294704 -0.070230 0.370543 0.042001 0.506829 -0.137531 0.190004 -0.179035 0.213080
P23511 0.554894 -0.706667 -0.149095 -0.210199 -0.626434 0.740912 -0.039362 -0.659777 -0.962936 0.877807 0.938025 -0.075578 0.021876 -0.564169 -0.166877 -0.695305 0.160692 -0.246646 -1.208453 0.204863 -0.722200 0.728043 -0.239398 0.280241 0.122953 -0.687539 0.030747 -0.492448 -0.063862 -0.007624 -0.217663 -0.006886 -0.380760 -0.194952 0.196337 0.402719 0.813565 -0.291921 0.830822 1.196691 0.338419 -0.466364 0.191245 -0.075964 0.162406 -0.372441 0.180240 -0.833421 0.111437 -0.292327 -0.845665 -1.481265 -0.530768 -0.341719 -0.127634 0.671265 0.387005 -1.204669 1.366895 0.210128 -1.022541 0.777667 0.636051 0.203477 -1.019719 -0.568982 0.715723 -0.656447 0.704014 0.163605 1.143469 0.628211 0.419773 0.486474 -0.032109 0.490843 0.198604 1.480351 -0.551240 0.320918 -0.054861 -0.592346 0.246687 -0.622787 -0.047745 -0.304148 -0.789114 0.407877 0.078799 0.340551 0.110007 0.680953 0.229061 0.270013 -0.496465 -0.025148 0.187352 0.487764 0.118141 -0.000926 -0.532807 0.401280 -0.550317 -0.279030 0.093140 -0.078005 -0.525484 0.136926 -0.173571 0.043585 -0.107314 0.023978 -0.237274 -0.047271 -0.002837 -0.593444 -0.177684 -0.383207 -0.062698 0.321203 -0.054352 0.357767 0.081800 0.496434 -0.123393 0.185488 -0.128042 0.228163
P08047 0.528874 -0.649511 -0.135716 -0.179987 -0.571130 0.728731 -0.040475 -0.680178 -0.931802 0.896667 0.925189 -0.077532 0.048526 -0.516686 -0.124820 -0.667902 0.120556 -0.219666 -1.269584 0.195496 -0.662409 0.664318 -0.233007 0.282827 0.106215 -0.619538 0.027945 -0.440308 -0.063144 -0.034020 -0.239123 -0.060584 -0.378904 -0.151222 0.183790 0.355458 0.766426 -0.270268 0.869805 1.090191 0.303283 -0.414390 0.257173 -0.109469 0.204726 -0.318429 0.177566 -0.878230 0.099558 -0.243260 -0.826033 -1.432748 -0.539704 -0.198418 -0.089519 0.670033 0.381026 -1.114436 1.362976 0.246766 -1.012679 0.738515 0.687884 0.152729 -1.331291 -0.679294 0.768257 -0.639046 0.612214 0.174158 1.203327 1.134671 0.388897 0.316983 0.387360 0.177238 0.245792 1.232515 -0.453391 0.257573 -0.343889 -0.290240 0.281056 -0.357576 0.168824 -0.398145 -0.757689 0.537133 0.216594 0.739918 0.363857 0.713089 0.435179 0.204842 -0.440021 -0.030215 -0.249613 0.327924 0.282365 0.035247 -0.464023 0.297264 -0.758893 -0.155085 -0.000087 0.150245 -0.648702 -0.223692 0.034068 0.245568 -0.014275 0.202548 -0.244187 0.249740 0.142131 -0.380018 0.139879 0.047052 -0.152987 0.203603 -0.191558 0.567324 -0.079295 0.513600 -0.296576 0.195246 -0.459363 0.227018
O14746 0.535397 -0.684564 -0.171823 -0.192945 -0.560652 0.700084 -0.061091 -0.684027 -0.980147 0.947480 0.953491 -0.061472 0.064710 -0.520728 -0.165651 -0.693509 0.077282 -0.260649 -1.267074 0.154582 -0.647485 0.655807 -0.244684 0.276267 0.056332 -0.647182 0.012410 -0.462292 -0.082602 -0.040605 -0.270004 -0.082436 -0.413994 -0.170239 0.235089 0.334778 0.841146 -0.290039 0.887025 1.101789 0.303204 -0.373158 0.298069 -0.082601 0.195592 -0.332416 0.163277 -0.859801 0.122214 -0.297443 -0.827582 -1.489682 -0.522574 -0.249368 -0.121140 0.690781 0.363190 -1.075336 1.326859 0.200920 -1.048164 0.777651 0.683961 0.159256 -1.002162 -0.592197 0.716242 -0.622244 0.722629 0.108766 1.106327 0.622803 0.438935 0.476046 -0.007621 0.440252 0.203014 1.486657 -0.618459 0.303568 -0.059035 -0.573135 0.230271 -0.625070 -0.039332 -0.322380 -0.766680 0.375485 0.078000 0.339179 0.110040 0.680814 0.246523 0.269337 -0.537589 -0.016741 0.175130 0.440888 0.177934 0.021288 -0.551073 0.414380 -0.482842 -0.321742 0.072190 -0.074554 -0.516828 0.132963 -0.182012 0.036598 -0.093273 0.042937 -0.254155 -0.107031 -0.039977 -0.569725 -0.232264 -0.345508 -0.010418 0.340343 -0.084054 0.355118 0.078088 0.522357 -0.125101 0.162559 -0.197822 0.243874
Q96BK5 0.531566 -0.709116 -0.129506 -0.163899 -0.578843 0.756700 -0.048344 -0.614940 -0.967627 0.875374 0.921156 -0.073697 0.099426 -0.568746 -0.148466 -0.684560 0.133275 -0.183627 -1.277694 0.242804 -0.647592 0.642476 -0.231279 0.260228 0.076181 -0.580420 -0.031745 -0.405989 -0.070276 -0.009550 -0.289009 -0.023736 -0.404131 -0.180839 0.184445 0.390526 0.762307 -0.277476 0.887908 1.160442 0.299578 -0.398316 0.260592 -0.047015 0.148659 -0.331926 0.147182 -0.868218 0.130594 -0.219560 -0.764091 -1.421658 -0.522796 -0.235505 -0.098811 0.656063 0.423227 -1.196969 1.331742 0.234852 -0.939567 0.741341 0.658399 0.147825 -0.972684 -0.606134 0.676511 -0.663311 0.717100 0.158651 1.090265 0.629542 0.413977 0.541973 -0.077100 0.481432 0.207091 1.509385 -0.610220 0.303960 -0.096332 -0.612886 0.259663 -0.613345 -0.069266 -0.300181 -0.756287 0.387382 0.055966 0.315792 0.127446 0.691352 0.282037 0.225886 -0.530396 0.009357 0.209852 0.448699 0.165105 -0.006660 -0.526859 0.421804 -0.532118 -0.260661 0.082408 -0.063721 -0.536905 0.101663 -0.132431 0.044711 -0.068184 0.017160 -0.278011 -0.064104 -0.035975 -0.536952 -0.204728 -0.368439 -0.024899 0.322207 -0.055050 0.390963 0.034426 0.496996 -0.153393 0.195601 -0.212945 0.213926
P07910 0.508312 -0.708196 -0.152158 -0.151277 -0.613216 0.752318 -0.075276 -0.660540 -0.978668 0.918020 0.943837 -0.060127 0.081432 -0.551891 -0.129202 -0.686134 0.107294 -0.207622 -1.294985 0.180705 -0.670978 0.664507 -0.237047 0.257937 0.069999 -0.624869 0.007707 -0.443285 -0.077597 -0.028393 -0.276832 -0.036308 -0.424150 -0.163462 0.196676 0.382121 0.797186 -0.270389 0.882334 1.140217 0.294629 -0.416632 0.245045 -0.087586 0.178186 -0.315342 0.162620 -0.876247 0.106485 -0.253093 -0.807836 -1.458715 -0.533435 -0.261341 -0.107333 0.681280 0.379599 -1.146411 1.367469 0.222178 -0.990531 0.727661 0.683991 0.160181 -1.102455 -0.585785 0.920571 -0.717760 0.725194 -0.003956 1.049577 1.032326 0.536584 0.507502 -0.077524 0.467603 0.215584 1.542472 -0.464298 0.302120 -0.112628 -0.567936 0.168839 -0.593498 0.113928 -0.110349 -0.504826 0.441831 0.120384 0.210480 0.017643 0.520887 0.220344 0.373130 -0.460919 0.249523 0.259801 0.282298 0.094287 -0.070014 -0.399123 0.366041 -0.178370 -0.243269 0.160614 -0.197330 -0.541995 -0.015096 -0.203420 0.345842 -0.113275 0.218209 -0.122565 0.063751 -0.186940 -0.125792 -0.057943 -0.334198 -0.198204 0.332067 0.088273 0.475461 0.098623 0.470510 -0.181889 0.031558 -0.041642 0.050433
Q13952 0.558863 -0.701760 -0.165609 -0.219361 -0.633925 0.750485 -0.087839 -0.691266 -0.949074 0.880806 0.884370 -0.054617 0.044382 -0.603568 -0.106720 -0.734963 0.105389 -0.244973 -1.265149 0.194412 -0.668763 0.676698 -0.222834 0.270441 0.055377 -0.653572 -0.004810 -0.463136 -0.064142 -0.028598 -0.276597 -0.099082 -0.374201 -0.215662 0.252300 0.365815 0.835890 -0.300477 0.850595 1.173981 0.302563 -0.399612 0.244172 -0.129610 0.153527 -0.364675 0.157312 -0.858363 0.112803 -0.287839 -0.835094 -1.468686 -0.502728 -0.302986 -0.107633 0.673821 0.389813 -1.192704 1.324613 0.205371 -1.014288 0.737585 0.635799 0.211868 -0.960475 -0.580229 0.666999 -0.559964 0.826413 0.108634 1.125729 0.605748 0.453797 0.589274 0.056322 0.416244 0.235254 1.493869 -0.620573 0.328971 0.006096 -0.731502 0.391493 -0.579450 -0.100479 -0.372481 -0.812231 0.281859 0.061417 0.419150 0.048201 0.802123 -0.060797 0.463212 -0.405657 0.039879 0.322241 0.368585 0.235610 -0.046029 -0.506511 0.342204 -0.659976 -0.229434 -0.004668 -0.119113 -0.381730 0.031342 -0.245432 0.074153 -0.078971 0.298898 -0.248325 -0.041252 -0.080824 -0.538096 -0.270851 -0.331861 0.092724 0.219708 0.051596 0.316512 0.052063 0.552075 -0.149478 0.365690 -0.274500 0.043943
