2088 64
</s> 0.006254 0.006905 -0.005985 -0.005122 0.002135 0.004720 0.001470 0.000330 -0.005630 0.003466 -0.006807 0.001952 -0.001174 -0.001496 -0.005181 -0.002941 0.004030 0.004727 0.004639 0.002496 0.002414 -0.005942 -0.006400 0.007765 0.005939 0.004828 -0.000944 0.006274 -0.000773 0.001148 -0.000233 -0.004661 0.002050 -0.002090 -0.005977 0.007428 0.006843 -0.001711 -0.000353 0.000796 -0.005684 -0.006261 0.007117 0.000098 -0.004035 -0.004753 -0.004807 0.002651 0.000315 0.002080 -0.006584 -0.005950 -0.000203 0.001787 0.003984 -0.004953 0.006374 0.001448 0.001750 -0.000951 0.004666 -0.003575 -0.003277 0.003372 
aQ15717 -1.211981 -0.197817 1.315843 -0.997490 0.570513 0.114527 0.845017 1.418833 0.845452 0.378051 -0.011826 0.058339 0.287568 1.474595 -0.234006 0.404886 -0.232263 -0.315148 -0.084449 -0.323148 -0.025927 -0.252040 -0.227101 0.376017 0.158252 0.182026 0.034878 0.686440 0.324417 0.075725 -0.290100 0.202731 0.071774 0.141814 0.149096 0.148756 -0.447549 0.043453 0.007436 -0.057736 0.028338 0.159096 -0.312256 -0.054155 -0.022214 0.344435 -0.295220 0.418323 0.030960 -0.055544 -0.078535 -0.192731 0.125931 -0.221989 -0.297622 0.254210 0.123508 0.212457 -0.054419 0.274342 0.112866 0.041142 0.049400 -0.009043 
aQ13148 -1.192543 -0.243829 1.147883 -1.147620 0.719629 -0.148947 0.496866 1.482940 0.661865 0.202577 -0.117751 -0.099359 0.159874 1.809210 -0.074058 0.519008 0.063534 -0.181287 -0.070463 -0.384069 -0.088714 -0.059415 -0.415082 0.390913 0.189236 -0.260686 -0.133665 1.004121 0.463865 -0.002786 -0.330700 0.321258 0.186706 0.277201 0.089449 0.069554 -0.185213 -0.000437 -0.053688 -0.354539 0.060685 0.099004 -0.281988 0.031730 -0.182256 0.279251 -0.304127 0.391827 0.005553 0.169625 0.119033 -0.043275 0.053208 -0.177834 -0.228751 0.084657 0.231764 0.004560 0.050612 0.389212 0.233550 -0.034529 0.024964 -0.073691 
aO00425 -1.229753 -0.333391 1.449042 -1.017285 0.505068 0.089604 0.849187 1.467323 0.831478 0.515868 -0.220781 -0.097460 0.533096 1.481374 -0.146992 0.491165 -0.231974 -0.095839 -0.006983 -0.647672 -0.046702 -0.221796 0.042017 0.354530 0.275472 0.166191 0.114054 0.657313 0.134625 0.017383 -0.347637 0.216842 0.129417 -0.133017 -0.074305 0.104441 -0.318213 -0.262496 0.148626 0.112321 -0.042093 0.016410 -0.442143 -0.110217 0.062448 0.316357 -0.339966 0.343519 -0.073659 0.045089 -0.097138 -0.246425 0.171761 -0.260478 -0.187486 0.105532 0.202573 0.137301 -0.237642 0.238709 0.020064 -0.142492 -0.072361 0.190959 
aQ9Y6M1 -1.348558 -0.314722 1.264667 -1.073468 0.469685 0.191686 0.853302 1.542992 0.755823 0.222046 -0.105171 -0.050337 0.416871 1.355868 -0.232199 0.531638 -0.320437 -0.256157 0.072928 -0.585340 -0.119290 -0.201086 -0.015755 0.351801 0.284903 0.284895 0.040012 0.572717 0.216504 -0.005412 -0.296465 0.245060 0.147443 -0.068602 -0.066695 0.139062 -0.352625 -0.158963 0.031573 0.057996 0.040298 -0.080960 -0.331239 -0.070109 0.012335 0.499138 -0.289284 0.386964 0.014026 0.095936 -0.052794 -0.141540 0.294720 -0.201529 -0.212178 0.176822 0.094760 0.226323 -0.116958 0.249734 -0.077616 -0.072665 -0.140034 0.215824 
aQ07955 -0.910935 -0.326693 1.309593 -0.598929 0.590639 0.124333 0.971218 1.593526 0.714677 0.337631 -0.306121 0.207727 0.668336 1.675321 -0.150554 0.500260 -0.170628 -0.434764 -0.009562 -0.467304 0.000906 0.098214 -0.259759 0.314054 0.527725 0.346397 0.094368 0.684671 0.263035 0.208112 -0.526351 0.111821 0.258730 0.118968 0.208938 -0.032867 -0.177464 -0.183104 -0.079784 -0.014298 0.075522 -0.095056 -0.351231 0.201393 0.203142 0.219343 -0.131948 0.236201 0.028682 0.170371 -0.019209 -0.171675 0.071595 -0.257442 -0.303399 0.046900 0.224722 0.179770 -0.039413 0.338207 0.146534 -0.153566 0.006330 0.191504 
aQ9NZI8 -1.403903 -0.120705 1.294975 -1.048187 0.485097 0.048128 0.865889 1.504493 0.706471 0.494457 -0.241543 -0.053363 0.489208 1.474115 -0.128609 0.377689 -0.246383 -0.154027 0.075062 -0.591755 -0.012895 -0.334027 0.030974 0.354808 0.261503 0.242908 0.074350 0.702961 0.089938 0.063964 -0.371350 0.278413 0.105671 -0.045815 -0.039563 0.103437 -0.316246 -0.235568 0.202867 0.083518 -0.103113 0.040012 -0.403097 0.024200 0.048616 0.308032 -0.323024 0.278159 0.061186 0.025382 -0.123764 -0.093986 0.160183 -0.140052 -0.116598 0.100817 0.185982 0.138785 -0.190487 0.426566 0.062809 -0.229314 -0.040709 0.239897 
aP35637 -1.261041 -0.193834 1.443017 -1.220844 0.490832 0.215071 0.761058 1.306376 1.029089 0.350165 0.003397 -0.051982 0.312238 1.464013 -0.270765 0.380090 -0.219182 -0.248901 0.008367 -0.447011 -0.005991 -0.050600 0.058451 0.590898 0.139879 0.217940 -0.180613 0.616658 0.146897 0.199012 -0.435895 0.300842 0.012800 0.084079 0.022479 0.254208 -0.406534 0.107982 -0.005551 0.097472 0.129297 0.226096 -0.240715 -0.115237 0.112687 0.211163 -0.348025 0.380731 0.015381 -0.250576 0.037077 -0.059216 0.350056 -0.131672 -0.214118 -0.011147 0.394257 0.318755 -0.130841 0.374156 0.230253 -0.103398 0.127096 -0.127525 
aP31483 -1.165140 -0.061680 1.200790 -1.095131 0.605315 0.051132 0.674632 1.234569 0.794204 0.417627 -0.006205 0.111167 0.325410 1.735949 -0.420202 0.349391 -0.075704 -0.199824 0.013364 -0.426047 -0.075538 -0.024587 -0.194263 0.535540 0.196888 0.214924 -0.017147 0.712210 0.181103 -0.024040 -0.301254 0.207705 0.071168 0.063985 0.088759 0.055402 -0.260328 0.083758 0.015174 -0.056460 0.035283 0.016548 -0.311860 0.009937 0.013715 0.257427 -0.225704 0.399886 0.075098 0.061087 0.024785 -0.141075 0.116827 -0.228714 -0.111476 0.231894 0.178580 0.280237 0.221297 0.445791 0.190895 -0.085608 -0.025149 0.087485 
aP26599 -1.336355 -0.536761 1.061011 -1.047424 0.639378 0.215047 0.996318 1.543604 0.706635 0.030414 0.046646 0.043603 0.203475 1.315535 -0.234719 0.677882 -0.337362 -0.324883 -0.105094 -0.251407 -0.007057 -0.407181 -0.090360 0.605698 0.150285 0.517379 0.032796 0.760619 0.395950 0.021717 -0.202819 0.237780 0.165877 0.083537 0.110056 0.095064 -0.303550 0.085673 -0.043026 0.000522 0.327956 -0.006951 -0.351109 -0.114755 -0.172081 0.470151 -0.067710 0.481533 -0.039105 -0.044604 -0.090186 -0.192256 0.426313 -0.071264 -0.262900 0.253150 0.042872 0.007239 -0.270898 0.294883 -0.017952 -0.174117 -0.124632 0.035525 
vNONHSAT093153.2 -0.255010 0.308535 -0.480943 1.109307 0.181405 -0.281027 -0.205448 -0.342429 0.034770 -0.109621 0.293915 0.536179 -0.249589 0.167732 -0.708330 -0.210272 -0.454871 0.153700 0.439792 0.229415 -0.231760 0.061027 0.276614 -0.357825 0.108210 0.127557 0.434228 0.031867 0.531026 -0.301286 0.674305 -0.177132 0.184138 0.057492 0.164788 -0.034578 -0.099609 0.118566 0.014388 -0.382981 0.191486 -0.597970 -0.116902 -0.268454 -0.313821 -0.138399 -0.048728 -0.296510 0.200214 0.277852 -0.020178 0.269703 0.029610 0.451173 -0.161569 0.085057 0.013252 -0.250418 0.043459 -0.195387 -0.293023 0.050324 0.467766 -0.271396 
aQ01844 -1.158052 -0.032998 1.294957 -1.057359 0.582912 0.111370 0.737433 1.457235 0.988455 0.277078 -0.150745 0.114475 0.439694 1.493059 -0.388376 0.396707 -0.192507 -0.301126 -0.135497 -0.515674 0.042775 -0.029372 -0.048289 0.428317 0.157759 0.084633 -0.054092 0.697530 0.177850 0.072864 -0.456393 0.319574 -0.034706 0.021081 0.086201 0.276166 -0.250075 0.072004 0.115081 0.058922 0.100386 0.071483 -0.182032 -0.167814 0.036537 0.259988 -0.371389 0.407115 -0.051367 -0.147179 -0.030367 -0.165426 0.298132 -0.081695 0.003891 0.002466 0.312623 0.336094 -0.044482 0.365093 0.203530 -0.084231 0.054640 -0.099223 
aO43251 -1.260388 -0.224424 1.083060 -1.006472 0.679319 0.060035 0.866133 1.616686 0.629133 0.218813 0.039760 0.043954 0.255126 1.444968 -0.338887 0.432156 -0.187637 -0.310798 -0.071331 -0.219430 -0.073421 -0.238080 -0.350729 0.318200 0.193565 0.258365 0.059220 0.758288 0.342277 -0.028182 -0.372157 0.271880 0.062940 0.178823 0.106414 0.004581 -0.275703 -0.106322 0.022642 -0.177319 0.188523 0.007386 -0.152890 0.133695 -0.130081 0.409105 -0.266072 0.278641 0.065165 0.111120 -0.106364 -0.075944 0.119297 -0.159962 -0.210331 0.132043 0.183425 0.127049 0.034758 0.474630 0.003559 -0.121341 -0.141023 0.145394 
aQ92804 -1.256054 -0.075662 1.342491 -1.168693 0.536486 0.093210 0.854794 1.277958 1.044797 0.342889 -0.033956 -0.014299 0.339595 1.496510 -0.311814 0.317691 -0.258295 -0.233011 -0.173936 -0.502932 0.023253 0.072856 0.084554 0.520046 0.143357 0.257307 -0.114956 0.642870 0.173804 0.240967 -0.321320 0.162676 -0.029215 0.107181 0.066015 0.245403 -0.372692 0.038810 -0.008461 0.125337 -0.032585 0.180685 -0.101724 -0.094240 0.159869 0.079429 -0.307548 0.307686 -0.034600 -0.132937 -0.029121 -0.184761 0.417449 -0.119349 -0.111668 -0.083481 0.399021 0.267994 -0.202210 0.351558 0.256346 -0.186461 0.033373 -0.074533 
aQ9UL18 -1.249065 0.207569 1.277539 -1.127801 0.439449 0.106451 0.822531 1.545426 0.956343 0.458187 -0.301244 -0.120861 0.447113 1.378408 -0.289262 0.387928 -0.246352 -0.209910 -0.131504 -0.620841 -0.124469 -0.277186 0.041923 0.560905 0.171738 0.338489 -0.081540 0.930600 0.007403 0.207115 -0.190640 0.447458 0.147197 -0.000852 -0.016285 -0.114013 -0.593449 0.026666 0.209052 0.183397 0.089385 0.033095 -0.522402 -0.055714 0.126022 0.225642 -0.162444 0.321408 -0.195785 0.168996 -0.183339 -0.121798 -0.084867 -0.313012 -0.527492 -0.197110 -0.081790 0.050252 -0.036928 -0.165664 0.109278 -0.184603 -0.141872 -0.142121 
aQ9UKV8 -1.299131 -0.222544 1.201711 -1.098509 0.684955 0.210665 0.850691 1.494914 0.754549 0.508368 -0.112929 -0.118953 0.294570 1.350075 -0.198216 0.183887 -0.407696 -0.138218 -0.070422 -0.494111 -0.073324 -0.227953 -0.016735 0.773900 0.290929 0.099126 -0.147026 0.730892 0.216451 0.023947 -0.377631 0.457395 0.008605 -0.021678 -0.036996 0.016533 -0.485672 -0.234538 0.298462 0.392014 0.115082 0.049713 -0.503427 0.148821 0.103680 0.305234 -0.165796 0.444761 -0.155901 0.136392 -0.192299 -0.266721 -0.307735 -0.248521 -0.386241 -0.306675 0.297881 0.358478 -0.075091 -0.134286 0.126481 -0.344153 -0.079840 -0.130236 
vNONHSAT113149.2 0.231494 0.400568 -0.221637 0.444050 0.124918 0.018563 -0.037763 -0.014727 0.089657 -0.214065 -0.430765 0.134074 -0.299160 0.076629 -0.372583 -0.226895 -0.232251 0.296822 0.330734 0.177270 0.014115 0.162821 0.246410 -0.321627 -0.024853 -0.092517 0.148103 0.010112 -0.123283 0.150355 0.345974 -0.105942 -0.123028 -0.139450 0.006830 -0.083158 -0.160715 -0.352834 -0.203954 -0.466201 0.108420 -0.156014 -0.394387 0.077417 -0.475265 -0.322690 -0.123145 0.108137 0.119610 0.163090 -0.021375 -0.117060 0.213044 -0.136013 -0.490553 0.199983 0.301426 0.052413 -0.361584 0.107039 0.385054 0.033452 0.208725 -0.070296 
vNONHSAT118836.2 0.219963 0.182805 -0.361745 0.512479 0.307838 0.067547 -0.219435 -0.090464 0.093127 -0.140674 -0.224177 -0.083247 -0.131809 0.125383 -0.197588 -0.105701 -0.413391 0.436242 0.389256 0.080760 0.174580 0.158306 0.175033 -0.113548 -0.072058 -0.134796 0.350762 -0.124833 -0.180517 -0.101746 0.240494 -0.169968 -0.180700 -0.191254 0.137210 -0.212403 -0.210887 -0.142819 -0.144553 -0.475172 -0.149429 -0.240101 -0.289017 0.235194 -0.550507 -0.385528 -0.236350 0.160061 0.077767 0.094177 -0.006546 -0.159415 0.159364 -0.173178 -0.406281 -0.015113 0.151023 0.157027 -0.374085 -0.043864 0.400055 0.049661 0.248630 -0.095701 
aQ96PU8 -1.215761 -0.217484 1.471190 -1.054943 0.465101 0.145311 0.841780 1.410365 0.788154 0.548862 -0.291460 -0.198535 0.438030 1.479102 -0.178980 0.386536 -0.270619 0.011746 -0.023506 -0.549050 -0.033175 -0.311315 0.132415 0.350385 0.392317 0.174231 0.105776 0.625094 0.073940 -0.112849 -0.261087 0.224745 0.180030 -0.137206 -0.231018 0.053159 -0.392380 -0.262668 0.271572 0.068825 -0.101389 0.126389 -0.298565 -0.147240 -0.119293 0.467430 -0.350289 0.265979 -0.092596 0.181411 0.058532 -0.295114 0.116339 -0.203786 -0.035659 0.134114 0.188166 0.162049 -0.287459 0.427581 -0.231444 -0.014453 -0.090424 0.260225 
aQ9HCE1 -1.523176 -0.291123 1.248694 -0.954852 0.600788 0.161524 0.574987 1.437147 0.955355 0.164950 -0.385445 -0.047457 0.241414 1.585379 -0.129162 0.348309 -0.125881 0.015743 0.066802 -0.461525 0.047800 -0.009797 0.033608 0.593688 0.064969 0.176535 0.075168 0.802302 0.065400 0.102024 -0.542723 0.141496 0.252569 -0.086828 -0.087241 0.198039 -0.172332 -0.024344 -0.011389 0.280797 -0.334366 -0.089076 -0.237481 -0.077364 0.394523 0.270372 -0.711078 0.414748 -0.091699 -0.264143 -0.310410 -0.332993 0.280347 -0.129050 -0.358841 -0.085082 -0.038819 0.194706 -0.063167 0.156561 0.112601 -0.038638 -0.024098 0.070839 
aP07910 -1.102455 -0.585785 0.920571 -0.717760 0.725194 -0.003956 1.049577 1.032326 0.536584 0.507502 -0.077524 0.467603 0.215584 1.542472 -0.464298 0.302120 -0.112628 -0.567936 0.168839 -0.593498 0.113928 -0.110349 -0.504826 0.441831 0.120384 0.210480 0.017643 0.520887 0.220344 0.373130 -0.460919 0.249523 0.259801 0.282298 0.094287 -0.070014 -0.399123 0.366041 -0.178370 -0.243269 0.160614 -0.197330 -0.541995 -0.015096 -0.203420 0.345842 -0.113275 0.218209 -0.122565 0.063751 -0.186940 -0.125792 -0.057943 -0.334198 -0.198204 0.332067 0.088273 0.475461 0.098623 0.470510 -0.181889 0.031558 -0.041642 0.050433 
aQ4G0J3 -1.029159 -0.180345 1.247509 -0.880993 0.685731 0.121493 0.867448 1.345439 0.532860 0.537649 -0.066907 -0.007364 -0.079585 1.856073 -0.327134 0.285523 0.071964 -0.246985 -0.287810 -0.476653 -0.226784 -0.118610 -0.437300 0.243770 0.148785 -0.010845 -0.125781 0.966618 0.159965 -0.031142 -0.270965 0.229916 0.054155 0.397361 0.224298 0.065447 -0.137540 -0.053428 -0.218855 -0.314211 -0.080820 -0.195680 -0.394988 -0.076831 0.096703 0.155952 -0.003534 0.181416 -0.057189 0.096049 0.064533 0.090768 0.163081 -0.115128 -0.300650 -0.136014 0.311617 0.229977 0.166129 0.460787 0.064626 -0.329180 0.133514 0.203087 
aQ13952 -0.960475 -0.580229 0.666999 -0.559964 0.826413 0.108634 1.125729 0.605748 0.453797 0.589274 0.056322 0.416244 0.235254 1.493869 -0.620573 0.328971 0.006096 -0.731502 0.391493 -0.579450 -0.100479 -0.372481 -0.812231 0.281859 0.061417 0.419150 0.048201 0.802123 -0.060797 0.463212 -0.405657 0.039879 0.322241 0.368585 0.235610 -0.046029 -0.506511 0.342204 -0.659976 -0.229434 -0.004668 -0.119113 -0.381730 0.031342 -0.245432 0.074153 -0.078971 0.298898 -0.248325 -0.041252 -0.080824 -0.538096 -0.270851 -0.331861 0.092724 0.219708 0.051596 0.316512 0.052063 0.552075 -0.149478 0.365690 -0.274500 0.043943 
aP25208 -1.115492 -0.455406 0.464014 -0.448519 0.696963 0.346034 1.190855 0.575224 0.411909 0.654153 0.048746 0.498651 0.236671 1.651008 -0.509417 0.381196 0.022477 -0.571207 0.104107 -0.661088 -0.038229 -0.326903 -0.691561 0.468947 0.037573 0.223730 0.126560 0.576625 0.319955 0.361547 -0.649607 0.053351 0.120460 0.307377 0.003112 -0.026021 -0.549981 0.506236 -0.578918 -0.442325 0.212762 -0.014130 -0.484605 0.115212 -0.066715 0.054227 -0.150832 0.149480 -0.256515 -0.122222 0.041490 -0.479414 -0.336455 -0.238407 -0.138486 0.326705 0.039981 0.260749 -0.050963 0.531964 -0.151932 0.236596 -0.287116 0.331114 
aP05455 -0.958845 0.063104 1.113868 -1.175432 0.919595 -0.149525 0.644490 1.557878 0.540387 0.286283 -0.089470 -0.133571 0.014509 1.894409 -0.242497 0.418028 0.178265 -0.318716 -0.400558 -0.140731 -0.267086 0.129872 -0.435402 0.272592 0.075796 -0.274828 -0.004339 0.957341 0.453553 -0.050926 -0.422592 0.338585 0.115128 0.455059 0.171312 -0.178737 -0.084217 -0.206273 0.016587 -0.402760 0.203539 0.025136 -0.141986 0.032620 -0.367251 0.332496 -0.188482 0.270770 0.030065 0.318328 0.090348 -0.053133 0.047833 -0.095175 -0.178890 0.188902 0.115925 0.033244 0.271530 0.485915 0.240803 -0.072661 0.028337 0.073661 
aQ8NDV7 -1.112069 -0.036960 1.397022 -1.077914 0.492490 0.058175 0.998374 1.267107 0.999592 0.192783 -0.069174 -0.217766 0.164625 1.625699 -0.127823 0.916089 -0.029704 0.169172 0.022889 -0.461693 0.014363 -0.214237 0.270121 0.549433 0.601604 0.078040 -0.129655 0.852845 0.011306 0.141573 -0.321064 -0.020399 0.248906 0.094599 -0.178105 0.250576 -0.327824 -0.053465 0.472529 0.374570 -0.107948 -0.089717 -0.378883 0.105285 -0.026532 0.119987 -0.319494 0.509120 0.041793 -0.191382 -0.046256 0.131277 -0.078658 -0.087342 -0.324237 -0.090908 -0.181718 0.734597 -0.259051 0.226467 0.041035 0.058496 -0.253733 0.136949 
vNONHSAT017465.2 -0.107787 0.176829 -0.562904 0.748567 0.076245 -0.047710 0.034121 0.038444 0.111460 0.065188 0.484780 0.371553 -0.153099 -0.097377 -0.773378 -0.214752 -0.306472 -0.065031 0.588175 0.068170 -0.268497 0.125254 0.137349 -0.337812 0.141983 0.198144 0.300864 -0.032352 0.462018 -0.400229 0.259019 -0.092192 0.249264 -0.251454 0.186268 -0.038974 -0.368832 -0.018097 0.282811 -0.103685 0.243760 -0.228513 -0.150803 -0.455178 -0.229669 0.071621 -0.200623 -0.547142 0.069876 0.389448 0.349699 0.158503 0.367838 0.439457 -0.380365 0.028096 -0.273822 -0.422045 0.119082 0.194864 0.098068 -0.082412 0.387291 -0.294072 
aP08047 -1.331291 -0.679294 0.768257 -0.639046 0.612214 0.174158 1.203327 1.134671 0.388897 0.316983 0.387360 0.177238 0.245792 1.232515 -0.453391 0.257573 -0.343889 -0.290240 0.281056 -0.357576 0.168824 -0.398145 -0.757689 0.537133 0.216594 0.739918 0.363857 0.713089 0.435179 0.204842 -0.440021 -0.030215 -0.249613 0.327924 0.282365 0.035247 -0.464023 0.297264 -0.758893 -0.155085 -0.000087 0.150245 -0.648702 -0.223692 0.034068 0.245568 -0.014275 0.202548 -0.244187 0.249740 0.142131 -0.380018 0.139879 0.047052 -0.152987 0.203603 -0.191558 0.567324 -0.079295 0.513600 -0.296576 0.195246 -0.459363 0.227018 
aO95793 -1.039462 -0.589087 0.696780 -0.632091 0.692359 0.166744 1.121863 0.598375 0.431014 0.479601 -0.028103 0.437047 0.224037 1.483913 -0.560943 0.320495 -0.059271 -0.597586 0.242944 -0.597526 -0.052418 -0.328004 -0.777325 0.400079 0.063425 0.335922 0.153132 0.708139 0.220364 0.281139 -0.509413 -0.013098 0.194138 0.466781 0.190883 -0.020950 -0.540671 0.422793 -0.506512 -0.245413 0.105095 -0.056755 -0.544671 0.119842 -0.190378 0.045901 -0.136304 -0.001587 -0.250754 -0.073452 -0.022215 -0.520554 -0.209914 -0.354792 -0.022993 0.364031 -0.040129 0.389879 0.074247 0.511063 -0.118249 0.155332 -0.148268 0.229349 
aP23511 -1.019719 -0.568982 0.715723 -0.656447 0.704014 0.163605 1.143469 0.628211 0.419773 0.486474 -0.032109 0.490843 0.198604 1.480351 -0.551240 0.320918 -0.054861 -0.592346 0.246687 -0.622787 -0.047745 -0.304148 -0.789114 0.407877 0.078799 0.340551 0.110007 0.680953 0.229061 0.270013 -0.496465 -0.025148 0.187352 0.487764 0.118141 -0.000926 -0.532807 0.401280 -0.550317 -0.279030 0.093140 -0.078005 -0.525484 0.136926 -0.173571 0.043585 -0.107314 0.023978 -0.237274 -0.047271 -0.002837 -0.593444 -0.177684 -0.383207 -0.062698 0.321203 -0.054352 0.357767 0.081800 0.496434 -0.123393 0.185488 -0.128042 0.228163 
aQ96BK5 -0.972684 -0.606134 0.676511 -0.663311 0.717100 0.158651 1.090265 0.629542 0.413977 0.541973 -0.077100 0.481432 0.207091 1.509385 -0.610220 0.303960 -0.096332 -0.612886 0.259663 -0.613345 -0.069266 -0.300181 -0.756287 0.387382 0.055966 0.315792 0.127446 0.691352 0.282037 0.225886 -0.530396 0.009357 0.209852 0.448699 0.165105 -0.006660 -0.526859 0.421804 -0.532118 -0.260661 0.082408 -0.063721 -0.536905 0.101663 -0.132431 0.044711 -0.068184 0.017160 -0.278011 -0.064104 -0.035975 -0.536952 -0.204728 -0.368439 -0.024899 0.322207 -0.055050 0.390963 0.034426 0.496996 -0.153393 0.195601 -0.212945 0.213926 
aO60832 -1.007973 -0.563168 0.676975 -0.660881 0.760465 0.163438 1.135023 0.589534 0.450384 0.504799 -0.019960 0.480595 0.239533 1.491389 -0.551865 0.267126 -0.073367 -0.579232 0.245197 -0.636675 -0.012588 -0.282058 -0.765098 0.340132 0.079792 0.357577 0.130486 0.698797 0.248610 0.220405 -0.517355 -0.012234 0.221044 0.443459 0.184406 0.001799 -0.522292 0.422688 -0.526869 -0.262180 0.113507 -0.051720 -0.555099 0.125134 -0.170473 0.058359 -0.103459 0.040725 -0.241312 -0.098318 -0.036212 -0.548126 -0.195575 -0.343492 -0.012662 0.319774 -0.026554 0.370684 0.071211 0.503326 -0.175312 0.170643 -0.156746 0.212552 
aP35268 -1.037838 -0.567452 0.692333 -0.648638 0.697710 0.156023 1.136529 0.612266 0.433045 0.523189 -0.042755 0.450788 0.209893 1.471358 -0.630451 0.320341 -0.073227 -0.601998 0.222975 -0.608785 -0.011132 -0.306905 -0.744671 0.397902 0.066257 0.356069 0.089315 0.668830 0.235700 0.302608 -0.536106 0.008811 0.234682 0.493612 0.176016 0.004134 -0.499478 0.410322 -0.511392 -0.247726 0.070683 -0.048663 -0.570360 0.132424 -0.190029 0.049734 -0.098911 0.023479 -0.182268 -0.072569 -0.008374 -0.596969 -0.250752 -0.359458 -0.063083 0.294704 -0.070230 0.370543 0.042001 0.506829 -0.137531 0.190004 -0.179035 0.213080 
aP60484 -1.022527 -0.590940 0.646431 -0.643552 0.725458 0.142893 1.103803 0.643235 0.466059 0.516850 -0.038711 0.455845 0.185057 1.510356 -0.600146 0.279236 -0.108677 -0.593476 0.212174 -0.620650 -0.047821 -0.316085 -0.794852 0.355794 0.104606 0.309368 0.099587 0.658868 0.207444 0.270409 -0.512878 0.006757 0.172689 0.469865 0.143072 -0.035842 -0.549183 0.397986 -0.518025 -0.220728 0.088527 -0.066369 -0.561600 0.113326 -0.186278 0.075728 -0.121073 0.000852 -0.246675 -0.135410 -0.035859 -0.580876 -0.238780 -0.332283 -0.009903 0.317551 -0.059117 0.392336 0.054498 0.494571 -0.140415 0.184622 -0.208228 0.211322 
aO14746 -1.002162 -0.592197 0.716242 -0.622244 0.722629 0.108766 1.106327 0.622803 0.438935 0.476046 -0.007621 0.440252 0.203014 1.486657 -0.618459 0.303568 -0.059035 -0.573135 0.230271 -0.625070 -0.039332 -0.322380 -0.766680 0.375485 0.078000 0.339179 0.110040 0.680814 0.246523 0.269337 -0.537589 -0.016741 0.175130 0.440888 0.177934 0.021288 -0.551073 0.414380 -0.482842 -0.321742 0.072190 -0.074554 -0.516828 0.132963 -0.182012 0.036598 -0.093273 0.042937 -0.254155 -0.107031 -0.039977 -0.569725 -0.232264 -0.345508 -0.010418 0.340343 -0.084054 0.355118 0.078088 0.522357 -0.125101 0.162559 -0.197822 0.243874 
vNONHSAT017458.2 -0.034542 0.388563 -0.438412 0.858510 -0.106535 -0.030649 -0.092995 -0.084954 0.177489 -0.494513 0.616453 0.196223 -0.382516 0.210379 -0.700694 -0.041947 -0.249881 0.244454 0.586073 -0.042463 -0.176125 0.040184 0.272656 -0.121766 0.017149 0.009564 -0.173384 -0.059485 0.229908 -0.371983 0.456779 -0.001236 0.151870 -0.061799 0.270925 -0.339264 -0.230212 0.282621 -0.141293 -0.086771 -0.034216 -0.047744 -0.408726 0.245955 -0.232413 0.117950 -0.005948 -0.378209 -0.045939 0.069933 -0.016340 0.384308 0.272798 -0.124146 -0.060492 -0.380935 -0.298887 -0.166517 -0.183985 0.206923 -0.534864 0.041835 0.466573 -0.268293 
vNONHSAT080828.2 -0.052343 0.498904 -0.878380 1.171890 0.099008 -0.108512 -0.070273 -0.280082 0.025047 -0.243343 0.948276 0.633058 -0.194987 0.106628 -0.992703 -0.199446 -0.507672 -0.136142 0.799434 0.172965 -0.375855 -0.024036 0.190677 -0.524266 0.230598 0.301720 0.306885 0.040897 0.708146 -0.443576 0.549298 -0.002186 0.207806 0.075114 0.373942 -0.009113 -0.209518 0.016285 0.211745 -0.099358 0.265292 -0.560546 -0.314538 -0.339829 -0.266601 0.078845 -0.226423 -0.925972 0.198133 0.476871 0.217040 0.441269 0.574341 0.781009 -0.522547 -0.093028 -0.297421 -0.371261 0.187529 0.119528 -0.610524 0.316678 0.358786 -0.489197 
aQ13127 -1.277652 -0.860861 0.277222 -0.772903 0.668192 0.421860 1.123377 0.914761 0.278657 0.028769 0.271507 0.180892 0.343064 1.017173 -0.753368 0.739184 -0.572039 -0.556273 0.124375 -0.514500 -0.041397 -0.396906 -0.839302 0.325547 0.087514 0.822793 0.118596 0.627012 0.418172 0.101780 -0.406438 -0.116477 0.074236 0.406288 0.128593 0.084814 -0.669900 0.411896 -0.469500 -0.224180 0.220707 -0.175893 -0.339331 -0.011517 -0.245197 0.317948 -0.123214 0.199218 -0.179479 -0.104180 -0.030306 -0.436108 0.401124 -0.135621 0.062971 0.272845 -0.222775 0.261255 -0.011557 0.170166 -0.522435 0.149149 -0.551529 0.384943 
vNONHSAT034878.2 0.224994 0.144705 -0.363247 0.445528 0.079791 -0.144644 0.061072 0.117489 0.072962 -0.145793 0.029058 0.149656 -0.344428 -0.009137 -0.419815 -0.158529 -0.246045 0.175605 0.386516 0.017099 0.006643 0.063136 0.397306 -0.215552 -0.109605 -0.027457 0.075258 -0.002044 -0.049062 -0.103886 0.178618 0.050481 -0.065988 -0.024343 0.139873 -0.138753 -0.223785 -0.160023 0.021216 -0.154118 0.098449 -0.016648 -0.210012 0.123351 -0.212710 -0.099682 -0.166418 0.009015 0.000845 0.263174 0.121166 -0.111719 0.193003 -0.149578 -0.401843 0.163695 0.095817 -0.059582 -0.126837 0.122506 0.171519 -0.030707 0.216691 0.010012 
vNONHSAT052808.2 0.600755 -0.039900 -0.309409 0.522121 0.204264 -0.348921 0.353448 0.195390 0.273290 0.265594 -0.076761 0.212205 -0.006276 0.094117 -0.602949 -0.146499 -0.121359 0.162308 0.549119 0.112286 0.137758 0.007428 0.255759 -0.320903 -0.002237 -0.300650 -0.015056 -0.452598 -0.034841 -0.134735 0.221336 -0.151661 0.078274 0.009543 -0.157719 -0.048657 0.025761 -0.074361 -0.146358 0.136625 -0.047996 -0.398078 -0.536582 0.172572 -0.316668 -0.069465 -0.449320 -0.274656 0.291149 -0.102775 -0.027541 -0.361259 0.054607 -0.093575 -0.458239 0.125817 -0.002480 -0.146738 -0.480961 0.420286 0.104313 -0.049284 0.504685 -0.013505 
vNONHSAT021830.2 0.200124 -0.119845 -0.094285 0.813653 -0.232641 -0.295176 0.015947 0.322186 -0.269391 -0.023307 0.057575 0.112554 -0.147945 0.235416 -0.407425 0.067148 -0.134124 0.277030 0.360957 -0.377512 -0.076612 0.042374 0.461663 -0.138550 -0.032724 -0.077763 -0.046935 -0.047103 -0.094298 0.077343 0.306317 0.389565 0.104188 -0.183284 0.033982 0.372819 -0.213960 -0.210816 0.291940 0.001215 0.146226 -0.203222 -0.041371 0.290767 -0.474506 -0.119558 -0.259206 0.100537 0.145865 0.351553 0.172130 0.451204 -0.020774 -0.392719 -0.574676 0.419028 0.319403 0.203359 -0.268832 -0.243448 0.139593 0.125579 0.019044 0.150041 
vNONHSAT138966.2 0.179924 0.157597 -0.386236 0.792889 0.199279 0.015606 0.298033 0.287573 0.213195 -0.592827 -0.278444 -0.023974 -0.708491 0.062899 -0.195467 -0.289222 -0.302816 -0.070862 0.465091 -0.195455 -0.062271 0.056580 0.218811 -0.526719 0.276945 -0.027059 0.326796 -0.008944 0.128293 0.098700 -0.125681 -0.189351 -0.354544 -0.414685 0.062513 -0.399311 -0.330687 0.142160 -0.192509 0.098817 -0.064813 -0.014541 0.053473 0.442998 0.020988 0.253314 -0.161868 0.044877 0.177034 0.059724 0.309737 -0.048097 0.211570 0.349558 -0.581037 0.053124 0.192141 0.135412 -0.038193 -0.281237 0.302468 0.206771 0.391706 0.231170 
vNONHSAT041927.2 0.162853 0.129298 -0.318846 0.473678 0.035554 -0.076709 0.120247 0.035765 0.138946 0.006054 -0.031635 0.222119 -0.453705 -0.000040 -0.345741 -0.064330 -0.195293 0.343903 0.516930 0.164347 0.114951 0.140799 0.244080 -0.198119 -0.380420 0.023471 0.155019 0.090615 0.004917 -0.114515 0.244481 0.139308 -0.116909 0.033232 0.135003 -0.242782 -0.109242 -0.220728 0.044480 -0.166805 0.187241 -0.064853 -0.180397 0.238157 -0.270772 -0.010245 -0.226953 -0.042105 -0.140168 0.124963 0.054464 -0.050822 0.178622 0.042661 -0.491016 -0.008800 0.057777 -0.072755 -0.030035 0.181741 0.221343 0.085099 0.127083 0.206103 
vNONHSAT041921.2 0.244089 0.016913 -0.328797 0.525317 0.158727 -0.172325 0.044288 0.028538 0.040160 -0.039029 -0.114434 0.086568 -0.463934 -0.094898 -0.256861 -0.069778 -0.002377 0.351268 0.365439 0.010743 0.255946 0.127503 0.303215 -0.093306 -0.136119 0.045949 0.044489 0.186432 -0.132270 -0.071184 0.281813 0.299245 -0.015538 0.021841 0.074672 -0.041984 -0.273334 -0.199964 0.018757 0.112603 0.121159 -0.034165 -0.192027 0.169742 -0.199827 -0.002784 -0.134600 0.068803 0.056413 0.166753 0.008456 0.097157 0.254393 -0.138958 -0.284192 0.086612 0.102370 -0.077747 -0.050219 0.136880 0.304445 0.146947 0.059094 0.143562 
vNONHSAT124481.2 0.426649 0.357502 -0.094595 0.508016 0.283179 -0.382639 0.063932 -0.066681 0.091916 -0.061400 -0.124761 0.001780 -0.530033 0.100578 -0.356697 0.210670 -0.325686 0.102237 0.775542 0.226185 -0.004710 0.000926 0.212067 -0.092429 -0.217653 0.153269 0.248440 -0.104856 0.163994 -0.172883 0.475351 -0.067168 -0.160913 0.197623 0.185026 -0.022937 -0.327989 -0.215022 0.384851 -0.157915 0.025608 0.036725 -0.175181 0.390631 -0.296212 -0.133251 0.260234 0.022368 -0.194677 0.192045 0.280806 0.112037 0.369334 0.139587 -0.309111 0.232006 -0.211880 0.339672 -0.063940 0.312400 0.295868 -0.122571 0.012003 0.061593 
vNONHSAT130962.2 0.798074 0.201485 0.188972 0.554877 0.520406 -0.016213 -0.556377 0.128454 0.052465 -0.097255 0.211191 -0.063391 -0.479839 0.148141 -0.385157 -0.028317 -0.364981 0.232899 0.156277 -0.085428 -0.074244 -0.255135 0.248436 -0.001116 -0.487358 0.103877 -0.276481 -0.161720 -0.280165 -0.423410 -0.402584 0.211066 -0.203219 -0.289006 0.191198 0.012115 -0.373053 -0.286653 0.054840 0.349344 0.418445 -0.306303 -0.212638 0.036180 -0.487256 -0.083137 -0.285707 -0.148449 0.692822 0.312700 -0.003579 -0.360024 0.170618 0.601782 -0.217214 0.216630 0.470789 -0.210439 -0.114565 -0.093994 0.274393 -0.159922 -0.086602 -0.087603 
vNONHSAT040974.2 0.060306 0.283250 0.128272 0.397602 0.487954 -0.239467 0.042721 0.122065 0.131900 0.013287 0.125159 -0.091842 0.001920 -0.261029 -0.585654 -0.305928 -0.169081 0.303675 0.451934 0.068948 -0.408708 0.308109 0.680137 -0.441521 -0.190556 -0.252616 -0.079132 0.005705 -0.452090 0.268489 0.626529 0.010580 -0.188612 -0.012418 0.493668 -0.383040 -0.605113 0.384148 0.004967 -0.299628 -0.081849 0.052026 0.272707 0.232959 -0.313928 -0.013926 -0.147874 0.003835 -0.010278 0.399095 -0.169886 -0.123990 0.381691 0.131659 -0.596333 0.098994 -0.021871 -0.257173 -0.102451 0.246545 0.155177 0.431676 -0.047302 -0.078557 
vNONHSAT137541.2 0.345987 0.022344 -0.278090 0.526712 0.107627 -0.127300 0.122198 0.039593 0.070471 -0.133974 -0.071141 0.091965 -0.354676 -0.106887 -0.386167 0.081993 -0.033761 0.354099 0.420812 -0.128882 0.247437 0.054863 0.388269 -0.053656 -0.117281 -0.013696 -0.093193 0.116902 0.023258 -0.166612 0.240384 0.067428 -0.092469 0.105507 0.069955 0.164855 -0.281695 -0.193584 0.044347 0.008363 0.145107 -0.036359 -0.215840 0.096611 -0.218423 -0.067780 -0.065579 0.070942 0.006014 0.124247 0.068586 0.056004 0.278115 0.051599 -0.423109 0.121129 0.188235 0.013618 -0.012901 0.107102 0.359967 0.042887 0.060731 0.123841 
vNONHSAT101970.2 0.198904 0.251943 -0.335335 0.479193 0.180872 -0.087015 0.089008 -0.010397 0.108352 -0.042446 0.039189 0.292156 -0.424286 -0.068222 -0.243317 -0.021578 -0.190901 0.320962 0.527689 0.024407 0.118954 0.166269 0.265038 -0.157638 -0.213438 -0.056020 0.187729 0.039972 -0.012170 -0.109711 0.099243 0.249458 -0.123925 0.048412 0.032712 -0.323678 -0.262861 -0.174040 0.026019 -0.205683 0.259575 0.092377 -0.137798 0.145432 -0.482354 0.027455 -0.353524 -0.058475 -0.073131 0.207313 0.136766 -0.110700 0.072849 0.029773 -0.406681 0.227290 -0.069665 0.107874 -0.162635 0.155150 0.080914 0.015987 0.204900 0.059847 
vNONHSAT022112.2 -0.033062 -0.514735 -0.562223 0.454300 0.274166 0.137724 -0.009176 -0.347254 0.292134 -0.367274 -0.267895 0.119520 -0.470884 -0.070778 -0.523045 -0.220535 -0.264009 0.050788 0.498663 0.021265 0.275231 0.231382 0.209770 -0.232760 0.026694 -0.209680 -0.253143 0.281287 -0.127652 0.139438 0.288118 0.092419 -0.102915 0.088071 -0.082927 0.247622 -0.070753 0.213382 0.427178 -0.148101 0.235324 -0.014546 -0.465046 0.162556 -0.541789 -0.137895 -0.470006 -0.119610 -0.118172 0.367682 0.310528 -0.320928 0.095940 0.151416 -0.128235 0.430859 0.192072 -0.128173 -0.016827 0.151559 0.218765 0.152219 0.362932 0.390657 
vNONHSAT140501.2 0.215331 0.253209 -0.372044 0.418037 0.125298 -0.091175 0.015877 0.123311 0.070956 -0.081895 0.023744 0.158682 -0.330317 0.034126 -0.414280 -0.183273 -0.332081 0.240211 0.472458 0.108279 -0.021908 -0.001564 0.307047 -0.223381 -0.065738 -0.006556 0.042341 -0.021697 0.017564 -0.118793 0.224864 0.014558 -0.037810 -0.062564 0.188781 -0.196547 -0.207855 -0.109585 -0.012252 -0.192860 0.145625 -0.075621 -0.203676 0.139175 -0.245431 -0.043746 -0.270028 -0.032551 0.015450 0.211559 0.121336 -0.005461 0.213178 -0.017750 -0.426733 0.105842 0.029047 0.028957 -0.099633 0.102883 0.090266 -0.008980 0.238756 -0.028005 
vNONHSAT056046.2 0.359782 0.030378 -0.165778 0.666663 0.153779 -0.129222 -0.072874 0.026147 0.073433 0.064338 -0.026020 -0.026730 -0.349324 -0.103101 -0.093605 0.037344 -0.187053 0.330793 0.539161 -0.235469 -0.289665 0.215772 0.190040 -0.117720 -0.300475 0.065084 -0.091135 0.248891 0.027045 -0.192647 0.131412 0.262323 -0.199747 0.231368 -0.105688 0.246220 -0.026118 0.042329 -0.121841 0.038699 0.028462 0.223078 -0.195195 0.289090 -0.278177 -0.276356 -0.239935 0.168230 0.164516 0.292376 -0.154256 0.033865 0.156260 0.039015 -0.505014 0.130110 0.118631 -0.129548 -0.058403 0.379896 0.232321 0.069543 0.297253 -0.004936 
vNONHSAT009703.2 0.260190 0.001106 -0.289444 0.577413 0.124031 -0.119103 -0.120040 0.004733 0.247463 -0.000784 -0.049026 0.172875 -0.307194 -0.179890 -0.307067 -0.063859 -0.219031 0.372784 0.280626 -0.071623 0.076824 0.124599 0.297237 -0.110952 -0.255444 0.105787 0.059743 0.147764 0.028567 -0.065825 0.096964 0.182194 0.039898 -0.125999 -0.048478 0.083480 -0.296461 0.004300 0.055181 -0.046924 0.202573 0.079239 -0.250278 0.201028 -0.125479 -0.015415 -0.192979 0.040766 0.050758 0.188067 0.078932 -0.040869 0.193490 -0.123925 -0.347158 0.093404 0.224033 -0.024931 -0.217071 0.234818 0.186902 0.191077 0.194903 0.080331 
vNONHSAT039751.2 0.257883 0.158770 -0.305300 0.347706 0.046795 -0.177343 -0.027467 -0.013443 0.246973 -0.014434 0.062123 0.204939 -0.398322 -0.101939 -0.428350 -0.239047 -0.350500 0.348113 0.478904 0.150744 0.073356 0.244369 0.181037 -0.095671 -0.111663 -0.069841 0.211812 0.113431 0.008345 -0.250108 0.044300 0.114803 -0.027310 -0.325914 0.066782 -0.262515 -0.234499 -0.271557 -0.014206 -0.194914 0.325919 -0.153875 0.031962 0.236205 -0.303211 0.032150 -0.125817 -0.087697 -0.222392 0.129151 0.269942 -0.096783 0.071992 -0.093679 -0.541097 0.155298 0.165983 0.098190 0.154387 0.248879 0.057688 -0.179093 0.289311 0.035520 
vNONHSAT001511.2 0.261538 0.048720 -0.318132 0.492711 0.117364 -0.230783 -0.133633 0.001548 0.215610 -0.043157 -0.108776 0.120468 -0.422998 -0.139343 -0.349623 0.017147 -0.074545 0.443788 0.359021 -0.148552 0.185953 0.102747 0.271592 -0.074869 -0.036386 0.021086 -0.010097 0.127751 -0.018333 -0.018015 0.124710 0.231837 0.047689 -0.107364 -0.021840 0.100281 -0.266164 -0.115193 0.055208 0.050252 0.124052 -0.055078 -0.194959 0.157073 -0.197376 0.010974 -0.137963 -0.067752 0.019667 0.038373 0.090748 0.037353 0.201334 -0.074582 -0.346135 0.110016 0.114173 0.042703 -0.119613 0.221438 0.313712 0.182172 0.170245 0.051204 
vNONHSAT125130.2 0.296351 0.263179 -0.348307 0.550699 0.059176 -0.033807 0.297244 0.073838 0.307634 -0.122735 -0.015469 0.265992 -0.371377 -0.066722 -0.247184 0.079292 -0.323093 0.307951 0.425378 0.206691 0.044051 0.032031 0.307173 -0.228020 -0.208634 0.144417 0.075639 -0.076630 0.024666 -0.280741 0.245630 0.150555 -0.092670 0.004037 0.152549 -0.114357 -0.284960 -0.052908 0.190401 -0.421257 0.385601 0.202514 -0.207445 0.354431 -0.257579 -0.066669 -0.323941 0.026110 -0.069894 0.187888 0.135037 -0.094662 0.131447 0.155053 -0.419522 0.043882 -0.008011 0.124628 -0.267413 0.123399 0.111178 -0.079435 0.003055 0.100998 
vNONHSAT107321.2 0.202438 0.235573 -0.380208 0.375921 0.052489 -0.248291 0.012156 0.024541 0.227319 -0.106261 0.052000 0.227140 -0.411529 -0.115314 -0.443027 -0.098013 -0.289526 0.376391 0.485868 0.072271 0.073887 0.105743 0.201489 -0.142747 -0.171214 -0.002377 0.203963 -0.054160 -0.007540 -0.123272 0.162914 0.222618 -0.083051 -0.115013 0.089601 -0.333027 -0.233567 -0.252057 0.049358 -0.238538 0.303787 -0.038792 -0.103002 0.227167 -0.293238 0.047948 -0.166882 0.006144 -0.142446 0.136960 0.141989 -0.124421 0.100547 0.009369 -0.480177 0.138955 -0.079354 0.175621 -0.048955 0.236440 0.090098 -0.028155 0.126921 0.056134 
vNONHSAT104991.2 0.507806 0.262477 -0.485446 0.797787 0.248516 -0.022895 -0.285915 0.098497 0.220001 -0.072483 -0.226939 0.080772 -0.200365 0.159836 -0.575277 -0.290431 0.251003 0.504868 0.326357 -0.149384 -0.021671 0.354794 0.350775 -0.017510 0.334708 -0.078792 0.129114 0.561812 -0.141189 -0.166508 -0.174002 0.124748 -0.401879 -0.240622 0.065090 0.400072 -0.229153 -0.115258 -0.211026 0.257492 -0.071701 0.452626 -0.118821 0.123506 0.052939 0.070293 -0.426468 -0.125739 -0.010810 0.072014 0.260537 0.166594 -0.098757 0.069639 -0.429635 0.481610 -0.351884 0.069327 -0.473044 0.141111 0.168955 0.183854 -0.190649 0.306892 
vNONHSAT104512.2 0.333770 0.080497 -0.243988 0.567873 -0.055167 -0.182026 0.026178 -0.061567 -0.037648 0.012758 -0.207265 0.197360 -0.528447 0.009378 -0.501622 -0.191994 -0.117251 0.257717 0.637693 -0.227336 0.067598 0.091878 0.149137 0.047378 -0.204883 0.011090 -0.019957 -0.067858 0.136651 0.089563 -0.055846 0.295685 -0.188726 -0.100708 0.277500 0.221156 -0.231231 -0.103538 -0.083488 -0.306664 -0.023962 -0.009664 -0.333461 -0.046817 -0.234779 -0.093599 -0.245544 -0.041542 0.044077 0.426936 0.049062 -0.116172 0.293306 -0.109700 -0.250094 -0.028320 0.055583 -0.073801 -0.121612 0.181352 0.258437 -0.015195 0.192334 0.141175 
aP08151 -1.433050 -0.517753 0.867300 -0.767974 0.824419 0.389044 0.806293 1.138014 0.557545 0.733232 0.207944 0.315212 0.092622 1.182938 -0.788220 0.747760 -0.734769 -0.337027 0.083582 -0.416334 0.100266 -0.290894 -0.486363 0.822209 0.576788 0.853448 0.053692 0.820222 0.402297 -0.010436 -0.012151 -0.282900 0.468764 0.206164 0.203247 -0.249992 -0.398245 0.263713 -0.743510 -0.435281 0.115119 -0.002012 -0.370879 -0.381714 0.055575 0.344679 -0.426622 0.264358 -0.053149 -0.420810 -0.254023 0.015886 -0.178444 -0.612022 0.013222 0.330841 -0.204008 0.158602 -0.300190 0.249600 -0.083239 -0.157724 0.124555 0.416820 
aP49711 -1.526601 -0.533580 0.826141 -0.754650 0.810741 0.367210 0.805170 1.125821 0.540862 0.667464 0.278346 0.335517 0.112055 1.175773 -0.766490 0.755252 -0.685773 -0.358444 0.088970 -0.401860 0.085314 -0.318991 -0.511942 0.819254 0.585942 0.819179 0.064066 0.823955 0.344131 -0.030081 0.007854 -0.268757 0.479561 0.138635 0.203756 -0.311183 -0.402639 0.280781 -0.734431 -0.457733 0.110616 -0.000840 -0.368682 -0.375878 0.071705 0.316884 -0.429763 0.250303 -0.083480 -0.373600 -0.208376 0.000949 -0.149089 -0.655719 -0.002813 0.307567 -0.186451 0.145607 -0.330391 0.252559 -0.078481 -0.181648 0.148405 0.367507 
vNONHSAT138142.2 0.309548 -0.093322 -0.351419 0.655179 0.024051 -0.203996 0.092580 0.091872 0.385226 -0.055450 -0.088122 0.100305 -0.250326 -0.184875 -0.198016 -0.028891 -0.115088 0.353657 0.176237 -0.147126 -0.004944 0.104059 0.423456 -0.169877 -0.194060 0.116625 -0.148050 0.197802 0.068765 -0.261307 0.121938 0.169368 0.008950 -0.013588 -0.032183 0.254693 -0.414393 -0.019639 0.141759 -0.091902 0.063682 0.082462 -0.286936 0.327754 -0.160990 -0.074341 -0.190439 -0.023548 0.125797 0.073139 0.095605 0.084639 0.280179 0.059845 -0.393469 -0.080968 0.144166 0.011823 -0.144881 0.169809 0.294416 0.201580 0.012086 0.164214 
vNONHSAT134595.2 0.306548 0.006422 -0.320295 0.583544 0.066611 -0.169631 -0.163080 0.144962 0.125637 -0.034016 -0.076202 0.142632 -0.393276 -0.098739 -0.269046 -0.163520 -0.111655 0.248435 0.310359 -0.120173 -0.031069 0.077626 0.330978 -0.009382 -0.262538 0.066504 -0.066712 0.136011 -0.022101 -0.099062 0.074162 0.042821 0.027283 -0.087660 0.034527 0.097927 -0.251541 -0.046602 0.121712 0.068163 0.032895 -0.027011 -0.211637 0.088623 -0.064714 -0.047877 -0.145206 0.131371 0.150243 0.261913 0.058469 0.008492 0.214699 -0.230444 -0.289477 0.174747 0.139693 -0.057186 -0.208894 0.146861 0.180416 0.249887 0.219364 0.139495 
vNONHSAT018688.2 0.247201 0.012896 -0.281924 0.621815 0.158648 -0.079108 -0.081291 0.025951 0.023776 -0.042089 -0.045347 0.072959 -0.380161 -0.077032 -0.353623 -0.115566 -0.088157 0.298737 0.368729 0.024883 0.043884 0.119771 0.143251 -0.098449 -0.156621 0.002753 0.102948 0.081255 -0.044290 -0.051786 0.132408 0.225491 0.081257 -0.024699 0.026888 -0.032080 -0.297789 -0.076328 0.064688 0.066084 0.208493 0.099494 -0.218594 0.127847 -0.143643 -0.066013 -0.220458 0.080530 0.046795 0.210991 0.013726 -0.010412 0.193628 -0.130359 -0.376665 0.237361 0.219906 -0.072882 -0.094300 0.194789 0.186156 0.175723 0.209990 0.062480 
vNONHSAT079548.2 0.225511 0.091543 -0.294108 0.444781 0.244895 -0.217412 -0.093347 -0.073305 0.027576 -0.173282 0.018906 0.251651 -0.305670 -0.084163 -0.231901 -0.213684 -0.063564 0.547160 0.317451 -0.107656 0.111980 0.198113 0.283736 0.024297 -0.003066 0.088622 0.005947 0.187880 0.111893 -0.126848 0.136708 0.209118 0.048383 -0.027700 -0.000808 0.076389 -0.379839 -0.127157 0.248802 -0.033803 0.019714 -0.046636 -0.029982 0.167266 -0.095930 -0.040558 -0.284801 -0.038259 0.019352 0.113071 0.023044 0.027695 0.251848 0.054834 -0.536699 0.229283 0.277579 0.053607 -0.248077 0.294063 0.333662 0.234742 0.110934 -0.036570 
vNONHSAT131038.2 0.236614 0.031993 -0.373599 0.654354 0.092712 -0.154256 -0.106854 0.056096 0.032077 -0.015607 -0.096865 -0.051405 -0.286209 -0.035212 -0.406616 -0.141146 -0.127165 0.272058 0.234439 -0.000224 0.021550 0.138299 0.210975 -0.015383 -0.110681 0.034554 -0.058909 0.127565 -0.081512 -0.083118 0.130037 0.112248 0.145191 -0.111798 0.050855 0.135689 -0.279173 -0.082809 0.056312 0.123481 0.065530 -0.004282 -0.200545 0.112375 -0.105825 -0.087635 -0.171346 0.068462 0.093774 0.273507 0.024859 0.004928 0.308455 -0.089652 -0.306158 0.199742 0.238874 -0.064116 -0.160462 0.126959 0.209044 0.229298 0.191059 0.186038 
vNONHSAT061386.2 0.182955 0.095647 -0.510037 0.298852 0.118744 -0.019451 -0.209454 0.398687 -0.177689 -0.426643 0.103004 -0.058868 -0.348132 -0.089443 -0.504388 -0.605694 -0.414165 0.357659 0.488806 -0.081413 0.168715 0.167079 0.369049 -0.637411 -0.238623 0.297642 0.105124 0.193329 0.376147 -0.160619 -0.058778 -0.501040 0.289018 0.411259 0.030541 -0.112151 -0.037922 -0.199439 -0.217842 0.037749 0.195793 -0.047887 0.095850 0.270954 -0.825514 -0.029720 -0.348155 -0.215126 -0.265595 0.435543 0.115008 -0.195067 0.247771 -0.273373 -0.102335 -0.054112 -0.068891 -0.104430 -0.373279 0.086178 0.273042 0.010024 -0.128097 -0.243197 
vNONHSAT016441.2 0.169271 -0.051653 -0.237246 0.620219 0.077201 -0.159950 0.099004 0.009446 0.049376 -0.117067 0.139822 0.297483 -0.340426 -0.060732 -0.199648 -0.309019 -0.403143 0.466360 0.172641 -0.119882 -0.219624 0.029861 0.582165 0.125404 0.102843 -0.011505 -0.007379 0.215486 -0.095684 -0.054526 0.165064 0.245001 0.086689 -0.099731 0.143008 0.017267 -0.059925 -0.231689 -0.047571 -0.100906 0.148171 0.054390 -0.271972 0.187821 -0.323200 0.041847 -0.128411 -0.252889 -0.023126 -0.135630 -0.049450 -0.001222 0.402665 0.021059 -0.387976 0.082656 0.105982 0.139617 -0.154938 0.332742 0.647620 0.289058 0.195896 0.032442 
vNONHSAT027070.2 0.325566 0.076730 -0.445678 0.510679 0.131422 -0.280719 -0.059070 0.046660 0.008714 -0.018813 -0.099555 0.013083 -0.311172 -0.062749 -0.366420 -0.012225 -0.077180 0.380140 0.200219 -0.201671 0.148724 0.110897 0.368427 -0.073158 0.105311 -0.004905 -0.155481 0.191711 -0.095853 -0.089520 0.111782 0.098483 -0.066922 -0.072296 0.002596 0.202158 -0.377433 -0.103958 -0.018083 0.054771 0.102505 -0.059393 -0.228316 0.092879 -0.231405 -0.074831 -0.128903 -0.039544 0.144296 0.205052 0.018221 0.095936 0.260245 -0.027380 -0.229334 0.170519 0.156554 0.017090 -0.022257 0.114895 0.300454 0.158927 0.121442 0.078530 
vNONHSAT084827.2 0.342127 -0.053829 -0.627572 0.499514 -0.072339 -0.284928 -0.177026 0.245776 -0.135188 -0.230221 -0.012240 0.080550 -0.264007 -0.168499 -0.314424 -0.156203 -0.031790 0.227137 0.353801 -0.125443 -0.159739 0.325098 0.641624 0.004164 -0.136663 0.161364 -0.046296 0.019470 0.076653 -0.312300 -0.148013 0.550349 0.080352 0.195273 0.466463 0.259858 -0.540964 0.290511 0.234858 0.187649 0.005474 -0.478305 -0.434065 -0.181842 -0.302919 0.256659 -0.194386 0.096121 0.094631 -0.172591 -0.171039 -0.208724 0.248090 -0.007381 -0.408244 0.501953 0.081393 0.152988 -0.019025 -0.027936 0.470303 0.160371 0.076223 0.130166 
vNONHSAT002083.2 0.214745 0.230127 -0.399369 0.410877 0.157009 -0.159561 0.021927 0.116858 0.056148 -0.096012 0.036605 0.187664 -0.336433 0.021986 -0.356430 -0.175288 -0.325278 0.267943 0.469319 0.154901 -0.059786 0.002613 0.342242 -0.180661 -0.089913 0.015014 0.081174 -0.015100 0.049632 -0.150278 0.222617 0.009474 -0.060600 -0.013963 0.167813 -0.209042 -0.175849 -0.164000 0.042494 -0.232027 0.170020 -0.069233 -0.125936 0.192496 -0.207766 0.019993 -0.294898 0.007457 0.045683 0.225128 0.115482 0.002491 0.150083 0.030405 -0.397207 0.183121 0.013162 0.088130 -0.019215 0.086906 0.063544 -0.068685 0.237018 -0.014946 
vNONHSAT021854.2 0.115284 -0.298850 -0.079214 0.805982 -0.136752 -0.290851 -0.041202 0.245417 -0.182559 0.099554 0.120450 0.079302 -0.098812 0.297280 -0.654005 -0.055357 -0.220878 0.375641 0.271691 -0.318149 -0.132455 0.074077 0.489286 -0.294831 -0.091048 -0.054300 0.116181 0.029137 -0.085547 0.015813 0.182115 0.330739 -0.011022 -0.210303 -0.060742 0.310045 -0.207766 -0.176107 0.376266 -0.038505 0.229278 -0.152952 -0.113236 0.300688 -0.467416 -0.256350 -0.174260 0.196670 0.232813 0.391599 0.276801 0.366972 0.051069 -0.472585 -0.446075 0.495301 0.295776 0.150835 -0.246077 -0.171288 0.140764 0.141741 0.073045 0.193725 
vNONHSAT083445.2 0.221627 0.251514 -0.406880 0.412608 0.155972 -0.166454 0.037697 0.118492 0.042640 -0.096226 0.039713 0.186150 -0.330579 0.026223 -0.382895 -0.172270 -0.325729 0.268063 0.461362 0.152474 -0.081444 -0.021054 0.328409 -0.161309 -0.093815 0.009186 0.090404 -0.008284 0.036612 -0.149696 0.251393 -0.000163 -0.037530 -0.020174 0.147780 -0.214248 -0.174716 -0.139732 0.043531 -0.214417 0.169466 -0.069578 -0.149603 0.178121 -0.219227 0.021983 -0.283081 0.028285 0.022380 0.244842 0.137718 0.000581 0.152656 0.029266 -0.419905 0.198290 0.016479 0.074920 0.000805 0.055196 0.076828 -0.040362 0.223836 -0.019674 
vNONHSAT076186.2 0.185423 0.224846 -0.397056 0.397207 0.168785 -0.156766 0.028767 0.116755 0.034061 -0.088262 0.030269 0.187803 -0.325555 0.021544 -0.375788 -0.194352 -0.312874 0.272042 0.480536 0.163101 -0.053012 -0.004376 0.342623 -0.193717 -0.074355 -0.003989 0.071984 -0.019102 0.044103 -0.152938 0.240005 -0.004286 -0.028515 -0.021471 0.150742 -0.222147 -0.201521 -0.157098 0.040495 -0.226348 0.173081 -0.062539 -0.133068 0.157345 -0.212054 0.001083 -0.289168 0.012849 0.008172 0.242547 0.130242 0.009611 0.169410 0.026612 -0.413041 0.189652 0.008566 0.094744 -0.018674 0.072213 0.049866 -0.024341 0.233242 -0.013149 
vNONHSAT001953.2 0.315263 0.114027 -0.381252 0.517721 0.071107 -0.128990 -0.162729 0.050061 0.245380 0.024324 -0.065915 0.113209 -0.447429 -0.068576 -0.305911 -0.039981 -0.201896 0.247740 0.458430 -0.076002 0.176327 0.142043 0.204974 -0.099050 -0.166426 -0.050198 -0.140477 0.161060 -0.058278 -0.007695 0.158708 0.182811 -0.135162 -0.001545 -0.018358 0.038806 -0.260175 -0.034785 0.036255 -0.005479 0.263014 0.019154 -0.281475 0.134129 -0.176573 0.034046 -0.173623 0.060380 0.031151 0.338543 0.085608 -0.014034 0.170192 -0.064942 -0.217380 0.130034 0.052619 -0.011204 -0.203982 0.061772 0.188978 0.066563 0.135325 0.135881 
vNONHSAT078782.2 0.397520 0.024545 -0.370156 0.536332 0.180891 -0.284445 0.030464 0.170310 0.021892 -0.034178 -0.108038 0.195056 -0.383661 -0.095942 -0.118877 -0.173554 -0.042630 0.459059 0.218077 -0.187510 -0.028391 0.023666 0.415868 -0.109315 -0.124215 -0.054218 -0.159026 0.205874 0.012671 -0.099635 0.029448 0.116063 0.108128 -0.095716 0.082963 0.153631 -0.456394 -0.118547 0.035507 0.172808 -0.051735 -0.007263 -0.176648 0.184527 -0.135343 -0.025507 -0.152452 0.104249 0.170529 0.091284 0.096695 0.179703 0.286079 -0.079236 -0.272592 0.244951 0.074690 -0.008106 -0.055564 0.192968 0.233690 0.165775 0.132939 0.207655 
vNONHSAT007429.2 0.218098 0.042835 -0.341101 0.546291 0.156567 -0.090350 -0.125193 0.029390 0.107052 0.007534 -0.076136 0.083380 -0.359757 -0.157416 -0.381911 -0.125074 -0.166246 0.411710 0.287900 -0.003372 0.005570 0.177481 0.130667 -0.077885 -0.134396 0.073920 0.053916 0.084833 0.005429 -0.047260 0.139124 0.171919 0.026332 -0.135927 0.028618 0.020329 -0.316627 -0.074818 0.028397 0.014644 0.294814 0.012743 -0.188912 0.171279 -0.127086 -0.027260 -0.189455 0.045277 -0.017522 0.137643 0.017047 0.002638 0.240711 -0.040779 -0.352483 0.249035 0.170783 0.060232 -0.191960 0.235933 0.176789 0.180630 0.192584 0.066204 
vNONHSAT022115.2 0.136252 0.182979 -0.491831 0.464339 -0.106331 -0.216269 -0.180723 -0.105007 0.135379 -0.076820 0.018382 -0.084340 -0.289183 0.025224 -0.459834 0.110310 -0.241058 0.322562 0.269190 -0.056847 0.275967 0.071182 0.158356 -0.076020 -0.299117 0.374668 -0.291117 0.099372 -0.368743 0.124613 0.361556 0.025414 0.062859 0.165875 0.201732 0.185256 -0.686246 -0.184291 -0.347595 -0.077341 0.232101 -0.020566 -0.317893 -0.179591 -0.115144 0.451390 -0.452412 -0.061606 0.263062 0.354821 0.063168 -0.040666 0.022445 -0.213575 -0.249888 0.310928 0.189857 -0.070475 -0.312499 -0.429765 0.346184 0.347336 0.445229 0.268082 
vNONHSAT145923.2 0.204998 -0.253443 -0.636706 0.580060 0.220203 -0.311098 -0.334110 0.136715 -0.313986 -0.078734 -0.452219 0.039280 -0.335674 0.128808 -0.499977 -0.019280 -0.264937 0.283757 0.056054 0.282131 -0.161670 -0.060682 0.299001 -0.037871 -0.168023 -0.093663 -0.363583 0.380853 0.137189 -0.090128 0.123183 0.207180 -0.007277 0.005250 0.024120 -0.143572 -0.484336 0.012395 0.055433 -0.038356 0.161680 0.090326 0.029406 -0.268262 -0.028071 -0.269763 0.063084 -0.122561 0.477064 0.240260 -0.003467 -0.009704 0.112836 0.019182 -0.578348 -0.154686 0.099154 0.226668 -0.413945 0.302481 0.160197 0.121444 0.387731 0.167063 
vNONHSAT145960.2 0.362824 -0.175636 -0.673359 0.390185 0.194463 -0.347539 -0.197902 0.157551 -0.320034 -0.158223 -0.452109 0.195802 -0.399373 0.137430 -0.379092 -0.030557 -0.290309 0.303192 0.062033 0.125619 -0.112195 -0.223611 0.575410 -0.107865 -0.106056 -0.208034 -0.335083 0.381833 0.189787 -0.134917 0.166060 0.158177 0.035939 0.049597 0.029765 -0.167267 -0.660183 0.011119 -0.060429 -0.048689 0.198699 0.088516 0.066154 -0.147198 -0.055089 -0.202175 0.117939 -0.063490 0.593722 0.259621 0.070162 0.130365 0.086857 0.056238 -0.541538 -0.120629 -0.009321 0.305110 -0.285163 0.369725 0.087924 -0.058397 0.375712 0.218371 
vNONHSAT101154.2 0.241760 0.033367 -0.297072 0.657876 0.069513 -0.263502 -0.027874 -0.111138 0.149815 0.045146 -0.089119 0.039223 -0.292993 -0.115067 -0.297295 0.018535 -0.113230 0.203441 0.514025 -0.091764 0.058908 0.089658 0.225201 0.020911 -0.193330 0.120008 -0.039564 0.239003 0.040506 0.000981 0.069908 0.162293 -0.085891 0.003691 0.165331 0.120984 -0.148889 -0.193574 0.076714 0.115182 0.045676 0.031997 -0.240561 0.183977 -0.121235 0.028354 -0.091453 -0.004756 -0.057347 0.230922 0.097056 0.034555 0.404670 0.026971 -0.471916 0.072672 0.190916 0.027336 -0.265886 0.189676 0.271598 0.180728 0.152306 0.036808 
vNONHSAT015736.2 0.164795 0.186206 -0.341929 0.737551 0.214390 -0.402923 -0.539454 0.171404 0.254511 0.060577 -0.369269 0.000276 -0.247319 -0.213559 -0.388100 -0.049051 -0.241048 0.338698 0.403806 -0.192510 -0.203034 0.174286 -0.054792 0.095841 0.014241 -0.297412 -0.075573 0.065254 0.188619 -0.152273 0.131146 0.235466 0.299024 -0.085545 -0.056066 0.024867 -0.358046 -0.021715 0.207281 0.094638 0.026478 0.092630 -0.484655 0.318677 -0.332494 -0.087056 -0.153481 0.250198 0.093859 0.386320 0.290331 0.130715 0.387854 -0.011832 -0.084182 -0.023924 0.340848 -0.064397 0.025924 0.193880 0.252356 0.050661 0.091225 0.162688 
vNONHSAT042032.2 0.316842 0.002612 -0.380065 0.613510 0.156209 -0.157845 -0.090456 0.237861 0.066175 0.016497 -0.036868 0.011146 -0.403877 -0.137672 -0.310880 -0.217768 -0.051028 0.233448 0.308405 -0.000646 0.017104 0.086478 0.191453 0.006013 -0.156348 0.047096 -0.243698 0.152380 -0.033188 -0.093829 0.062875 0.128493 0.026283 -0.058672 0.104390 0.100706 -0.189786 -0.135580 0.175449 0.073890 0.093703 -0.001334 -0.148353 0.076318 -0.010281 -0.002204 -0.149707 0.072321 0.118030 0.247076 0.049689 0.066292 0.302017 -0.206155 -0.345583 0.246768 0.200667 -0.062142 -0.157471 0.039426 0.175614 0.259051 0.158562 0.145339 
vNONHSAT002344.2 0.204753 0.095321 -0.382328 0.720449 0.155148 -0.189428 -0.072516 0.031387 -0.012704 -0.031766 -0.147707 -0.022356 -0.193633 -0.026501 -0.306772 -0.090577 -0.168791 0.293673 0.268122 -0.021139 0.032675 0.213011 0.202387 0.016263 -0.178817 0.081438 -0.126701 0.196548 -0.066029 -0.058884 0.163597 0.118230 0.092351 -0.071818 0.029166 0.208384 -0.242284 -0.141483 0.015278 0.036786 -0.001892 -0.167277 -0.167484 0.064373 -0.121178 -0.074698 -0.169602 0.084095 0.030428 0.302189 0.051730 -0.053236 0.223973 -0.026938 -0.368641 0.241791 0.260046 -0.050428 -0.210509 0.083707 0.226283 0.227578 0.200779 0.160090 
vNONHSAT034665.2 0.077802 0.005282 -0.072245 0.725122 -0.097982 -0.086787 0.222970 -0.035025 -0.111160 -0.119110 -0.312603 -0.067936 -0.540617 -0.124390 -0.585272 -0.320001 -0.075264 0.367611 0.740296 -0.137037 -0.020722 0.204555 0.224690 0.314457 -0.229874 0.091758 -0.260128 -0.280127 0.146132 -0.034625 -0.062116 0.299062 -0.042087 -0.352112 0.162533 0.323372 -0.389355 0.252788 -0.213742 -0.425693 -0.200424 0.122284 -0.089420 -0.028014 -0.295981 -0.077997 0.025532 0.195902 0.032677 0.460297 0.016824 -0.097759 0.397176 -0.106338 -0.236053 0.126766 0.041313 -0.311189 -0.088928 0.292404 0.319335 -0.009177 0.208194 -0.003723 
aP78509 -1.418025 -0.964735 0.217527 -0.513157 0.654735 0.538044 0.893233 0.513460 0.332957 -0.056433 0.367932 -0.076292 0.662417 0.639917 -0.867854 0.918896 -0.265499 -0.864623 0.097434 -0.259934 -0.383468 -0.450736 -0.790590 0.273445 0.017128 1.054553 0.434322 0.379726 0.478284 -0.046420 -0.118164 -0.079730 -0.185441 0.833781 0.182967 0.159311 -0.594098 0.487405 -0.462686 -0.292377 0.288356 -0.172559 -0.405197 0.039125 -0.024486 0.438293 -0.209258 0.254117 -0.057560 -0.138279 -0.115509 -0.544199 0.339123 0.048828 0.089685 0.378175 -0.612728 0.373069 -0.043345 -0.007474 -0.348369 0.371987 -0.657646 0.343729 
vNONHSAT142612.2 0.309833 0.130552 -0.318219 0.639085 0.288511 -0.411342 0.156236 -0.015307 0.072469 0.002341 0.149405 0.276718 -0.458497 -0.028112 -0.443918 0.127822 -0.044031 0.591057 0.121727 -0.254371 0.265699 0.109253 0.367821 -0.085874 0.330021 -0.064645 -0.080504 -0.016766 0.008168 0.072226 0.037035 0.071653 0.093683 0.096957 0.115723 -0.216539 -0.428787 -0.053464 -0.038475 0.019984 -0.079509 0.108242 -0.040426 -0.130876 -0.191787 -0.464262 -0.286212 -0.255788 0.235740 0.359186 0.029697 0.398511 0.564247 -0.126879 0.194661 0.125952 0.634581 -0.058157 0.002129 0.224005 0.209022 0.009520 0.183669 0.504360 
vNONHSAT101022.2 0.255914 -0.002907 -0.356812 0.578814 0.122828 -0.204691 -0.109431 0.122697 0.053710 -0.027531 -0.136662 0.135456 -0.431527 -0.091013 -0.229427 -0.058473 -0.054446 0.486761 0.264627 -0.149948 0.001794 0.091302 0.325924 0.006918 0.070315 0.008694 -0.114574 0.170219 -0.007303 -0.101775 0.074138 0.076572 0.089909 -0.111454 0.042892 0.121752 -0.368534 -0.118177 0.012640 0.149901 0.008175 -0.069569 -0.216616 0.132221 -0.172494 -0.144287 -0.218776 0.041798 0.148251 0.010003 -0.064805 0.179236 0.290380 0.032850 -0.225840 0.187464 0.161134 0.023851 -0.172366 0.170631 0.325618 0.311353 0.098071 0.045276 
vNONHSAT100798.2 0.347862 0.131514 -0.194111 0.476382 0.185320 -0.102315 -0.090328 0.017430 0.171180 0.020639 -0.016698 0.090376 -0.373963 -0.155546 -0.347170 -0.200195 -0.260552 0.303020 0.338627 -0.043104 0.097863 0.108469 0.259413 -0.084357 -0.125203 -0.092336 -0.063989 0.074286 0.087724 -0.045215 0.175528 0.095760 0.035496 -0.206927 0.088955 0.081733 -0.280058 -0.041808 -0.088236 0.068769 0.394829 -0.028567 -0.108798 0.170276 -0.113061 0.006154 -0.138417 0.010764 0.069955 0.216533 0.097849 -0.004485 0.225548 -0.096077 -0.426649 0.199940 0.185390 0.082963 -0.104631 0.121262 0.064430 0.022068 0.224617 0.116940 
vNONHSAT114444.2 0.242695 0.081770 -0.338739 0.644209 0.109395 -0.276317 -0.306140 0.075431 0.131821 0.207755 -0.277287 0.023658 -0.316185 -0.062847 -0.328677 -0.084466 -0.174228 0.315295 0.399184 0.064417 0.162279 0.247947 0.180041 0.011964 -0.143330 0.004787 0.026705 0.177845 -0.024350 0.109528 0.132586 0.293950 0.152043 0.075574 -0.069254 -0.031933 -0.220438 0.089988 0.156278 -0.006804 0.142427 0.113199 -0.339719 0.155764 -0.195202 0.136594 -0.226023 0.067378 0.098648 0.173629 0.141868 -0.033285 0.264519 -0.046734 -0.267067 0.075856 0.263213 -0.142982 -0.135863 0.094480 0.332518 0.280049 0.184850 0.048600 
vNONHSAT033797.2 -0.241571 0.480201 -0.104071 0.482983 -0.328381 -0.058527 -0.365850 0.332657 -0.161381 0.167436 0.073111 0.058729 -0.270158 -0.319944 -0.411891 -0.139708 -0.269191 0.347458 0.368427 0.037313 0.439571 0.078843 0.617450 -0.313890 -0.008645 0.100030 -0.079044 0.392325 -0.153968 0.269631 -0.122331 0.136520 0.012735 0.071623 0.164448 0.438126 -0.397260 -0.211121 0.235498 0.175365 -0.046773 0.144200 -0.331788 0.328883 -0.141275 -0.437478 -0.271704 0.100389 0.186892 0.105635 0.006704 -0.293061 0.410632 -0.041963 -0.486828 -0.093922 -0.106839 -0.150621 -0.082224 0.084631 0.016623 -0.001922 0.717976 0.331653 
vNONHSAT007667.2 0.365554 -0.052647 -0.364948 0.396546 0.306314 -0.459295 -0.086435 -0.142644 0.302136 -0.004295 -0.264411 0.174636 -0.560481 0.031301 -0.190758 -0.090118 -0.214563 0.699157 -0.129875 -0.077065 -0.145534 -0.101564 0.196071 -0.097305 0.261844 0.146307 -0.204441 -0.009773 0.257055 -0.058577 0.305770 0.045021 -0.121811 -0.198750 0.167440 0.055823 -0.393037 -0.180658 -0.204328 0.406785 -0.180337 0.014995 -0.376183 0.317856 -0.485361 -0.271921 -0.372586 0.151067 -0.389529 0.501072 -0.258570 -0.018317 0.191285 -0.183779 -0.383811 0.110248 -0.162644 -0.219821 0.152778 -0.014835 0.105882 0.405997 0.460150 -0.114186 
vNONHSAT039675.2 0.272055 -0.048918 -0.263274 0.638015 0.045685 -0.129531 -0.196394 0.125997 0.217664 -0.024794 -0.084595 0.132955 -0.441762 -0.065991 -0.230949 -0.090436 -0.104327 0.342754 0.509201 -0.046606 0.044251 0.119160 0.104335 0.011546 -0.273484 0.054808 -0.244132 0.147138 -0.029625 -0.091555 0.174062 0.072078 -0.156485 0.030560 0.117687 0.077796 -0.154334 -0.130815 0.263837 0.105515 0.147229 0.030824 -0.226118 0.071996 -0.039507 0.059545 -0.093827 0.014248 -0.036018 0.174557 -0.019735 0.008475 0.285366 -0.199848 -0.408094 0.089039 0.131162 -0.106002 -0.115213 0.063390 0.209377 0.111570 0.142809 0.191245 
vNONHSAT001050.2 0.260761 0.000905 -0.289065 0.649459 0.091350 0.080309 0.011054 0.192469 0.222560 -0.045310 -0.054249 0.209572 -0.371746 -0.162212 -0.258572 -0.081105 -0.101030 0.431616 0.382151 0.044910 0.023663 -0.014728 0.260939 -0.064171 -0.332538 0.028591 -0.100670 0.086702 0.087452 -0.144896 0.287536 0.008232 0.107291 -0.104419 0.042980 0.067457 -0.225514 -0.007097 0.036736 -0.029263 0.183203 0.000057 -0.190204 0.236304 0.020687 -0.086493 -0.327102 0.113867 0.009130 0.126766 -0.084184 -0.016071 0.359863 -0.016155 -0.348088 0.063218 0.275424 0.042618 -0.178126 0.081145 0.252751 0.092420 0.103081 0.112346 
vNONHSAT122291.2 0.240620 -0.008355 -0.389988 0.603603 0.070043 -0.238919 -0.076867 0.075562 0.100820 0.029218 -0.078062 0.083123 -0.354517 -0.111627 -0.188370 -0.030176 -0.044956 0.490332 0.240005 -0.194162 0.040180 0.045200 0.329313 -0.015779 0.075034 -0.042910 -0.196537 0.211165 -0.017570 -0.090935 0.010289 0.148236 0.096164 -0.161021 0.091781 0.206092 -0.400843 -0.084136 -0.027394 0.198481 -0.086192 -0.016840 -0.178928 0.158147 -0.262330 -0.085187 -0.194082 0.006211 0.129363 0.072856 0.019763 0.207759 0.366351 0.022782 -0.253799 0.204375 0.137582 -0.028011 -0.139860 0.185205 0.326115 0.285610 0.090646 0.157661 
vNONHSAT070107.2 0.294419 0.137218 -0.339877 0.498246 0.087750 -0.096516 -0.089894 0.026108 0.281450 0.056959 -0.070222 0.175449 -0.350892 -0.168516 -0.358802 -0.069761 -0.236002 0.300974 0.398830 -0.065686 0.136413 -0.036594 0.276208 -0.110781 -0.128252 0.018235 -0.001231 0.067574 -0.042090 -0.024783 0.191287 0.188592 0.007326 -0.111339 0.049714 0.060866 -0.272936 -0.006724 -0.047948 0.002393 0.331095 0.061768 -0.174515 0.240129 -0.115485 -0.014728 -0.217031 0.059631 0.096626 0.263148 0.071346 0.001651 0.222873 -0.052049 -0.307965 0.128216 0.087905 0.081841 -0.200441 0.161948 0.123705 0.024663 0.187271 0.060042 
vNONHSAT052812.2 0.324558 0.304872 -0.573375 0.523751 0.168830 -0.451034 -0.070318 0.346878 0.107439 0.048408 0.261977 0.301747 -0.132044 0.244292 -0.274031 -0.048956 -0.088390 0.072958 0.577185 0.218610 0.020857 0.214401 0.280612 -0.417343 0.054722 -0.215998 0.006239 -0.440178 0.021153 -0.322286 0.188413 -0.183854 -0.123159 0.029020 -0.056461 0.117275 -0.344269 -0.185485 -0.210804 0.009442 0.092266 -0.208501 -0.043778 0.219466 -0.322255 0.097241 -0.369406 0.148770 0.137561 -0.057513 -0.084731 -0.277006 0.211553 -0.135960 -0.338565 0.162045 0.238705 -0.112538 -0.446413 0.584468 0.129410 -0.085242 0.480963 0.203930 
vNONHSAT049673.2 0.424263 0.121635 -0.496044 0.566105 0.553469 -0.252498 -0.148174 0.221339 -0.016482 -0.406722 -0.059144 0.326859 -0.226633 -0.146083 -0.617872 0.217411 -0.406924 -0.031604 0.516006 0.028023 -0.222877 0.666600 0.458986 0.076897 0.053447 -0.193512 0.020249 0.112982 -0.272569 0.335073 -0.260575 -0.269592 0.294200 -0.256888 -0.017039 0.001255 -0.144019 -0.105528 0.347685 0.137995 0.427785 -0.140467 -0.358920 -0.109242 -0.129872 0.030780 -0.130962 0.159692 -0.101933 0.463976 -0.143316 0.202795 0.313948 -0.366886 -0.273774 -0.253116 0.207440 0.050275 -0.177028 0.120055 0.370447 -0.090827 0.283570 -0.044182 
vNONHSAT123136.2 0.217430 -0.170817 -0.192339 0.517794 -0.124109 -0.445786 0.078210 0.208741 -0.013616 -0.308442 -0.050817 0.001199 -0.377246 -0.263339 -0.284706 0.120563 -0.379636 0.248063 0.307685 -0.134245 0.025075 -0.090795 0.331651 -0.304247 -0.376638 -0.213151 0.416725 0.359894 -0.296569 -0.409112 -0.025096 0.100194 -0.316525 -0.204416 0.146529 0.144504 -0.228426 -0.065039 -0.095650 0.229449 0.139066 -0.149601 -0.243960 -0.278235 0.020957 -0.323241 -0.577715 0.096863 -0.070472 0.278222 0.315756 -0.230818 0.646805 -0.041408 0.039823 0.269278 0.112114 0.144391 -0.311182 0.436012 -0.049336 0.706122 0.408540 -0.157688 
vNONHSAT137607.2 0.259551 0.205933 -0.302956 0.515719 0.199503 -0.011402 -0.094011 0.104583 0.135027 -0.019889 -0.106589 0.088951 -0.400878 -0.089932 -0.452222 -0.091966 -0.202774 0.266831 0.308737 -0.021362 0.098356 0.087003 0.207575 -0.142296 -0.177285 0.046821 -0.022934 -0.024631 0.015686 -0.089261 0.284416 0.109921 -0.036063 -0.018929 0.111358 0.026866 -0.271619 -0.150945 0.044254 -0.013466 0.346209 -0.057833 -0.247742 0.187300 -0.079024 -0.057514 -0.144148 0.115422 0.033265 0.223659 0.158232 0.074799 0.293933 -0.012041 -0.330648 0.121402 0.047963 0.089018 -0.093424 0.146810 0.170493 0.104374 0.111607 0.043542 
vNONHSAT031708.2 0.313636 0.076548 -0.404263 0.565474 0.148549 -0.137109 -0.164800 0.076489 0.072014 0.004250 -0.047151 -0.016167 -0.244937 -0.052925 -0.405221 -0.070210 -0.195905 0.289702 0.262755 -0.061926 0.002741 0.089620 0.217477 -0.110370 -0.118206 -0.042395 -0.060697 0.130765 -0.048147 0.045516 0.151347 -0.046499 0.029956 -0.116847 0.053372 0.179586 -0.328355 -0.072305 -0.052752 0.055286 0.161284 -0.018230 -0.294594 0.135568 -0.152514 -0.055279 -0.194246 0.042517 0.137961 0.303437 0.038730 0.018987 0.333959 0.051076 -0.206563 0.223906 0.164172 0.029956 -0.057351 0.110318 0.122414 0.039855 0.253606 0.122984 
vNONHSAT123138.2 0.239925 -0.084674 -0.158047 0.528792 -0.129876 -0.509335 0.143167 0.214015 -0.017561 -0.280680 -0.056909 -0.072719 -0.372701 -0.250735 -0.283306 0.011862 -0.370898 0.239836 0.363963 0.089878 -0.036000 -0.034670 0.159867 -0.301115 -0.263517 -0.216420 0.201095 0.321486 -0.274044 -0.408222 -0.039816 0.173034 -0.164756 -0.142340 0.210418 0.090307 -0.227190 -0.098811 0.024533 0.239578 0.193530 -0.115240 -0.191627 -0.259122 0.055342 -0.221455 -0.517655 0.028197 -0.103946 0.306539 0.267208 -0.090040 0.668002 0.040385 -0.079785 0.399659 0.190949 0.161755 -0.225789 0.427545 -0.045427 0.791902 0.310385 0.008215 
vNONHSAT135822.2 0.362239 -0.125351 -0.358153 0.574867 0.011681 -0.180699 -0.186597 0.122545 0.123071 -0.005530 0.064700 0.130326 -0.341089 -0.171154 -0.381241 -0.092468 -0.146977 0.164499 0.229160 -0.211378 -0.017652 0.127721 0.339238 -0.139175 -0.213529 0.064734 -0.024020 0.185719 -0.045857 -0.075366 -0.018560 0.011856 -0.136968 -0.026774 0.045018 0.154801 -0.376326 -0.113471 0.094908 0.037829 0.009189 0.037538 -0.337072 0.010552 -0.102666 -0.094392 -0.098869 0.066354 0.197303 0.313860 0.061731 -0.001123 0.160570 -0.254153 -0.260376 0.166113 0.193880 -0.008984 -0.140455 0.190051 0.147988 0.217412 0.231440 0.139418 
vNONHSAT079374.2 0.269671 -0.020072 -0.389331 0.556082 0.122461 -0.190022 -0.056950 0.125551 0.217662 -0.076471 0.031873 0.235789 -0.415976 -0.210837 -0.276799 -0.033996 -0.032379 0.590170 0.231726 -0.147195 0.100822 0.148047 0.286069 -0.042111 -0.004787 0.074487 -0.187517 0.218605 0.080831 -0.122495 0.087372 0.170563 0.032919 -0.128881 -0.061725 0.106993 -0.365309 -0.095927 0.197388 -0.114956 -0.067943 -0.054126 -0.103905 0.152726 -0.114800 -0.047138 -0.134540 -0.098497 -0.016086 -0.029380 -0.037988 0.036247 0.257187 -0.045152 -0.413930 0.142889 0.210075 0.096466 -0.166185 0.199676 0.306109 0.221918 0.033762 0.017073 
vNONHSAT054716.2 0.318969 -0.018038 -0.438782 0.517872 0.070525 -0.276322 -0.114311 0.095131 -0.003686 -0.025048 -0.085019 0.118560 -0.409391 -0.095788 -0.379029 0.039299 -0.018648 0.382821 0.202896 -0.280280 0.143448 0.113285 0.384338 -0.025255 0.172813 0.020094 -0.189253 0.186072 -0.096410 -0.150876 0.095486 0.082139 -0.130393 -0.047995 -0.005442 0.122628 -0.377795 -0.119234 0.053617 0.090763 0.060713 -0.048336 -0.263991 0.100875 -0.207749 -0.125944 -0.166011 -0.011099 0.136812 0.118498 -0.044953 0.083307 0.191304 -0.088510 -0.238002 0.136137 0.179089 0.035884 -0.070024 0.110967 0.382589 0.228713 0.094500 0.035635 
vNONHSAT060501.2 0.273866 0.005115 -0.380983 0.592250 0.044880 -0.193621 -0.202887 0.000235 0.060298 -0.007043 -0.034401 0.066255 -0.222806 -0.133358 -0.424269 -0.016025 -0.168263 0.163312 0.375106 -0.160505 0.010973 0.104685 0.322386 0.036795 0.012171 0.121850 -0.059261 0.159412 -0.023449 -0.067811 0.112159 0.021564 -0.132596 0.030451 0.087431 0.168533 -0.224394 -0.113595 0.060415 0.011868 0.108303 -0.093722 -0.297788 0.046840 -0.071207 -0.055408 -0.228175 0.090953 0.153404 0.284519 -0.013770 -0.044176 0.148899 -0.111178 -0.312976 0.157614 0.259122 -0.011832 -0.245128 0.099536 0.225846 0.180605 0.242814 -0.035138 
vNONHSAT114788.2 0.216782 -0.011746 -0.331050 0.664300 0.070706 -0.083381 -0.256252 0.108423 0.124188 0.040487 -0.114189 0.067416 -0.369474 -0.058598 -0.339164 -0.116476 -0.120682 0.311981 0.295974 -0.034427 -0.086672 0.106236 0.178233 0.020220 -0.131457 0.019031 -0.077575 0.107714 0.002941 -0.022240 0.094578 0.031049 0.079860 -0.142228 0.036236 0.084058 -0.241558 -0.061006 0.011317 0.110253 0.039734 -0.030003 -0.216670 0.115377 -0.073685 -0.118926 -0.258303 0.095700 0.148758 0.187819 -0.040260 0.050467 0.327962 -0.036881 -0.244642 0.202049 0.208167 -0.011150 -0.249977 0.179785 0.163333 0.307356 0.231308 0.079078 
vNONHSAT137571.2 0.248806 -0.038025 -0.250448 0.596492 0.011793 -0.098862 -0.201688 0.052338 0.204430 -0.096247 0.029375 0.101237 -0.384193 -0.194488 -0.486731 -0.081533 -0.170662 0.315408 0.293617 -0.133152 0.111496 0.079959 0.193924 -0.085716 -0.094675 -0.014312 0.036808 0.018387 -0.012358 -0.009648 0.050045 0.167102 0.049148 -0.106886 0.107117 0.004416 -0.299127 -0.130833 0.098546 0.058472 0.147952 0.044167 -0.219463 0.128500 -0.120710 -0.131392 -0.080370 0.005888 -0.024048 0.148155 -0.027364 -0.065265 0.208951 -0.187684 -0.358861 0.203175 0.245642 -0.029127 -0.114340 0.252794 0.174547 0.078319 0.160780 0.048954 
vNONHSAT011652.2 0.247200 0.014438 -0.394448 0.632671 0.133978 -0.306198 -0.098504 0.136180 -0.009766 -0.109436 -0.150799 0.131061 -0.406299 -0.076980 -0.209026 -0.039769 0.074785 0.505889 0.211543 -0.199812 0.065024 0.132594 0.331675 0.051663 0.072670 0.051103 -0.140908 0.263351 -0.090501 -0.134003 0.124211 0.157268 0.024572 -0.082347 -0.016997 0.159134 -0.380865 -0.103885 0.134582 0.086097 -0.093377 -0.133647 -0.167688 0.116356 -0.200875 -0.092027 -0.147982 -0.023994 0.085090 0.076578 -0.106904 0.062430 0.224168 -0.085583 -0.223733 0.159210 0.199856 -0.011539 -0.190967 0.070856 0.402091 0.302937 0.088852 0.051487 
vNONHSAT060973.2 0.256675 0.062437 -0.218499 0.625253 0.193983 -0.016317 -0.053716 -0.022406 0.096478 0.028107 -0.159444 0.034746 -0.308955 -0.002440 -0.325922 -0.148708 -0.179991 0.401154 0.388400 0.072341 0.103308 0.168787 0.100981 -0.176601 -0.239412 0.096379 0.005739 0.137925 -0.017712 -0.049454 0.173178 0.139143 0.103810 -0.063216 0.076408 0.109319 -0.224601 0.016456 -0.065168 0.131126 0.193523 0.038658 -0.180159 0.128680 -0.230952 -0.062385 -0.196798 0.074451 0.071178 0.200500 0.025708 0.111175 0.316218 0.001009 -0.416869 0.163107 0.159655 -0.091566 -0.105168 0.179778 0.235619 0.212829 0.214599 0.184484 
vNONHSAT139226.2 0.190604 -0.135059 -0.635179 0.821006 0.214740 -0.260171 -0.137070 0.090876 0.161031 0.023717 0.157537 0.037240 -0.462606 -0.015642 -0.211774 0.255012 -0.515955 0.417785 0.527066 -0.081383 -0.246829 0.404301 0.342208 0.148728 -0.037179 0.194015 -0.160109 -0.016757 -0.047118 0.433085 -0.167783 0.137153 0.219970 0.155961 0.278000 0.303696 -0.105770 -0.033911 -0.353834 0.311703 -0.170308 -0.016925 -0.077683 -0.169978 0.087863 -0.325963 -0.589988 0.116510 0.038536 0.120815 0.243541 0.063660 0.418483 -0.063860 -0.551441 0.156942 0.419956 -0.187136 -0.135416 0.238597 0.166055 0.064649 0.081054 0.244475 
vNONHSAT137627.2 0.343035 0.121191 -0.201225 0.573185 -0.029820 -0.017400 0.072776 -0.022221 0.124223 -0.102674 -0.022438 0.253312 -0.488365 0.047956 -0.395043 -0.419270 -0.428942 0.259744 0.402206 -0.218336 -0.180206 -0.082087 0.433941 0.072334 -0.137323 0.036764 0.079767 -0.104305 -0.024246 0.041603 0.140051 0.271679 0.006491 -0.086130 0.206668 0.032931 -0.074704 -0.261943 -0.161979 -0.175107 0.059863 0.019970 -0.371491 0.004566 -0.310764 0.218500 -0.326979 -0.291815 0.167846 0.316740 0.121106 -0.094316 0.463513 -0.176576 -0.247631 -0.098262 -0.045552 0.223935 -0.065384 0.358016 0.306381 -0.000716 0.264679 0.132232 
vNONHSAT031489.2 0.278223 0.005240 -0.317401 0.493854 0.031922 -0.236497 -0.143032 0.110916 0.238505 -0.023903 -0.086804 0.155955 -0.404451 -0.169623 -0.349042 -0.021439 -0.096766 0.521753 0.280299 -0.248836 0.050408 0.156190 0.254174 -0.140574 0.077939 -0.147429 -0.071118 0.138717 0.077403 -0.090944 0.102791 0.204313 0.036767 -0.001271 0.111740 -0.000895 -0.438442 -0.173526 0.033276 0.047017 0.059350 0.028555 -0.350577 0.141342 -0.277701 -0.110281 -0.090924 0.015884 0.070799 -0.039279 0.095963 0.127393 0.332540 0.050005 -0.271203 0.147298 0.102288 0.114249 -0.044109 0.204405 0.381790 0.149220 0.098229 0.004087 
vNONHSAT092772.2 0.334394 -0.119473 -0.405348 0.553118 0.163614 -0.266343 -0.074948 0.103364 0.005619 -0.108186 0.046261 0.063350 -0.297386 -0.063207 -0.204880 -0.263151 0.003238 0.259239 0.244705 -0.062395 -0.172680 0.168952 0.331749 -0.079969 -0.304724 0.147421 0.027861 0.275568 0.007347 -0.141510 0.002990 0.047495 0.020131 -0.104160 0.037489 0.114972 -0.337833 -0.150692 0.270378 0.048901 -0.071822 -0.023059 -0.306048 0.099922 -0.022730 0.002977 -0.058531 0.065987 0.164072 0.296516 0.094293 -0.027641 0.250501 -0.243015 -0.364019 0.224518 0.215825 -0.055893 -0.195287 0.170468 0.086971 0.293410 0.241835 0.158435 
vNONHSAT112849.2 0.292530 0.024006 -0.407154 0.542585 0.089358 -0.198744 -0.162633 0.023781 0.272051 0.014376 -0.001003 0.094590 -0.255838 -0.203362 -0.443636 0.039239 -0.216306 0.376443 0.342768 -0.187394 0.152494 0.110451 0.192936 -0.208090 -0.156572 0.022673 -0.051791 0.139727 -0.040498 0.026639 0.102955 0.178865 -0.034395 -0.048295 -0.036345 0.147161 -0.261896 0.001231 0.043732 -0.091590 0.097846 0.066728 -0.232550 0.113136 -0.145687 0.013688 -0.124549 -0.023083 -0.013983 0.275663 0.093883 -0.094630 0.304954 -0.108169 -0.354037 0.119204 0.127553 0.063336 -0.243206 0.137691 0.115416 -0.007202 0.140696 0.067696 
aP15514 -0.559829 -0.098166 1.407921 -0.964568 1.162550 0.156083 0.908607 1.617488 0.360005 0.202618 -0.587914 0.271512 0.538445 1.317037 -0.238247 0.244692 -0.100623 -0.369509 0.211872 -0.877713 0.278165 -0.626270 -0.290250 0.678568 -0.306715 -0.120756 -0.093746 0.470738 0.465423 0.056029 0.144092 0.402433 0.024706 0.371928 -0.211508 -0.099227 -0.257968 -0.275315 0.024584 0.352777 -0.048448 1.001860 0.395324 -0.351317 0.263941 0.198311 -0.266730 0.509613 0.105039 -0.173165 0.406939 0.007425 0.242918 -0.236559 -0.343357 0.207071 0.362570 0.298988 0.460097 0.254385 -0.208377 -0.449631 -0.074926 0.321634 
vNONHSAT049670.2 0.319365 0.226719 -0.486661 0.572713 0.388569 -0.233207 -0.168204 -0.094785 -0.035947 -0.240394 0.105050 0.175031 -0.578733 0.184591 -0.700349 -0.140893 -0.420279 0.244438 0.291441 0.023543 -0.124825 0.076780 0.504242 -0.287544 -0.181264 0.169786 -0.347691 0.046365 -0.181931 0.169126 0.114046 0.272311 -0.395851 0.348194 0.173513 0.082920 0.077686 0.054527 -0.347785 -0.062402 -0.096679 0.038185 -0.591630 0.543221 -0.145836 -0.229916 0.090478 0.035065 0.187751 -0.015889 -0.178032 -0.157688 0.396020 -0.269827 -0.264033 0.213833 0.551176 0.352628 -0.095669 0.086942 -0.561429 0.423921 -0.089092 0.128825 
vNONHSAT000091.2 0.306894 -0.019287 -0.338399 0.669784 -0.027586 -0.094869 -0.144305 0.156926 0.072682 -0.049704 0.002260 0.067929 -0.314070 -0.169292 -0.391825 -0.047322 -0.182631 0.152162 0.307569 -0.185040 0.070313 -0.057425 0.356486 0.016685 -0.086237 -0.056841 -0.231614 0.009210 -0.062681 -0.043043 0.032579 0.105901 -0.034514 0.095605 0.237929 0.097197 -0.295690 -0.231008 0.053858 0.094598 0.059145 -0.000746 -0.199011 0.073362 0.015111 -0.048853 -0.211573 0.134564 0.106444 0.304326 0.030707 -0.047369 0.176984 -0.179547 -0.297250 0.311388 0.253757 -0.056252 -0.144245 0.085528 0.244546 0.076058 0.171411 0.100745 
vNONHSAT121718.2 0.303137 0.051910 -0.408522 0.570938 0.094851 -0.153374 -0.162014 0.077652 0.104871 0.074202 -0.037671 -0.065566 -0.237230 -0.128784 -0.420686 -0.060032 -0.189380 0.255717 0.253683 -0.050288 0.015587 0.077814 0.179731 -0.151810 -0.080640 -0.077128 -0.126270 0.118082 -0.029542 0.004958 0.022722 0.012131 0.010572 -0.072324 0.086160 0.237068 -0.319592 -0.118073 -0.063336 0.096214 0.127489 0.053227 -0.302539 0.136504 -0.176842 -0.047454 -0.179922 0.022371 0.147481 0.287634 0.049004 0.068909 0.366305 -0.008272 -0.287997 0.251623 0.206282 0.030407 -0.084651 0.116929 0.128043 0.112612 0.214636 0.197786 
vNONHSAT044002.2 0.264896 0.035227 -0.393738 0.643651 0.083082 -0.130022 -0.143667 0.260214 0.162177 0.036069 -0.069989 0.076411 -0.423707 -0.137888 -0.277130 -0.159284 -0.115104 0.260380 0.361855 -0.029533 0.088175 0.035029 0.198799 0.026403 -0.177671 0.046484 -0.325254 0.120272 -0.062089 -0.144679 0.047483 0.156493 0.040254 -0.050911 0.088072 0.089062 -0.147230 -0.096107 0.158428 0.098424 -0.029463 0.003371 -0.125564 0.054292 -0.034504 0.001944 -0.170373 0.075055 0.068872 0.272173 -0.000601 0.061884 0.319811 -0.241581 -0.316211 0.172202 0.181552 -0.071069 -0.204667 0.047460 0.196268 0.295496 0.139261 0.066145 
vNONHSAT098243.2 0.237788 0.084370 -0.379389 0.598533 0.087418 -0.078384 -0.164711 0.066123 0.134752 -0.021945 -0.088672 0.115852 -0.395773 -0.023180 -0.382873 0.047166 -0.144412 0.339011 0.426898 -0.130031 0.030616 0.137121 0.151472 -0.141074 -0.199631 0.005350 0.104674 0.130230 -0.109813 0.027750 0.181025 0.069396 -0.083792 0.023531 0.125433 -0.044724 -0.277044 -0.142246 0.058584 0.016495 0.228138 0.040499 -0.319531 0.149457 -0.151682 -0.058964 -0.192303 0.040148 -0.026273 0.173519 0.038823 -0.077710 0.217169 0.025992 -0.218778 0.100581 0.068791 0.017437 -0.171864 0.136033 0.212242 0.031644 0.186833 0.015891 
vNONHSAT129017.2 0.226016 0.561139 -0.403498 0.509852 0.293162 -0.135854 -0.058622 -0.101643 0.268708 0.156857 -0.396047 0.102782 -0.499133 0.106495 -0.236967 -0.225814 -0.215172 -0.175789 0.801856 -0.387065 -0.186692 -0.299595 0.647519 -0.095486 -0.299898 -0.128768 -0.135836 -0.063228 -0.210028 0.024743 0.208800 -0.268570 0.174520 -0.117205 -0.008896 0.184423 -0.609025 0.017235 0.131523 0.147233 0.175715 0.251244 -0.340876 -0.238840 -0.023124 -0.223638 -0.700295 -0.022393 -0.212352 -0.186911 -0.104249 0.262520 0.072629 -0.218389 -0.433830 0.034462 0.237988 0.205506 -0.092172 -0.320826 0.068551 -0.140902 0.293989 -0.319533 
vNONHSAT125784.2 0.189850 -0.310881 -0.191805 1.154350 0.081409 -0.121326 -0.281815 0.109407 0.216650 0.130686 0.097516 -0.174735 -0.570541 0.012615 -0.268122 -0.376863 0.005385 0.248748 0.057542 0.404165 0.051576 -0.415518 0.260903 -0.029997 -0.148109 -0.000902 -0.163363 0.101557 -0.362527 0.267954 -0.212753 0.073011 0.173850 -0.244919 -0.215338 0.115232 -0.617504 0.041735 -0.145090 0.018819 0.158271 -0.322983 -0.473527 0.108370 -0.361974 -0.057626 -0.136332 0.170507 -0.373031 0.199989 0.280966 0.183522 0.311310 0.096274 -0.304208 -0.053221 -0.033696 -0.086679 -0.462412 0.363450 0.092018 0.165597 0.122216 -0.034430 
vNONHSAT123220.2 0.399803 0.141623 -0.238024 0.532471 0.116810 -0.312642 -0.145795 0.209810 0.125140 -0.069278 -0.133471 0.144194 -0.155345 -0.225535 -0.359671 -0.243355 -0.162862 0.383208 0.376320 0.019145 -0.115986 0.012754 0.108668 -0.064508 -0.058547 -0.176985 0.069172 0.207635 0.088095 -0.088554 0.111747 0.092413 0.072435 0.106481 0.182430 -0.088361 -0.340019 -0.122792 0.088879 -0.160049 0.237605 0.069237 -0.312987 0.284856 -0.093984 0.111935 -0.226084 0.000629 0.206804 0.047450 0.310028 -0.016316 0.226343 -0.189830 -0.372368 0.221644 0.273082 -0.064844 0.059344 0.072446 0.084053 -0.078868 0.216673 -0.124588 
vNONHSAT057058.2 0.268268 0.086346 -0.376964 0.599534 0.063401 -0.115115 -0.212196 0.058402 0.059191 -0.051943 -0.031257 0.006282 -0.349864 -0.054018 -0.339597 0.013283 -0.099978 0.206483 0.367278 -0.061433 0.060897 0.084317 0.289561 0.044627 0.050240 -0.089121 0.215206 0.040525 0.028636 0.037698 0.136503 0.199109 0.018993 0.065459 -0.094569 -0.069996 -0.364472 -0.053208 0.125516 0.025058 0.333398 0.167144 -0.385786 0.209672 -0.121982 -0.073493 -0.273573 0.032955 0.145924 0.169224 0.066303 -0.057946 0.181427 -0.142280 -0.256984 0.155225 0.256182 -0.206428 -0.131770 0.159038 0.265988 0.251918 0.161690 -0.002460 
vNONHSAT000090.2 0.505834 0.351624 -0.369356 0.638337 -0.258449 -0.051754 -0.206995 0.478180 0.069310 0.203094 -0.009550 0.443279 -0.352802 -0.114275 -0.126938 -0.378668 0.142075 -0.200163 0.174836 -0.392923 -0.203324 0.010202 0.687562 -0.106039 -0.305764 -0.082559 0.118875 0.308713 0.282418 -0.012962 0.300386 -0.226259 0.139464 0.138144 0.477586 -0.042932 -0.473661 -0.271962 -0.052333 -0.226175 0.199313 -0.050419 -0.516066 0.181379 0.140030 0.255250 -0.024557 0.186814 0.208880 0.290784 0.012322 0.322067 0.057292 -0.195561 -0.628764 0.369193 0.056378 0.047953 -0.178077 0.340937 0.328446 0.049840 0.518555 0.109103 
vNONHSAT033428.2 0.187689 -0.101913 -0.242686 0.630931 0.070024 -0.209812 -0.033039 -0.010331 0.110231 -0.036708 -0.022552 0.076248 -0.393586 -0.165184 -0.349557 -0.163163 0.018064 0.286078 0.407978 0.000127 0.127348 0.167531 0.227844 0.075163 -0.183661 0.090095 0.082931 0.141551 -0.026451 -0.080387 0.092956 0.282248 0.018605 -0.008550 0.009452 0.039191 -0.217809 -0.059273 0.199690 0.076124 0.113677 0.082858 -0.175690 0.126205 -0.097669 -0.034601 -0.079016 -0.034645 0.012009 0.206291 -0.040019 -0.074656 0.254657 -0.288445 -0.410889 0.088425 0.392529 -0.113202 -0.288110 0.090321 0.292127 0.267247 0.150023 0.081700 
vNONHSAT135582.2 0.129253 0.145698 -0.350931 0.564266 0.085748 -0.286326 0.080550 -0.219806 0.180263 -0.073795 -0.100692 0.110977 -0.207973 -0.073597 -0.408766 0.019543 -0.135879 0.189449 0.312446 0.076081 0.013856 0.229251 0.203047 0.062798 0.043028 -0.173152 0.047874 0.100604 -0.155390 -0.183061 0.190302 0.484060 -0.156065 -0.049095 0.237094 0.049242 -0.354490 -0.001201 0.083820 -0.012179 0.271680 0.124478 -0.411236 0.013829 -0.169443 -0.111983 -0.034670 0.204413 0.205475 0.534050 0.283189 0.057043 0.222066 0.129261 -0.500924 0.393822 0.192352 0.005666 -0.224076 0.189350 0.069314 -0.079635 0.197079 0.197893 
vNONHSAT005306.2 0.142203 0.022205 -0.327409 0.531016 0.230162 0.099338 -0.099829 0.190191 0.087906 0.127505 -0.206033 0.281317 -0.530698 -0.250925 -0.098766 -0.093342 -0.488120 0.265685 0.376272 -0.437046 0.012909 0.059562 0.343975 -0.079044 -0.109148 -0.064634 -0.069476 -0.097999 -0.212690 -0.041356 0.213363 0.124055 0.038958 0.039325 0.108399 -0.055544 -0.399794 -0.267098 0.070439 -0.035971 0.255980 0.052672 -0.286826 0.314537 0.007119 0.030135 -0.127146 -0.271317 -0.096674 0.300309 -0.078451 -0.031167 0.220235 -0.020692 -0.234544 0.357265 0.027146 0.084960 -0.376946 0.270837 0.021699 -0.043372 0.171411 0.108927 
vNONHSAT066071.2 0.264001 -0.043929 -0.412755 0.588470 0.149919 -0.277659 -0.080853 0.086767 0.000061 0.003575 0.001328 -0.059159 -0.322744 -0.087028 -0.296812 -0.232766 -0.000661 0.247333 0.318882 0.024299 -0.068981 0.182445 0.194088 0.024254 -0.099241 0.124777 -0.120694 0.182120 0.000835 -0.130004 0.026144 0.122428 0.026794 -0.060089 0.061012 0.157782 -0.211478 -0.123450 0.277375 0.121314 0.034770 0.008721 -0.243667 0.082434 0.000953 0.034331 -0.136174 -0.041671 0.127551 0.299502 0.003680 0.035888 0.310892 -0.172271 -0.414951 0.214741 0.257255 -0.047907 -0.237070 0.072048 0.157169 0.376352 0.134111 0.124301 
vNONHSAT030969.2 0.169848 -0.079436 -0.258749 0.640334 0.036389 -0.094956 -0.172865 0.035265 0.172596 0.041440 -0.082652 0.207068 -0.367373 -0.146796 -0.346042 -0.111118 -0.143426 0.425762 0.308930 -0.048832 -0.032755 0.145984 0.134834 -0.140228 -0.247561 0.064958 -0.032883 0.106424 0.033746 -0.019704 0.080488 0.150453 0.065716 -0.116989 0.163582 -0.029160 -0.228943 -0.105283 0.086262 0.055066 0.118170 0.041849 -0.280011 0.198044 -0.080247 -0.042335 -0.224232 0.040059 -0.028805 0.069147 0.025748 -0.017037 0.352567 -0.030579 -0.377717 0.058136 0.225602 0.001535 -0.220852 0.234318 0.214504 0.186275 0.136113 0.156282 
vNONHSAT068119.2 0.202331 -0.175493 -0.329409 0.539383 -0.005641 -0.198391 -0.144513 -0.034242 0.161182 -0.057847 -0.022001 0.039133 -0.422804 0.001312 -0.421338 -0.151914 0.046275 0.167786 0.535935 -0.134949 -0.046741 0.215766 0.227815 -0.050831 -0.173624 0.024567 -0.074701 0.063478 -0.063216 -0.158781 0.166378 0.182376 -0.175677 0.165812 0.069726 0.140481 -0.240085 -0.171098 0.284573 0.111273 0.121797 0.113254 -0.312245 0.012895 0.044477 -0.097930 -0.090670 -0.044349 0.013695 0.229006 -0.043362 -0.063372 0.255743 -0.237061 -0.393980 0.023096 0.290018 -0.056311 -0.088583 0.008399 0.246827 0.091380 0.155627 0.108568 
vNONHSAT072984.2 0.180669 -0.058375 -0.164294 0.759714 0.099772 -0.141527 -0.193395 -0.093288 -0.012873 -0.067920 -0.037273 0.117254 -0.101670 -0.233773 -0.330723 0.098181 -0.378484 0.376098 0.492236 -0.313005 0.090625 0.060752 0.069556 -0.139831 -0.193640 -0.049455 -0.194793 0.110351 0.025539 -0.073079 0.106384 0.012045 -0.180211 0.115021 0.092729 0.340593 -0.333018 0.089106 -0.183577 0.136509 0.261999 0.154163 -0.242285 0.056827 -0.296699 -0.078881 -0.100824 0.159202 0.057977 0.156764 0.111354 0.030131 0.564782 0.026735 -0.303581 0.308130 0.216397 0.017507 -0.194033 0.247907 0.144403 0.031648 0.148406 0.120602 
vNONHSAT097093.2 0.275180 0.045988 -0.352962 0.613185 0.038084 -0.133770 -0.247812 0.076727 0.085555 -0.000649 -0.033418 0.033506 -0.331491 -0.065445 -0.459536 0.000664 -0.181069 0.174533 0.266507 -0.163937 0.088602 0.193012 0.256445 -0.038376 -0.073948 0.051859 -0.131779 0.138425 -0.071852 -0.045425 0.145899 0.032998 -0.098197 -0.070909 -0.057210 0.127946 -0.239099 -0.086187 0.062031 0.000452 0.147718 -0.054555 -0.269681 0.020944 -0.142891 -0.123541 -0.163560 0.011685 0.152190 0.290287 -0.012448 -0.026978 0.213495 -0.172728 -0.278982 0.106850 0.211333 -0.043975 -0.167324 0.054000 0.206317 0.244665 0.168064 0.086955 
vNONHSAT054162.2 0.393164 0.060541 -0.397599 0.503095 -0.006452 -0.326702 -0.247668 0.045965 0.368827 0.140119 -0.062631 0.160165 -0.317309 -0.110278 -0.301868 -0.122706 -0.199847 0.294997 0.266257 -0.220840 -0.114712 0.236341 0.228809 -0.045467 -0.423294 -0.308993 -0.010194 0.293688 0.081180 0.063124 0.128017 0.220690 0.119855 -0.001062 0.042289 -0.055960 -0.469843 -0.039758 0.155766 -0.042174 -0.010516 0.021968 -0.522820 0.237974 -0.249857 -0.029379 -0.086962 0.216036 0.082959 0.304941 0.338117 -0.003762 0.261276 0.025441 -0.141459 0.009805 0.161817 -0.169194 -0.013227 0.201974 0.196830 -0.034270 0.170941 0.158408 
vNONHSAT000825.2 0.302776 -0.144001 -0.310331 0.589081 0.064515 -0.184734 -0.183525 0.073566 0.138832 0.005179 0.015601 0.180962 -0.347995 -0.144243 -0.178196 -0.239211 -0.067706 0.297797 0.316860 -0.126079 -0.246680 0.062796 0.347415 -0.072481 -0.291103 0.098473 0.035472 0.195039 0.075830 -0.051080 -0.080842 0.012564 0.083484 -0.068504 0.106096 0.121170 -0.340189 -0.079406 0.104817 0.172361 -0.029330 0.022132 -0.327974 0.138537 -0.048918 -0.074765 -0.130376 0.138090 0.204025 0.156260 0.070390 0.076421 0.282671 -0.152880 -0.268620 0.209072 0.185014 -0.041677 -0.301789 0.267982 0.093414 0.346680 0.226539 0.166596 
vNONHSAT126295.2 0.266523 0.000415 -0.269228 0.608613 0.112889 -0.174044 -0.123158 0.048697 0.188095 0.041575 -0.046800 0.083846 -0.384690 -0.190350 -0.427924 0.060590 -0.077138 0.306396 0.385899 -0.110053 0.154517 0.114192 0.136701 -0.184355 -0.212342 0.101149 0.010982 0.147428 -0.086538 0.010065 0.142116 0.125822 -0.114731 0.058991 0.099985 0.077008 -0.200137 -0.048114 0.060946 0.051411 0.151342 0.071865 -0.292714 -0.014396 -0.241839 -0.004295 -0.151653 -0.012881 0.028425 0.246422 0.003220 -0.007539 0.207146 -0.187731 -0.283205 0.101896 0.138485 0.014475 -0.211636 0.068309 0.262059 0.092712 0.239099 0.125921 
vNONHSAT112119.2 0.033291 -0.006358 -0.295218 0.609296 0.119675 0.043611 -0.006898 -0.081306 -0.005229 -0.054830 -0.191162 0.141109 -0.441752 -0.253614 -0.228594 -0.080136 -0.552672 0.459655 0.426036 0.145456 -0.471415 -0.010758 0.300530 0.104762 -0.466512 0.208453 0.096348 0.300811 -0.182915 -0.307635 0.032742 -0.224589 0.249563 -0.247890 0.167686 0.309461 -0.397125 -0.326802 0.102122 0.406089 -0.616879 0.070618 -0.404615 0.131538 -0.050840 0.138122 -0.149098 0.353214 0.458005 -0.150629 0.099593 -0.055216 0.110617 -0.265848 -0.563825 0.455175 0.115274 -0.096303 -0.498250 0.129165 0.187299 0.124446 0.076878 0.051769 
vNONHSAT072962.2 0.392514 -0.089099 -0.336123 0.474526 0.166894 -0.220928 -0.126356 0.093493 0.047015 -0.050270 0.088960 0.069911 -0.286228 -0.127962 -0.261188 -0.235492 -0.118404 0.222802 0.237831 -0.098162 -0.199367 0.116646 0.379691 -0.170092 -0.208256 0.005232 0.080383 0.165202 0.045877 -0.049950 -0.073511 -0.074073 -0.063437 -0.054635 0.111667 0.201886 -0.402414 -0.142089 0.084703 0.093958 0.114801 0.040719 -0.397874 0.107824 -0.077745 -0.052196 -0.082536 0.092087 0.307544 0.233465 0.139694 0.088118 0.221151 -0.140392 -0.260470 0.236069 0.158468 0.042318 -0.100631 0.218809 0.027120 0.165794 0.289882 0.141686 
vNONHSAT028908.2 0.279003 0.030655 -0.197300 0.632393 0.162646 -0.078474 -0.002009 0.009488 0.041757 -0.133988 0.161435 0.124186 -0.287291 0.053900 -0.429428 -0.427415 -0.577662 0.164448 0.182659 0.026940 -0.208013 0.030181 0.519610 -0.000184 0.058655 0.084395 0.133526 0.110588 -0.200655 0.067823 0.181348 0.187703 0.023669 0.011541 0.117888 0.082344 0.045109 -0.195498 -0.120397 -0.210647 0.311735 0.201162 -0.369732 0.120680 -0.365846 0.122852 -0.103574 -0.305351 0.078367 -0.006655 0.098533 -0.028965 0.513762 -0.017879 -0.316034 0.164088 0.142752 0.275424 -0.028327 0.348604 0.538730 0.166507 0.394969 0.022960 
vNONHSAT034472.2 0.317090 0.039832 -0.436536 0.499991 0.166899 -0.217623 -0.107714 0.101892 -0.040608 -0.069485 0.036858 -0.014721 -0.275762 -0.042542 -0.414186 -0.122910 -0.037363 0.228793 0.331741 -0.062542 -0.033169 0.134566 0.285723 -0.053186 -0.043432 0.087488 -0.004238 0.184705 -0.083559 -0.105018 0.171615 -0.003535 -0.128856 -0.072171 -0.019575 0.141684 -0.294144 -0.153085 0.169815 -0.049245 0.152831 -0.065995 -0.293574 0.047057 -0.031654 -0.018883 -0.161845 -0.024499 0.140389 0.337978 -0.002658 -0.075695 0.210771 -0.153352 -0.323388 0.176825 0.201284 0.034126 -0.138847 0.066480 0.133042 0.159696 0.231785 -0.008435 
vNONHSAT102816.2 0.199379 0.017255 -0.353209 0.629132 0.078789 -0.184029 -0.187919 0.029523 0.052066 0.035951 -0.055449 0.030011 -0.357259 -0.053218 -0.358910 -0.163219 -0.039851 0.229341 0.354289 -0.079168 -0.015716 0.158294 0.221304 0.069463 -0.101147 0.143741 -0.114124 0.160316 0.016659 -0.115493 0.139003 0.101587 0.028440 -0.149306 -0.048277 0.099047 -0.165221 -0.040791 0.161283 0.088122 0.110668 -0.096116 -0.188696 0.058248 -0.010952 -0.089949 -0.187538 0.025687 0.119746 0.258599 -0.027776 -0.032703 0.296604 -0.185711 -0.354767 0.113801 0.210086 -0.126676 -0.315626 0.119344 0.196490 0.399377 0.132707 0.063249 
vNONHSAT080206.2 0.265971 -0.003115 -0.434749 0.652856 0.016006 -0.260864 -0.135006 -0.038080 0.107730 0.022673 0.037670 0.039922 -0.175203 -0.152086 -0.336152 0.011555 -0.163862 0.178018 0.376854 -0.193449 0.049769 0.028487 0.342002 -0.012916 -0.052632 0.024066 -0.109785 0.267714 -0.012267 -0.033065 0.075018 0.080401 -0.048246 0.025119 0.066283 0.228621 -0.300680 -0.133440 0.056692 0.019455 -0.050564 -0.046534 -0.256445 0.073648 -0.076388 0.048222 -0.167497 -0.020366 0.110748 0.416245 0.041340 -0.115529 0.219441 -0.126323 -0.347387 0.145444 0.277563 -0.020496 -0.193311 0.075862 0.208346 0.070397 0.225896 0.038058 
vNONHSAT095521.2 0.244890 -0.063662 -0.372962 0.747867 -0.026563 -0.087458 -0.169544 0.054803 0.021410 -0.144477 0.083929 0.040232 -0.203396 -0.123576 -0.418257 0.001850 -0.141781 0.191297 0.323662 -0.203905 0.030145 0.022236 0.295078 -0.002745 -0.046379 -0.017277 -0.065085 0.101003 -0.053148 -0.054704 0.041323 0.087669 -0.038345 0.093325 0.152103 0.111292 -0.349725 -0.210624 0.066974 0.048803 -0.059022 -0.036082 -0.267306 0.038734 -0.013344 -0.118070 -0.168237 0.102608 0.057558 0.295381 -0.021237 -0.098250 0.185144 -0.138061 -0.310726 0.324506 0.282773 -0.049065 -0.135214 0.090065 0.230068 0.055791 0.194640 0.024374 
vNONHSAT036719.2 0.204597 -0.000875 -0.404223 0.454513 0.884308 -0.130122 -0.082605 -0.187819 -0.331978 -0.265279 -0.187907 -0.401343 -0.171787 0.064698 -0.151119 -0.497866 0.134296 0.371937 0.399191 0.372708 -0.055915 -0.045627 -0.137030 -0.199931 -0.925479 0.065103 -0.183518 0.142799 0.135777 0.282364 0.004427 0.470075 0.572954 -0.415576 -0.008116 0.467494 -0.153219 -0.516682 0.387884 0.133350 -0.090259 -0.260620 0.197888 0.598348 0.242087 0.338492 -0.331071 -0.210014 -0.143086 -0.290604 -0.191414 0.325457 0.455375 -0.200879 -0.363829 0.426717 0.207898 -0.513324 -0.007070 0.052846 0.396849 1.116078 0.510567 0.278843 
vNONHSAT012887.2 0.243183 -0.028229 -0.297551 0.556705 0.002216 0.040315 -0.100555 0.031683 0.212090 -0.054972 0.020524 0.058406 -0.431081 -0.077106 -0.629181 0.001425 -0.069181 0.186502 0.382612 -0.066884 0.119308 0.031018 0.193091 -0.149552 -0.186190 -0.016403 0.074214 0.065201 -0.075740 -0.089951 0.159245 0.136481 -0.054155 0.161005 0.152931 0.062881 -0.264419 -0.228601 0.083943 0.053368 0.030747 0.073397 -0.323905 0.101664 -0.145537 -0.235753 -0.168588 0.043098 0.018093 0.277794 0.035429 0.053366 0.228602 -0.038697 -0.293363 0.119819 0.204527 -0.017668 -0.110310 0.145775 0.325117 0.138288 0.132271 0.082467 
vNONHSAT027801.2 0.371559 -0.053646 -0.278671 0.518910 0.082471 -0.223283 -0.169860 0.107933 0.143631 -0.093852 0.000817 0.175920 -0.401562 -0.158355 -0.284776 -0.178903 -0.166514 0.197763 0.403506 -0.163596 -0.057613 0.137000 0.404691 -0.019075 -0.241323 -0.033842 0.318499 0.280092 0.023273 -0.060691 0.214552 0.025970 -0.182734 -0.017682 -0.159531 0.047785 -0.515302 -0.190757 0.077833 -0.008623 0.154858 -0.124770 -0.373197 0.205838 -0.099326 -0.128925 -0.277579 0.204466 0.178211 0.135180 -0.009389 0.038088 0.329188 -0.023154 -0.146269 0.039727 0.082873 0.010394 -0.034260 0.335823 0.094933 0.102256 0.195025 0.021318 
vNONHSAT037119.2 0.362472 0.006004 -0.318713 0.528019 0.002052 -0.157441 -0.078248 0.023406 0.312817 -0.069192 0.147766 0.131229 -0.312030 -0.247299 -0.480670 0.035299 -0.332716 0.370433 0.235987 -0.142255 0.121698 0.125033 0.188186 -0.097913 -0.150925 -0.066728 0.021738 0.174400 0.091359 0.041109 0.094989 0.169333 0.050350 -0.244857 -0.039729 0.207320 -0.346837 0.021173 -0.008716 -0.051792 0.043532 0.085602 -0.105513 0.167762 -0.046890 -0.146782 -0.104553 -0.028272 -0.038835 0.218581 0.051792 -0.066386 0.398708 -0.026640 -0.303439 0.237426 0.315345 0.070215 -0.220090 0.184714 0.185986 -0.135885 0.205434 0.038459 
vNONHSAT125847.2 0.259333 0.005621 -0.359427 0.570224 0.095464 -0.163868 -0.218454 0.085178 0.188656 -0.027901 0.070062 0.153105 -0.367397 -0.184942 -0.422191 -0.024069 -0.187844 0.325114 0.375609 -0.152120 0.122099 0.174225 0.153062 -0.093646 -0.164443 0.022300 -0.045311 0.188257 -0.055530 -0.022532 0.083619 0.168927 -0.127361 -0.063934 -0.003645 0.048287 -0.287808 -0.082529 0.149998 -0.094039 0.099375 -0.016739 -0.246777 0.073017 -0.082595 -0.034399 -0.140200 -0.066302 0.000690 0.260062 0.014451 -0.079593 0.243603 -0.175645 -0.355722 0.160918 0.162023 0.048257 -0.140715 0.155232 0.161727 0.078172 0.164007 0.010663 
vNONHSAT052826.2 0.217090 0.407095 -0.531870 0.579311 0.309301 -0.450607 -0.068085 0.321712 0.048299 -0.061213 0.212392 0.206051 -0.155666 0.303005 -0.234925 -0.135678 -0.109827 0.061612 0.587970 0.363715 0.035568 0.288001 0.252036 -0.495424 0.099744 -0.171117 0.068300 -0.434420 0.008337 -0.363055 0.253386 -0.140089 -0.109571 0.003426 0.041026 0.119669 -0.365539 -0.188133 -0.248641 -0.111813 0.179136 -0.157012 -0.005416 0.169185 -0.391264 0.086281 -0.253466 0.173417 0.116297 -0.067543 0.005833 -0.264785 0.273566 -0.147837 -0.455416 0.191353 0.251352 -0.052520 -0.307448 0.560636 0.170350 -0.071862 0.418100 0.214285 
vNONHSAT054915.2 0.258574 -0.062977 -0.375655 0.621103 0.003586 -0.045493 0.025086 -0.031565 0.226533 -0.064268 0.067014 0.082965 -0.237442 -0.126997 -0.400027 -0.001879 -0.074580 0.293713 0.323200 -0.123605 0.114229 -0.063821 0.319239 -0.150007 -0.194520 -0.015445 0.067150 0.142406 0.002714 -0.124273 0.216285 0.166739 0.035814 -0.020742 0.044221 0.185265 -0.346684 -0.013491 0.005382 0.054790 0.136727 0.146209 -0.264822 0.240771 -0.071551 -0.110457 -0.181199 -0.069747 0.077907 0.302147 -0.056358 -0.111048 0.328716 -0.087717 -0.405973 0.019604 0.312466 -0.045074 -0.098579 0.063018 0.247065 -0.020377 0.110543 0.113486 
vNONHSAT006360.2 0.293708 -0.016195 -0.392307 0.687729 0.021628 -0.246071 -0.233025 0.086090 0.215757 0.095621 -0.064827 -0.075874 -0.285585 -0.190280 -0.402515 0.023181 -0.161718 0.200796 0.241448 -0.121426 0.164397 0.123761 0.218885 -0.047554 -0.087457 0.003835 -0.180951 0.157256 -0.115064 -0.033573 0.009800 0.129865 -0.054683 -0.025110 0.020829 0.242520 -0.270570 -0.034315 -0.007899 0.077414 0.004261 0.018836 -0.221849 0.050458 -0.192933 -0.032272 -0.122869 -0.059790 0.127974 0.360320 0.027499 -0.006514 0.238101 -0.219966 -0.229473 0.120750 0.263023 0.000298 -0.163672 0.030146 0.202803 0.163919 0.186715 0.210496 
vNONHSAT028579.2 0.229640 -0.109790 -0.350348 0.673333 -0.031001 -0.174570 -0.139663 -0.028040 0.063808 -0.077469 0.091012 0.029344 -0.235350 -0.174484 -0.409280 -0.064696 -0.112295 0.143739 0.332560 -0.168549 0.002019 -0.017870 0.340108 0.033531 0.060245 0.032718 -0.024744 0.088394 0.014099 -0.058517 0.008250 0.139796 -0.053425 0.127524 0.204017 0.170234 -0.347212 -0.198694 0.099488 0.094996 0.042759 -0.014647 -0.278625 0.056463 -0.048941 -0.113555 -0.143791 0.030875 0.153089 0.280719 -0.025929 -0.054114 0.160489 -0.144036 -0.321337 0.253925 0.315939 -0.031244 -0.205655 0.109284 0.221876 0.154677 0.208481 0.004357 
vNONHSAT123513.2 0.355604 -0.024148 -0.417354 0.534352 0.031543 -0.141260 -0.197094 0.095375 0.210601 -0.010887 0.002751 0.185838 -0.227670 -0.116601 -0.312036 -0.098198 -0.261714 0.281784 0.228253 -0.189215 -0.052432 0.040768 0.349628 -0.180634 -0.299070 -0.021225 0.035220 0.202345 -0.026130 -0.010792 -0.016879 0.016183 0.021956 -0.071089 0.038657 0.197783 -0.418766 -0.039173 -0.071055 0.088088 -0.095277 0.048404 -0.337678 0.116349 -0.213294 -0.103405 -0.142560 0.105242 0.222254 0.282792 0.146160 0.049643 0.245363 -0.102256 -0.182116 0.201978 0.131265 0.003449 -0.071283 0.246557 0.107826 0.116012 0.326710 0.185135 
vNONHSAT108289.2 0.194767 0.053008 -0.269484 0.538359 0.110499 -0.095430 -0.176087 -0.152113 0.039148 -0.181613 0.144046 0.328741 -0.283708 0.064781 -0.272309 -0.252543 -0.218379 0.222910 0.420963 -0.085024 0.163324 0.082699 0.330514 0.009837 -0.125675 -0.052262 0.169946 0.083490 0.080925 -0.073551 0.063449 0.250788 0.060169 0.154071 0.085951 -0.026458 -0.327599 -0.179848 0.236447 0.056932 -0.009882 0.139583 -0.125545 0.088688 -0.072548 0.018902 -0.301055 0.029560 0.103175 0.356627 -0.004689 -0.049430 0.248177 -0.058141 -0.484437 0.183203 0.266067 -0.130222 -0.287618 0.357170 0.364821 0.235202 0.212039 -0.064294 
vNONHSAT072980.2 0.233227 -0.045274 -0.379337 0.462623 0.066863 -0.073034 -0.127847 -0.050173 0.138172 -0.092543 0.006231 0.138755 -0.328802 -0.039602 -0.467935 -0.081022 -0.127822 0.309069 0.433067 -0.107979 0.074270 0.069334 0.252361 -0.045089 -0.143503 0.070200 0.172163 0.079864 -0.082183 -0.068609 0.190686 0.160069 -0.038145 -0.052573 0.044676 0.008027 -0.303546 -0.102214 0.101180 0.060882 0.183557 0.025433 -0.124099 0.193449 -0.095921 -0.076405 -0.150612 0.002212 0.033181 0.259212 -0.087037 -0.098776 0.171068 -0.179834 -0.396923 0.116197 0.207281 -0.052828 -0.059349 0.151156 0.230363 0.069586 0.264425 -0.038809 
vNONHSAT125791.2 0.042031 0.236102 -0.626402 0.945937 -0.084234 -0.508551 -0.021755 0.279097 -0.178119 0.210226 -0.010331 0.374850 -0.470546 -0.329141 -0.384547 -0.060467 -0.252753 0.005472 0.369484 -0.073301 -0.160059 -0.171041 -0.166596 0.238644 -0.523482 -0.017606 -0.166339 0.499087 0.337343 -0.076916 0.005485 -0.044638 0.169973 -0.002063 0.112398 0.231084 -0.303098 -0.398355 -0.664096 -0.049890 0.205659 0.005728 -0.346604 0.214689 -0.464508 -0.186582 -0.088000 0.118749 -0.105668 0.213274 0.116878 -0.071956 0.222839 0.129800 -0.359671 0.581455 0.151917 -0.122422 -0.286703 0.144488 0.515557 0.163821 0.250765 0.409184 
vNONHSAT094546.2 0.336206 0.086381 -0.319342 0.479145 0.007519 -0.536507 -0.139334 -0.176388 0.270160 -0.127369 -0.119649 -0.182026 -0.251167 -0.293066 -0.718416 -0.161711 0.154917 -0.225112 0.168724 -0.474471 0.038648 -0.128292 0.358550 0.018073 -0.133422 0.058090 -0.100618 0.183360 -0.026534 -0.314913 0.234583 0.320365 0.231855 -0.045372 0.008794 -0.160069 -0.022633 0.137062 -0.097804 0.172034 -0.080219 0.217109 -0.518421 0.291070 -0.217666 -0.173030 -0.146360 -0.528970 0.405500 0.549856 0.157073 -0.094692 0.223650 -0.331646 -0.438428 0.658790 0.208176 0.103657 -0.080738 0.014131 0.333395 0.091552 0.210756 0.254583 
vNONHSAT052809.2 0.204409 0.385736 -0.593334 0.634677 0.198932 -0.509316 -0.082076 0.361340 0.081526 -0.017522 0.261279 0.309634 -0.117146 0.267112 -0.255460 -0.027771 -0.110051 0.053462 0.595354 0.293043 -0.018133 0.232688 0.292574 -0.421510 0.070453 -0.231149 0.007792 -0.420615 0.069735 -0.313522 0.184098 -0.194531 -0.152848 0.027039 0.000853 0.106832 -0.333188 -0.210298 -0.268447 -0.097461 0.121057 -0.199123 0.014210 0.185681 -0.409112 0.132748 -0.375565 0.186461 0.082559 -0.087701 -0.066374 -0.278749 0.184299 -0.087691 -0.421645 0.206043 0.202802 -0.123367 -0.358721 0.552217 0.117689 -0.068307 0.434602 0.237919 
vNONHSAT138147.2 0.370448 0.028103 -0.330025 0.449276 0.191149 -0.150814 -0.128421 0.053048 -0.036376 -0.110726 0.060854 0.097716 -0.251797 -0.015039 -0.299054 -0.225688 -0.123581 0.253026 0.234407 -0.157629 -0.201231 0.127856 0.416961 -0.197562 -0.233066 0.065291 0.141769 0.140226 0.044910 -0.046528 0.119488 -0.146434 -0.026251 -0.135410 -0.000939 0.129781 -0.403341 -0.134213 0.058361 0.014328 0.178245 -0.057118 -0.404038 0.076257 -0.086871 -0.111611 -0.113422 0.130121 0.284589 0.229571 0.159250 -0.010164 0.196561 -0.118592 -0.267114 0.208630 0.109619 0.015322 -0.088901 0.226378 0.046240 0.144842 0.306029 0.108552 
