NONHSAT113149.2 -0.070872 0.008817 0.041570 0.296439 0.244411 0.244088 0.363112 -0.475977 -0.274964 -0.271620 0.035316 0.144824 -0.266497 -0.043692 0.122281 0.004049 0.123072 0.237500 -0.216704 0.105263 0.233440 0.162460 -0.119879 0.000571 -0.514550 -0.480777 -0.035493 -0.103131 0.100638 0.308136 0.390198 0.596488 -0.201731 0.096929 -0.095106 0.051119 0.052693 -0.351216 -0.495091 -0.427711 -0.074855 -0.108581 0.172570 0.083184 -0.629589 0.107197 0.068335 0.054461 -0.287545 0.009455 0.383104 0.152084 -0.229245 0.159512 0.200725 0.236573 -0.378734 0.723337 -0.192109 -0.523556 0.028317 0.025387 -0.460876 0.042050 0.231494 0.400568 -0.221637 0.444050 0.124918 0.018563 -0.037763 -0.014727 0.089657 -0.214065 -0.430765 0.134074 -0.299160 0.076629 -0.372583 -0.226895 -0.232251 0.296822 0.330734 0.177270 0.014115 0.162821 0.246410 -0.321627 -0.024853 -0.092517 0.148103 0.010112 -0.123283 0.150355 0.345974 -0.105942 -0.123028 -0.139450 0.006830 -0.083158 -0.160715 -0.352834 -0.203954 -0.466201 0.108420 -0.156014 -0.394387 0.077417 -0.475265 -0.322690 -0.123145 0.108137 0.119610 0.163090 -0.021375 -0.117060 0.213044 -0.136013 -0.490553 0.199983 0.301426 0.052413 -0.361584 0.107039 0.385054 0.033452 0.208725 -0.070296
NONHSAT130962.2 0.269350 -0.034293 0.191101 0.190606 0.131069 0.027200 0.046821 0.127166 -0.170984 -0.056213 -0.148887 -0.061639 -0.149230 0.202546 0.088118 0.185054 0.111120 -0.125903 -0.054326 0.047640 0.078534 0.065359 0.027767 0.058553 -0.304487 0.060497 0.041409 -0.025101 -0.042664 -0.142433 0.093578 0.420421 -0.190537 -0.187041 -0.050720 -0.289070 -0.031607 -0.378022 -0.258720 -0.444205 0.076595 -0.099411 0.051528 0.113565 -0.308519 0.201877 0.115793 0.116319 -0.438306 0.028506 0.145946 0.047988 -0.276160 0.068173 0.398859 -0.201124 -0.273733 0.360981 -0.260586 -0.304993 0.026516 -0.137598 -0.572602 -0.021910 0.798074 0.201485 0.188972 0.554877 0.520406 -0.016213 -0.556377 0.128454 0.052465 -0.097255 0.211191 -0.063391 -0.479839 0.148141 -0.385157 -0.028317 -0.364981 0.232899 0.156277 -0.085428 -0.074244 -0.255135 0.248436 -0.001116 -0.487358 0.103877 -0.276481 -0.161720 -0.280165 -0.423410 -0.402584 0.211066 -0.203219 -0.289006 0.191198 0.012115 -0.373053 -0.286653 0.054840 0.349344 0.418445 -0.306303 -0.212638 0.036180 -0.487256 -0.083137 -0.285707 -0.148449 0.692822 0.312700 -0.003579 -0.360024 0.170618 0.601782 -0.217214 0.216630 0.470789 -0.210439 -0.114565 -0.093994 0.274393 -0.159922 -0.086602 -0.087603
NONHSAT036719.2 -0.175316 0.190413 -0.030856 0.447471 0.190150 -0.314988 -0.271993 0.031252 -0.002400 -0.308960 -0.072647 0.317984 -0.091539 0.040881 0.286764 -0.497203 0.103632 -0.000434 0.159200 0.441417 0.120295 0.233322 -0.406456 -0.089881 -0.575540 -0.249170 0.060930 -0.152725 0.056025 0.403571 0.004325 0.446769 -0.178547 0.013024 -0.201866 -0.192770 -0.296696 -0.094975 0.078140 -0.496961 0.912954 0.524193 0.089617 0.060828 -0.735907 0.250997 -0.126309 0.017163 -0.696561 -0.316952 0.400420 0.239544 -0.027655 0.056903 0.235558 0.252736 -0.287616 0.346607 -0.185271 -0.400691 0.079621 -0.261179 -0.570363 -0.370712 0.204597 -0.000875 -0.404223 0.454513 0.884308 -0.130122 -0.082605 -0.187819 -0.331978 -0.265279 -0.187907 -0.401343 -0.171787 0.064698 -0.151119 -0.497866 0.134296 0.371937 0.399191 0.372708 -0.055915 -0.045627 -0.137030 -0.199931 -0.925479 0.065103 -0.183518 0.142799 0.135777 0.282364 0.004427 0.470075 0.572954 -0.415576 -0.008116 0.467494 -0.153219 -0.516682 0.387884 0.133350 -0.090259 -0.260620 0.197888 0.598348 0.242087 0.338492 -0.331071 -0.210014 -0.143086 -0.290604 -0.191414 0.325457 0.455375 -0.200879 -0.363829 0.426717 0.207898 -0.513324 -0.007070 0.052846 0.396849 1.116078 0.510567 0.278843
NONHSAT017465.2 -0.135662 -0.560926 0.071122 0.392354 -0.570819 -0.330146 0.179588 -0.022719 -1.033482 -0.281542 -0.050474 0.570810 0.525926 0.389625 0.637469 0.700404 -0.013444 -0.232932 0.182822 -0.218330 0.695195 0.156913 0.104032 0.020136 -0.547663 0.058016 -0.043949 0.985467 0.323252 -0.019092 0.037182 0.786972 0.260365 -0.302466 0.176076 -0.732809 0.205284 -0.946856 -0.168125 -0.716282 -0.404801 -0.285272 -0.064895 -0.115199 -0.517979 0.471646 0.345286 -0.009812 -0.677544 -0.947079 0.474735 0.563929 -0.510511 0.158768 0.463476 -0.325734 -0.599516 0.980660 -0.980596 -0.167961 -0.657669 0.749398 -0.611233 0.568854 -0.107787 0.176829 -0.562904 0.748567 0.076245 -0.047710 0.034121 0.038444 0.111460 0.065188 0.484780 0.371553 -0.153099 -0.097377 -0.773378 -0.214752 -0.306472 -0.065031 0.588175 0.068170 -0.268497 0.125254 0.137349 -0.337812 0.141983 0.198144 0.300864 -0.032352 0.462018 -0.400229 0.259019 -0.092192 0.249264 -0.251454 0.186268 -0.038974 -0.368832 -0.018097 0.282811 -0.103685 0.243760 -0.228513 -0.150803 -0.455178 -0.229669 0.071621 -0.200623 -0.547142 0.069876 0.389448 0.349699 0.158503 0.367838 0.439457 -0.380365 0.028096 -0.273822 -0.422045 0.119082 0.194864 0.098068 -0.082412 0.387291 -0.294072
NONHSAT026096.2 0.303787 -0.196473 0.015530 0.127614 0.489379 0.000494 0.087263 -0.008572 -0.136961 0.110076 -0.087026 -0.170079 -0.208911 0.128713 0.108066 0.405512 0.289109 0.106133 -0.285627 0.264649 0.064974 0.094320 -0.177920 0.050227 -0.217110 -0.153598 -0.509879 -0.469931 -0.133288 -0.164112 0.337297 0.708519 -0.410312 -0.198970 0.086220 -0.218321 0.172583 0.029691 0.020459 -0.424876 -0.165686 0.024864 0.236926 0.060896 -0.547028 0.075126 0.121523 0.089740 -0.205635 0.420847 -0.017189 -0.381784 -0.284453 0.189849 0.753532 -0.302297 -0.343069 0.263553 -0.306411 -0.459767 0.098920 -0.074705 -0.530334 -0.293773 -0.039763 0.172383 -0.315474 0.759197 -0.177651 0.396279 -0.755962 0.089800 0.065539 -0.165247 -0.198815 -0.248040 -0.830394 -0.461129 -0.456826 0.000683 -0.775586 0.309618 -0.233256 -0.181508 0.059795 0.277601 0.157615 -0.146115 -0.257746 0.209913 -0.298996 0.439581 -0.276617 0.220325 -0.061101 0.158844 -0.287314 -0.195574 0.487437 0.144423 -0.511005 -0.045979 -0.108489 -0.041837 0.324085 0.268009 -0.027714 -0.095945 -0.304436 -0.315813 0.067618 0.465210 -0.193836 0.538332 0.132157 0.709521 0.497003 0.078827 0.023777 0.234961 0.300936 0.338068 0.146669 -0.267844 0.455348 0.469225 -0.093017 0.401805
NONHSAT021830.2 0.293745 -0.153047 -0.094567 0.282130 0.162589 0.036536 -0.179584 -0.051873 0.127351 -0.038593 -0.030947 0.293070 -0.370205 0.273241 0.107741 0.037314 0.037064 0.013794 -0.008955 0.226636 0.201822 0.116122 -0.023176 0.102822 -0.235469 -0.328300 -0.083274 0.022463 -0.191546 0.075153 -0.066872 0.115074 -0.330222 -0.107239 -0.192231 -0.267764 -0.242121 -0.173437 -0.246786 -0.628491 -0.039442 -0.143527 0.048344 0.275877 -0.274679 0.177095 0.321632 0.215326 -0.185719 0.022415 0.209336 0.214002 -0.163183 -0.036777 0.574851 -0.203700 -0.384290 0.431020 -0.133499 -0.032079 -0.152266 -0.208368 -0.787961 -0.061932 0.200124 -0.119845 -0.094285 0.813653 -0.232641 -0.295176 0.015947 0.322186 -0.269391 -0.023307 0.057575 0.112554 -0.147945 0.235416 -0.407425 0.067148 -0.134124 0.277030 0.360957 -0.377512 -0.076612 0.042374 0.461663 -0.138550 -0.032724 -0.077763 -0.046935 -0.047103 -0.094298 0.077343 0.306317 0.389565 0.104188 -0.183284 0.033982 0.372819 -0.213960 -0.210816 0.291940 0.001215 0.146226 -0.203222 -0.041371 0.290767 -0.474506 -0.119558 -0.259206 0.100537 0.145865 0.351553 0.172130 0.451204 -0.020774 -0.392719 -0.574676 0.419028 0.319403 0.203359 -0.268832 -0.243448 0.139593 0.125579 0.019044 0.150041
NONHSAT041921.2 0.302908 -0.105314 -0.097613 0.169903 0.039724 -0.009558 -0.188902 0.193965 0.069611 -0.124500 -0.084737 0.362943 -0.334915 0.212099 0.109576 0.086297 0.154267 -0.109002 -0.123597 0.288041 0.064649 0.117407 -0.184265 0.100587 -0.229246 -0.520795 -0.141256 0.000132 -0.104730 0.006571 -0.043756 0.161372 -0.429617 0.038576 -0.250105 -0.268266 -0.317087 -0.208027 -0.352931 -0.494447 -0.072495 -0.195933 0.113819 0.309841 -0.272248 0.298561 0.269127 0.256219 -0.186848 0.031048 0.231386 0.174204 -0.272174 -0.024529 0.505854 -0.203938 -0.401776 0.313164 -0.149183 -0.016527 -0.168548 -0.290708 -0.737596 -0.072333 0.244089 0.016913 -0.328797 0.525317 0.158727 -0.172325 0.044288 0.028538 0.040160 -0.039029 -0.114434 0.086568 -0.463934 -0.094898 -0.256861 -0.069778 -0.002377 0.351268 0.365439 0.010743 0.255946 0.127503 0.303215 -0.093306 -0.136119 0.045949 0.044489 0.186432 -0.132270 -0.071184 0.281813 0.299245 -0.015538 0.021841 0.074672 -0.041984 -0.273334 -0.199964 0.018757 0.112603 0.121159 -0.034165 -0.192027 0.169742 -0.199827 -0.002784 -0.134600 0.068803 0.056413 0.166753 0.008456 0.097157 0.254393 -0.138958 -0.284192 0.086612 0.102370 -0.077747 -0.050219 0.136880 0.304445 0.146947 0.059094 0.143562
NONHSAT104991.2 0.188457 -0.142664 -0.037357 0.213265 0.127432 0.080191 -0.169633 0.001212 0.084977 -0.017821 -0.031750 0.243953 -0.393829 0.275417 0.080749 0.071107 0.104819 0.040874 0.019635 0.260155 0.144238 0.115178 -0.019957 0.146820 -0.238374 -0.354896 -0.115155 -0.033861 -0.115089 0.090572 -0.113694 0.154807 -0.407109 -0.057850 -0.157209 -0.266039 -0.232214 -0.229388 -0.273055 -0.547253 0.014156 -0.156523 -0.030110 0.262686 -0.273502 0.081196 0.255039 0.245767 -0.229725 0.019405 0.208572 0.202997 -0.146051 0.019841 0.575850 -0.193495 -0.335809 0.473662 -0.156872 -0.033046 -0.170078 -0.255806 -0.720087 -0.049625 0.507806 0.262477 -0.485446 0.797787 0.248516 -0.022895 -0.285915 0.098497 0.220001 -0.072483 -0.226939 0.080772 -0.200365 0.159836 -0.575277 -0.290431 0.251003 0.504868 0.326357 -0.149384 -0.021671 0.354794 0.350775 -0.017510 0.334708 -0.078792 0.129114 0.561812 -0.141189 -0.166508 -0.174002 0.124748 -0.401879 -0.240622 0.065090 0.400072 -0.229153 -0.115258 -0.211026 0.257492 -0.071701 0.452626 -0.118821 0.123506 0.052939 0.070293 -0.426468 -0.125739 -0.010810 0.072014 0.260537 0.166594 -0.098757 0.069639 -0.429635 0.481610 -0.351884 0.069327 -0.473044 0.141111 0.168955 0.183854 -0.190649 0.306892
NONHSAT138142.2 0.109402 -0.065923 -0.105401 0.179008 0.197558 0.099432 -0.225159 0.195748 0.091826 0.026184 -0.183691 0.020578 -0.397216 0.198332 0.102110 0.083460 -0.182966 -0.100516 -0.051810 0.177473 0.028195 0.148995 -0.236435 0.088780 -0.317576 -0.232396 -0.120896 -0.066460 -0.196336 0.003171 -0.118254 0.018977 -0.373214 -0.033561 -0.152006 -0.308043 0.038305 -0.062176 -0.268952 -0.583204 0.015205 -0.128493 -0.058757 0.253251 -0.372584 0.305527 0.183657 0.169599 -0.094020 0.062343 0.261557 0.207639 -0.347058 0.087768 0.380146 -0.151471 -0.477987 0.403367 -0.007858 -0.145129 -0.107415 -0.211238 -0.714115 -0.038105 0.309548 -0.093322 -0.351419 0.655179 0.024051 -0.203996 0.092580 0.091872 0.385226 -0.055450 -0.088122 0.100305 -0.250326 -0.184875 -0.198016 -0.028891 -0.115088 0.353657 0.176237 -0.147126 -0.004944 0.104059 0.423456 -0.169877 -0.194060 0.116625 -0.148050 0.197802 0.068765 -0.261307 0.121938 0.169368 0.008950 -0.013588 -0.032183 0.254693 -0.414393 -0.019639 0.141759 -0.091902 0.063682 0.082462 -0.286936 0.327754 -0.160990 -0.074341 -0.190439 -0.023548 0.125797 0.073139 0.095605 0.084639 0.280179 0.059845 -0.393469 -0.080968 0.144166 0.011823 -0.144881 0.169809 0.294416 0.201580 0.012086 0.164214
NONHSAT056046.2 0.118481 -0.244956 -0.014039 0.282009 0.124835 0.087164 -0.197362 0.065717 0.031056 0.022705 0.014268 0.161118 -0.338004 0.259785 -0.031381 0.020932 0.080907 0.086166 0.040868 0.113941 0.213158 0.207528 -0.067813 0.064335 -0.133097 -0.320490 -0.118694 -0.165889 -0.050316 0.076373 -0.111908 0.207569 -0.384794 -0.095530 -0.123507 -0.309922 -0.185020 -0.229185 -0.299904 -0.540604 -0.035261 -0.037363 0.061443 0.257591 -0.224512 0.070848 0.357309 0.288746 -0.190718 -0.003205 0.257211 0.142067 -0.193797 -0.005647 0.456184 -0.196790 -0.250346 0.464783 -0.158905 -0.062989 -0.183459 -0.288855 -0.667005 -0.142144 0.359782 0.030378 -0.165778 0.666663 0.153779 -0.129222 -0.072874 0.026147 0.073433 0.064338 -0.026020 -0.026730 -0.349324 -0.103101 -0.093605 0.037344 -0.187053 0.330793 0.539161 -0.235469 -0.289665 0.215772 0.190040 -0.117720 -0.300475 0.065084 -0.091135 0.248891 0.027045 -0.192647 0.131412 0.262323 -0.199747 0.231368 -0.105688 0.246220 -0.026118 0.042329 -0.121841 0.038699 0.028462 0.223078 -0.195195 0.289090 -0.278177 -0.276356 -0.239935 0.168230 0.164516 0.292376 -0.154256 0.033865 0.156260 0.039015 -0.505014 0.130110 0.118631 -0.129548 -0.058403 0.379896 0.232321 0.069543 0.297253 -0.004936
NONHSAT001511.2 0.151459 -0.216231 0.021998 0.183042 0.181934 0.124440 -0.210263 0.179970 -0.019523 -0.000025 -0.092560 0.184520 -0.332922 0.211431 0.068835 -0.057682 -0.057273 -0.064477 -0.039812 0.040097 0.118120 0.136880 -0.220505 0.088496 -0.150848 -0.339994 -0.108734 -0.197145 -0.148537 0.079122 -0.166877 0.252908 -0.358739 -0.032605 -0.242603 -0.363526 0.010687 -0.228926 -0.273196 -0.438912 0.007413 -0.101431 0.051435 0.146400 -0.345018 0.227395 0.243020 0.184552 -0.165216 0.088238 0.221104 0.129857 -0.301675 0.016757 0.316687 -0.217271 -0.366077 0.460086 -0.121809 -0.107975 -0.194889 -0.273994 -0.613987 -0.072150 0.261538 0.048720 -0.318132 0.492711 0.117364 -0.230783 -0.133633 0.001548 0.215610 -0.043157 -0.108776 0.120468 -0.422998 -0.139343 -0.349623 0.017147 -0.074545 0.443788 0.359021 -0.148552 0.185953 0.102747 0.271592 -0.074869 -0.036386 0.021086 -0.010097 0.127751 -0.018333 -0.018015 0.124710 0.231837 0.047689 -0.107364 -0.021840 0.100281 -0.266164 -0.115193 0.055208 0.050252 0.124052 -0.055078 -0.194959 0.157073 -0.197376 0.010974 -0.137963 -0.067752 0.019667 0.038373 0.090748 0.037353 0.201334 -0.074582 -0.346135 0.110016 0.114173 0.042703 -0.119613 0.221438 0.313712 0.182172 0.170245 0.051204
NONHSAT137541.2 0.521977 -0.315121 0.189886 0.165759 0.151891 -0.067435 -0.030555 0.014740 -0.072140 0.000058 0.012879 0.364334 -0.254250 0.334623 0.006492 0.079363 0.147734 0.087188 -0.017652 0.095785 0.273404 0.297847 0.062223 0.040077 -0.114413 -0.526003 0.057968 -0.158368 -0.163274 0.097040 0.020834 0.414797 -0.220552 0.025906 -0.195565 -0.425141 -0.327652 -0.136037 -0.248704 -0.346354 -0.205177 -0.061903 0.063659 0.112808 -0.278425 0.178851 0.288343 0.529973 -0.220403 0.025214 0.257799 0.413278 -0.180610 -0.177570 0.393749 -0.200220 -0.365312 0.286794 -0.337100 -0.219917 -0.138004 -0.455031 -0.765994 -0.158656 0.345987 0.022344 -0.278090 0.526712 0.107627 -0.127300 0.122198 0.039593 0.070471 -0.133974 -0.071141 0.091965 -0.354676 -0.106887 -0.386167 0.081993 -0.033761 0.354099 0.420812 -0.128882 0.247437 0.054863 0.388269 -0.053656 -0.117281 -0.013696 -0.093193 0.116902 0.023258 -0.166612 0.240384 0.067428 -0.092469 0.105507 0.069955 0.164855 -0.281695 -0.193584 0.044347 0.008363 0.145107 -0.036359 -0.215840 0.096611 -0.218423 -0.067780 -0.065579 0.070942 0.006014 0.124247 0.068586 0.056004 0.278115 0.051599 -0.423109 0.121129 0.188235 0.013618 -0.012901 0.107102 0.359967 0.042887 0.060731 0.123841
NONHSAT009703.2 0.093904 -0.178880 -0.031287 0.208089 0.224867 0.124005 -0.191896 0.155112 0.012950 0.056793 -0.143408 0.034404 -0.317679 0.126124 0.048745 0.034085 -0.056807 -0.043297 -0.014446 -0.052764 0.127520 0.212600 -0.230975 0.011952 -0.094739 -0.244122 -0.101368 -0.264988 -0.070818 0.056066 -0.221522 0.190655 -0.321306 -0.019910 -0.139643 -0.307672 0.091563 -0.208659 -0.272953 -0.490242 -0.013115 -0.033417 -0.036281 0.172357 -0.366803 0.155410 0.187640 0.212520 -0.219284 0.005898 0.265381 0.175280 -0.313375 0.030380 0.302296 -0.239852 -0.385152 0.522362 -0.117302 -0.228238 -0.191683 -0.278785 -0.606518 -0.068878 0.260190 0.001106 -0.289444 0.577413 0.124031 -0.119103 -0.120040 0.004733 0.247463 -0.000784 -0.049026 0.172875 -0.307194 -0.179890 -0.307067 -0.063859 -0.219031 0.372784 0.280626 -0.071623 0.076824 0.124599 0.297237 -0.110952 -0.255444 0.105787 0.059743 0.147764 0.028567 -0.065825 0.096964 0.182194 0.039898 -0.125999 -0.048478 0.083480 -0.296461 0.004300 0.055181 -0.046924 0.202573 0.079239 -0.250278 0.201028 -0.125479 -0.015415 -0.192979 0.040766 0.050758 0.188067 0.078932 -0.040869 0.193490 -0.123925 -0.347158 0.093404 0.224033 -0.024931 -0.217071 0.234818 0.186902 0.191077 0.194903 0.080331
NONHSAT131038.2 0.313541 -0.207530 0.139615 0.175844 0.149773 0.381758 -0.145750 0.115848 0.017190 0.060463 -0.078040 0.439070 -0.205624 0.147136 0.178439 -0.008634 -0.061633 -0.023324 -0.109492 0.130022 0.228144 0.173334 -0.250108 0.128057 -0.039412 -0.201145 -0.010173 -0.331798 0.032448 0.228866 0.035632 0.469625 -0.153968 0.105031 -0.171843 -0.244489 0.068958 -0.347590 -0.411731 -0.542432 0.057714 0.064926 -0.013615 0.012395 -0.438691 0.173018 0.196162 0.127877 -0.337145 0.042770 -0.044545 0.308968 -0.235197 0.048407 0.514959 -0.299746 -0.376482 0.195268 -0.141628 -0.036275 -0.177731 -0.431717 -0.630680 -0.003451 0.236614 0.031993 -0.373599 0.654354 0.092712 -0.154256 -0.106854 0.056096 0.032077 -0.015607 -0.096865 -0.051405 -0.286209 -0.035212 -0.406616 -0.141146 -0.127165 0.272058 0.234439 -0.000224 0.021550 0.138299 0.210975 -0.015383 -0.110681 0.034554 -0.058909 0.127565 -0.081512 -0.083118 0.130037 0.112248 0.145191 -0.111798 0.050855 0.135689 -0.279173 -0.082809 0.056312 0.123481 0.065530 -0.004282 -0.200545 0.112375 -0.105825 -0.087635 -0.171346 0.068462 0.093774 0.273507 0.024859 0.004928 0.308455 -0.089652 -0.306158 0.199742 0.238874 -0.064116 -0.160462 0.126959 0.209044 0.229298 0.191059 0.186038
NONHSAT027070.2 0.218363 -0.155542 0.104770 0.195734 0.208206 0.094504 -0.148844 0.098020 -0.097574 0.015625 -0.081582 0.269323 -0.310388 0.160923 -0.054853 0.032317 0.067206 0.016889 -0.014583 0.005493 0.182841 0.124600 -0.115573 -0.014704 -0.133823 -0.366452 -0.076292 -0.306573 -0.161586 0.108170 -0.132182 0.251220 -0.251081 -0.050041 -0.179409 -0.319298 -0.129737 -0.316697 -0.335156 -0.441377 -0.098349 -0.229627 -0.020261 0.117445 -0.404107 0.132816 0.219054 0.191294 -0.153132 0.022229 0.174778 0.213849 -0.235057 0.019520 0.483716 -0.221077 -0.381008 0.422506 -0.198434 -0.116030 -0.108056 -0.351683 -0.675984 -0.076131 0.325566 0.076730 -0.445678 0.510679 0.131422 -0.280719 -0.059070 0.046660 0.008714 -0.018813 -0.099555 0.013083 -0.311172 -0.062749 -0.366420 -0.012225 -0.077180 0.380140 0.200219 -0.201671 0.148724 0.110897 0.368427 -0.073158 0.105311 -0.004905 -0.155481 0.191711 -0.095853 -0.089520 0.111782 0.098483 -0.066922 -0.072296 0.002596 0.202158 -0.377433 -0.103958 -0.018083 0.054771 0.102505 -0.059393 -0.228316 0.092879 -0.231405 -0.074831 -0.128903 -0.039544 0.144296 0.205052 0.018221 0.095936 0.260245 -0.027380 -0.229334 0.170519 0.156554 0.017090 -0.022257 0.114895 0.300454 0.158927 0.121442 0.078530
NONHSAT084827.2 0.303384 -0.154503 0.106297 0.162522 0.107636 -0.081713 -0.192033 0.211046 -0.053913 -0.109700 -0.078764 0.214873 -0.312152 0.388445 0.090832 -0.116972 -0.002890 -0.081193 -0.016207 0.147817 0.034591 0.087313 -0.312090 -0.017700 -0.275328 -0.409766 -0.134885 -0.219613 -0.209934 -0.019336 -0.119621 0.314903 -0.288049 0.035201 -0.191387 -0.365396 -0.129132 -0.242654 -0.349582 -0.375750 -0.032457 -0.061087 0.277767 0.209780 -0.287873 0.435525 0.429987 0.275509 -0.112827 0.060308 0.161335 0.262705 -0.342607 0.015390 0.343146 -0.149755 -0.402769 0.310948 -0.174636 0.011710 -0.201976 -0.331057 -0.744380 -0.189844 0.342127 -0.053829 -0.627572 0.499514 -0.072339 -0.284928 -0.177026 0.245776 -0.135188 -0.230221 -0.012240 0.080550 -0.264007 -0.168499 -0.314424 -0.156203 -0.031790 0.227137 0.353801 -0.125443 -0.159739 0.325098 0.641624 0.004164 -0.136663 0.161364 -0.046296 0.019470 0.076653 -0.312300 -0.148013 0.550349 0.080352 0.195273 0.466463 0.259858 -0.540964 0.290511 0.234858 0.187649 0.005474 -0.478305 -0.434065 -0.181842 -0.302919 0.256659 -0.194386 0.096121 0.094631 -0.172591 -0.171039 -0.208724 0.248090 -0.007381 -0.408244 0.501953 0.081393 0.152988 -0.019025 -0.027936 0.470303 0.160371 0.076223 0.130166
NONHSAT078782.2 0.224291 -0.469075 0.589896 0.080067 0.114685 0.188877 -0.369281 0.291470 -0.270233 -0.260836 0.081110 -0.093499 -0.335195 0.497272 0.109718 0.114352 -0.228064 0.125655 0.077029 -0.209241 0.284507 0.272125 -0.385758 -0.526836 -0.056052 -0.167734 0.047425 -0.527461 0.047436 0.106620 0.098838 0.382533 -0.159304 -0.340372 0.086137 -0.445450 0.118445 0.015689 -0.416842 -0.280782 -0.213218 0.407456 0.322843 0.121411 -0.137077 0.158116 0.243995 0.440149 -0.355715 -0.258972 0.175420 0.461166 -0.402493 -0.154481 0.120321 0.012938 -0.600765 0.406523 -0.205439 -0.403700 -0.044147 -0.388119 -0.796306 -0.189584 0.397520 0.024545 -0.370156 0.536332 0.180891 -0.284445 0.030464 0.170310 0.021892 -0.034178 -0.108038 0.195056 -0.383661 -0.095942 -0.118877 -0.173554 -0.042630 0.459059 0.218077 -0.187510 -0.028391 0.023666 0.415868 -0.109315 -0.124215 -0.054218 -0.159026 0.205874 0.012671 -0.099635 0.029448 0.116063 0.108128 -0.095716 0.082963 0.153631 -0.456394 -0.118547 0.035507 0.172808 -0.051735 -0.007263 -0.176648 0.184527 -0.135343 -0.025507 -0.152452 0.104249 0.170529 0.091284 0.096695 0.179703 0.286079 -0.079236 -0.272592 0.244951 0.074690 -0.008106 -0.055564 0.192968 0.233690 0.165775 0.132939 0.207655
NONHSAT042032.2 0.232909 -0.148870 -0.053025 0.161916 0.135098 0.052047 -0.190525 0.127832 0.025136 -0.190777 -0.218820 0.081896 -0.464096 0.399141 0.064896 0.027346 -0.092229 0.011614 0.009197 0.379750 0.226684 0.111497 -0.243021 0.193586 -0.313071 -0.148527 -0.066962 -0.006532 -0.121104 0.043243 -0.083988 0.194112 -0.434842 -0.038454 -0.236885 -0.253443 -0.171333 -0.252902 -0.250500 -0.496606 -0.055925 -0.163526 -0.220695 0.078007 -0.357572 0.335790 0.221482 0.152213 -0.266202 0.087010 0.135405 0.217976 -0.140631 0.126850 0.647383 -0.248136 -0.529411 0.478330 -0.237890 -0.056443 0.049007 -0.344185 -0.545313 -0.119441 0.316842 0.002612 -0.380065 0.613510 0.156209 -0.157845 -0.090456 0.237861 0.066175 0.016497 -0.036868 0.011146 -0.403877 -0.137672 -0.310880 -0.217768 -0.051028 0.233448 0.308405 -0.000646 0.017104 0.086478 0.191453 0.006013 -0.156348 0.047096 -0.243698 0.152380 -0.033188 -0.093829 0.062875 0.128493 0.026283 -0.058672 0.104390 0.100706 -0.189786 -0.135580 0.175449 0.073890 0.093703 -0.001334 -0.148353 0.076318 -0.010281 -0.002204 -0.149707 0.072321 0.118030 0.247076 0.049689 0.066292 0.302017 -0.206155 -0.345583 0.246768 0.200667 -0.062142 -0.157471 0.039426 0.175614 0.259051 0.158562 0.145339
NONHSAT134595.2 0.196725 -0.203064 -0.113337 0.371102 0.183226 0.060634 -0.169315 0.240346 -0.016061 -0.070051 -0.170554 0.109495 -0.310541 0.144847 -0.041711 0.046909 -0.089291 -0.099390 -0.023014 -0.083853 0.175081 0.217284 -0.230422 -0.001041 -0.101042 -0.192546 -0.049383 -0.302333 -0.122037 0.097316 -0.199766 0.196339 -0.297670 -0.071249 -0.118874 -0.382416 0.029569 -0.216261 -0.244522 -0.381900 -0.021904 0.007679 0.009890 0.128151 -0.276770 0.357051 0.231221 0.144423 -0.397968 0.043401 0.205543 0.091958 -0.391806 0.096090 0.411195 -0.256181 -0.344367 0.608513 -0.114455 -0.083978 -0.078891 -0.265373 -0.561217 -0.144000 0.306548 0.006422 -0.320295 0.583544 0.066611 -0.169631 -0.163080 0.144962 0.125637 -0.034016 -0.076202 0.142632 -0.393276 -0.098739 -0.269046 -0.163520 -0.111655 0.248435 0.310359 -0.120173 -0.031069 0.077626 0.330978 -0.009382 -0.262538 0.066504 -0.066712 0.136011 -0.022101 -0.099062 0.074162 0.042821 0.027283 -0.087660 0.034527 0.097927 -0.251541 -0.046602 0.121712 0.068163 0.032895 -0.027011 -0.211637 0.088623 -0.064714 -0.047877 -0.145206 0.131371 0.150243 0.261913 0.058469 0.008492 0.214699 -0.230444 -0.289477 0.174747 0.139693 -0.057186 -0.208894 0.146861 0.180416 0.249887 0.219364 0.139495
NONHSAT122291.2 0.219354 -0.159769 -0.024929 0.295808 0.241846 0.213162 -0.257105 0.178889 0.188576 -0.004971 -0.097081 0.068228 -0.304115 0.150686 0.040877 0.140541 -0.117276 0.043179 -0.059964 0.329169 0.178658 0.117311 -0.132784 0.147713 -0.139104 -0.169931 -0.133731 0.002007 -0.102854 -0.015495 0.099450 0.088989 -0.378242 -0.006451 -0.286774 -0.207456 -0.011797 -0.136580 -0.301376 -0.645184 0.183469 -0.100935 0.072485 0.238276 -0.313468 0.198485 0.270985 0.259336 -0.243817 0.019246 0.284937 0.111441 -0.300396 0.103072 0.548917 -0.136152 -0.324474 0.323465 -0.110968 -0.073474 0.002842 -0.059074 -0.695792 0.048716 0.240620 -0.008355 -0.389988 0.603603 0.070043 -0.238919 -0.076867 0.075562 0.100820 0.029218 -0.078062 0.083123 -0.354517 -0.111627 -0.188370 -0.030176 -0.044956 0.490332 0.240005 -0.194162 0.040180 0.045200 0.329313 -0.015779 0.075034 -0.042910 -0.196537 0.211165 -0.017570 -0.090935 0.010289 0.148236 0.096164 -0.161021 0.091781 0.206092 -0.400843 -0.084136 -0.027394 0.198481 -0.086192 -0.016840 -0.178928 0.158147 -0.262330 -0.085187 -0.194082 0.006211 0.129363 0.072856 0.019763 0.207759 0.366351 0.022782 -0.253799 0.204375 0.137582 -0.028011 -0.139860 0.185205 0.326115 0.285610 0.090646 0.157661
NONHSAT018688.2 0.275746 -0.267397 0.061520 0.138113 0.134314 0.270042 -0.129156 0.132893 0.028942 0.020441 -0.060018 0.321349 -0.207421 0.271300 0.129047 -0.004195 -0.037912 0.072299 -0.054307 0.239125 0.199780 0.230064 -0.158221 0.239533 -0.116984 -0.179957 -0.001496 -0.320918 0.105087 0.153918 -0.032293 0.550405 -0.177888 0.092711 -0.116257 -0.308948 -0.067578 -0.270522 -0.422620 -0.406675 0.032425 0.106158 -0.076078 -0.010502 -0.299247 0.294428 0.240859 0.245687 -0.435166 0.064245 0.040705 0.250204 -0.169983 0.171790 0.608211 -0.267324 -0.283395 0.352786 -0.217665 0.026675 -0.139726 -0.555483 -0.489746 -0.069587 0.247201 0.012896 -0.281924 0.621815 0.158648 -0.079108 -0.081291 0.025951 0.023776 -0.042089 -0.045347 0.072959 -0.380161 -0.077032 -0.353623 -0.115566 -0.088157 0.298737 0.368729 0.024883 0.043884 0.119771 0.143251 -0.098449 -0.156621 0.002753 0.102948 0.081255 -0.044290 -0.051786 0.132408 0.225491 0.081257 -0.024699 0.026888 -0.032080 -0.297789 -0.076328 0.064688 0.066084 0.208493 0.099494 -0.218594 0.127847 -0.143643 -0.066013 -0.220458 0.080530 0.046795 0.210991 0.013726 -0.010412 0.193628 -0.130359 -0.376665 0.237361 0.219906 -0.072882 -0.094300 0.194789 0.186156 0.175723 0.209990 0.062480
NONHSAT001953.2 0.222459 -0.284071 0.131460 0.269228 0.236391 0.183487 -0.120067 0.157585 -0.022188 0.055412 -0.125687 0.222564 -0.335719 0.141954 -0.018789 0.086808 -0.017588 0.051662 -0.014431 -0.030917 0.277274 0.240182 -0.051625 -0.019749 -0.051783 -0.287773 -0.055783 -0.322293 -0.048537 0.008977 -0.027266 0.301147 -0.362965 -0.073859 -0.187938 -0.343201 -0.108920 -0.325744 -0.227806 -0.354625 -0.116013 -0.248484 -0.015741 0.091832 -0.396120 0.109737 0.186665 0.279074 -0.329253 -0.033792 0.212922 0.154410 -0.260982 0.034855 0.338500 -0.232319 -0.399129 0.563834 -0.233951 -0.102453 -0.195411 -0.385900 -0.493748 -0.028995 0.315263 0.114027 -0.381252 0.517721 0.071107 -0.128990 -0.162729 0.050061 0.245380 0.024324 -0.065915 0.113209 -0.447429 -0.068576 -0.305911 -0.039981 -0.201896 0.247740 0.458430 -0.076002 0.176327 0.142043 0.204974 -0.099050 -0.166426 -0.050198 -0.140477 0.161060 -0.058278 -0.007695 0.158708 0.182811 -0.135162 -0.001545 -0.018358 0.038806 -0.260175 -0.034785 0.036255 -0.005479 0.263014 0.019154 -0.281475 0.134129 -0.176573 0.034046 -0.173623 0.060380 0.031151 0.338543 0.085608 -0.014034 0.170192 -0.064942 -0.217380 0.130034 0.052619 -0.011204 -0.203982 0.061772 0.188978 0.066563 0.135325 0.135881
NONHSAT034878.2 0.317513 -0.061891 0.030720 0.346101 0.251470 -0.376600 -0.053906 0.198274 -0.372221 -0.858202 -0.538303 -0.009583 -0.246366 -0.030883 0.001341 0.092171 -0.003545 -0.110705 0.104561 -0.026484 0.075843 -0.028755 -0.087278 -0.643134 -0.123428 -0.026551 0.022324 -0.139483 -0.053057 -0.417341 0.165500 -0.361007 -0.428128 -0.427482 -0.155022 -0.671713 -0.271145 -0.139735 -0.206782 -0.098709 -0.106986 -0.343576 0.048150 -0.007005 -0.534010 0.329056 0.227319 0.555673 -0.275659 0.139103 0.576984 0.324108 -0.457038 0.177606 0.379529 -0.088882 -0.334147 0.517217 -0.392275 -0.294524 0.185287 0.155858 -0.774605 -0.230435 0.224994 0.144705 -0.363247 0.445528 0.079791 -0.144644 0.061072 0.117489 0.072962 -0.145793 0.029058 0.149656 -0.344428 -0.009137 -0.419815 -0.158529 -0.246045 0.175605 0.386516 0.017099 0.006643 0.063136 0.397306 -0.215552 -0.109605 -0.027457 0.075258 -0.002044 -0.049062 -0.103886 0.178618 0.050481 -0.065988 -0.024343 0.139873 -0.138753 -0.223785 -0.160023 0.021216 -0.154118 0.098449 -0.016648 -0.210012 0.123351 -0.212710 -0.099682 -0.166418 0.009015 0.000845 0.263174 0.121166 -0.111719 0.193003 -0.149578 -0.401843 0.163695 0.095817 -0.059582 -0.126837 0.122506 0.171519 -0.030707 0.216691 0.010012
NONHSAT007429.2 0.249077 -0.345760 0.018694 0.244987 0.200734 0.350819 -0.193606 0.089177 0.001915 0.031071 -0.054040 0.237481 -0.189744 0.341958 0.074073 0.008953 0.041387 0.110926 -0.025121 0.181329 0.240468 0.241008 -0.024876 0.264827 -0.060667 -0.160047 0.006623 -0.269232 0.029100 0.191535 0.031786 0.395685 -0.155306 0.007012 -0.134408 -0.299573 -0.017721 -0.237425 -0.405096 -0.443299 0.151163 0.237528 -0.041308 0.024370 -0.233412 0.181242 0.284302 0.261206 -0.498746 0.026991 0.063542 0.210061 -0.166120 0.137014 0.682808 -0.254343 -0.279448 0.454413 -0.146048 -0.035702 -0.118408 -0.314801 -0.538163 -0.047017 0.218098 0.042835 -0.341101 0.546291 0.156567 -0.090350 -0.125193 0.029390 0.107052 0.007534 -0.076136 0.083380 -0.359757 -0.157416 -0.381911 -0.125074 -0.166246 0.411710 0.287900 -0.003372 0.005570 0.177481 0.130667 -0.077885 -0.134396 0.073920 0.053916 0.084833 0.005429 -0.047260 0.139124 0.171919 0.026332 -0.135927 0.028618 0.020329 -0.316627 -0.074818 0.028397 0.014644 0.294814 0.012743 -0.188912 0.171279 -0.127086 -0.027260 -0.189455 0.045277 -0.017522 0.137643 0.017047 0.002638 0.240711 -0.040779 -0.352483 0.249035 0.170783 0.060232 -0.191960 0.235933 0.176789 0.180630 0.192584 0.066204
NONHSAT015736.2 0.258837 -0.313180 0.072986 0.324935 0.297707 0.245801 -0.130898 0.190935 0.029133 0.013722 -0.089182 0.132352 -0.232455 0.122827 -0.047551 0.097763 -0.068151 0.049091 -0.019947 0.073925 0.249389 0.216480 -0.124044 0.045634 0.006718 -0.194255 -0.047229 -0.172914 -0.061831 0.027726 0.067673 0.251683 -0.321620 -0.040170 -0.220913 -0.241823 0.010324 -0.194491 -0.251313 -0.475413 0.182525 -0.044465 0.170310 0.143037 -0.321200 0.147220 0.247645 0.313722 -0.365610 -0.010038 0.310003 0.111113 -0.276379 0.082518 0.493220 -0.164143 -0.264627 0.480273 -0.161592 -0.160975 -0.109965 -0.141353 -0.615419 0.027719 0.164795 0.186206 -0.341929 0.737551 0.214390 -0.402923 -0.539454 0.171404 0.254511 0.060577 -0.369269 0.000276 -0.247319 -0.213559 -0.388100 -0.049051 -0.241048 0.338698 0.403806 -0.192510 -0.203034 0.174286 -0.054792 0.095841 0.014241 -0.297412 -0.075573 0.065254 0.188619 -0.152273 0.131146 0.235466 0.299024 -0.085545 -0.056066 0.024867 -0.358046 -0.021715 0.207281 0.094638 0.026478 0.092630 -0.484655 0.318677 -0.332494 -0.087056 -0.153481 0.250198 0.093859 0.386320 0.290331 0.130715 0.387854 -0.011832 -0.084182 -0.023924 0.340848 -0.064397 0.025924 0.193880 0.252356 0.050661 0.091225 0.162688
NONHSAT039675.2 0.179004 -0.276108 0.010347 0.393222 0.191388 0.160872 -0.185531 0.230112 0.000565 -0.087997 -0.094339 -0.054457 -0.371744 0.382086 -0.000944 -0.084645 -0.159239 0.033587 0.017427 0.198284 0.331064 0.164847 -0.239590 0.089922 -0.179833 -0.069171 0.005841 -0.113534 -0.179975 0.003734 -0.009362 0.172413 -0.256270 -0.202359 -0.279927 -0.263975 -0.079435 -0.255842 -0.240135 -0.544064 0.061700 0.056617 -0.087446 0.055876 -0.265686 0.278628 0.287958 0.207887 -0.218679 0.046625 0.128623 -0.020200 -0.198869 0.101081 0.599725 -0.314818 -0.510409 0.589207 -0.214008 -0.100275 0.028148 -0.205853 -0.467897 -0.072265 0.272055 -0.048918 -0.263274 0.638015 0.045685 -0.129531 -0.196394 0.125997 0.217664 -0.024794 -0.084595 0.132955 -0.441762 -0.065991 -0.230949 -0.090436 -0.104327 0.342754 0.509201 -0.046606 0.044251 0.119160 0.104335 0.011546 -0.273484 0.054808 -0.244132 0.147138 -0.029625 -0.091555 0.174062 0.072078 -0.156485 0.030560 0.117687 0.077796 -0.154334 -0.130815 0.263837 0.105515 0.147229 0.030824 -0.226118 0.071996 -0.039507 0.059545 -0.093827 0.014248 -0.036018 0.174557 -0.019735 0.008475 0.285366 -0.199848 -0.408094 0.089039 0.131162 -0.106002 -0.115213 0.063390 0.209377 0.111570 0.142809 0.191245
NONHSAT101022.2 0.261977 -0.321375 -0.008408 0.300735 0.247974 0.201875 -0.182702 0.179279 0.031766 0.015572 -0.051913 0.143478 -0.233584 0.197050 0.005819 0.039375 -0.033809 0.001780 -0.039677 0.123142 0.222472 0.147732 -0.046965 0.120501 -0.096534 -0.134262 -0.044034 -0.226921 -0.086602 0.141219 -0.010408 0.207636 -0.252957 -0.137289 -0.211843 -0.357864 0.051199 -0.147462 -0.350357 -0.449699 0.138140 0.074458 0.079650 0.150898 -0.230523 0.201840 0.310854 0.272203 -0.350687 0.035849 0.288001 0.066683 -0.322453 0.082408 0.507779 -0.211849 -0.292847 0.505013 -0.098820 -0.028678 -0.093464 -0.183358 -0.573127 -0.080626 0.255914 -0.002907 -0.356812 0.578814 0.122828 -0.204691 -0.109431 0.122697 0.053710 -0.027531 -0.136662 0.135456 -0.431527 -0.091013 -0.229427 -0.058473 -0.054446 0.486761 0.264627 -0.149948 0.001794 0.091302 0.325924 0.006918 0.070315 0.008694 -0.114574 0.170219 -0.007303 -0.101775 0.074138 0.076572 0.089909 -0.111454 0.042892 0.121752 -0.368534 -0.118177 0.012640 0.149901 0.008175 -0.069569 -0.216616 0.132221 -0.172494 -0.144287 -0.218776 0.041798 0.148251 0.010003 -0.064805 0.179236 0.290380 0.032850 -0.225840 0.187464 0.161134 0.023851 -0.172366 0.170631 0.325618 0.311353 0.098071 0.045276
NONHSAT079548.2 0.190003 -0.242749 0.039729 0.178603 0.061461 -0.016859 -0.242017 0.175088 -0.098582 -0.203020 0.143835 0.290946 -0.414049 0.401694 -0.008039 -0.035389 0.211937 0.089282 0.088229 0.050418 0.111133 0.108353 -0.253633 0.075500 -0.249098 -0.316902 -0.105096 -0.244262 -0.015794 0.164795 -0.260525 0.367613 -0.380830 0.017997 -0.124277 -0.333190 -0.239950 -0.370617 -0.352337 -0.399340 -0.022494 -0.083813 0.139544 0.198862 -0.241164 0.190183 0.435829 0.199105 -0.339920 -0.030855 0.065160 0.266939 -0.088470 0.049709 0.434518 -0.293794 -0.168016 0.405586 -0.222472 0.066318 -0.063758 -0.367859 -0.703723 -0.258863 0.225511 0.091543 -0.294108 0.444781 0.244895 -0.217412 -0.093347 -0.073305 0.027576 -0.173282 0.018906 0.251651 -0.305670 -0.084163 -0.231901 -0.213684 -0.063564 0.547160 0.317451 -0.107656 0.111980 0.198113 0.283736 0.024297 -0.003066 0.088622 0.005947 0.187880 0.111893 -0.126848 0.136708 0.209118 0.048383 -0.027700 -0.000808 0.076389 -0.379839 -0.127157 0.248802 -0.033803 0.019714 -0.046636 -0.029982 0.167266 -0.095930 -0.040558 -0.284801 -0.038259 0.019352 0.113071 0.023044 0.027695 0.251848 0.054834 -0.536699 0.229283 0.277579 0.053607 -0.248077 0.294063 0.333662 0.234742 0.110934 -0.036570
NONHSAT022115.2 0.155133 -0.239366 0.075962 0.099357 0.085553 0.086687 -0.128774 0.115325 -0.110887 0.000162 -0.023049 0.296433 -0.309332 0.269646 -0.030894 -0.015760 0.200804 0.025721 0.041226 0.037401 0.216736 0.187612 -0.102420 0.050308 -0.125347 -0.509569 -0.107658 -0.215289 -0.050265 0.069598 -0.146775 0.359022 -0.405220 -0.017039 -0.194811 -0.317290 -0.287594 -0.365304 -0.311648 -0.401990 -0.124812 -0.232822 0.081790 0.186126 -0.347140 0.070269 0.204925 0.357786 -0.103821 0.032397 0.219988 0.210180 -0.106506 -0.070175 0.360204 -0.245717 -0.295720 0.393111 -0.287544 -0.211248 -0.194606 -0.428487 -0.661594 -0.059764 0.136252 0.182979 -0.491831 0.464339 -0.106331 -0.216269 -0.180723 -0.105007 0.135379 -0.076820 0.018382 -0.084340 -0.289183 0.025224 -0.459834 0.110310 -0.241058 0.322562 0.269190 -0.056847 0.275967 0.071182 0.158356 -0.076020 -0.299117 0.374668 -0.291117 0.099372 -0.368743 0.124613 0.361556 0.025414 0.062859 0.165875 0.201732 0.185256 -0.686246 -0.184291 -0.347595 -0.077341 0.232101 -0.020566 -0.317893 -0.179591 -0.115144 0.451390 -0.452412 -0.061606 0.263062 0.354821 0.063168 -0.040666 0.022445 -0.213575 -0.249888 0.310928 0.189857 -0.070475 -0.312499 -0.429765 0.346184 0.347336 0.445229 0.268082
NONHSAT142612.2 0.364298 -0.293425 0.169005 0.314225 0.258133 0.284464 -0.084000 0.215254 0.086293 0.184725 0.089418 0.162327 -0.211541 0.101300 -0.018195 0.036116 -0.102846 0.133640 0.038452 0.185366 0.365947 0.069403 -0.036511 0.032605 -0.231896 -0.099978 -0.017029 -0.334943 -0.083500 -0.050704 0.110588 0.189910 -0.176015 -0.160910 -0.168374 -0.136315 -0.104717 -0.195705 -0.409404 -0.699573 0.009868 -0.112397 0.151442 0.138002 -0.320913 0.230516 0.243879 0.316151 -0.176046 0.079172 0.201687 0.154740 -0.221112 0.033448 0.465247 -0.255943 -0.390826 0.258526 -0.220522 -0.057492 -0.019227 -0.125348 -0.624995 0.004892 0.309833 0.130552 -0.318219 0.639085 0.288511 -0.411342 0.156236 -0.015307 0.072469 0.002341 0.149405 0.276718 -0.458497 -0.028112 -0.443918 0.127822 -0.044031 0.591057 0.121727 -0.254371 0.265699 0.109253 0.367821 -0.085874 0.330021 -0.064645 -0.080504 -0.016766 0.008168 0.072226 0.037035 0.071653 0.093683 0.096957 0.115723 -0.216539 -0.428787 -0.053464 -0.038475 0.019984 -0.079509 0.108242 -0.040426 -0.130876 -0.191787 -0.464262 -0.286212 -0.255788 0.235740 0.359186 0.029697 0.398511 0.564247 -0.126879 0.194661 0.125952 0.634581 -0.058157 0.002129 0.224005 0.209022 0.009520 0.183669 0.504360
NONHSAT104512.2 0.224165 -0.274879 0.008687 0.444557 0.208069 0.363410 -0.124970 0.190069 0.091833 0.036919 -0.038573 0.137803 -0.253005 0.044918 0.008209 0.127375 0.031380 0.106218 0.060291 0.118124 0.281186 0.264759 -0.003916 0.090146 -0.229993 -0.165967 -0.047682 -0.216232 -0.178892 -0.031245 0.166774 0.060638 -0.248598 -0.252093 -0.163704 -0.190710 -0.213601 -0.170302 -0.303769 -0.612064 -0.203841 -0.150825 -0.011343 0.278608 -0.302543 0.100996 0.273085 0.388291 -0.090733 -0.110873 0.234881 0.098613 -0.138537 -0.055138 0.426388 -0.245801 -0.320971 0.321720 -0.228782 -0.209745 0.030296 -0.233829 -0.683120 -0.157528 0.333770 0.080497 -0.243988 0.567873 -0.055167 -0.182026 0.026178 -0.061567 -0.037648 0.012758 -0.207265 0.197360 -0.528447 0.009378 -0.501622 -0.191994 -0.117251 0.257717 0.637693 -0.227336 0.067598 0.091878 0.149137 0.047378 -0.204883 0.011090 -0.019957 -0.067858 0.136651 0.089563 -0.055846 0.295685 -0.188726 -0.100708 0.277500 0.221156 -0.231231 -0.103538 -0.083488 -0.306664 -0.023962 -0.009664 -0.333461 -0.046817 -0.234779 -0.093599 -0.245544 -0.041542 0.044077 0.426936 0.049062 -0.116172 0.293306 -0.109700 -0.250094 -0.028320 0.055583 -0.073801 -0.121612 0.181352 0.258437 -0.015195 0.192334 0.141175
NONHSAT145923.2 0.201730 -0.213279 -0.088512 0.300747 0.106287 0.093778 -0.143314 0.148135 -0.121114 -0.057628 -0.062821 0.165895 -0.283224 0.305598 -0.024907 -0.038337 0.243546 0.055006 -0.072789 0.139266 0.155600 0.155908 -0.123121 0.074948 -0.092782 -0.449142 -0.011868 -0.228841 -0.120248 0.102550 -0.146529 0.273803 -0.299410 -0.072522 -0.111230 -0.353180 -0.276268 -0.249364 -0.322289 -0.460012 0.069832 0.080318 0.045998 0.128504 -0.105497 0.182196 0.325449 0.351435 -0.265113 0.041198 0.220229 0.094647 -0.175841 0.010949 0.583131 -0.231918 -0.314581 0.533557 -0.204709 -0.074199 -0.136742 -0.178588 -0.595442 -0.077646 0.204998 -0.253443 -0.636706 0.580060 0.220203 -0.311098 -0.334110 0.136715 -0.313986 -0.078734 -0.452219 0.039280 -0.335674 0.128808 -0.499977 -0.019280 -0.264937 0.283757 0.056054 0.282131 -0.161670 -0.060682 0.299001 -0.037871 -0.168023 -0.093663 -0.363583 0.380853 0.137189 -0.090128 0.123183 0.207180 -0.007277 0.005250 0.024120 -0.143572 -0.484336 0.012395 0.055433 -0.038356 0.161680 0.090326 0.029406 -0.268262 -0.028071 -0.269763 0.063084 -0.122561 0.477064 0.240260 -0.003467 -0.009704 0.112836 0.019182 -0.578348 -0.154686 0.099154 0.226668 -0.413945 0.302481 0.160197 0.121444 0.387731 0.167063
NONHSAT022112.2 0.083547 -0.161589 0.094786 -0.047915 -0.094112 0.343942 -0.117271 0.548186 -0.370022 -0.229152 0.094254 0.279161 -0.094700 0.266233 0.289392 -0.192768 0.442754 -0.010832 -0.034713 0.157986 0.270754 0.064364 -0.007098 -0.079766 0.104161 -0.494019 -0.231954 -0.223077 -0.014417 -0.108813 0.043021 0.229542 -0.415590 0.234242 -0.386436 -0.108985 -0.065280 -0.670808 -0.258660 -0.450265 -0.455590 -0.043086 0.225613 0.112501 -0.720742 0.110596 -0.123958 0.192134 -0.417593 0.197877 0.147268 0.495563 -0.012551 -0.159716 0.569870 -0.215117 -0.530058 0.150437 -0.488345 -0.480464 -0.112465 -0.109251 -0.517115 -0.350776 -0.033062 -0.514735 -0.562223 0.454300 0.274166 0.137724 -0.009176 -0.347254 0.292134 -0.367274 -0.267895 0.119520 -0.470884 -0.070778 -0.523045 -0.220535 -0.264009 0.050788 0.498663 0.021265 0.275231 0.231382 0.209770 -0.232760 0.026694 -0.209680 -0.253143 0.281287 -0.127652 0.139438 0.288118 0.092419 -0.102915 0.088071 -0.082927 0.247622 -0.070753 0.213382 0.427178 -0.148101 0.235324 -0.014546 -0.465046 0.162556 -0.541789 -0.137895 -0.470006 -0.119610 -0.118172 0.367682 0.310528 -0.320928 0.095940 0.151416 -0.128235 0.430859 0.192072 -0.128173 -0.016827 0.151559 0.218765 0.152219 0.362932 0.390657
NONHSAT101154.2 0.198899 -0.330689 -0.086240 0.397598 0.217397 0.216306 -0.114726 0.256967 0.042381 -0.184448 0.011082 0.090705 -0.276754 0.282310 0.031121 -0.017761 0.000546 0.039825 0.148301 0.197049 0.227505 0.387458 -0.153808 0.185203 -0.273406 -0.065118 -0.022298 -0.129385 -0.085108 0.017009 -0.003057 0.151849 -0.278849 -0.188578 -0.249902 -0.250302 -0.168011 -0.106643 -0.280912 -0.499244 0.022529 -0.142117 0.123858 0.257885 -0.324878 0.234157 0.384729 0.336984 -0.181490 -0.037361 0.236143 0.108224 -0.151804 0.010317 0.433248 -0.231523 -0.229427 0.336169 -0.206507 -0.100657 -0.172233 -0.257008 -0.589701 -0.292223 0.241760 0.033367 -0.297072 0.657876 0.069513 -0.263502 -0.027874 -0.111138 0.149815 0.045146 -0.089119 0.039223 -0.292993 -0.115067 -0.297295 0.018535 -0.113230 0.203441 0.514025 -0.091764 0.058908 0.089658 0.225201 0.020911 -0.193330 0.120008 -0.039564 0.239003 0.040506 0.000981 0.069908 0.162293 -0.085891 0.003691 0.165331 0.120984 -0.148889 -0.193574 0.076714 0.115182 0.045676 0.031997 -0.240561 0.183977 -0.121235 0.028354 -0.091453 -0.004756 -0.057347 0.230922 0.097056 0.034555 0.404670 0.026971 -0.471916 0.072672 0.190916 0.027336 -0.265886 0.189676 0.271598 0.180728 0.152306 0.036808
NONHSAT016441.2 0.351437 -0.266069 0.039545 0.055770 0.207159 0.137065 -0.129866 0.208115 -0.073830 -0.316235 -0.144270 0.123382 -0.169817 0.454597 0.203432 -0.149135 -0.407929 -0.240114 -0.077430 0.288841 -0.006618 0.418598 -0.227127 0.374703 -0.393290 0.041124 -0.034185 -0.065952 -0.223059 0.068978 -0.017658 0.264363 -0.308966 -0.069284 -0.238473 -0.364845 0.431019 0.026398 -0.215466 -0.316074 0.127503 -0.048147 0.026710 -0.007912 -0.222343 0.495196 0.393248 0.189483 -0.094041 0.130357 0.327370 0.377583 -0.210142 0.044865 0.376216 -0.135571 -0.291385 0.103382 -0.210276 -0.249026 -0.073170 -0.211642 -0.692767 -0.414156 0.169271 -0.051653 -0.237246 0.620219 0.077201 -0.159950 0.099004 0.009446 0.049376 -0.117067 0.139822 0.297483 -0.340426 -0.060732 -0.199648 -0.309019 -0.403143 0.466360 0.172641 -0.119882 -0.219624 0.029861 0.582165 0.125404 0.102843 -0.011505 -0.007379 0.215486 -0.095684 -0.054526 0.165064 0.245001 0.086689 -0.099731 0.143008 0.017267 -0.059925 -0.231689 -0.047571 -0.100906 0.148171 0.054390 -0.271972 0.187821 -0.323200 0.041847 -0.128411 -0.252889 -0.023126 -0.135630 -0.049450 -0.001222 0.402665 0.021059 -0.387976 0.082656 0.105982 0.139617 -0.154938 0.332742 0.647620 0.289058 0.195896 0.032442
NONHSAT002344.2 0.250572 -0.328420 -0.068722 0.091089 0.020560 0.214503 -0.263752 0.120006 -0.090856 -0.098648 0.031036 0.424632 -0.164552 0.425730 0.088500 -0.052586 0.342778 0.031120 -0.107727 0.189235 0.230231 0.183029 -0.046526 0.072678 -0.086856 -0.562495 -0.072259 -0.097446 -0.026738 0.040161 -0.120224 0.228783 -0.455241 0.038732 -0.099826 -0.371260 -0.333707 -0.247826 -0.450755 -0.525950 -0.206336 0.013175 0.220090 0.167663 -0.151443 0.174762 0.215127 0.307395 -0.274599 0.022435 0.342277 0.290157 -0.037950 -0.094860 0.476213 -0.015342 -0.253776 0.295507 -0.219156 -0.208520 -0.101179 -0.366885 -0.776479 -0.139407 0.204753 0.095321 -0.382328 0.720449 0.155148 -0.189428 -0.072516 0.031387 -0.012704 -0.031766 -0.147707 -0.022356 -0.193633 -0.026501 -0.306772 -0.090577 -0.168791 0.293673 0.268122 -0.021139 0.032675 0.213011 0.202387 0.016263 -0.178817 0.081438 -0.126701 0.196548 -0.066029 -0.058884 0.163597 0.118230 0.092351 -0.071818 0.029166 0.208384 -0.242284 -0.141483 0.015278 0.036786 -0.001892 -0.167277 -0.167484 0.064373 -0.121178 -0.074698 -0.169602 0.084095 0.030428 0.302189 0.051730 -0.053236 0.223973 -0.026938 -0.368641 0.241791 0.260046 -0.050428 -0.210509 0.083707 0.226283 0.227578 0.200779 0.160090
NONHSAT079374.2 0.145543 -0.207717 -0.030036 0.224261 0.229053 0.077629 -0.180094 0.262181 -0.054369 -0.134381 -0.193499 0.072640 -0.340562 0.208535 0.104287 -0.122634 -0.113725 -0.127467 -0.034909 0.059840 -0.022148 0.154333 -0.321621 0.085959 -0.247288 -0.201206 -0.113878 -0.247270 -0.160989 -0.019666 -0.191995 0.113823 -0.327628 -0.034181 -0.182101 -0.391075 0.163217 -0.148165 -0.329054 -0.461057 0.087380 -0.011850 -0.011050 0.096607 -0.241602 0.342241 0.304989 0.208087 -0.216954 0.121868 0.184361 0.207754 -0.332235 0.098160 0.376883 -0.246053 -0.372854 0.417816 -0.078331 -0.107400 -0.087626 -0.114948 -0.648025 -0.135755 0.269671 -0.020072 -0.389331 0.556082 0.122461 -0.190022 -0.056950 0.125551 0.217662 -0.076471 0.031873 0.235789 -0.415976 -0.210837 -0.276799 -0.033996 -0.032379 0.590170 0.231726 -0.147195 0.100822 0.148047 0.286069 -0.042111 -0.004787 0.074487 -0.187517 0.218605 0.080831 -0.122495 0.087372 0.170563 0.032919 -0.128881 -0.061725 0.106993 -0.365309 -0.095927 0.197388 -0.114956 -0.067943 -0.054126 -0.103905 0.152726 -0.114800 -0.047138 -0.134540 -0.098497 -0.016086 -0.029380 -0.037988 0.036247 0.257187 -0.045152 -0.413930 0.142889 0.210075 0.096466 -0.166185 0.199676 0.306109 0.221918 0.033762 0.017073
NONHSAT031708.2 0.351475 -0.034183 -0.041620 0.124524 0.294957 -0.003208 -0.308088 0.100145 -0.034934 -0.181871 -0.177164 0.174898 -0.296819 -0.122048 0.032595 0.185438 0.128753 -0.060176 -0.192066 -0.120892 -0.021009 0.254155 -0.095897 -0.134872 -0.077845 -0.140109 -0.037985 -0.328237 0.030497 -0.051549 -0.089160 0.293003 -0.257552 0.340464 0.031748 -0.100070 0.078347 -0.290296 -0.502766 -0.484157 -0.110748 -0.236427 -0.133865 0.009885 -0.511613 0.124752 0.040123 0.058479 -0.488981 -0.000943 0.225392 0.572234 -0.271948 0.002905 0.384891 -0.284340 -0.454988 0.458792 -0.213115 -0.264947 -0.117889 -0.414006 -0.684919 0.098637 0.313636 0.076548 -0.404263 0.565474 0.148549 -0.137109 -0.164800 0.076489 0.072014 0.004250 -0.047151 -0.016167 -0.244937 -0.052925 -0.405221 -0.070210 -0.195905 0.289702 0.262755 -0.061926 0.002741 0.089620 0.217477 -0.110370 -0.118206 -0.042395 -0.060697 0.130765 -0.048147 0.045516 0.151347 -0.046499 0.029956 -0.116847 0.053372 0.179586 -0.328355 -0.072305 -0.052752 0.055286 0.161284 -0.018230 -0.294594 0.135568 -0.152514 -0.055279 -0.194246 0.042517 0.137961 0.303437 0.038730 0.018987 0.333959 0.051076 -0.206563 0.223906 0.164172 0.029956 -0.057351 0.110318 0.122414 0.039855 0.253606 0.122984
NONHSAT011652.2 0.221875 -0.218998 -0.080604 0.214953 0.096976 -0.040479 -0.222750 0.257017 -0.111238 -0.173369 -0.078219 0.153477 -0.343528 0.239152 0.051357 -0.118834 0.024922 -0.116477 -0.104748 -0.055745 -0.040120 0.187217 -0.353980 0.013926 -0.129254 -0.452835 -0.050883 -0.265619 -0.198581 0.047360 -0.211186 0.245443 -0.399469 -0.028277 -0.195219 -0.518254 0.056144 -0.143668 -0.326405 -0.362194 -0.004041 0.055101 0.084919 0.112621 -0.148472 0.381361 0.283751 0.234486 -0.206128 0.084705 0.251392 0.180650 -0.420900 -0.016321 0.291636 -0.278159 -0.403733 0.490938 -0.059912 -0.159672 -0.122140 -0.214632 -0.656526 -0.023933 0.247200 0.014438 -0.394448 0.632671 0.133978 -0.306198 -0.098504 0.136180 -0.009766 -0.109436 -0.150799 0.131061 -0.406299 -0.076980 -0.209026 -0.039769 0.074785 0.505889 0.211543 -0.199812 0.065024 0.132594 0.331675 0.051663 0.072670 0.051103 -0.140908 0.263351 -0.090501 -0.134003 0.124211 0.157268 0.024572 -0.082347 -0.016997 0.159134 -0.380865 -0.103885 0.134582 0.086097 -0.093377 -0.133647 -0.167688 0.116356 -0.200875 -0.092027 -0.147982 -0.023994 0.085090 0.076578 -0.106904 0.062430 0.224168 -0.085583 -0.223733 0.159210 0.199856 -0.011539 -0.190967 0.070856 0.402091 0.302937 0.088852 0.051487
NONHSAT114444.2 0.174915 -0.195745 0.052554 0.131306 0.134225 0.041797 -0.174418 0.255187 -0.075951 0.023425 -0.076424 0.188194 -0.296849 0.315144 0.060991 -0.116399 -0.016406 -0.090466 -0.057336 -0.025140 0.101424 0.149465 -0.286443 -0.015948 -0.156124 -0.496093 -0.119418 -0.190477 -0.290309 0.045404 -0.143382 0.269949 -0.377740 0.004426 -0.329332 -0.343515 0.058057 -0.255245 -0.193917 -0.397301 0.021211 -0.044620 0.161060 0.214671 -0.356606 0.338458 0.215031 0.171004 -0.039032 0.131239 0.242699 0.186168 -0.471500 -0.077936 0.212654 -0.235798 -0.531895 0.475248 -0.138060 -0.212252 -0.260575 -0.292504 -0.645828 -0.068728 0.242695 0.081770 -0.338739 0.644209 0.109395 -0.276317 -0.306140 0.075431 0.131821 0.207755 -0.277287 0.023658 -0.316185 -0.062847 -0.328677 -0.084466 -0.174228 0.315295 0.399184 0.064417 0.162279 0.247947 0.180041 0.011964 -0.143330 0.004787 0.026705 0.177845 -0.024350 0.109528 0.132586 0.293950 0.152043 0.075574 -0.069254 -0.031933 -0.220438 0.089988 0.156278 -0.006804 0.142427 0.113199 -0.339719 0.155764 -0.195202 0.136594 -0.226023 0.067378 0.098648 0.173629 0.141868 -0.033285 0.264519 -0.046734 -0.267067 0.075856 0.263213 -0.142982 -0.135863 0.094480 0.332518 0.280049 0.184850 0.048600
NONHSAT140501.2 0.170744 -0.000456 0.073977 0.424311 0.141817 -0.001213 -0.066029 0.318276 0.173107 -0.258654 0.265014 0.174806 -0.028170 0.223800 -0.333417 0.133085 -0.287999 -0.045537 -0.359676 0.099970 0.208965 0.189425 0.010888 0.037944 -0.225087 -0.415675 0.304963 0.348827 0.041962 -0.179661 0.030514 0.186169 -0.215322 -0.253175 -0.099076 -0.494194 0.370777 -0.448935 -0.445136 -0.062172 0.038526 -0.107477 -0.385919 0.294400 -0.506688 0.355966 0.244861 0.490599 -0.384152 -0.064951 -0.096759 0.260841 0.085222 0.490769 0.411859 -0.100938 -0.583079 0.109052 -0.155734 -0.499485 -0.388811 0.210372 -0.667011 0.106667 0.215331 0.253209 -0.372044 0.418037 0.125298 -0.091175 0.015877 0.123311 0.070956 -0.081895 0.023744 0.158682 -0.330317 0.034126 -0.414280 -0.183273 -0.332081 0.240211 0.472458 0.108279 -0.021908 -0.001564 0.307047 -0.223381 -0.065738 -0.006556 0.042341 -0.021697 0.017564 -0.118793 0.224864 0.014558 -0.037810 -0.062564 0.188781 -0.196547 -0.207855 -0.109585 -0.012252 -0.192860 0.145625 -0.075621 -0.203676 0.139175 -0.245431 -0.043746 -0.270028 -0.032551 0.015450 0.211559 0.121336 -0.005461 0.213178 -0.017750 -0.426733 0.105842 0.029047 0.028957 -0.099633 0.102883 0.090266 -0.008980 0.238756 -0.028005
NONHSAT114788.2 0.276360 -0.207170 -0.033030 0.375885 0.301541 0.179547 -0.134022 0.202583 0.045487 -0.027277 -0.142236 0.186942 -0.186760 0.089439 0.005595 0.016634 -0.122570 -0.031447 -0.030765 0.020167 0.209553 0.171996 -0.109082 -0.013626 -0.090772 -0.029523 -0.062809 -0.282045 -0.138992 0.092197 0.031828 0.205771 -0.273434 -0.071274 -0.183457 -0.292897 0.100842 -0.200080 -0.267005 -0.423405 0.058853 -0.016919 0.048247 0.136164 -0.340766 0.247151 0.278726 0.198284 -0.398539 0.040919 0.300792 0.135098 -0.400526 0.114650 0.461776 -0.246017 -0.309861 0.527340 -0.110436 -0.064660 -0.108520 -0.196628 -0.559859 -0.162931 0.216782 -0.011746 -0.331050 0.664300 0.070706 -0.083381 -0.256252 0.108423 0.124188 0.040487 -0.114189 0.067416 -0.369474 -0.058598 -0.339164 -0.116476 -0.120682 0.311981 0.295974 -0.034427 -0.086672 0.106236 0.178233 0.020220 -0.131457 0.019031 -0.077575 0.107714 0.002941 -0.022240 0.094578 0.031049 0.079860 -0.142228 0.036236 0.084058 -0.241558 -0.061006 0.011317 0.110253 0.039734 -0.030003 -0.216670 0.115377 -0.073685 -0.118926 -0.258303 0.095700 0.148758 0.187819 -0.040260 0.050467 0.327962 -0.036881 -0.244642 0.202049 0.208167 -0.011150 -0.249977 0.179785 0.163333 0.307356 0.231308 0.079078
NONHSAT135822.2 0.138557 -0.113894 -0.005615 0.274529 0.259381 0.109570 -0.128023 0.240307 -0.019691 0.126098 -0.232541 -0.067318 -0.272956 0.031347 -0.059128 0.096818 -0.107502 -0.014958 -0.029199 0.034519 0.106275 0.194956 -0.165072 0.021080 -0.119786 -0.054543 -0.072961 -0.341504 -0.111431 -0.037165 -0.072185 0.085714 -0.179487 -0.066011 -0.057549 -0.261850 0.116535 -0.211071 -0.347408 -0.508770 0.027096 -0.044608 -0.126779 0.142619 -0.347084 0.309591 0.175192 0.251976 -0.176708 0.079234 0.250831 0.183949 -0.396420 0.128312 0.465034 -0.308824 -0.413779 0.470698 -0.096394 -0.227861 0.005815 -0.187121 -0.531379 -0.075120 0.362239 -0.125351 -0.358153 0.574867 0.011681 -0.180699 -0.186597 0.122545 0.123071 -0.005530 0.064700 0.130326 -0.341089 -0.171154 -0.381241 -0.092468 -0.146977 0.164499 0.229160 -0.211378 -0.017652 0.127721 0.339238 -0.139175 -0.213529 0.064734 -0.024020 0.185719 -0.045857 -0.075366 -0.018560 0.011856 -0.136968 -0.026774 0.045018 0.154801 -0.376326 -0.113471 0.094908 0.037829 0.009189 0.037538 -0.337072 0.010552 -0.102666 -0.094392 -0.098869 0.066354 0.197303 0.313860 0.061731 -0.001123 0.160570 -0.254153 -0.260376 0.166113 0.193880 -0.008984 -0.140455 0.190051 0.147988 0.217412 0.231440 0.139418
NONHSAT100798.2 0.501580 -0.287266 0.034476 0.191259 0.141661 0.005032 -0.169612 0.289757 -0.061559 -0.299544 -0.465308 0.757026 -0.070133 0.088537 -0.125964 0.093478 -0.096964 -0.094229 -0.264092 0.166060 0.544690 -0.092714 0.045105 -0.240349 -0.171718 0.124781 -0.172177 -0.179882 0.276894 0.100208 0.192977 0.380965 -0.384487 -0.115515 -0.384995 -0.015665 -0.027357 -0.574136 -0.287526 -0.489658 -0.305809 -0.413784 0.155542 -0.073640 -0.462005 0.262739 0.045480 0.106444 -0.355232 -0.038906 0.105006 0.345968 -0.380228 -0.146752 0.442279 -0.204091 -0.237107 0.335440 -0.317896 -0.218510 0.198563 -0.636239 -0.530167 -0.227496 0.347862 0.131514 -0.194111 0.476382 0.185320 -0.102315 -0.090328 0.017430 0.171180 0.020639 -0.016698 0.090376 -0.373963 -0.155546 -0.347170 -0.200195 -0.260552 0.303020 0.338627 -0.043104 0.097863 0.108469 0.259413 -0.084357 -0.125203 -0.092336 -0.063989 0.074286 0.087724 -0.045215 0.175528 0.095760 0.035496 -0.206927 0.088955 0.081733 -0.280058 -0.041808 -0.088236 0.068769 0.394829 -0.028567 -0.108798 0.170276 -0.113061 0.006154 -0.138417 0.010764 0.069955 0.216533 0.097849 -0.004485 0.225548 -0.096077 -0.426649 0.199940 0.185390 0.082963 -0.104631 0.121262 0.064430 0.022068 0.224617 0.116940
NONHSAT121718.2 0.364498 -0.110730 0.169699 0.166963 0.366184 0.130391 -0.135791 0.201830 -0.072435 -0.012111 -0.213742 0.111135 -0.204726 0.001847 0.004876 0.140407 -0.109404 -0.019458 -0.032413 0.064998 0.189467 0.153352 -0.160507 -0.138539 -0.045136 -0.073468 -0.010195 -0.293259 -0.114955 0.011120 0.095418 0.182339 -0.128535 0.035571 -0.101729 -0.253263 0.110203 -0.229650 -0.401828 -0.530878 -0.012299 -0.107538 -0.055774 0.027539 -0.601098 0.185292 0.193799 0.274660 -0.208335 0.021593 0.296182 0.405318 -0.404377 0.141209 0.497933 -0.208702 -0.429700 0.281677 -0.170856 -0.251523 0.071032 -0.272074 -0.688990 -0.047750 0.303137 0.051910 -0.408522 0.570938 0.094851 -0.153374 -0.162014 0.077652 0.104871 0.074202 -0.037671 -0.065566 -0.237230 -0.128784 -0.420686 -0.060032 -0.189380 0.255717 0.253683 -0.050288 0.015587 0.077814 0.179731 -0.151810 -0.080640 -0.077128 -0.126270 0.118082 -0.029542 0.004958 0.022722 0.012131 0.010572 -0.072324 0.086160 0.237068 -0.319592 -0.118073 -0.063336 0.096214 0.127489 0.053227 -0.302539 0.136504 -0.176842 -0.047454 -0.179922 0.022371 0.147481 0.287634 0.049004 0.068909 0.366305 -0.008272 -0.287997 0.251623 0.206282 0.030407 -0.084651 0.116929 0.128043 0.112612 0.214636 0.197786
NONHSAT066071.2 0.253063 -0.203281 -0.002477 0.135078 0.247127 -0.042988 -0.161629 0.255336 -0.135541 -0.282484 -0.196276 0.162539 -0.308546 0.292854 0.048906 -0.107347 -0.065559 -0.099161 0.046529 0.132755 0.029806 0.179060 -0.320816 0.021516 -0.264994 -0.090747 -0.003127 -0.270525 -0.106308 0.033253 -0.132416 0.153670 -0.303313 -0.060165 -0.123258 -0.378311 0.052844 -0.194035 -0.314848 -0.335027 0.143239 -0.063341 0.018231 0.020228 -0.346414 0.473070 0.363291 0.211269 -0.280652 0.114850 0.257809 0.301059 -0.308666 0.164326 0.545312 -0.211459 -0.254405 0.369726 -0.195540 -0.015660 -0.057340 -0.279247 -0.653491 -0.301254 0.264001 -0.043929 -0.412755 0.588470 0.149919 -0.277659 -0.080853 0.086767 0.000061 0.003575 0.001328 -0.059159 -0.322744 -0.087028 -0.296812 -0.232766 -0.000661 0.247333 0.318882 0.024299 -0.068981 0.182445 0.194088 0.024254 -0.099241 0.124777 -0.120694 0.182120 0.000835 -0.130004 0.026144 0.122428 0.026794 -0.060089 0.061012 0.157782 -0.211478 -0.123450 0.277375 0.121314 0.034770 0.008721 -0.243667 0.082434 0.000953 0.034331 -0.136174 -0.041671 0.127551 0.299502 0.003680 0.035888 0.310892 -0.172271 -0.414951 0.214741 0.257255 -0.047907 -0.237070 0.072048 0.157169 0.376352 0.134111 0.124301
NONHSAT123138.2 0.306686 -0.120959 0.048946 0.260289 0.274726 0.178121 -0.197387 0.216887 -0.063544 -0.188602 -0.212207 0.221527 -0.175333 0.097410 0.037791 0.011252 -0.120010 -0.054649 -0.028291 0.103712 0.144417 0.116910 -0.166154 -0.126030 -0.113254 0.014631 -0.011372 -0.288060 -0.124468 0.091122 0.052378 0.155166 -0.185850 -0.067580 -0.141083 -0.298718 0.069386 -0.233400 -0.369563 -0.528994 0.106220 0.001895 -0.033966 0.050360 -0.519177 0.266284 0.283547 0.180669 -0.304870 0.081571 0.229043 0.273760 -0.385191 0.210110 0.590432 -0.258619 -0.281421 0.336025 -0.149267 -0.089038 0.071858 -0.239936 -0.643623 -0.198321 0.239925 -0.084674 -0.158047 0.528792 -0.129876 -0.509335 0.143167 0.214015 -0.017561 -0.280680 -0.056909 -0.072719 -0.372701 -0.250735 -0.283306 0.011862 -0.370898 0.239836 0.363963 0.089878 -0.036000 -0.034670 0.159867 -0.301115 -0.263517 -0.216420 0.201095 0.321486 -0.274044 -0.408222 -0.039816 0.173034 -0.164756 -0.142340 0.210418 0.090307 -0.227190 -0.098811 0.024533 0.239578 0.193530 -0.115240 -0.191627 -0.259122 0.055342 -0.221455 -0.517655 0.028197 -0.103946 0.306539 0.267208 -0.090040 0.668002 0.040385 -0.079785 0.399659 0.190949 0.161755 -0.225789 0.427545 -0.045427 0.791902 0.310385 0.008215
NONHSAT054716.2 0.226339 -0.227078 -0.002863 0.288559 0.146086 0.062620 -0.063497 0.354179 -0.054437 0.004230 -0.177990 0.123747 -0.292742 0.128978 -0.019955 -0.037121 -0.102596 -0.121627 -0.085099 -0.046311 0.011372 0.194042 -0.299201 0.045263 -0.160314 -0.360485 -0.021696 -0.262421 -0.285139 -0.039377 -0.100527 0.153550 -0.322072 -0.081956 -0.285754 -0.401551 0.127281 -0.233068 -0.278496 -0.348695 -0.072096 -0.121722 0.034767 0.100871 -0.262805 0.380158 0.254598 0.189173 -0.142990 0.103892 0.287557 0.149945 -0.499467 0.053928 0.321495 -0.264594 -0.475704 0.524140 -0.061326 -0.220156 -0.092532 -0.191974 -0.572714 -0.079885 0.318969 -0.018038 -0.438782 0.517872 0.070525 -0.276322 -0.114311 0.095131 -0.003686 -0.025048 -0.085019 0.118560 -0.409391 -0.095788 -0.379029 0.039299 -0.018648 0.382821 0.202896 -0.280280 0.143448 0.113285 0.384338 -0.025255 0.172813 0.020094 -0.189253 0.186072 -0.096410 -0.150876 0.095486 0.082139 -0.130393 -0.047995 -0.005442 0.122628 -0.377795 -0.119234 0.053617 0.090763 0.060713 -0.048336 -0.263991 0.100875 -0.207749 -0.125944 -0.166011 -0.011099 0.136812 0.118498 -0.044953 0.083307 0.191304 -0.088510 -0.238002 0.136137 0.179089 0.035884 -0.070024 0.110967 0.382589 0.228713 0.094500 0.035635
NONHSAT139226.2 0.268917 -0.127007 0.088157 0.326886 0.284061 0.482352 -0.209101 0.221561 0.047816 -0.086850 -0.136446 0.218636 -0.197461 -0.136612 0.136585 0.190411 -0.225389 -0.105480 0.024970 0.022915 0.159490 0.267266 -0.253011 -0.119054 -0.242582 0.000579 -0.041163 -0.202480 -0.187940 0.136396 0.205112 0.048400 -0.121423 -0.184092 -0.078968 -0.230677 0.057773 -0.017911 -0.299644 -0.667955 -0.186275 -0.033723 -0.024779 0.294162 -0.576142 0.207019 0.195339 0.161015 -0.157511 -0.113921 0.185193 0.265384 -0.274756 0.020846 0.325433 -0.192260 -0.356616 0.156159 -0.171878 -0.275709 -0.000080 -0.280326 -0.931431 -0.290320 0.190604 -0.135059 -0.635179 0.821006 0.214740 -0.260171 -0.137070 0.090876 0.161031 0.023717 0.157537 0.037240 -0.462606 -0.015642 -0.211774 0.255012 -0.515955 0.417785 0.527066 -0.081383 -0.246829 0.404301 0.342208 0.148728 -0.037179 0.194015 -0.160109 -0.016757 -0.047118 0.433085 -0.167783 0.137153 0.219970 0.155961 0.278000 0.303696 -0.105770 -0.033911 -0.353834 0.311703 -0.170308 -0.016925 -0.077683 -0.169978 0.087863 -0.325963 -0.589988 0.116510 0.038536 0.120815 0.243541 0.063660 0.418483 -0.063860 -0.551441 0.156942 0.419956 -0.187136 -0.135416 0.238597 0.166055 0.064649 0.081054 0.244475
NONHSAT138966.2 0.515739 0.038455 0.384441 0.468101 0.413538 -0.092499 -0.048481 -0.167150 0.019095 -0.153080 0.197580 0.352898 -0.314319 0.337554 -0.099832 0.257319 -0.104539 0.171587 0.081825 0.097125 0.010896 0.423275 0.118917 -0.101711 -0.117714 -0.252239 0.405479 0.174884 -0.275900 0.092215 0.104600 0.198989 0.045174 -0.167105 -0.110070 -0.296368 0.260368 -0.363765 -0.152449 -0.045206 0.259874 -0.106308 -0.231935 0.274801 -0.566352 0.211677 0.236379 0.518480 -0.503962 -0.150494 -0.197304 0.344796 0.266309 0.278985 0.657673 -0.321526 -0.510715 0.439461 -0.049017 -0.501173 -0.575061 0.090249 -0.776442 0.091459 0.179924 0.157597 -0.386236 0.792889 0.199279 0.015606 0.298033 0.287573 0.213195 -0.592827 -0.278444 -0.023974 -0.708491 0.062899 -0.195467 -0.289222 -0.302816 -0.070862 0.465091 -0.195455 -0.062271 0.056580 0.218811 -0.526719 0.276945 -0.027059 0.326796 -0.008944 0.128293 0.098700 -0.125681 -0.189351 -0.354544 -0.414685 0.062513 -0.399311 -0.330687 0.142160 -0.192509 0.098817 -0.064813 -0.014541 0.053473 0.442998 0.020988 0.253314 -0.161868 0.044877 0.177034 0.059724 0.309737 -0.048097 0.211570 0.349558 -0.581037 0.053124 0.192141 0.135412 -0.038193 -0.281237 0.302468 0.206771 0.391706 0.231170
NONHSAT145960.2 0.307611 0.235001 -0.337518 0.124673 -0.031840 -0.045928 -0.078920 0.052078 0.324597 -0.330847 -0.301113 0.307272 -0.383796 0.095804 0.309402 0.295560 -0.062782 -0.135143 -0.237909 0.744517 0.026266 -0.060465 -0.002705 0.286358 -0.516854 -0.039300 -0.242718 0.519043 -0.106088 -0.213683 0.192801 -0.138045 -0.735905 0.142996 -0.295328 0.085151 -0.039565 -0.381504 -0.194653 -0.553273 0.053127 -0.544303 -0.156119 0.240666 -0.506609 0.319809 -0.118234 0.145676 -0.354395 -0.039415 0.193089 0.214545 -0.039696 0.081499 0.675589 -0.347029 -0.599973 0.359619 -0.165542 0.002560 -0.085024 -0.169983 -0.690258 0.099401 0.362824 -0.175636 -0.673359 0.390185 0.194463 -0.347539 -0.197902 0.157551 -0.320034 -0.158223 -0.452109 0.195802 -0.399373 0.137430 -0.379092 -0.030557 -0.290309 0.303192 0.062033 0.125619 -0.112195 -0.223611 0.575410 -0.107865 -0.106056 -0.208034 -0.335083 0.381833 0.189787 -0.134917 0.166060 0.158177 0.035939 0.049597 0.029765 -0.167267 -0.660183 0.011119 -0.060429 -0.048689 0.198699 0.088516 0.066154 -0.147198 -0.055089 -0.202175 0.117939 -0.063490 0.593722 0.259621 0.070162 0.130365 0.086857 0.056238 -0.541538 -0.120629 -0.009321 0.305110 -0.285163 0.369725 0.087924 -0.058397 0.375712 0.218371
NONHSAT060973.2 0.126770 -0.082381 -0.062732 0.108036 0.087132 -0.040023 -0.035608 -0.022388 -0.200052 0.048050 -0.212506 0.022445 -0.174802 0.265726 -0.123827 -0.095097 0.009662 -0.056299 -0.224276 0.151518 0.167956 0.253583 -0.134256 -0.117825 -0.007130 -0.531735 -0.205634 -0.045275 -0.001371 -0.048086 0.153302 0.628529 -0.308580 0.240346 0.010536 -0.165793 -0.304480 -0.198091 -0.163747 -0.422246 0.234493 -0.064342 0.371125 -0.108712 0.037049 0.210974 0.008462 0.374957 -0.304502 0.091760 0.172763 0.480884 -0.084628 0.137908 0.624710 0.019772 -0.170177 0.382476 -0.735496 -0.575657 -0.052425 -0.199715 -0.777996 -0.047169 0.256675 0.062437 -0.218499 0.625253 0.193983 -0.016317 -0.053716 -0.022406 0.096478 0.028107 -0.159444 0.034746 -0.308955 -0.002440 -0.325922 -0.148708 -0.179991 0.401154 0.388400 0.072341 0.103308 0.168787 0.100981 -0.176601 -0.239412 0.096379 0.005739 0.137925 -0.017712 -0.049454 0.173178 0.139143 0.103810 -0.063216 0.076408 0.109319 -0.224601 0.016456 -0.065168 0.131126 0.193523 0.038658 -0.180159 0.128680 -0.230952 -0.062385 -0.196798 0.074451 0.071178 0.200500 0.025708 0.111175 0.316218 0.001009 -0.416869 0.163107 0.159655 -0.091566 -0.105168 0.179778 0.235619 0.212829 0.214599 0.184484
NONHSAT033797.2 0.146403 -0.113839 0.183142 0.149225 0.322012 0.185292 -0.090195 0.261787 -0.004088 0.129895 -0.027166 0.001610 -0.204729 -0.118266 -0.108880 0.155395 -0.202021 0.058148 -0.050904 0.134515 0.116328 0.219671 -0.025202 -0.134796 -0.084397 0.003602 -0.015193 -0.313638 -0.030491 -0.121321 0.165575 0.238668 -0.223008 0.001894 -0.062994 -0.238389 0.078611 -0.224101 -0.415870 -0.467268 -0.028097 -0.207734 -0.001645 0.102042 -0.508972 0.154933 0.094505 0.222669 -0.213718 0.009116 0.337305 0.287462 -0.382939 0.180879 0.441569 -0.178786 -0.450376 0.364872 -0.268538 -0.207917 -0.093198 -0.398734 -0.605780 -0.108364 -0.241571 0.480201 -0.104071 0.482983 -0.328381 -0.058527 -0.365850 0.332657 -0.161381 0.167436 0.073111 0.058729 -0.270158 -0.319944 -0.411891 -0.139708 -0.269191 0.347458 0.368427 0.037313 0.439571 0.078843 0.617450 -0.313890 -0.008645 0.100030 -0.079044 0.392325 -0.153968 0.269631 -0.122331 0.136520 0.012735 0.071623 0.164448 0.438126 -0.397260 -0.211121 0.235498 0.175365 -0.046773 0.144200 -0.331788 0.328883 -0.141275 -0.437478 -0.271704 0.100389 0.186892 0.105635 0.006704 -0.293061 0.410632 -0.041963 -0.486828 -0.093922 -0.106839 -0.150621 -0.082224 0.084631 0.016623 -0.001922 0.717976 0.331653
NONHSAT001050.2 0.294406 -0.142637 -0.122541 0.370277 0.218738 -0.010971 -0.220752 0.147557 0.007786 -0.352321 -0.349105 0.208029 -0.282784 0.095894 0.060969 -0.030589 -0.150618 -0.238758 -0.176324 -0.059994 0.218250 0.229632 -0.082879 -0.052160 -0.005574 -0.035898 -0.182029 -0.210828 -0.051836 -0.043337 -0.012131 0.198008 -0.424928 -0.008118 -0.126628 -0.330833 0.119426 -0.291145 -0.370715 -0.393464 0.047586 0.069858 -0.049154 -0.000792 -0.365952 0.238763 0.202177 0.172655 -0.431159 -0.015882 0.264400 0.163045 -0.374044 0.105504 0.418751 -0.341919 -0.279216 0.634938 -0.123690 -0.107452 -0.024496 -0.195150 -0.537522 -0.046676 0.260761 0.000905 -0.289065 0.649459 0.091350 0.080309 0.011054 0.192469 0.222560 -0.045310 -0.054249 0.209572 -0.371746 -0.162212 -0.258572 -0.081105 -0.101030 0.431616 0.382151 0.044910 0.023663 -0.014728 0.260939 -0.064171 -0.332538 0.028591 -0.100670 0.086702 0.087452 -0.144896 0.287536 0.008232 0.107291 -0.104419 0.042980 0.067457 -0.225514 -0.007097 0.036736 -0.029263 0.183203 0.000057 -0.190204 0.236304 0.020687 -0.086493 -0.327102 0.113867 0.009130 0.126766 -0.084184 -0.016071 0.359863 -0.016155 -0.348088 0.063218 0.275424 0.042618 -0.178126 0.081145 0.252751 0.092420 0.103081 0.112346
NONHSAT092772.2 0.227168 -0.180211 -0.175663 0.185022 0.214811 -0.076182 -0.059549 0.205256 -0.222148 -0.473666 -0.371195 0.133921 -0.223266 0.266746 0.017479 0.070097 0.087008 -0.116867 0.008816 0.105392 -0.052764 0.399844 -0.274434 0.086871 -0.177484 0.079449 -0.008461 -0.314014 0.078519 -0.026404 -0.332404 0.052912 -0.304512 0.115263 0.001019 -0.352334 0.129152 -0.066904 -0.390842 -0.410193 0.084263 0.019400 -0.125507 0.044541 -0.176127 0.337883 0.306784 0.379901 -0.371820 -0.043168 0.283168 0.464109 -0.142511 0.054267 0.487854 -0.268513 -0.150589 0.414323 -0.162689 -0.292741 -0.018321 -0.208138 -0.639624 -0.358178 0.334394 -0.119473 -0.405348 0.553118 0.163614 -0.266343 -0.074948 0.103364 0.005619 -0.108186 0.046261 0.063350 -0.297386 -0.063207 -0.204880 -0.263151 0.003238 0.259239 0.244705 -0.062395 -0.172680 0.168952 0.331749 -0.079969 -0.304724 0.147421 0.027861 0.275568 0.007347 -0.141510 0.002990 0.047495 0.020131 -0.104160 0.037489 0.114972 -0.337833 -0.150692 0.270378 0.048901 -0.071822 -0.023059 -0.306048 0.099922 -0.022730 0.002977 -0.058531 0.065987 0.164072 0.296516 0.094293 -0.027641 0.250501 -0.243015 -0.364019 0.224518 0.215825 -0.055893 -0.195287 0.170468 0.086971 0.293410 0.241835 0.158435
NONHSAT060501.2 0.252240 -0.331610 -0.078863 0.356457 0.302483 0.160620 0.097526 0.313980 -0.122433 -0.197210 -0.176430 0.248799 -0.257613 0.134439 0.015158 -0.004881 0.002250 -0.006107 0.159987 -0.053133 0.179755 0.312707 -0.095136 0.201146 -0.160184 -0.140166 -0.025090 -0.374296 -0.224930 -0.104764 -0.196985 0.262803 -0.318478 -0.030643 -0.376124 -0.296824 -0.092263 -0.351236 -0.179370 -0.162279 -0.137693 -0.286641 0.093316 0.090883 -0.394596 0.307040 0.154018 0.238240 -0.315669 -0.001347 0.203233 0.080688 -0.117766 0.001816 0.287045 -0.343280 -0.282687 0.490445 -0.311827 -0.164596 -0.197461 -0.251062 -0.595172 -0.307086 0.273866 0.005115 -0.380983 0.592250 0.044880 -0.193621 -0.202887 0.000235 0.060298 -0.007043 -0.034401 0.066255 -0.222806 -0.133358 -0.424269 -0.016025 -0.168263 0.163312 0.375106 -0.160505 0.010973 0.104685 0.322386 0.036795 0.012171 0.121850 -0.059261 0.159412 -0.023449 -0.067811 0.112159 0.021564 -0.132596 0.030451 0.087431 0.168533 -0.224394 -0.113595 0.060415 0.011868 0.108303 -0.093722 -0.297788 0.046840 -0.071207 -0.055408 -0.228175 0.090953 0.153404 0.284519 -0.013770 -0.044176 0.148899 -0.111178 -0.312976 0.157614 0.259122 -0.011832 -0.245128 0.099536 0.225846 0.180605 0.242814 -0.035138
NONHSAT031489.2 0.111042 -0.111177 0.294084 0.096462 0.232708 0.122057 -0.118122 0.378010 -0.041803 0.040164 -0.008621 -0.116733 -0.205500 -0.064704 -0.164546 0.098109 -0.232821 -0.037009 -0.001343 0.298565 0.172700 0.133142 0.064328 0.026659 -0.184860 -0.052286 -0.082976 -0.282659 -0.083158 -0.043161 0.147996 0.224933 -0.267156 -0.099395 -0.151296 -0.454467 0.075273 -0.232623 -0.399076 -0.333341 0.051651 -0.172101 -0.076692 0.140014 -0.350495 0.306096 0.210813 0.279114 -0.229337 0.110189 0.364047 0.118380 -0.337224 0.218103 0.544402 -0.187702 -0.432411 0.321406 -0.333466 -0.079257 0.036706 -0.244077 -0.527142 -0.187748 0.278223 0.005240 -0.317401 0.493854 0.031922 -0.236497 -0.143032 0.110916 0.238505 -0.023903 -0.086804 0.155955 -0.404451 -0.169623 -0.349042 -0.021439 -0.096766 0.521753 0.280299 -0.248836 0.050408 0.156190 0.254174 -0.140574 0.077939 -0.147429 -0.071118 0.138717 0.077403 -0.090944 0.102791 0.204313 0.036767 -0.001271 0.111740 -0.000895 -0.438442 -0.173526 0.033276 0.047017 0.059350 0.028555 -0.350577 0.141342 -0.277701 -0.110281 -0.090924 0.015884 0.070799 -0.039279 0.095963 0.127393 0.332540 0.050005 -0.271203 0.147298 0.102288 0.114249 -0.044109 0.204405 0.381790 0.149220 0.098229 0.004087
NONHSAT145225.2 0.313393 -0.297576 0.376347 -0.226308 0.192773 -0.036666 -0.191222 0.219359 -0.120875 -0.314312 -0.044339 0.069027 -0.189284 0.292327 0.055254 -0.022408 -0.248328 -0.165378 -0.044476 0.553228 0.158398 0.192607 0.080577 0.309335 -0.335326 0.052945 -0.051292 -0.155563 -0.045909 -0.006154 0.153659 0.262964 -0.343993 -0.075012 -0.179543 -0.438679 0.334004 -0.079831 -0.377930 -0.124921 0.146029 -0.232026 -0.118581 -0.141581 -0.296621 0.390661 0.336296 0.246095 -0.186051 0.142582 0.498992 0.466550 -0.143715 0.229112 0.540364 -0.066119 -0.328036 0.074183 -0.502804 -0.192128 0.150562 -0.360445 -0.637777 -0.367321 0.336490 -0.053070 -0.436803 0.439752 0.192875 -0.323059 0.035605 0.124328 -0.029390 -0.043430 0.031814 -0.005307 -0.322853 -0.140595 -0.240278 -0.060349 0.039376 0.454531 0.230287 -0.158436 -0.030549 0.072721 0.400313 -0.106983 0.216910 -0.107211 -0.130650 0.164320 0.045909 -0.109693 -0.035056 0.082303 -0.053339 -0.022008 0.115558 0.229781 -0.484184 -0.223651 0.092125 0.124241 0.152923 0.011950 -0.308980 0.128115 -0.187608 -0.065319 -0.134105 -0.083837 0.268044 0.051239 -0.044326 0.276505 0.287447 0.039681 -0.244468 0.281089 0.157037 0.092147 -0.008818 0.142187 0.238633 0.246585 0.100903 0.016612
NONHSAT000825.2 0.198040 -0.022167 0.012822 0.169600 0.149850 -0.038615 -0.012093 0.371212 -0.154398 -0.330412 0.037341 -0.195651 -0.231320 0.155819 -0.019203 0.139245 -0.217178 0.029154 0.135561 0.244361 -0.037883 0.466949 -0.178194 0.112051 -0.165478 0.203496 -0.026382 -0.209978 -0.016201 0.092545 -0.016195 0.273605 -0.190999 0.015846 -0.174736 -0.200156 0.091388 -0.036643 -0.280049 -0.462721 0.308584 -0.085741 0.031884 0.278485 -0.239632 0.386085 0.280842 0.205461 -0.353073 0.015898 0.282669 0.181007 -0.241785 -0.006036 0.658582 -0.347934 -0.188491 0.415517 -0.234829 -0.061990 -0.245457 -0.166565 -0.488543 -0.514513 0.302776 -0.144001 -0.310331 0.589081 0.064515 -0.184734 -0.183525 0.073566 0.138832 0.005179 0.015601 0.180962 -0.347995 -0.144243 -0.178196 -0.239211 -0.067706 0.297797 0.316860 -0.126079 -0.246680 0.062796 0.347415 -0.072481 -0.291103 0.098473 0.035472 0.195039 0.075830 -0.051080 -0.080842 0.012564 0.083484 -0.068504 0.106096 0.121170 -0.340189 -0.079406 0.104817 0.172361 -0.029330 0.022132 -0.327974 0.138537 -0.048918 -0.074765 -0.130376 0.138090 0.204025 0.156260 0.070390 0.076421 0.282671 -0.152880 -0.268620 0.209072 0.185014 -0.041677 -0.301789 0.267982 0.093414 0.346680 0.226539 0.166596
NONHSAT044002.2 0.317885 -0.120993 0.003535 0.298157 0.229506 0.028093 -0.217764 0.279428 -0.018642 -0.086806 -0.309385 0.058855 -0.226021 0.097358 0.069923 -0.043302 -0.257790 -0.144353 -0.123704 -0.059934 0.118205 0.175446 -0.213449 -0.104603 -0.079798 -0.183574 -0.101810 -0.290585 -0.208188 0.029815 0.028448 0.159725 -0.233246 -0.054284 -0.116502 -0.367598 0.093772 -0.211745 -0.273566 -0.376186 0.017262 0.075357 -0.025594 0.031103 -0.453864 0.431951 0.290461 0.149654 -0.296351 0.055028 0.231442 0.178894 -0.531025 0.141691 0.441387 -0.246286 -0.441047 0.508009 -0.140586 -0.126661 -0.046262 -0.253667 -0.619814 -0.131726 0.264896 0.035227 -0.393738 0.643651 0.083082 -0.130022 -0.143667 0.260214 0.162177 0.036069 -0.069989 0.076411 -0.423707 -0.137888 -0.277130 -0.159284 -0.115104 0.260380 0.361855 -0.029533 0.088175 0.035029 0.198799 0.026403 -0.177671 0.046484 -0.325254 0.120272 -0.062089 -0.144679 0.047483 0.156493 0.040254 -0.050911 0.088072 0.089062 -0.147230 -0.096107 0.158428 0.098424 -0.029463 0.003371 -0.125564 0.054292 -0.034504 0.001944 -0.170373 0.075055 0.068872 0.272173 -0.000601 0.061884 0.319811 -0.241581 -0.316211 0.172202 0.181552 -0.071069 -0.204667 0.047460 0.196268 0.295496 0.139261 0.066145
NONHSAT097093.2 0.183521 -0.253391 0.058392 0.294009 0.191954 0.121831 0.050596 0.343634 -0.118209 0.098537 -0.211032 0.235211 -0.303422 0.050703 -0.191707 0.188292 -0.055105 0.034717 -0.027924 0.049532 0.166616 0.110148 0.013873 0.211028 -0.101219 -0.307002 -0.058352 -0.262114 -0.123336 0.027641 0.121457 0.339390 -0.410449 -0.056487 -0.295140 -0.306017 -0.178678 -0.422386 -0.033399 -0.221473 -0.105381 -0.317938 -0.119838 0.131492 -0.276201 0.305320 0.124130 0.326718 -0.309293 0.070138 0.235030 -0.016596 -0.189150 0.100833 0.280010 -0.352222 -0.293959 0.729278 -0.291898 -0.245808 -0.012302 -0.279268 -0.376846 -0.203937 0.275180 0.045988 -0.352962 0.613185 0.038084 -0.133770 -0.247812 0.076727 0.085555 -0.000649 -0.033418 0.033506 -0.331491 -0.065445 -0.459536 0.000664 -0.181069 0.174533 0.266507 -0.163937 0.088602 0.193012 0.256445 -0.038376 -0.073948 0.051859 -0.131779 0.138425 -0.071852 -0.045425 0.145899 0.032998 -0.098197 -0.070909 -0.057210 0.127946 -0.239099 -0.086187 0.062031 0.000452 0.147718 -0.054555 -0.269681 0.020944 -0.142891 -0.123541 -0.163560 0.011685 0.152190 0.290287 -0.012448 -0.026978 0.213495 -0.172728 -0.278982 0.106850 0.211333 -0.043975 -0.167324 0.054000 0.206317 0.244665 0.168064 0.086955
NONHSAT115059.2 0.038331 -0.057337 -0.099517 0.100535 0.096241 0.062310 -0.461728 0.300220 0.039228 -0.324127 -0.418596 0.450335 -0.461518 0.225871 0.196336 0.163497 -0.060018 0.416439 -0.129601 0.311274 -0.042311 0.273939 0.038565 0.201074 -0.459228 0.255177 0.268350 -0.369377 -0.042249 -0.368679 0.456897 0.449171 -0.031044 -0.277963 -0.219557 -0.299648 -0.201601 -0.061584 0.107923 -0.199759 0.127666 0.066203 0.193275 0.043377 -0.561087 0.465588 -0.201368 0.737476 -0.296646 0.151889 -0.069753 0.218862 -0.165187 -0.242917 0.117565 0.045295 -0.513107 0.494869 0.023832 -0.023306 -0.023688 -0.010108 -0.997888 0.191906 0.206769 0.053790 -0.396283 0.835007 0.143494 -0.124789 -0.146846 0.208579 0.112579 -0.045929 -0.140732 0.055411 -0.369479 -0.099781 -0.252412 -0.074587 -0.049645 0.316489 0.259497 -0.029186 0.114101 0.232417 0.035706 0.068562 -0.279646 0.184746 -0.293648 0.271569 -0.127072 -0.152134 0.066404 0.279089 0.108994 -0.140974 -0.101683 0.134441 -0.190687 -0.043241 0.219166 0.037948 -0.254422 -0.131484 -0.112154 -0.059694 -0.122134 -0.081176 -0.067496 -0.025876 -0.044919 0.285740 -0.056850 -0.004606 0.285484 -0.287688 -0.376605 0.148462 0.257304 -0.171701 -0.291557 0.042159 0.269643 0.516380 0.122895 0.114172
NONHSAT007667.2 0.130451 0.012462 -0.145798 0.198434 0.258079 -0.002494 -0.329843 0.115743 0.137817 -0.190678 -0.020887 0.102240 -0.320422 -0.282110 0.054163 0.173846 0.001983 -0.085688 -0.250255 -0.193314 -0.122414 0.298028 -0.031190 -0.121688 -0.046510 -0.195144 -0.109930 -0.331310 0.200639 -0.121673 0.003478 0.261925 -0.410995 0.119064 0.060660 -0.167044 0.044660 -0.138826 -0.446780 -0.462617 0.118316 -0.163595 0.002732 0.062558 -0.342177 0.048553 -0.030542 0.012984 -0.570534 -0.120712 0.252754 0.352432 -0.353791 0.056521 0.421054 -0.286981 -0.418816 0.649108 -0.201802 -0.056324 -0.382471 -0.382674 -0.700845 0.167725 0.365554 -0.052647 -0.364948 0.396546 0.306314 -0.459295 -0.086435 -0.142644 0.302136 -0.004295 -0.264411 0.174636 -0.560481 0.031301 -0.190758 -0.090118 -0.214563 0.699157 -0.129875 -0.077065 -0.145534 -0.101564 0.196071 -0.097305 0.261844 0.146307 -0.204441 -0.009773 0.257055 -0.058577 0.305770 0.045021 -0.121811 -0.198750 0.167440 0.055823 -0.393037 -0.180658 -0.204328 0.406785 -0.180337 0.014995 -0.376183 0.317856 -0.485361 -0.271921 -0.372586 0.151067 -0.389529 0.501072 -0.258570 -0.018317 0.191285 -0.183779 -0.383811 0.110248 -0.162644 -0.219821 0.152778 -0.014835 0.105882 0.405997 0.460150 -0.114186
NONHSAT006360.2 0.122020 -0.163917 0.109714 0.283209 0.215510 0.344267 -0.086660 0.424954 -0.150426 -0.027972 -0.089092 -0.049509 -0.243522 0.107127 -0.119066 0.164153 0.029992 0.139394 0.044965 0.042815 0.201476 0.281360 -0.220479 -0.019138 -0.089225 -0.290107 0.052506 -0.422761 -0.218134 -0.036052 0.070498 0.307149 -0.333653 -0.067774 -0.238812 -0.380565 -0.200588 -0.250697 -0.270275 -0.355855 -0.058182 -0.273136 0.165458 0.208257 -0.380554 0.224907 0.172549 0.488431 -0.113959 0.029174 0.257406 0.040966 -0.327964 0.031006 0.296110 -0.184331 -0.487014 0.390341 -0.138553 -0.124621 -0.104127 -0.192811 -0.498385 0.010864 0.293708 -0.016195 -0.392307 0.687729 0.021628 -0.246071 -0.233025 0.086090 0.215757 0.095621 -0.064827 -0.075874 -0.285585 -0.190280 -0.402515 0.023181 -0.161718 0.200796 0.241448 -0.121426 0.164397 0.123761 0.218885 -0.047554 -0.087457 0.003835 -0.180951 0.157256 -0.115064 -0.033573 0.009800 0.129865 -0.054683 -0.025110 0.020829 0.242520 -0.270570 -0.034315 -0.007899 0.077414 0.004261 0.018836 -0.221849 0.050458 -0.192933 -0.032272 -0.122869 -0.059790 0.127974 0.360320 0.027499 -0.006514 0.238101 -0.219966 -0.229473 0.120750 0.263023 0.000298 -0.163672 0.030146 0.202803 0.163919 0.186715 0.210496
NONHSAT112849.2 0.089398 -0.172626 0.143918 0.207238 0.251014 0.155130 -0.076573 0.262353 0.003421 0.042990 -0.083983 -0.121400 -0.319932 0.014532 -0.039242 0.079189 -0.075523 0.015375 0.016980 0.045568 0.047961 0.285223 -0.189979 0.017712 -0.159057 -0.068866 -0.078405 -0.318057 0.014056 -0.200063 -0.061429 0.217224 -0.362022 0.063258 -0.057486 -0.235613 0.038790 -0.191478 -0.470635 -0.470793 -0.156911 -0.174500 -0.195790 0.174681 -0.343189 0.081146 0.160694 0.426247 -0.146741 -0.058084 0.343238 0.307437 -0.260071 0.056761 0.193580 -0.224867 -0.475567 0.423681 -0.232076 -0.390189 -0.083873 -0.342453 -0.524689 -0.075929 0.292530 0.024006 -0.407154 0.542585 0.089358 -0.198744 -0.162633 0.023781 0.272051 0.014376 -0.001003 0.094590 -0.255838 -0.203362 -0.443636 0.039239 -0.216306 0.376443 0.342768 -0.187394 0.152494 0.110451 0.192936 -0.208090 -0.156572 0.022673 -0.051791 0.139727 -0.040498 0.026639 0.102955 0.178865 -0.034395 -0.048295 -0.036345 0.147161 -0.261896 0.001231 0.043732 -0.091590 0.097846 0.066728 -0.232550 0.113136 -0.145687 0.013688 -0.124549 -0.023083 -0.013983 0.275663 0.093883 -0.094630 0.304954 -0.108169 -0.354037 0.119204 0.127553 0.063336 -0.243206 0.137691 0.115416 -0.007202 0.140696 0.067696
NONHSAT123136.2 0.101533 -0.158237 -0.008293 0.022543 0.148642 -0.108166 -0.046605 0.165606 0.034294 0.001553 -0.168616 -0.046813 -0.333986 -0.023417 -0.065360 0.220159 -0.107520 -0.016057 -0.010776 0.052964 -0.046048 0.287958 -0.029167 0.083510 -0.063192 0.083514 -0.089934 -0.325166 0.111654 -0.104381 -0.119567 0.309859 -0.416443 0.121855 -0.079277 -0.163636 0.276414 -0.209977 -0.424642 -0.436711 0.039131 -0.099043 -0.256739 0.180916 -0.239098 0.173168 0.003255 0.379005 -0.368761 -0.018233 0.291881 0.279088 -0.332807 0.157528 0.170757 -0.451901 -0.473515 0.673614 -0.129297 -0.418300 -0.088972 -0.389742 -0.422030 -0.012039 0.217430 -0.170817 -0.192339 0.517794 -0.124109 -0.445786 0.078210 0.208741 -0.013616 -0.308442 -0.050817 0.001199 -0.377246 -0.263339 -0.284706 0.120563 -0.379636 0.248063 0.307685 -0.134245 0.025075 -0.090795 0.331651 -0.304247 -0.376638 -0.213151 0.416725 0.359894 -0.296569 -0.409112 -0.025096 0.100194 -0.316525 -0.204416 0.146529 0.144504 -0.228426 -0.065039 -0.095650 0.229449 0.139066 -0.149601 -0.243960 -0.278235 0.020957 -0.323241 -0.577715 0.096863 -0.070472 0.278222 0.315756 -0.230818 0.646805 -0.041408 0.039823 0.269278 0.112114 0.144391 -0.311182 0.436012 -0.049336 0.706122 0.408540 -0.157688
NONHSAT102816.2 0.356651 -0.387776 -0.132242 0.216582 0.246889 -0.039138 0.056898 0.275099 -0.103770 -0.209654 0.010808 0.370002 -0.537691 -0.082479 -0.033089 0.204427 -0.049315 -0.068328 -0.025544 0.197448 0.100017 0.118127 -0.164650 0.143608 -0.222097 -0.029506 0.220973 -0.013283 -0.119868 0.062234 -0.184759 0.459222 -0.356591 -0.206096 -0.195222 -0.283000 -0.173968 -0.222929 0.028979 -0.056062 0.081474 -0.076446 -0.049905 0.103503 -0.331468 0.470108 0.108687 0.293155 -0.311619 0.048333 0.297596 0.038898 -0.214123 0.105742 0.182174 -0.316718 -0.195443 0.596290 -0.393171 -0.041349 -0.236176 -0.332751 -0.708229 -0.487125 0.199379 0.017255 -0.353209 0.629132 0.078789 -0.184029 -0.187919 0.029523 0.052066 0.035951 -0.055449 0.030011 -0.357259 -0.053218 -0.358910 -0.163219 -0.039851 0.229341 0.354289 -0.079168 -0.015716 0.158294 0.221304 0.069463 -0.101147 0.143741 -0.114124 0.160316 0.016659 -0.115493 0.139003 0.101587 0.028440 -0.149306 -0.048277 0.099047 -0.165221 -0.040791 0.161283 0.088122 0.110668 -0.096116 -0.188696 0.058248 -0.010952 -0.089949 -0.187538 0.025687 0.119746 0.258599 -0.027776 -0.032703 0.296604 -0.185711 -0.354767 0.113801 0.210086 -0.126676 -0.315626 0.119344 0.196490 0.399377 0.132707 0.063249
NONHSAT124481.2 0.301493 -0.105004 -0.180376 0.487018 0.246380 -0.008889 -0.274917 0.451105 -0.120113 -0.350241 -0.374699 0.235153 -0.029209 0.086368 -0.279346 -0.067111 -0.215351 0.383907 -0.208910 0.098038 0.372663 -0.214505 0.086350 -0.312827 -0.504402 0.181928 0.013653 0.124533 0.546005 -0.047796 0.081275 0.579915 -0.207308 -0.169146 -0.359326 -0.001484 -0.077237 -0.368727 -0.493744 -0.488023 -0.292762 -0.062122 -0.001593 0.278546 0.036596 0.434547 0.032889 0.132025 -0.219482 -0.059343 0.019666 0.180901 -0.449560 -0.333984 0.511295 0.049285 -0.292784 0.303653 -0.281970 -0.255865 -0.255520 -0.476627 -0.401078 -0.211745 0.426649 0.357502 -0.094595 0.508016 0.283179 -0.382639 0.063932 -0.066681 0.091916 -0.061400 -0.124761 0.001780 -0.530033 0.100578 -0.356697 0.210670 -0.325686 0.102237 0.775542 0.226185 -0.004710 0.000926 0.212067 -0.092429 -0.217653 0.153269 0.248440 -0.104856 0.163994 -0.172883 0.475351 -0.067168 -0.160913 0.197623 0.185026 -0.022937 -0.327989 -0.215022 0.384851 -0.157915 0.025608 0.036725 -0.175181 0.390631 -0.296212 -0.133251 0.260234 0.022368 -0.194677 0.192045 0.280806 0.112037 0.369334 0.139587 -0.309111 0.232006 -0.211880 0.339672 -0.063940 0.312400 0.295868 -0.122571 0.012003 0.061593
NONHSAT137571.2 0.328149 -0.025533 0.177015 0.248798 0.259553 0.095351 0.073153 0.263850 -0.041636 0.086107 -0.022747 -0.054929 -0.171171 -0.151904 -0.104743 0.090470 -0.197122 0.001981 0.040720 0.251805 0.202711 0.058620 -0.079124 -0.063761 -0.189526 0.025120 0.009795 -0.381820 -0.033589 -0.079118 0.136662 0.263817 -0.160978 -0.090116 -0.064504 -0.317613 -0.071825 -0.279050 -0.380794 -0.505867 0.068407 -0.165210 -0.073050 0.128404 -0.364724 0.437466 0.149865 0.387233 -0.158563 0.131856 0.247114 0.063359 -0.221323 0.253469 0.501252 -0.379137 -0.429190 0.358264 -0.317520 -0.071582 -0.046851 -0.248607 -0.490264 -0.095294 0.248806 -0.038025 -0.250448 0.596492 0.011793 -0.098862 -0.201688 0.052338 0.204430 -0.096247 0.029375 0.101237 -0.384193 -0.194488 -0.486731 -0.081533 -0.170662 0.315408 0.293617 -0.133152 0.111496 0.079959 0.193924 -0.085716 -0.094675 -0.014312 0.036808 0.018387 -0.012358 -0.009648 0.050045 0.167102 0.049148 -0.106886 0.107117 0.004416 -0.299127 -0.130833 0.098546 0.058472 0.147952 0.044167 -0.219463 0.128500 -0.120710 -0.131392 -0.080370 0.005888 -0.024048 0.148155 -0.027364 -0.065265 0.208951 -0.187684 -0.358861 0.203175 0.245642 -0.029127 -0.114340 0.252794 0.174547 0.078319 0.160780 0.048954
NONHSAT021854.2 0.807571 0.138242 -0.019501 0.193160 0.229136 -0.570356 0.080324 -0.178772 0.261936 0.259717 -0.141433 0.274969 0.224796 -0.127488 0.004095 0.000798 -0.033352 -0.196491 -0.266038 0.109463 0.130676 -0.295414 0.083773 -0.339303 -0.215206 -0.196772 -0.240038 -0.100223 0.067888 0.114965 0.314850 0.374949 -0.021116 0.262087 0.156576 -0.205926 -0.083354 -0.295445 -0.637868 -0.288361 0.290012 -0.066075 0.191230 0.212188 -0.444067 0.598664 0.507358 0.323690 -0.332984 0.330246 0.449727 0.499889 -0.583048 0.342040 0.633869 -0.448408 -0.243845 0.288636 -0.425836 0.316561 -0.226174 -0.459205 -0.817930 -0.148045 0.115284 -0.298850 -0.079214 0.805982 -0.136752 -0.290851 -0.041202 0.245417 -0.182559 0.099554 0.120450 0.079302 -0.098812 0.297280 -0.654005 -0.055357 -0.220878 0.375641 0.271691 -0.318149 -0.132455 0.074077 0.489286 -0.294831 -0.091048 -0.054300 0.116181 0.029137 -0.085547 0.015813 0.182115 0.330739 -0.011022 -0.210303 -0.060742 0.310045 -0.207766 -0.176107 0.376266 -0.038505 0.229278 -0.152952 -0.113236 0.300688 -0.467416 -0.256350 -0.174260 0.196670 0.232813 0.391599 0.276801 0.366972 0.051069 -0.472585 -0.446075 0.495301 0.295776 0.150835 -0.246077 -0.171288 0.140764 0.141741 0.073045 0.193725
NONHSAT052808.2 0.138393 -0.380690 0.197914 0.128667 0.156759 0.268943 -0.188368 -0.216391 0.120903 -0.173597 -0.166435 0.461011 -0.120615 0.267033 0.102495 0.001531 -0.198825 0.068582 -0.294494 0.151316 0.194495 0.288603 0.354365 -0.111253 0.116223 0.191306 -0.128375 -0.261275 0.288989 -0.406825 0.150524 0.261810 -0.749947 -0.448072 -0.004499 -0.179294 0.378695 -0.564820 -0.389000 -0.254265 0.401128 -0.002744 0.186322 -0.166340 0.043524 -0.262313 0.101187 0.438918 -0.322742 -0.158865 0.491709 0.270377 -0.202002 0.135561 0.328177 0.098892 -0.255145 0.655180 -0.045770 -0.109306 -0.466192 -0.380025 -0.565231 0.244896 0.600755 -0.039900 -0.309409 0.522121 0.204264 -0.348921 0.353448 0.195390 0.273290 0.265594 -0.076761 0.212205 -0.006276 0.094117 -0.602949 -0.146499 -0.121359 0.162308 0.549119 0.112286 0.137758 0.007428 0.255759 -0.320903 -0.002237 -0.300650 -0.015056 -0.452598 -0.034841 -0.134735 0.221336 -0.151661 0.078274 0.009543 -0.157719 -0.048657 0.025761 -0.074361 -0.146358 0.136625 -0.047996 -0.398078 -0.536582 0.172572 -0.316668 -0.069465 -0.449320 -0.274656 0.291149 -0.102775 -0.027541 -0.361259 0.054607 -0.093575 -0.458239 0.125817 -0.002480 -0.146738 -0.480961 0.420286 0.104313 -0.049284 0.504685 -0.013505
NONHSAT057058.2 0.414561 -0.207718 0.216144 0.156950 0.239400 0.136825 0.262755 0.344542 -0.084434 0.005099 0.059571 0.336577 -0.261917 -0.174694 -0.135671 0.228294 -0.080987 -0.015450 0.026228 0.275205 0.051475 0.036314 -0.150941 0.055247 -0.227037 0.065473 0.032577 -0.411383 0.083992 -0.055306 0.031884 0.368973 -0.401460 -0.147717 -0.044948 -0.118162 0.168605 -0.544162 -0.350098 -0.322586 0.196620 -0.285618 0.007579 0.053833 -0.132906 0.416740 0.103513 0.315557 -0.297320 -0.035067 0.229362 0.135554 -0.083091 0.110957 0.373938 -0.328283 -0.323176 0.441625 -0.373918 0.094788 -0.186698 -0.381799 -0.509811 -0.105791 0.268268 0.086346 -0.376964 0.599534 0.063401 -0.115115 -0.212196 0.058402 0.059191 -0.051943 -0.031257 0.006282 -0.349864 -0.054018 -0.339597 0.013283 -0.099978 0.206483 0.367278 -0.061433 0.060897 0.084317 0.289561 0.044627 0.050240 -0.089121 0.215206 0.040525 0.028636 0.037698 0.136503 0.199109 0.018993 0.065459 -0.094569 -0.069996 -0.364472 -0.053208 0.125516 0.025058 0.333398 0.167144 -0.385786 0.209672 -0.121982 -0.073493 -0.273573 0.032955 0.145924 0.169224 0.066303 -0.057946 0.181427 -0.142280 -0.256984 0.155225 0.256182 -0.206428 -0.131770 0.159038 0.265988 0.251918 0.161690 -0.002460
NONHSAT033428.2 0.187017 -0.221133 -0.067063 0.090518 0.162091 0.011736 -0.032570 0.386503 -0.143041 -0.196210 -0.059922 -0.030491 -0.469920 0.389804 0.159998 -0.097037 -0.203678 0.043970 0.119151 0.416576 0.065544 0.183715 -0.335146 0.056912 -0.351889 -0.114459 0.219893 -0.189822 -0.196868 -0.085189 -0.034717 0.556673 -0.457232 -0.178242 -0.209886 -0.518898 -0.089953 -0.140218 -0.182119 -0.166865 0.158739 -0.005314 0.294343 0.042891 -0.227698 0.639651 0.210589 0.616042 -0.061496 0.210085 0.219917 0.051438 -0.229519 0.132342 0.231679 -0.213351 -0.466852 0.241866 -0.246815 0.207269 -0.335837 -0.256774 -0.473899 -0.164510 0.187689 -0.101913 -0.242686 0.630931 0.070024 -0.209812 -0.033039 -0.010331 0.110231 -0.036708 -0.022552 0.076248 -0.393586 -0.165184 -0.349557 -0.163163 0.018064 0.286078 0.407978 0.000127 0.127348 0.167531 0.227844 0.075163 -0.183661 0.090095 0.082931 0.141551 -0.026451 -0.080387 0.092956 0.282248 0.018605 -0.008550 0.009452 0.039191 -0.217809 -0.059273 0.199690 0.076124 0.113677 0.082858 -0.175690 0.126205 -0.097669 -0.034601 -0.079016 -0.034645 0.012009 0.206291 -0.040019 -0.074656 0.254657 -0.288445 -0.410889 0.088425 0.392529 -0.113202 -0.288110 0.090321 0.292127 0.267247 0.150023 0.081700
NONHSAT000091.2 0.578640 -0.094672 0.110191 0.444850 0.223562 0.331427 0.202861 0.195796 -0.027367 -0.148465 -0.304079 0.271599 -0.081035 0.231709 0.372394 -0.068092 -0.598558 -0.142178 0.120391 0.175547 0.259435 0.183793 -0.300682 -0.289524 -0.082186 0.319571 -0.004680 -0.235553 -0.375327 -0.199079 0.358900 0.138147 -0.206476 -0.166566 -0.335611 -0.229560 0.133477 -0.302224 -0.080130 -0.508586 -0.247762 -0.170187 -0.008867 -0.016699 -0.735656 0.406487 0.297796 0.241618 -0.198821 0.136863 0.169557 0.389428 -0.265935 0.095525 0.475090 -0.256752 -0.480435 0.153826 -0.209180 -0.404732 0.066921 -0.186488 -0.526019 -0.359417 0.306894 -0.019287 -0.338399 0.669784 -0.027586 -0.094869 -0.144305 0.156926 0.072682 -0.049704 0.002260 0.067929 -0.314070 -0.169292 -0.391825 -0.047322 -0.182631 0.152162 0.307569 -0.185040 0.070313 -0.057425 0.356486 0.016685 -0.086237 -0.056841 -0.231614 0.009210 -0.062681 -0.043043 0.032579 0.105901 -0.034514 0.095605 0.237929 0.097197 -0.295690 -0.231008 0.053858 0.094598 0.059145 -0.000746 -0.199011 0.073362 0.015111 -0.048853 -0.211573 0.134564 0.106444 0.304326 0.030707 -0.047369 0.176984 -0.179547 -0.297250 0.311388 0.253757 -0.056252 -0.144245 0.085528 0.244546 0.076058 0.171411 0.100745
NONHSAT034665.2 -0.003016 -0.389319 0.283454 0.200784 -0.005344 0.367875 -0.178856 0.506415 -0.030939 -0.418396 -0.114248 -0.037793 -0.150844 0.140111 0.088399 0.088288 0.198508 -0.050237 0.137846 0.074955 0.272399 0.319735 -0.498826 -0.034681 0.011104 -0.292799 -0.314091 0.017842 0.350435 -0.027996 0.440506 0.280762 -0.391809 0.126263 -0.400117 -0.002259 -0.023548 -0.103296 -0.090536 -0.287320 0.392153 -0.369799 0.436249 0.105452 -0.479953 0.237871 0.030805 0.709336 -0.683644 0.136394 0.125080 0.189985 0.018392 0.108664 0.683226 0.011804 -0.048215 0.048447 -0.541127 -0.560137 0.107680 0.047979 -0.639721 0.186095 0.077802 0.005282 -0.072245 0.725122 -0.097982 -0.086787 0.222970 -0.035025 -0.111160 -0.119110 -0.312603 -0.067936 -0.540617 -0.124390 -0.585272 -0.320001 -0.075264 0.367611 0.740296 -0.137037 -0.020722 0.204555 0.224690 0.314457 -0.229874 0.091758 -0.260128 -0.280127 0.146132 -0.034625 -0.062116 0.299062 -0.042087 -0.352112 0.162533 0.323372 -0.389355 0.252788 -0.213742 -0.425693 -0.200424 0.122284 -0.089420 -0.028014 -0.295981 -0.077997 0.025532 0.195902 0.032677 0.460297 0.016824 -0.097759 0.397176 -0.106338 -0.236053 0.126766 0.041313 -0.311189 -0.088928 0.292404 0.319335 -0.009177 0.208194 -0.003723
NONHSAT126086.2 0.257052 -0.049195 -0.037020 0.417881 0.120409 0.009209 -0.174251 0.326589 0.034788 -0.148797 -0.110391 -0.171054 -0.187733 0.202741 -0.094808 0.101976 -0.164147 0.139955 -0.030388 0.178389 0.151118 0.238935 -0.234043 -0.004480 -0.056776 -0.092858 -0.068207 -0.152462 -0.172359 0.152723 0.217097 0.240989 -0.248025 -0.034756 -0.324529 -0.151620 -0.060381 -0.096351 -0.266712 -0.604813 0.442880 -0.012438 0.284427 0.218046 -0.200439 0.273639 0.375514 0.356969 -0.291758 0.016440 0.235636 -0.082672 -0.367125 0.128065 0.687998 -0.305270 -0.206783 0.445978 -0.136969 0.015125 -0.051520 0.053955 -0.539611 -0.106111 0.203208 -0.069287 -0.346738 0.772223 0.043598 -0.136743 -0.206972 0.147281 0.161001 0.069264 -0.095629 0.005508 -0.389763 -0.186502 -0.230807 -0.093711 -0.064543 0.346782 0.260002 -0.000088 -0.100416 0.100519 0.066740 0.028319 -0.175371 -0.001604 -0.159932 0.108230 0.020127 -0.011684 -0.039947 0.103387 0.094229 -0.088739 0.150706 0.132833 -0.261964 -0.073088 0.064777 0.169307 -0.022493 -0.022328 -0.217534 0.139751 -0.110265 -0.069220 -0.202974 0.066778 0.066883 0.139335 -0.069237 0.087871 0.359749 -0.096914 -0.227464 0.246102 0.256199 -0.030431 -0.256925 0.153524 0.209361 0.354875 0.197381 0.162643
NONHSAT033970.2 0.019076 -0.367969 0.022441 0.464987 0.203553 0.204291 -0.139534 0.216282 0.038810 -0.009100 -0.102651 -0.219685 -0.400302 0.322382 -0.025333 -0.169368 0.021063 0.099688 0.017014 0.175375 0.240802 0.134253 -0.133045 0.178792 -0.188042 0.044372 -0.061917 -0.218518 -0.076708 -0.175600 -0.018119 0.059560 -0.343516 -0.177274 -0.307054 -0.121823 -0.010940 -0.424226 -0.372523 -0.471337 -0.005829 -0.049105 -0.283120 0.059180 -0.114027 0.189516 0.192625 0.297115 -0.283480 -0.037726 0.148442 0.018924 -0.068360 0.076658 0.570833 -0.423279 -0.517421 0.731730 -0.252645 -0.343157 0.057530 -0.160251 -0.296341 0.040103 0.261162 -0.175747 -0.328623 1.002270 -0.024411 -0.337523 -0.177314 0.325056 0.333437 0.018960 0.200675 -0.040602 -0.356962 0.185409 -0.101589 -0.166282 -0.347565 0.377114 0.054728 -0.142300 0.574434 0.401520 0.122473 -0.346140 -0.104174 0.210685 -0.196139 0.097502 -0.149300 -0.115937 0.245168 -0.110467 -0.032590 -0.304920 0.309454 0.155730 -0.098049 -0.147249 0.294870 -0.175614 -0.002337 0.399910 -0.400149 -0.135963 0.061588 0.106439 -0.255667 0.186350 0.353961 0.485180 -0.360257 0.038811 0.091821 -0.022995 -0.347459 0.113748 0.087090 0.148697 -0.164173 0.335638 0.064533 -0.042165 0.175426 -0.518512
NONHSAT125847.2 0.041982 -0.377675 0.022048 0.462624 0.205187 0.202928 -0.136724 0.238707 0.048024 -0.013921 -0.161884 -0.207722 -0.421480 0.319316 -0.010737 -0.132751 0.016017 0.120849 0.019460 0.188795 0.249770 0.129207 -0.117818 0.157996 -0.216614 0.010967 -0.060868 -0.233752 -0.055936 -0.181282 -0.013798 0.086592 -0.349444 -0.184420 -0.289203 -0.099184 -0.010158 -0.399788 -0.378865 -0.466745 -0.007701 -0.068402 -0.275743 0.054756 -0.143697 0.161991 0.240180 0.289266 -0.264256 -0.048392 0.129704 0.012137 -0.032608 0.085899 0.553962 -0.402711 -0.513630 0.737657 -0.253983 -0.344590 0.020275 -0.139201 -0.305923 0.050975 0.259333 0.005621 -0.359427 0.570224 0.095464 -0.163868 -0.218454 0.085178 0.188656 -0.027901 0.070062 0.153105 -0.367397 -0.184942 -0.422191 -0.024069 -0.187844 0.325114 0.375609 -0.152120 0.122099 0.174225 0.153062 -0.093646 -0.164443 0.022300 -0.045311 0.188257 -0.055530 -0.022532 0.083619 0.168927 -0.127361 -0.063934 -0.003645 0.048287 -0.287808 -0.082529 0.149998 -0.094039 0.099375 -0.016739 -0.246777 0.073017 -0.082595 -0.034399 -0.140200 -0.066302 0.000690 0.260062 0.014451 -0.079593 0.243603 -0.175645 -0.355722 0.160918 0.162023 0.048257 -0.140715 0.155232 0.161727 0.078172 0.164007 0.010663
NONHSAT028415.2 0.072481 -0.085429 0.072413 0.324352 0.182380 0.282688 -0.038209 0.155336 -0.374768 -0.430496 -0.191168 0.145667 -0.092394 0.268553 0.036732 0.373975 -0.174395 0.192869 0.126437 -0.160333 0.198625 -0.155371 0.214833 -0.356588 -0.342854 0.055700 -0.027390 0.590434 0.324318 0.046744 0.072529 0.616164 -0.036438 -0.138185 -0.054785 -0.419036 -0.119894 -0.442217 -0.326914 -0.552591 -0.188473 -0.082913 -0.084025 0.176827 -0.106165 0.387416 0.183867 0.219288 -0.240351 -0.414678 0.222616 0.281835 -0.479304 -0.397970 0.778708 -0.176236 -0.487013 0.421360 -0.575869 -0.230674 -0.873855 0.313409 -0.366770 0.054961 0.395680 0.278848 0.013427 0.480409 -0.147089 -0.363091 0.041882 0.135288 0.183603 -0.262377 -0.049103 0.142702 -0.409984 -0.067858 -0.371413 0.010426 -0.474814 0.303647 0.621586 -0.048752 0.145801 -0.190446 0.149811 -0.121758 -0.254811 -0.128965 0.243935 0.065154 -0.089504 -0.337558 0.409603 0.126971 -0.112178 -0.114135 0.199428 -0.201747 -0.393093 -0.042422 -0.069017 0.133388 0.237957 -0.118480 -0.220097 -0.100287 0.007438 -0.159579 -0.535297 0.061464 -0.145736 0.299590 0.245740 0.023996 0.226159 -0.071777 -0.114983 0.077839 -0.036351 0.252944 -0.222689 0.345045 0.082935 0.455856 0.395213 0.131470
NONHSAT072984.2 0.107049 -0.056139 0.236921 0.202964 0.234587 0.360475 -0.036442 0.198772 -0.097822 0.263384 -0.129813 0.150937 -0.347611 -0.146684 -0.253329 0.198301 -0.263865 -0.033468 0.019265 0.079818 0.252812 0.152490 -0.142439 0.008867 -0.282085 -0.139511 -0.083274 -0.135401 -0.217000 0.017052 -0.019786 0.558283 -0.119177 0.130373 -0.155622 -0.061779 -0.287709 -0.336387 -0.161219 -0.617104 -0.087629 -0.365733 -0.150922 0.228148 -0.432024 0.316410 -0.058806 0.186643 0.066260 0.088159 0.015952 0.113810 -0.109316 0.222671 0.402808 -0.244755 -0.329882 0.347374 -0.292847 -0.335709 0.053865 -0.501174 -0.760096 -0.075807 0.180669 -0.058375 -0.164294 0.759714 0.099772 -0.141527 -0.193395 -0.093288 -0.012873 -0.067920 -0.037273 0.117254 -0.101670 -0.233773 -0.330723 0.098181 -0.378484 0.376098 0.492236 -0.313005 0.090625 0.060752 0.069556 -0.139831 -0.193640 -0.049455 -0.194793 0.110351 0.025539 -0.073079 0.106384 0.012045 -0.180211 0.115021 0.092729 0.340593 -0.333018 0.089106 -0.183577 0.136509 0.261999 0.154163 -0.242285 0.056827 -0.296699 -0.078881 -0.100824 0.159202 0.057977 0.156764 0.111354 0.030131 0.564782 0.026735 -0.303581 0.308130 0.216397 0.017507 -0.194033 0.247907 0.144403 0.031648 0.148406 0.120602
NONHSAT070107.2 0.289833 -0.078302 0.056588 0.073220 0.309266 -0.060618 -0.220490 -0.033470 0.067350 -0.220885 -0.038136 0.194353 -0.305024 -0.045974 0.070560 0.187376 -0.066761 0.053454 -0.109101 0.037966 0.161127 0.452629 0.341774 0.056263 -0.087883 -0.078790 -0.008531 -0.329488 0.060297 -0.286041 0.227306 0.337172 -0.407764 0.054006 -0.250681 -0.055956 0.104995 -0.241450 -0.189105 -0.113899 0.077560 -0.637123 0.143904 -0.182877 -0.561318 0.085677 -0.271464 -0.025347 -0.721460 0.045483 0.189206 0.400300 -0.272219 -0.137553 0.540014 -0.133730 -0.576350 0.691739 -0.444632 -0.018488 -0.549051 -0.570975 -0.450984 0.297071 0.294419 0.137218 -0.339877 0.498246 0.087750 -0.096516 -0.089894 0.026108 0.281450 0.056959 -0.070222 0.175449 -0.350892 -0.168516 -0.358802 -0.069761 -0.236002 0.300974 0.398830 -0.065686 0.136413 -0.036594 0.276208 -0.110781 -0.128252 0.018235 -0.001231 0.067574 -0.042090 -0.024783 0.191287 0.188592 0.007326 -0.111339 0.049714 0.060866 -0.272936 -0.006724 -0.047948 0.002393 0.331095 0.061768 -0.174515 0.240129 -0.115485 -0.014728 -0.217031 0.059631 0.096626 0.263148 0.071346 0.001651 0.222873 -0.052049 -0.307965 0.128216 0.087905 0.081841 -0.200441 0.161948 0.123705 0.024663 0.187271 0.060042
